{"learner":{"attributes":{"best_iteration":"57","best_score":"0.6816958327424623","scikit_learn":"{\"_estimator_type\": \"classifier\"}"},"feature_names":[],"feature_types":[],"gradient_booster":{"model":{"cats":{"enc":[],"feature_segments":[],"sorted_idx":[]},"gbtree_model_param":{"num_parallel_tree":"1","num_trees":"88"},"iteration_indptr":[0,1,2,3,4,5,6,7,8,9,10,11,12,13,14,15,16,17,18,19,20,21,22,23,24,25,26,27,28,29,30,31,32,33,34,35,36,37,38,39,40,41,42,43,44,45,46,47,48,49,50,51,52,53,54,55,56,57,58,59,60,61,62,63,64,65,66,67,68,69,70,71,72,73,74,75,76,77,78,79,80,81,82,83,84,85,86,87,88],"tree_info":[0,0,0,0,0,0,0,0,0,0,0,0,0,0,0,0,0,0,0,0,0,0,0,0,0,0,0,0,0,0,0,0,0,0,0,0,0,0,0,0,0,0,0,0,0,0,0,0,0,0,0,0,0,0,0,0,0,0,0,0,0,0,0,0,0,0,0,0,0,0,0,0,0,0,0,0,0,0,0,0,0,0,0,0,0,0,0,0],"trees":[{"base_weights":[9.589143E-3,-4.6552625E-1,1.1596145E-1,-3.5202283E-1,-6.943194E-1,5.5506602E-2,7.5051534E-1,-4.0658876E-1,2.4633123E-2,-2.2781354E-3,-7.622595E-1,-1.3710141E-2,1.9539247E-1,6.2897176E-1,1.1102744E0,4.2978253E-2,-4.6886215E-1,-1.0126622E0,-5.5560726E-1,5.451401E-1,-3.74797E-2,3.3856247E-2,3.5014755E-1,7.5719243E-1,-4.714603E-4,3.1492315E-2,7.239588E-2,2.3377003E-2,-1.8875001E-2,-1.7972296E-2,-3.850514E-2,-6.412649E-2,-1.8406613E-2,-3.6126383E-2,-3.0426967E-3,4.4858254E-2,8.686472E-3,-4.207059E-3,8.42837E-3,-7.575742E-4,3.721358E-2,3.308814E-4,2.3591265E-2,4.5241345E-2,1.2845111E-2],"categories":[],"categories_nodes":[],"categories_segments":[],"categories_sizes":[],"default_left":[0,0,1,1,0,1,1,0,0,0,0,0,0,1,1,0,1,0,1,0,1,0,0,0,0,0,0,0,0,0,0,0,0,0,0,0,0,0,0,0,0,0,0,0,0],"id":0,"left_children":[1,3,5,7,9,11,13,15,-1,-1,17,19,21,23,25,27,29,31,33,35,37,39,41,43,-1,-1,-1,-1,-1,-1,-1,-1,-1,-1,-1,-1,-1,-1,-1,-1,-1,-1,-1,-1,-1],"loss_changes":[9.354623E1,8.442909E0,5.7920456E1,1.0728809E1,4.7744865E0,1.3408237E1,4.872795E0,6.0931435E0,0E0,0E0,4.4667053E0,1.2262612E1,1.140469E1,8.326622E0,4.016655E0,4.9926014E0,5.855419E0,6.9952507E0,4.6133156E0,4.659334E0,8.550817E0,7.9394565E0,9.713552E0,5.8569794E0,0E0,0E0,0E0,0E0,0E0,0E0,0E0,0E0,0E0,0E0,0E0,0E0,0E0,0E0,0E0,0E0,0E0,0E0,0E0,0E0,0E0],"parents":[2147483647,0,0,1,1,2,2,3,3,4,4,5,5,6,6,7,7,10,10,11,11,12,12,13,13,14,14,15,15,16,16,17,17,18,18,19,19,20,20,21,21,22,22,23,23],"right_children":[2,4,6,8,10,12,14,16,-1,-1,18,20,22,24,26,28,30,32,34,36,38,40,42,44,-1,-1,-1,-1,-1,-1,-1,-1,-1,-1,-1,-1,-1,-1,-1,-1,-1,-1,-1,-1,-1],"split_conditions":[4.950495E-1,1.52E2,6.4102566E-1,2.978E0,1.0555556E0,1.39E0,1.2E1,4.392324E-1,2.4633123E-2,-2.2781354E-3,3.11E-1,2.3094688E-1,4E-2,3.55E-1,3.09E0,2.9411766E-1,2.228E0,4E0,2.09E2,1.445E0,5.8214283E-1,7.1428573E-1,6.1728394E-1,1.6E2,-4.714603E-4,3.1492315E-2,7.239588E-2,2.3377003E-2,-1.8875001E-2,-1.7972296E-2,-3.850514E-2,-6.412649E-2,-1.8406613E-2,-3.6126383E-2,-3.0426967E-3,4.4858254E-2,8.686472E-3,-4.207059E-3,8.42837E-3,-7.575742E-4,3.721358E-2,3.308814E-4,2.3591265E-2,4.5241345E-2,1.2845111E-2],"split_indices":[26,17,26,6,3,1,8,15,0,0,5,23,5,5,6,29,6,10,17,2,15,15,26,17,0,0,0,0,0,0,0,0,0,0,0,0,0,0,0,0,0,0,0,0,0],"split_type":[0,0,0,0,0,0,0,0,0,0,0,0,0,0,0,0,0,0,0,0,0,0,0,0,0,0,0,0,0,0,0,0,0,0,0,0,0,0,0,0,0,0,0,0,0],"sum_hessian":[1.8495902E3,3.3755832E2,1.5120319E3,2.2761502E2,1.0994329E2,1.3816456E3,1.3038626E2,2.1440189E2,1.321314E1,1.0720095E1,9.92232E1,9.2442114E2,4.572245E2,9.972181E1,3.0664455E1,2.592767E1,1.8847421E2,4.288038E1,5.634282E1,3.6647762E1,8.877734E2,2.2462337E2,2.3260112E2,8.30184E1,1.6703403E1,1.3961053E1,1.6703403E1,1.2963835E1,1.2963835E1,1.4010915E2,4.8365078E1,2.9417933E1,1.3462444E1,4.1633854E1,1.4708966E1,1.7949924E1,1.869784E1,7.247282E2,1.6304515E2,2.1091162E2,1.3711748E1,6.132891E1,1.712722E2,6.332335E1,1.9695057E1],"tree_param":{"num_deleted":"0","num_feature":"30","num_nodes":"45","size_leaf_vector":"1"}},{"base_weights":[-1.7822101E-3,-3.599321E-1,1.1113096E-1,-7.1232444E-1,-3.026817E-1,5.390649E-2,6.706321E-1,-3.2683685E-1,-9.098923E-1,-4.7639552E-1,-1.8140735E-1,-6.5793665E-3,2.6641265E-1,8.3685243E-1,3.5517934E-1,-3.7154343E-2,3.3007336E-3,-6.0847234E-2,-2.7075062E-2,-6.302861E-1,-2.3596935E-1,-2.54737E-1,2.1800485E-1,-2.7397707E-1,3.909365E-2,1.8145904E-1,7.078374E-1,6.272763E-1,1.128847E0,4.3202862E-2,1.487185E-2,-6.0027767E-2,-2.6776645E-2,1.1720921E-2,-1.8269343E-2,-1.2010392E-3,-2.074527E-2,-4.5553404E-3,4.1960627E-2,-1.7735008E-2,2.2284323E-2,1.8008314E-2,-2.1101181E-5,-2.0386004E-3,1.5250506E-2,1.6016439E-2,4.408705E-2,4.2686544E-2,-5.933668E-3,6.433279E-2,4.0747166E-2,-2.5984524E-2,1.9289643E-2],"categories":[],"categories_nodes":[],"categories_segments":[],"categories_sizes":[],"default_left":[0,1,1,0,0,1,0,1,0,0,0,0,0,1,0,0,0,0,0,0,0,0,0,1,0,0,0,1,0,0,0,0,0,0,0,0,0,0,0,0,0,0,0,0,0,0,0,0,0,0,0,0,0],"id":1,"left_children":[1,3,5,7,9,11,13,15,17,19,21,23,25,27,29,-1,-1,-1,-1,31,33,35,37,39,41,43,45,47,49,-1,51,-1,-1,-1,-1,-1,-1,-1,-1,-1,-1,-1,-1,-1,-1,-1,-1,-1,-1,-1,-1,-1,-1],"loss_changes":[7.588149E1,8.758137E0,4.5546738E1,4.2920628E0,8.041832E0,1.6671919E1,6.508209E0,3.8290267E0,3.7104874E0,5.645687E0,6.824933E0,1.2352155E1,1.0556456E1,4.3511505E0,8.128233E0,0E0,0E0,0E0,0E0,4.3742714E0,3.9878802E0,7.1831646E0,7.094639E0,8.72282E0,1.09729E1,6.696177E0,2.6859894E0,9.001135E0,4.4009018E-1,0E0,6.058345E0,0E0,0E0,0E0,0E0,0E0,0E0,0E0,0E0,0E0,0E0,0E0,0E0,0E0,0E0,0E0,0E0,0E0,0E0,0E0,0E0,0E0,0E0],"parents":[2147483647,0,0,1,1,2,2,3,3,4,4,5,5,6,6,7,7,8,8,9,9,10,10,11,11,12,12,13,13,14,14,19,19,20,20,21,21,22,22,23,23,24,24,25,25,26,26,27,27,28,28,30,30],"right_children":[2,4,6,8,10,12,14,16,18,20,22,24,26,28,30,-1,-1,-1,-1,32,34,36,38,40,42,44,46,48,50,-1,52,-1,-1,-1,-1,-1,-1,-1,-1,-1,-1,-1,-1,-1,-1,-1,-1,-1,-1,-1,-1,-1,-1],"split_conditions":[5.2910054E-1,2E0,6.4102566E-1,2.967359E-1,1.8E-1,3.116E0,3.1847134E-1,2E0,3.952569E-1,3.3333334E-1,2.7641509E0,6E0,1.3E1,3.168E0,5.531915E-1,-3.7154343E-2,3.3007336E-3,-6.0847234E-2,-2.7075062E-2,-2E0,-3E0,4.611111E-1,9E0,5.4E-1,2.4864864E0,1.5E1,5E0,5.48E-1,3.774E0,4.3202862E-2,3.474E0,-6.0027767E-2,-2.6776645E-2,1.1720921E-2,-1.8269343E-2,-1.2010392E-3,-2.074527E-2,-4.5553404E-3,4.1960627E-2,-1.7735008E-2,2.2284323E-2,1.8008314E-2,-2.1101181E-5,-2.0386004E-3,1.5250506E-2,1.6016439E-2,4.408705E-2,4.2686544E-2,-5.933668E-3,6.433279E-2,4.0747166E-2,-2.5984524E-2,1.9289643E-2],"split_indices":[26,7,26,23,4,6,24,8,22,24,14,16,8,6,15,0,0,0,0,10,10,15,8,4,14,16,9,4,6,0,6,0,0,0,0,0,0,0,0,0,0,0,0,0,0,0,0,0,0,0,0,0,0],"split_type":[0,0,0,0,0,0,0,0,0,0,0,0,0,0,0,0,0,0,0,0,0,0,0,0,0,0,0,0,0,0,0,0,0,0,0,0,0,0,0,0,0,0,0,0,0,0,0,0,0,0,0,0,0],"sum_hessian":[1.8738002E3,4.4883524E2,1.424965E3,6.088453E1,3.879507E2,1.2939027E3,1.3106226E2,2.1701593E1,3.9182938E1,1.5794994E2,2.3000078E2,1.00760535E3,2.8629733E2,8.454397E1,4.6518284E1,1.0227727E1,1.1473866E1,1.9966278E1,1.921666E1,9.506426E1,6.2885662E1,1.9484163E2,3.5159145E1,1.4658691E2,8.6101843E2,2.4146436E2,4.4832973E1,5.12503E1,3.3293667E1,1.790748E1,2.8610804E1,1.1731703E1,8.3332565E1,1.3226801E1,4.9658863E1,8.056511E1,1.1427653E2,2.393934E1,1.1219805E1,1.323838E2,1.4203115E1,9.3744225E1,7.6727423E2,8.622759E1,1.5523676E2,1.4945964E1,2.988701E1,3.9307076E1,1.1943228E1,1.9881289E1,1.3412377E1,1.1445355E1,1.7165447E1],"tree_param":{"num_deleted":"0","num_feature":"30","num_nodes":"53","size_leaf_vector":"1"}},{"base_weights":[-5.35294E-3,9.515163E-2,-3.6081514E-1,3.8076428E-1,2.053205E-2,-2.9167044E-1,-6.8236715E-1,4.2005873E-1,-1.808305E-2,-4.3461695E-2,3.28677E-1,-6.4313877E-1,-2.363916E-1,-1.7407613E-1,-8.847569E-1,1.863163E-1,5.4298407E-1,-1.1505892E-1,1.6906875E-1,6.601923E-1,1.7864385E-1,-6.308902E-3,-1.0003558E0,2.1471831E-1,-2.9058492E-1,1.6635593E-2,-3.3173095E-2,-7.2811365E-1,-6.806658E-2,3.4972172E-2,-2.5724588E-5,2.2893948E-2,5.3920805E-2,-7.7046207E-3,1.7039169E-2,3.1936124E-3,2.7620468E-2,2.3845663E-2,5.6637503E-2,3.4741703E-3,3.460536E-2,-6.304909E-2,-2.929408E-2,3.0707905E-2,-1.4356221E-2,-3.7281252E-3,-2.0371495E-2,-5.619204E-2,-2.3642438E-2],"categories":[],"categories_nodes":[],"categories_segments":[],"categories_sizes":[],"default_left":[1,0,1,0,1,0,1,0,0,1,0,1,0,0,0,0,0,1,1,1,1,0,0,0,0,0,0,0,0,0,0,0,0,0,0,0,0,0,0,0,0,0,0,0,0,0,0,0,0],"id":2,"left_children":[1,3,5,7,9,11,13,15,-1,17,19,21,23,25,27,29,31,33,35,37,39,-1,41,43,45,-1,-1,47,-1,-1,-1,-1,-1,-1,-1,-1,-1,-1,-1,-1,-1,-1,-1,-1,-1,-1,-1,-1,-1],"loss_changes":[6.629617E1,3.0767778E1,8.799084E0,8.885685E0,2.2675428E1,6.3403683E0,7.084938E0,8.006958E0,0E0,1.4484787E1,9.634058E0,8.108582E0,7.2693863E0,5.6402903E0,2.5831375E0,9.650732E0,7.8188477E0,1.2707757E1,9.568895E0,4.584959E0,7.594871E0,0E0,1.9361801E0,6.6157784E0,6.573162E0,0E0,0E0,3.3949757E0,0E0,0E0,0E0,0E0,0E0,0E0,0E0,0E0,0E0,0E0,0E0,0E0,0E0,0E0,0E0,0E0,0E0,0E0,0E0,0E0,0E0],"parents":[2147483647,0,0,1,1,2,2,3,3,4,4,5,5,6,6,7,7,9,9,10,10,11,11,12,12,13,13,14,14,15,15,16,16,17,17,18,18,19,19,20,20,22,22,23,23,24,24,27,27],"right_children":[2,4,6,8,10,12,14,16,-1,18,20,22,24,26,28,30,32,34,36,38,40,-1,42,44,46,-1,-1,48,-1,-1,-1,-1,-1,-1,-1,-1,-1,-1,-1,-1,-1,-1,-1,-1,-1,-1,-1,-1,-1],"split_conditions":[2.8328612E-1,2.6041666E-1,1.5377778E0,3.000001E1,3.0253165E0,1.0211111E0,-2E0,1.2588888E0,-1.808305E-2,1E1,0E0,7.64E-1,2.322E0,1.146E0,2.9387755E0,9.1625E-1,7.352941E-1,5.566667E-1,3.02E-1,1.604E0,3.8E0,-6.308902E-3,3.2051283E-1,1.2166667E0,2.994012E-1,1.6635593E-2,-3.3173095E-2,3.7037036E-1,-6.806658E-2,3.4972172E-2,-2.5724588E-5,2.2893948E-2,5.3920805E-2,-7.7046207E-3,1.7039169E-2,3.1936124E-3,2.7620468E-2,2.3845663E-2,5.6637503E-2,3.4741703E-3,3.460536E-2,-6.304909E-2,-2.929408E-2,3.0707905E-2,-1.4356221E-2,-3.7281252E-3,-2.0371495E-2,-5.619204E-2,-2.3642438E-2],"split_indices":[23,23,3,10,14,1,10,3,0,7,10,0,6,1,14,3,28,4,5,0,6,0,24,1,23,0,0,28,0,0,0,0,0,0,0,0,0,0,0,0,0,0,0,0,0,0,0,0,0],"split_type":[0,0,0,0,0,0,0,0,0,0,0,0,0,0,0,0,0,0,0,0,0,0,0,0,0,0,0,0,0,0,0,0,0,0,0,0,0,0,0,0,0,0,0,0,0,0,0,0,0],"sum_hessian":[1.8530015E3,1.444913E3,4.0808853E2,2.9817615E2,1.1467368E3,3.3769135E2,7.039717E1,2.8372812E2,1.4448028E1,9.499841E2,1.9675272E2,4.4202698E1,2.9348865E2,2.0718353E1,4.9678818E1,9.893412E1,1.84794E2,7.1129297E2,2.386911E2,6.003398E1,1.3671873E2,1.8730005E1,2.5472692E1,3.0960814E1,2.6252786E2,1.0235105E1,1.048325E1,3.9449852E1,1.0228968E1,2.5817734E1,7.311639E1,1.6121185E2,2.358215E1,6.560013E2,5.5291656E1,1.8841394E2,5.0277157E1,4.485719E1,1.5176792E1,1.1384564E2,2.287309E1,1.4236802E1,1.123589E1,1.7225613E1,1.37352E1,9.302944E1,1.6949841E2,1.3981103E1,2.5468748E1],"tree_param":{"num_deleted":"0","num_feature":"30","num_nodes":"49","size_leaf_vector":"1"}},{"base_weights":[1.1416921E-2,-4.1134635E-1,1.0439023E-1,-6.1540985E-1,-2.66946E-1,4.966371E-2,6.8138653E-1,-4.8757043E-1,-1.0569804E0,-3.3298227E-1,1.1679152E-1,2.1087227E-3,2.3607758E-1,7.750694E-1,3.6988518E-1,-8.566848E-1,-3.4386203E-1,-2.9480366E-2,-6.32331E-2,-2.3859715E-1,-7.7625877E-1,-1.2682602E-2,3.7913647E-2,-1.9097438E-2,5.114144E-1,1.2491979E-1,5.716659E-1,8.823827E-1,3.302213E-1,-8.035267E-3,4.27601E-2,-2.5746176E-2,-5.758226E-2,7.55549E-3,-2.71598E-2,-2.2075359E-2,5.1780124E-3,-4.8825048E-2,-1.7993152E-2,-2.7971505E-3,5.645727E-3,3.6295768E-2,-4.0150364E-3,-3.8171285E-3,1.3863481E-2,5.692445E-2,2.186173E-2,4.8879754E-2,1.8101059E-2,7.531382E-3,2.3592353E-2],"categories":[],"categories_nodes":[],"categories_segments":[],"categories_sizes":[],"default_left":[0,0,1,0,0,1,0,0,0,0,1,1,0,1,1,1,0,0,0,1,0,0,0,1,0,0,0,0,0,0,0,0,0,0,0,0,0,0,0,0,0,0,0,0,0,0,0,0,0,0,0],"id":3,"left_children":[1,3,5,7,9,11,13,15,17,19,21,23,25,27,29,31,33,-1,-1,35,37,-1,-1,39,41,43,45,47,49,-1,-1,-1,-1,-1,-1,-1,-1,-1,-1,-1,-1,-1,-1,-1,-1,-1,-1,-1,-1,-1,-1],"loss_changes":[7.3259445E1,9.646923E0,4.816085E1,7.1294785E0,5.097948E0,1.23634205E1,3.4562683E0,5.376543E0,1.9796219E0,6.8294315E0,7.301549E0,1.209933E1,1.0437688E1,4.383236E0,8.632975E0,2.2371655E0,8.058526E0,0E0,0E0,9.92822E0,1.9520016E0,0E0,0E0,5.2101E0,5.807312E0,6.6192427E0,4.682968E0,3.4835548E0,4.085517E-1,0E0,0E0,0E0,0E0,0E0,0E0,0E0,0E0,0E0,0E0,0E0,0E0,0E0,0E0,0E0,0E0,0E0,0E0,0E0,0E0,0E0,0E0],"parents":[2147483647,0,0,1,1,2,2,3,3,4,4,5,5,6,6,7,7,8,8,9,9,10,10,11,11,12,12,13,13,14,14,15,15,16,16,19,19,20,20,23,23,24,24,25,25,26,26,27,27,28,28],"right_children":[2,4,6,8,10,12,14,16,18,20,22,24,26,28,30,32,34,-1,-1,36,38,-1,-1,40,42,44,46,48,50,-1,-1,-1,-1,-1,-1,-1,-1,-1,-1,-1,-1,-1,-1,-1,-1,-1,-1,-1,-1,-1,-1],"split_conditions":[4.950495E-1,1.8E-1,6.4102566E-1,1.304E0,5.1578945E-1,3.148E0,1.61E2,-1.5666667E-1,-2.68E-1,4.8295453E-1,2.452E0,6.5789473E-1,3.0484848E0,3.8857144E-1,-1.1111111E-2,2.022E0,-2.4E-2,-2.9480366E-2,-6.32331E-2,3E0,4.587156E-1,-1.2682602E-2,3.7913647E-2,1E1,2.9084966E0,-4.1E-2,1.068E0,2.5575447E-1,5.16E-1,-8.035267E-3,4.27601E-2,-2.5746176E-2,-5.758226E-2,7.55549E-3,-2.71598E-2,-2.2075359E-2,5.1780124E-3,-4.8825048E-2,-1.7993152E-2,-2.7971505E-3,5.645727E-3,3.6295768E-2,-4.0150364E-3,-3.8171285E-3,1.3863481E-2,5.692445E-2,2.186173E-2,4.8879754E-2,1.8101059E-2,7.531382E-3,2.3592353E-2],"split_indices":[26,4,26,1,15,6,17,5,5,15,6,22,14,5,5,6,5,0,0,10,26,0,0,7,14,5,3,23,4,0,0,0,0,0,0,0,0,0,0,0,0,0,0,0,0,0,0,0,0,0,0],"split_type":[0,0,0,0,0,0,0,0,0,0,0,0,0,0,0,0,0,0,0,0,0,0,0,0,0,0,0,0,0,0,0,0,0,0,0,0,0,0,0,0,0,0,0,0,0,0,0,0,0,0,0],"sum_hessian":[1.8625264E3,3.3495172E2,1.5275746E3,1.3716241E2,1.9778929E2,1.3963903E3,1.3118439E2,1.08175186E2,2.898723E1,1.6908482E2,2.8704466E1,1.1138022E3,2.8258804E2,9.946227E1,3.172211E1,2.8728655E1,7.9446526E1,1.0247171E1,1.8740059E1,1.4085663E2,2.8228199E1,1.8480827E1,1.0223639E1,1.0700157E3,4.3786503E1,2.1353012E2,6.9057915E1,7.915814E1,2.0304129E1,1.5375305E1,1.6346806E1,1.473752E1,1.3991134E1,2.2734388E1,5.671214E1,8.842171E1,5.2434925E1,1.7991102E1,1.0237097E1,8.3757556E2,2.3244014E2,3.2094296E1,1.1692207E1,9.19292E1,1.2160093E2,1.166408E1,5.7393837E1,6.600933E1,1.3148815E1,1.0173237E1,1.0130892E1],"tree_param":{"num_deleted":"0","num_feature":"30","num_nodes":"51","size_leaf_vector":"1"}},{"base_weights":[9.524417E-3,-3.898047E-2,6.6013676E-1,-3.6477703E-1,3.1912435E-2,-0E0,7.39015E-1,-4.6815563E-2,-4.4110322E-1,-1.235264E-4,4.0019628E-1,1.0079114E0,6.087724E-1,-2.3157607E-1,3.026118E-2,-5.1294136E-1,-1.8991427E-1,-2.2689056E-1,4.369757E-2,-3.5193518E-2,5.243468E-1,2.920465E-2,1.1530386E0,2.006613E-3,7.850623E-1,-2.1559484E-2,1.3739101E-2,-2.2651482E-2,-5.3319912E-2,5.2685537E-3,-2.2680866E-2,1.3320791E-2,-1.4750592E-2,4.6621563E-4,1.6880708E-2,-1.7143285E-2,1.7553093E-2,9.913365E-3,3.908499E-2,7.1304746E-2,4.3848917E-2,4.7472488E-2,-1.5793209E-3],"categories":[],"categories_nodes":[],"categories_segments":[],"categories_sizes":[],"default_left":[1,0,0,0,1,0,1,1,1,0,0,1,0,0,0,1,0,0,1,0,1,0,0,0,0,0,0,0,0,0,0,0,0,0,0,0,0,0,0,0,0,0,0],"id":4,"left_children":[1,3,5,7,9,-1,11,13,15,17,19,21,23,25,-1,27,29,31,33,35,37,-1,39,-1,41,-1,-1,-1,-1,-1,-1,-1,-1,-1,-1,-1,-1,-1,-1,-1,-1,-1,-1],"loss_changes":[5.8872913E1,4.0102203E1,6.7305565E0,7.4606133E0,1.6853315E1,0E0,3.2734566E0,7.5040298E0,4.3406754E0,1.3063459E1,6.245264E0,1.363842E0,7.9715996E0,5.057929E0,0E0,5.777199E0,4.5568852E0,7.2381687E0,1.1073246E1,3.2233293E0,7.2302856E0,0E0,4.469185E-1,0E0,8.362122E0,0E0,0E0,0E0,0E0,0E0,0E0,0E0,0E0,0E0,0E0,0E0,0E0,0E0,0E0,0E0,0E0,0E0,0E0],"parents":[2147483647,0,0,1,1,2,2,3,3,4,4,6,6,7,7,8,8,9,9,10,10,11,11,12,12,13,13,15,15,16,16,17,17,18,18,19,19,20,20,22,22,24,24],"right_children":[2,4,6,8,10,-1,12,14,16,18,20,22,24,26,-1,28,30,32,34,36,38,-1,40,-1,42,-1,-1,-1,-1,-1,-1,-1,-1,-1,-1,-1,-1,-1,-1,-1,-1,-1,-1],"split_conditions":[6.4102566E-1,4.878049E-1,1.4204545E-1,2.44E0,1.3E1,-0E0,9.375E-1,5E0,7.125E-2,7E0,3.31E0,3E0,1.20375E0,4.4212964E-1,3.026118E-2,-2.4E-2,1.032E0,-3.95E-1,3.474E0,1.626E0,-3.6666665E-2,2.920465E-2,6.756757E-1,2.006613E-3,2.5510204E-1,-2.1559484E-2,1.3739101E-2,-2.2651482E-2,-5.3319912E-2,5.2685537E-3,-2.2680866E-2,1.3320791E-2,-1.4750592E-2,4.6621563E-4,1.6880708E-2,-1.7143285E-2,1.7553093E-2,9.913365E-3,3.908499E-2,7.1304746E-2,4.3848917E-2,4.7472488E-2,-1.5793209E-3],"split_indices":[26,26,22,14,8,0,3,10,5,16,6,10,3,15,0,5,0,5,6,0,5,0,26,0,23,0,0,0,0,0,0,0,0,0,0,0,0,0,0,0,0,0,0],"split_type":[0,0,0,0,0,0,0,0,0,0,0,0,0,0,0,0,0,0,0,0,0,0,0,0,0,0,0,0,0,0,0,0,0,0,0,0,0,0,0,0,0,0,0],"sum_hessian":[1.8617699E3,1.7333318E3,1.2843813E2,3.0927728E2,1.4240544E3,1.3832592E1,1.1460554E2,6.043581E1,2.4884146E2,1.3107631E3,1.13291405E2,3.494736E1,7.965817E1,4.7713905E1,1.2721908E1,1.9238162E2,5.645984E1,2.1196791E2,1.0987952E3,2.5117308E1,8.8174095E1,1.0371875E1,2.4575485E1,1.9276115E1,6.038206E1,3.4470913E1,1.32429905E1,1.7539441E2,1.6987217E1,2.6739307E1,2.972053E1,2.518798E1,1.8677994E2,9.849752E2,1.1381993E2,1.4187482E1,1.0929826E1,3.9846054E1,4.8328045E1,1.0078518E1,1.4496967E1,5.02307E1,1.01513605E1],"tree_param":{"num_deleted":"0","num_feature":"30","num_nodes":"43","size_leaf_vector":"1"}},{"base_weights":[1.1827607E-2,1.10283025E-1,-2.5544614E-1,4.821467E-1,5.5671398E-2,-1.8237227E-1,-4.740039E-1,2.903334E-1,6.925384E-1,-2.2848566E-1,1.12565316E-1,8.259109E-3,-3.0653897E-1,-6.4827645E-1,-1.20026015E-1,5.165754E-1,-9.554071E-2,3.5603988E-1,8.614485E-1,-3.4625846E-1,8.0118045E-2,5.069943E-2,3.7533623E-1,9.314467E-2,-2.6158059E-2,-5.187122E-2,-2.6551E-1,-5.741582E-2,-4.194571E-1,1.9785649E-1,-2.8127953E-2,3.3348363E-2,-4.251949E-3,-3.3833757E-2,1.0830439E-2,4.8978305E-3,3.2087963E-2,3.2196548E-2,6.230517E-2,-1.338318E-2,-5.4943956E-2,-1.4288458E-2,1.8181039E-2,-3.3820964E-2,3.247027E-3,1.4200359E-2,5.0486106E-2,-1.21147735E-2,1.1280881E-2,-1.0968724E-2,-5.2650124E-2,-3.7848476E-2,-1.1047538E-2,-8.917542E-3,2.5728002E-2],"categories":[],"categories_nodes":[],"categories_segments":[],"categories_sizes":[],"default_left":[1,0,1,1,0,0,0,1,0,1,1,1,0,0,0,0,1,0,0,1,1,0,0,0,0,0,1,0,0,0,0,0,0,0,0,0,0,0,0,0,0,0,0,0,0,0,0,0,0,0,0,0,0,0,0],"id":5,"left_children":[1,3,5,7,9,11,13,15,17,19,21,23,25,27,29,31,33,35,37,39,41,43,45,47,-1,-1,49,-1,51,53,-1,-1,-1,-1,-1,-1,-1,-1,-1,-1,-1,-1,-1,-1,-1,-1,-1,-1,-1,-1,-1,-1,-1,-1,-1],"loss_changes":[4.918234E1,2.766965E1,7.881798E0,6.74741E0,1.929869E1,9.002302E0,7.5611496E0,8.237598E0,4.249565E0,7.288025E0,1.6110744E1,6.7780447E0,6.4862213E0,8.903687E0,6.1517034E0,5.4659653E0,6.5722485E0,2.0317554E0,3.5179863E0,8.115202E0,5.874151E0,8.336176E0,1.0540987E1,5.850334E0,0E0,0E0,7.6014395E0,0E0,3.6830053E0,3.1572306E0,0E0,0E0,0E0,0E0,0E0,0E0,0E0,0E0,0E0,0E0,0E0,0E0,0E0,0E0,0E0,0E0,0E0,0E0,0E0,0E0,0E0,0E0,0E0,0E0,0E0],"parents":[2147483647,0,0,1,1,2,2,3,3,4,4,5,5,6,6,7,7,8,8,9,9,10,10,11,11,12,12,13,13,14,14,15,15,16,16,17,17,18,18,19,19,20,20,21,21,22,22,23,23,26,26,28,28,29,29],"right_children":[2,4,6,8,10,12,14,16,18,20,22,24,26,28,30,32,34,36,38,40,42,44,46,48,-1,-1,50,-1,52,54,-1,-1,-1,-1,-1,-1,-1,-1,-1,-1,-1,-1,-1,-1,-1,-1,-1,-1,-1,-1,-1,-1,-1,-1,-1],"split_conditions":[2.7173913E-1,2.3364486E-1,1.454E0,1.2471429E0,6E0,2.967359E-1,3.773585E-1,1.007E0,-4.5E-1,5.3896105E-1,1.628E0,1.614E0,2E0,-1.8E-1,2.9498526E-1,5.970149E-1,1.078E0,7E0,1.912046E-1,5.2380955E-1,1.264E0,2.0080322E-1,5.58E-1,2.4271844E-1,-2.6158059E-2,-5.187122E-2,1.463E0,-5.741582E-2,1.517E0,1.692E0,-2.8127953E-2,3.3348363E-2,-4.251949E-3,-3.3833757E-2,1.0830439E-2,4.8978305E-3,3.2087963E-2,3.2196548E-2,6.230517E-2,-1.338318E-2,-5.4943956E-2,-1.4288458E-2,1.8181039E-2,-3.3820964E-2,3.247027E-3,1.4200359E-2,5.0486106E-2,-1.21147735E-2,1.1280881E-2,-1.0968724E-2,-5.2650124E-2,-3.7848476E-2,-1.1047538E-2,-8.917542E-3,2.5728002E-2],"split_indices":[23,23,2,3,16,23,24,3,4,15,1,0,7,5,23,15,2,8,24,15,2,28,5,24,0,0,3,0,3,2,0,0,0,0,0,0,0,0,0,0,0,0,0,0,0,0,0,0,0,0,0,0,0,0,0],"split_type":[0,0,0,0,0,0,0,0,0,0,0,0,0,0,0,0,0,0,0,0,0,0,0,0,0,0,0,0,0,0,0,0,0,0,0,0,0,0,0,0,0,0,0,0,0,0,0,0,0,0,0,0,0,0,0],"sum_hessian":[1.8674982E3,1.3654646E3,5.0203357E2,1.7361545E2,1.1918491E3,3.7795715E2,1.2407641E2,9.231106E1,8.13044E1,1.9802722E2,9.938219E2,1.4912926E2,2.288279E2,8.239654E1,4.167987E1,5.8142143E1,3.416891E1,2.8408869E1,5.2895527E1,1.434748E2,5.455242E1,8.0570337E2,1.8811855E2,1.2946265E2,1.9666607E1,1.0742356E1,2.1808554E2,2.4468954E1,5.792758E1,2.4446365E1,1.7233505E1,4.656052E1,1.1581625E1,1.164387E1,2.252504E1,1.5815737E1,1.2593132E1,3.566272E1,1.7232807E1,1.3125642E2,1.2218366E1,2.365835E1,3.0894073E1,1.4449037E1,7.9125433E2,1.6584769E2,2.2270863E1,3.6204323E1,9.325832E1,2.073438E2,1.0741751E1,2.0224163E1,3.770342E1,1.1228867E1,1.3217499E1],"tree_param":{"num_deleted":"0","num_feature":"30","num_nodes":"55","size_leaf_vector":"1"}},{"base_weights":[2.6029677E-3,-4.774776E-2,6.061381E-1,-3.7865537E-1,2.5661303E-2,7.314317E-1,2.2512515E-1,-4.0664905E-1,1.9088952E-2,-2.8672477E-2,1.8829526E-1,4.1743296E-1,9.149556E-1,-1.2938657E-1,3.8314883E-2,-3.5841823E-1,-8.535793E-1,-5.8765087E-2,2.4283403E-1,-2.2039965E-2,2.2012153E-1,-1.3351634E-2,6.620154E-1,6.600192E-2,7.365528E-1,1.8212825E-2,-2.7297705E-2,1.1789977E-2,-1.9794278E-2,-6.364903E-2,-1.9956008E-2,-4.1777864E-3,1.1736433E-2,2.1028636E-2,-1.8211802E-2,1.4438065E-2,-1.0802693E-3,4.7217224E-2,6.5048337E-3,4.805181E-2,7.877263E-3],"categories":[],"categories_nodes":[],"categories_segments":[],"categories_sizes":[],"default_left":[1,0,0,1,1,0,1,1,0,1,0,0,0,0,0,0,0,1,1,0,1,0,0,0,1,0,0,0,0,0,0,0,0,0,0,0,0,0,0,0,0],"id":6,"left_children":[1,3,5,7,9,11,13,15,-1,17,19,21,23,25,-1,27,29,31,33,-1,35,-1,37,-1,39,-1,-1,-1,-1,-1,-1,-1,-1,-1,-1,-1,-1,-1,-1,-1,-1],"loss_changes":[5.66208E1,4.1777058E1,6.5894165E0,6.8042717E0,1.2451965E1,5.6701355E0,7.290081E0,6.077427E0,0E0,8.614427E0,7.1400614E0,7.186022E0,3.6424522E0,4.985675E0,0E0,6.2160416E0,4.750435E0,6.9220257E0,1.1500591E1,0E0,5.619459E0,0E0,4.4353504E0,0E0,6.0719852E0,0E0,0E0,0E0,0E0,0E0,0E0,0E0,0E0,0E0,0E0,0E0,0E0,0E0,0E0,0E0,0E0],"parents":[2147483647,0,0,1,1,2,2,3,3,4,4,5,5,6,6,7,7,9,9,10,10,11,11,12,12,13,13,15,15,16,16,17,17,18,18,20,20,22,22,24,24],"right_children":[2,4,6,8,10,12,14,16,-1,18,20,22,24,26,-1,28,30,32,34,-1,36,-1,38,-1,40,-1,-1,-1,-1,-1,-1,-1,-1,-1,-1,-1,-1,-1,-1,-1,-1],"split_conditions":[6.289308E-1,4.878049E-1,1.61E2,1.6325E0,1E1,1.37E0,3.2465E0,1.375E0,1.9088952E-2,1.81E2,2E0,2.826E0,1.242E0,1.778E0,3.8314883E-2,1.8726592E-1,2.597561E0,1.8566667E0,2.840909E-1,-2.2039965E-2,5.050505E-1,-1.3351634E-2,1.7921147E-1,6.600192E-2,1.714E0,1.8212825E-2,-2.7297705E-2,1.1789977E-2,-1.9794278E-2,-6.364903E-2,-1.9956008E-2,-4.1777864E-3,1.1736433E-2,2.1028636E-2,-1.8211802E-2,1.4438065E-2,-1.0802693E-3,4.7217224E-2,6.5048337E-3,4.805181E-2,7.877263E-3],"split_indices":[26,26,17,1,7,2,6,1,0,17,9,6,0,0,0,24,14,0,23,0,26,0,24,0,2,0,0,0,0,0,0,0,0,0,0,0,0,0,0,0,0],"split_type":[0,0,0,0,0,0,0,0,0,0,0,0,0,0,0,0,0,0,0,0,0,0,0,0,0,0,0,0,0,0,0,0,0,0,0,0,0,0,0,0,0],"sum_hessian":[1.8594451E3,1.7169606E3,1.4248454E2,3.1122937E2,1.4057312E3,1.0633486E2,3.614968E1,3.0075452E2,1.047486E1,1.0538599E3,3.5187134E2,4.0633213E1,6.5701645E1,2.218974E1,1.3959943E1,2.7328812E2,2.7466398E1,9.49746E2,1.0411388E2,1.6174078E1,3.3569727E2,1.0565352E1,3.0067862E1,1.7960552E1,4.7741096E1,1.0102976E1,1.2086763E1,1.5737343E1,2.5755075E2,1.3233045E1,1.4233354E1,8.767456E2,7.300035E1,8.089986E1,2.321402E1,2.6162613E2,7.407113E1,1.9012926E1,1.1054935E1,3.3803024E1,1.3938071E1],"tree_param":{"num_deleted":"0","num_feature":"30","num_nodes":"41","size_leaf_vector":"1"}},{"base_weights":[1.3088166E-2,-4.0201268E-1,9.706839E-2,-8.388576E-1,-3.6146536E-1,5.3197335E-2,5.714414E-1,-6.0287237E-2,-2.5602603E-2,2.3951728E-2,-3.9752555E-1,-1.340499E-1,9.363024E-2,6.659056E-1,2.5971037E-1,-3.2938877E-1,-6.7938745E-1,-2.1394336E-1,2.0890376E-1,-3.1461653E-1,1.167678E-1,7.876018E-1,2.335053E-1,-3.2086496E-3,3.7293E-2,-2.0016583E-2,-2.6808244E-3,-4.3209456E-2,-1.6003326E-4,-1.3832402E-2,1.1835902E-2,-7.567351E-3,2.2318913E-2,9.773496E-3,-2.2658758E-2,4.2101503E-3,1.8340915E-2,2.8650707E-2,5.1279154E-2,-9.692541E-3,3.0173898E-2],"categories":[],"categories_nodes":[],"categories_segments":[],"categories_sizes":[],"default_left":[0,0,1,0,0,0,0,0,0,0,1,0,1,1,1,1,0,0,0,1,1,0,0,0,0,0,0,0,0,0,0,0,0,0,0,0,0,0,0,0,0],"id":7,"left_children":[1,3,5,7,9,11,13,-1,-1,-1,15,17,19,21,23,25,27,29,31,33,35,37,39,-1,-1,-1,-1,-1,-1,-1,-1,-1,-1,-1,-1,-1,-1,-1,-1,-1,-1],"loss_changes":[6.5038635E1,5.1366997E0,3.2217804E1,2.2915287E0,8.9474945E0,1.0777613E1,3.596035E0,0E0,0E0,0E0,5.0136604E0,6.965699E0,1.1076597E1,4.963066E0,5.2147284E0,4.356119E0,6.519167E0,5.8789883E0,4.2027497E0,4.5555515E0,8.954516E0,3.1970139E0,3.875173E0,0E0,0E0,0E0,0E0,0E0,0E0,0E0,0E0,0E0,0E0,0E0,0E0,0E0,0E0,0E0,0E0,0E0,0E0],"parents":[2147483647,0,0,1,1,2,2,3,3,4,4,5,5,6,6,10,10,11,11,12,12,13,13,14,14,15,15,16,16,17,17,18,18,19,19,20,20,21,21,22,22],"right_children":[2,4,6,8,10,12,14,-1,-1,-1,16,18,20,22,24,26,28,30,32,34,36,38,40,-1,-1,-1,-1,-1,-1,-1,-1,-1,-1,-1,-1,-1,-1,-1,-1,-1,-1],"split_conditions":[4.878049E-1,2E0,6.4102566E-1,1.1E1,-5.3E-1,8E0,1.61E2,-6.0287237E-2,-2.5602603E-2,2.3951728E-2,1.28E0,5.942857E-1,1E0,3.55E-1,3.2465E0,1.0211111E0,5.3413653E-1,9E0,9E0,4.6666667E-1,3.53E0,1.901E0,7E0,-3.2086496E-3,3.7293E-2,-2.0016583E-2,-2.6808244E-3,-4.3209456E-2,-1.6003326E-4,-1.3832402E-2,1.1835902E-2,-7.567351E-3,2.2318913E-2,9.773496E-3,-2.2658758E-2,4.2101503E-3,1.8340915E-2,2.8650707E-2,5.1279154E-2,-9.692541E-3,3.0173898E-2],"split_indices":[26,7,26,9,5,16,17,0,0,0,1,15,7,5,6,1,15,10,17,15,6,1,17,0,0,0,0,0,0,0,0,0,0,0,0,0,0,0,0,0,0],"split_type":[0,0,0,0,0,0,0,0,0,0,0,0,0,0,0,0,0,0,0,0,0,0,0,0,0,0,0,0,0,0,0,0,0,0,0,0,0,0,0,0,0],"sum_hessian":[1.8644508E3,3.12893E2,1.5515579E3,2.4693867E1,2.8819913E2,1.4214243E3,1.301335E2,1.0222328E1,1.44715395E1,1.1236587E1,2.7696255E2,2.515753E2,1.169849E3,9.875173E1,3.1381767E1,2.250764E2,5.1886154E1,2.0458383E2,4.699148E1,6.1838074E1,1.108011E3,7.624136E1,2.2510366E1,1.9231575E1,1.2150192E1,1.7837486E2,4.670153E1,4.0414867E1,1.1471289E1,1.8012886E2,2.4454967E1,1.8646368E1,2.8345114E1,1.2967473E1,4.8870598E1,9.818752E2,1.2613578E2,4.2104107E1,3.4137257E1,1.0540622E1,1.1969744E1],"tree_param":{"num_deleted":"0","num_feature":"30","num_nodes":"41","size_leaf_vector":"1"}},{"base_weights":[2.7661415E-2,-3.699775E-1,1.0755351E-1,-3.9256524E-2,-3.3855128E-1,6.981782E-2,5.2646434E-1,-4.338397E-1,-1.79905E-1,4.5805797E-2,4.6921074E-1,4.6535155E-1,5.51097E-2,-2.4546497E-1,-5.7249624E-1,1.4884427E-2,-2.524071E-1,-1.3922733E-1,9.701386E-2,6.081556E-1,-3.3325765E-3,5.3532124E-1,-4.2604445E-3,1.9279456E-2,-1.8014332E-2,-3.541669E-2,-7.3621995E-3,-3.3458244E-2,-5.703225E-3,-8.809756E-3,2.527955E-2,-1.0032903E-2,6.29257E-3,3.6265265E-2,8.630314E-3,3.713387E-2,1.8268406E-2],"categories":[],"categories_nodes":[],"categories_segments":[],"categories_sizes":[],"default_left":[0,0,1,0,0,1,0,0,0,0,1,0,0,0,1,0,0,1,1,0,0,1,0,0,0,0,0,0,0,0,0,0,0,0,0,0,0],"id":8,"left_children":[1,3,5,-1,7,9,11,13,15,17,19,21,-1,23,25,-1,27,29,31,33,-1,35,-1,-1,-1,-1,-1,-1,-1,-1,-1,-1,-1,-1,-1,-1,-1],"loss_changes":[5.9205265E1,3.6889954E0,2.4445324E1,0E0,4.27153E0,1.3598612E1,3.831173E0,4.510269E0,3.9347165E0,1.2763586E1,6.088526E0,4.618307E0,0E0,5.8518357E0,5.7779884E0,0E0,5.473016E0,7.011083E0,9.076675E0,3.0594501E0,0E0,3.3032951E0,0E0,0E0,0E0,0E0,0E0,0E0,0E0,0E0,0E0,0E0,0E0,0E0,0E0,0E0,0E0],"parents":[2147483647,0,0,1,1,2,2,4,4,5,5,6,6,7,7,8,8,9,9,10,10,11,11,13,13,14,14,16,16,17,17,18,18,19,19,21,21],"right_children":[2,4,6,-1,8,10,12,14,16,18,20,22,-1,24,26,-1,28,30,32,34,-1,36,-1,-1,-1,-1,-1,-1,-1,-1,-1,-1,-1,-1,-1,-1,-1],"split_conditions":[4.878049E-1,3.5971224E-1,6.4102566E-1,-3.9256524E-2,3.164557E-1,2.0166667E0,7.633588E-1,1.3088889E0,3.1847134E-1,1E1,7.716049E-2,6.993007E-1,5.51097E-2,2.0283976E-1,5E0,1.4884427E-2,-1.76E-1,9E0,2E0,1.4122223E0,-3.3325765E-3,1.452E0,-4.2604445E-3,1.9279456E-2,-1.8014332E-2,-3.541669E-2,-7.3621995E-3,-3.3458244E-2,-5.703225E-3,-8.809756E-3,2.527955E-2,-1.0032903E-2,6.29257E-3,3.6265265E-2,8.630314E-3,3.713387E-2,1.8268406E-2],"split_indices":[26,26,26,0,23,1,26,1,23,16,24,24,0,24,10,0,4,10,7,3,0,0,0,0,0,0,0,0,0,0,0,0,0,0,0,0,0],"split_type":[0,0,0,0,0,0,0,0,0,0,0,0,0,0,0,0,0,0,0,0,0,0,0,0,0,0,0,0,0,0,0,0,0,0,0,0,0],"sum_hessian":[1.8622374E3,3.1073996E2,1.5514974E3,1.9955427E1,2.9078455E2,1.4245763E3,1.26921165E2,1.8019078E2,1.1059377E2,1.3450737E3,7.9502525E1,1.1653332E2,1.0387847E1,7.7878624E1,1.0231215E2,1.3985014E1,9.660876E1,2.907647E2,1.0543091E3,6.3173767E1,1.6328754E1,1.0357898E2,1.2954344E1,1.149171E1,6.638692E1,7.6860054E1,2.5452095E1,2.2940514E1,7.366824E1,2.758329E2,1.4931809E1,9.228476E1,9.620243E2,4.9078316E1,1.409545E1,4.4872593E1,5.8706383E1],"tree_param":{"num_deleted":"0","num_feature":"30","num_nodes":"37","size_leaf_vector":"1"}},{"base_weights":[5.889123E-3,-3.0437353E-1,7.703948E-2,-2.2543965E-1,-5.0145745E-1,3.79581E-2,5.20224E-1,3.3928642E-1,-2.7873877E-1,-9.025291E-1,-3.4412503E-1,3.6344582E-3,2.4915977E-1,-5.968187E-4,5.9416145E-1,4.431125E-2,-1.08319195E-2,-3.725135E-1,-1.8097634E-3,-3.368413E-2,-5.6456026E-2,2.2621008E-3,-6.162433E-1,-3.209663E-1,2.3512179E-2,5.961936E-1,1.3526471E-1,4.3828666E-1,8.196228E-1,-2.058284E-2,1.0416388E-2,-2.0009955E-2,1.3745837E-2,-1.6381217E-2,2.9111434E-2,-5.674685E-2,-1.9078083E-2,-2.7089778E-2,8.620279E-5,-1.9144166E-4,1.3893641E-2,4.1635395E-3,4.051365E-2,-2.5255714E-2,9.746193E-3,4.7389597E-2,1.1669986E-2,2.7688239E-2,5.4811854E-2],"categories":[],"categories_nodes":[],"categories_segments":[],"categories_sizes":[],"default_left":[0,0,1,0,1,1,0,0,0,1,0,1,0,0,0,0,0,1,0,0,0,0,0,0,0,0,0,0,1,0,0,0,0,0,0,0,0,0,0,0,0,0,0,0,0,0,0,0,0],"id":9,"left_children":[1,3,5,7,9,11,13,15,17,19,21,23,25,-1,27,-1,-1,29,31,-1,-1,33,35,37,39,41,43,45,47,-1,-1,-1,-1,-1,-1,-1,-1,-1,-1,-1,-1,-1,-1,-1,-1,-1,-1,-1,-1],"loss_changes":[4.083304E1,5.181093E0,2.6003494E1,7.568495E0,5.7157917E0,1.0013722E1,4.855015E0,6.8633327E0,5.8773136E0,4.419918E-1,6.8313665E0,7.6739635E0,7.482194E0,0E0,3.2776794E0,0E0,0E0,3.968748E0,6.6156297E0,0E0,0E0,6.420389E0,4.330805E0,4.9437366E0,7.8534255E0,5.0289936E0,5.682143E0,6.5205326E0,2.342556E0,0E0,0E0,0E0,0E0,0E0,0E0,0E0,0E0,0E0,0E0,0E0,0E0,0E0,0E0,0E0,0E0,0E0,0E0,0E0,0E0],"parents":[2147483647,0,0,1,1,2,2,3,3,4,4,5,5,6,6,7,7,8,8,9,9,10,10,11,11,12,12,14,14,17,17,18,18,21,21,22,22,23,23,24,24,25,25,26,26,27,27,28,28],"right_children":[2,4,6,8,10,12,14,16,18,20,22,24,26,-1,28,-1,-1,30,32,-1,-1,34,36,38,40,42,44,46,48,-1,-1,-1,-1,-1,-1,-1,-1,-1,-1,-1,-1,-1,-1,-1,-1,-1,-1,-1,-1],"split_conditions":[4.950495E-1,1.6E2,6.4102566E-1,4.375E-1,1.77E2,3.0484848E0,1.4204545E-1,2.9850745E-1,1E1,8.38E-1,4.0650406E-1,2E0,5E0,-5.968187E-4,2.114E0,4.431125E-2,-1.08319195E-2,2.962E0,1.438E0,-3.368413E-2,-5.6456026E-2,3.6363637E-1,-2.4E-1,5.119048E-1,1.81E2,3E0,2.538071E-1,1.272E0,1.9111111E0,-2.058284E-2,1.0416388E-2,-2.0009955E-2,1.3745837E-2,-1.6381217E-2,2.9111434E-2,-5.674685E-2,-1.9078083E-2,-2.7089778E-2,8.620279E-5,-1.9144166E-4,1.3893641E-2,4.1635395E-3,4.051365E-2,-2.5255714E-2,9.746193E-3,4.7389597E-2,1.1669986E-2,2.7688239E-2,5.4811854E-2],"split_indices":[26,17,26,15,17,14,22,24,17,0,22,9,7,0,0,0,0,6,0,0,0,22,4,15,17,7,23,0,1,0,0,0,0,0,0,0,0,0,0,0,0,0,0,0,0,0,0,0,0],"split_type":[0,0,0,0,0,0,0,0,0,0,0,0,0,0,0,0,0,0,0,0,0,0,0,0,0,0,0,0,0,0,0,0,0,0,0,0,0,0,0,0,0,0,0,0,0,0,0,0,0],"sum_hessian":[1.8486841E3,3.439875E2,1.5046965E3,2.4750914E2,9.647836E1,1.3839655E3,1.2073106E2,2.0720894E1,2.2678824E2,2.5669538E1,7.080882E1,1.1917739E3,1.9219159E2,1.4665206E1,1.0606585E2,1.0236044E1,1.048485E1,1.6889136E2,5.7896885E1,1.49675045E1,1.0702034E1,3.1427746E1,3.9381077E1,6.760556E1,1.1241683E3,4.6227036E1,1.4596455E2,6.4713234E1,4.1352615E1,1.5866243E2,1.022893E1,2.3696867E1,3.420002E1,2.0200388E1,1.1227358E1,1.0939778E1,2.84413E1,3.9918625E1,2.7686932E1,1.0155947E3,1.0857362E2,1.4158976E1,3.206806E1,1.1660319E1,1.3430424E2,1.7379797E1,4.7333435E1,2.2801352E1,1.8551264E1],"tree_param":{"num_deleted":"0","num_feature":"30","num_nodes":"49","size_leaf_vector":"1"}},{"base_weights":[-2.6422727E-3,-5.063511E-2,4.331768E-1,-3.1056416E-1,7.390031E-3,2.2315538E-1,5.3817946E-1,-4.7692364E-1,-1.9974266E-1,-2.830344E-1,3.588588E-2,4.3749246E-1,-1.6576495E-2,6.544801E-1,1.6942972E-1,-3.5006994E-1,-9.031995E-1,1.6513446E-2,-2.4891254E-1,-5.802524E-1,-2.4199247E-2,-1.3627461E-2,1.9610444E-1,1.9364634E-1,4.315933E-2,7.9163635E-1,6.0769767E-3,4.152748E-2,-1.2878589E-2,-4.8640594E-2,-1.2803643E-2,-3.0867577E-2,-5.544147E-2,-3.9227165E-2,-9.093147E-3,6.482921E-5,-3.5961207E-2,2.4289442E-2,-1.0411369E-2,-1.6288208E-2,4.0946613E-4,2.9089882E-3,2.2755533E-2,-8.674553E-3,2.161624E-2,3.175139E-2,5.3990275E-2],"categories":[],"categories_nodes":[],"categories_segments":[],"categories_sizes":[],"default_left":[1,0,0,1,0,0,0,0,0,1,1,1,0,1,0,1,0,0,0,0,0,1,0,1,0,0,0,0,0,0,0,0,0,0,0,0,0,0,0,0,0,0,0,0,0,0,0],"id":10,"left_children":[1,3,5,7,9,11,13,15,17,19,21,23,-1,25,27,29,31,-1,33,35,37,39,41,43,-1,45,-1,-1,-1,-1,-1,-1,-1,-1,-1,-1,-1,-1,-1,-1,-1,-1,-1,-1,-1,-1,-1],"loss_changes":[3.8696304E1,2.5195335E1,3.8503876E0,5.4564857E0,1.1278264E1,7.66807E0,5.009136E0,6.0898438E0,4.8957896E0,9.289675E0,9.888106E0,4.516464E0,0E0,6.5129585E0,8.921333E0,5.1829042E0,7.232132E-1,0E0,5.8680058E0,4.633875E0,6.2944474E0,6.50811E0,1.0431368E1,2.7974696E0,0E0,2.4180527E0,0E0,0E0,0E0,0E0,0E0,0E0,0E0,0E0,0E0,0E0,0E0,0E0,0E0,0E0,0E0,0E0,0E0,0E0,0E0,0E0,0E0],"parents":[2147483647,0,0,1,1,2,2,3,3,4,4,5,5,6,6,7,7,8,8,9,9,10,10,11,11,13,13,14,14,15,15,16,16,18,18,19,19,20,20,21,21,22,22,23,23,25,25],"right_children":[2,4,6,8,10,12,14,16,18,20,22,24,-1,26,28,30,32,-1,34,36,38,40,42,44,-1,46,-1,-1,-1,-1,-1,-1,-1,-1,-1,-1,-1,-1,-1,-1,-1,-1,-1,-1,-1,-1,-1],"split_conditions":[6.097561E-1,4.878049E-1,6.4102566E-1,0E0,4E0,6.329114E-1,1.61E2,4.878049E-1,9.95E-1,2.6091955E0,1.8E-1,1.517E0,-1.6576495E-2,3.55E-1,1.3214285E0,4E0,1.41E2,1.6513446E-2,1.11E0,5E0,2.672131E0,1E0,1.5655556E0,7E0,4.315933E-2,8E0,6.0769767E-3,4.152748E-2,-1.2878589E-2,-4.8640594E-2,-1.2803643E-2,-3.0867577E-2,-5.544147E-2,-3.9227165E-2,-9.093147E-3,6.482921E-5,-3.5961207E-2,2.4289442E-2,-1.0411369E-2,-1.6288208E-2,4.0946613E-4,2.9089882E-3,2.2755533E-2,-8.674553E-3,2.161624E-2,3.175139E-2,5.3990275E-2],"split_indices":[26,26,26,10,16,22,17,22,3,14,5,3,0,5,3,17,17,0,3,8,14,7,1,8,0,17,0,0,0,0,0,0,0,0,0,0,0,0,0,0,0,0,0,0,0,0,0],"split_type":[0,0,0,0,0,0,0,0,0,0,0,0,0,0,0,0,0,0,0,0,0,0,0,0,0,0,0,0,0,0,0,0,0,0,0,0,0,0,0,0,0,0,0,0,0,0,0],"sum_hessian":[1.8498446E3,1.6673478E3,1.8249677E2,3.0380334E2,1.3635444E3,6.2188286E1,1.2030849E2,1.19784E2,1.8401936E2,1.2072238E2,1.242822E3,4.5137985E1,1.70503E1,9.066685E1,2.9641636E1,9.38973E1,2.5886694E1,1.49644165E1,1.6905495E2,5.543675E1,6.528564E1,9.496397E2,2.931823E2,2.9773138E1,1.5364846E1,7.157376E1,1.909309E1,1.135303E1,1.8288605E1,1.0948559E1,8.294874E1,1.2708729E1,1.3177965E1,1.745133E1,1.516036E2,1.0744748E1,4.4692E1,1.6732508E1,4.8553127E1,6.1428127E1,8.882116E2,1.9235901E2,1.0082331E2,1.1672513E1,1.8100624E1,4.8672733E1,2.2901024E1],"tree_param":{"num_deleted":"0","num_feature":"30","num_nodes":"47","size_leaf_vector":"1"}},{"base_weights":[3.3089966E-3,-3.0419728E-1,6.435294E-2,-4.5353077E-2,-2.665489E-1,1.7895702E-2,4.1693422E-1,-2.9796133E-2,-3.2667845E-1,-1.4261132E-2,4.016325E-1,5.8805746E-1,2.8267333E-1,2.1069134E-2,-2.6253322E-1,-3.6556344E-2,-2.8726342E-1,-2.1383381E-1,2.72848E-2,-5.538997E-3,5.0792944E-1,2.804484E-1,7.150846E-1,-2.2805266E-1,4.4070625E-1,-3.2375805E-2,-3.3339302E-4,1.3552097E-2,-1.6423864E-2,1.8297138E-2,-1.4102595E-2,2.456312E-3,-1.5403124E-2,4.0621556E-2,1.3027755E-2,3.867763E-2,-5.7537234E-3,1.8630378E-2,4.3853443E-2,8.1079727E-4,-2.400946E-2,8.810898E-3,2.9188594E-2],"categories":[],"categories_nodes":[],"categories_segments":[],"categories_sizes":[],"default_left":[0,0,1,0,0,1,0,0,1,0,1,0,0,0,0,0,0,0,0,0,0,0,0,0,0,0,0,0,0,0,0,0,0,0,0,0,0,0,0,0,0,0,0],"id":11,"left_children":[1,3,5,-1,7,9,11,13,15,17,19,21,23,-1,25,-1,27,29,31,-1,33,35,37,39,41,-1,-1,-1,-1,-1,-1,-1,-1,-1,-1,-1,-1,-1,-1,-1,-1,-1,-1],"loss_changes":[3.469136E1,6.5871773E0,2.5227982E1,0E0,4.077753E0,1.6887083E1,3.867941E0,6.405397E0,3.3631363E0,1.0472502E1,5.8591805E0,2.732483E0,8.4163685E0,0E0,3.9106996E0,0E0,4.9713516E0,8.703111E0,7.6319437E0,0E0,6.307535E0,4.9444375E0,2.5468216E0,1.5812496E0,2.8094416E0,0E0,0E0,0E0,0E0,0E0,0E0,0E0,0E0,0E0,0E0,0E0,0E0,0E0,0E0,0E0,0E0,0E0,0E0],"parents":[2147483647,0,0,1,1,2,2,4,4,5,5,6,6,7,7,8,8,9,9,10,10,11,11,12,12,14,14,16,16,17,17,18,18,20,20,21,21,22,22,23,23,24,24],"right_children":[2,4,6,-1,8,10,12,14,16,18,20,22,24,-1,26,-1,28,30,32,-1,34,36,38,40,42,-1,-1,-1,-1,-1,-1,-1,-1,-1,-1,-1,-1,-1,-1,-1,-1,-1,-1],"split_conditions":[4.878049E-1,8.2875E-1,6.1349696E-1,-4.5353077E-2,2.44E0,1.3E1,5.555556E-1,2.5839794E-1,1E0,7E0,2.6091955E0,1.20375E0,5.7894737E-1,2.1069134E-2,3.154574E-1,-3.6556344E-2,-4.6625E-1,-4E-1,1.5E1,-5.538997E-3,5.44E-1,9.47E-1,6.4102566E-1,1.6428572E-1,1.724E0,-3.2375805E-2,-3.3339302E-4,1.3552097E-2,-1.6423864E-2,1.8297138E-2,-1.4102595E-2,2.456312E-3,-1.5403124E-2,4.0621556E-2,1.3027755E-2,3.867763E-2,-5.7537234E-3,1.8630378E-2,4.3853443E-2,8.1079727E-4,-2.400946E-2,8.810898E-3,2.9188594E-2],"split_indices":[26,1,26,0,14,8,15,24,7,16,14,3,15,0,24,0,5,5,9,0,15,3,26,5,0,0,0,0,0,0,0,0,0,0,0,0,0,0,0,0,0,0,0],"split_type":[0,0,0,0,0,0,0,0,0,0,0,0,0,0,0,0,0,0,0,0,0,0,0,0,0,0,0,0,0,0,0,0,0,0,0,0,0,0,0,0,0,0,0],"sum_hessian":[1.847332E3,3.0504733E2,1.5422847E3,1.641674E1,2.886306E2,1.3639064E3,1.7837827E2,5.909801E1,2.295326E2,1.2590973E3,1.048091E2,7.6609825E1,1.0176844E2,1.9689049E1,3.9408962E1,1.8598783E1,2.109338E2,2.1664891E2,1.0424484E3,1.7837786E1,8.697131E1,2.3557636E1,5.305219E1,2.379444E1,7.7974E1,1.4967255E1,2.4441708E1,1.3950458E1,1.9698335E2,2.2194084E1,1.9445482E2,9.797858E2,6.2662544E1,3.7779167E1,4.919215E1,1.0172495E1,1.3385141E1,1.8293192E1,3.4758995E1,1.2359599E1,1.1434841E1,2.8400377E1,4.9573627E1],"tree_param":{"num_deleted":"0","num_feature":"30","num_nodes":"43","size_leaf_vector":"1"}},{"base_weights":[-9.247289E-3,5.383115E-2,-2.442267E-1,2.7348888E-1,1.0387991E-2,-1.7860584E-1,-5.387062E-1,9.9492475E-2,4.5432934E-1,-3.534731E-2,2.4160366E-1,-2.965058E-1,-6.368803E-2,-3.8574374E-1,-5.6535937E-2,1.7393136E-1,-2.2501925E-2,8.491173E-2,6.0507536E-1,-3.1453052E-1,-3.282117E-3,4.6118073E-2,4.5682588E-1,2.9101921E-3,-4.142809E-1,-3.850812E-1,9.267884E-2,-4.935947E-2,-2.2261438E-1,3.0979607E-2,4.934265E-3,1.5991611E-2,-2.2319714E-2,2.2490993E-2,5.3477373E-2,-2.2513604E-2,9.237439E-3,-2.1800527E-2,5.965858E-4,-4.8560654E-3,4.0744506E-2,2.7240505E-2,-4.865709E-3,1.4720241E-2,-3.040429E-2,-4.6267767E-2,-1.6376246E-2,-4.3986615E-2,-9.762631E-3,9.507078E-3,-2.0301616E-2,-3.274768E-2,-1.6478168E-4],"categories":[],"categories_nodes":[],"categories_segments":[],"categories_sizes":[],"default_left":[1,0,1,1,1,0,0,0,0,0,1,0,1,1,0,0,0,0,0,0,0,1,1,1,0,1,0,0,0,0,0,0,0,0,0,0,0,0,0,0,0,0,0,0,0,0,0,0,0,0,0,0,0],"id":12,"left_children":[1,3,5,7,9,11,13,15,17,19,21,23,25,27,-1,29,-1,31,33,35,37,39,41,43,45,47,49,-1,51,-1,-1,-1,-1,-1,-1,-1,-1,-1,-1,-1,-1,-1,-1,-1,-1,-1,-1,-1,-1,-1,-1,-1,-1],"loss_changes":[2.7527756E1,1.3929007E1,7.428314E0,7.4870243E0,1.2959874E1,4.324603E0,5.8290215E0,5.14179E0,6.433138E0,9.110603E0,8.444994E0,5.643858E0,8.376788E0,5.346224E0,0E0,3.5722756E0,0E0,4.556091E0,5.3682365E0,7.218546E0,6.0878267E0,1.1980842E1,4.77783E0,8.268472E0,4.6373386E0,4.841511E0,5.4925494E0,0E0,4.3902807E0,0E0,0E0,0E0,0E0,0E0,0E0,0E0,0E0,0E0,0E0,0E0,0E0,0E0,0E0,0E0,0E0,0E0,0E0,0E0,0E0,0E0,0E0,0E0,0E0],"parents":[2147483647,0,0,1,1,2,2,3,3,4,4,5,5,6,6,7,7,8,8,9,9,10,10,11,11,12,12,13,13,15,15,17,17,18,18,19,19,20,20,21,21,22,22,23,23,24,24,25,25,26,26,28,28],"right_children":[2,4,6,8,10,12,14,16,18,20,22,24,26,28,-1,30,-1,32,34,36,38,40,42,44,46,48,50,-1,52,-1,-1,-1,-1,-1,-1,-1,-1,-1,-1,-1,-1,-1,-1,-1,-1,-1,-1,-1,-1,-1,-1,-1,-1],"split_conditions":[2.840909E-1,2.5E-1,1.5377778E0,1.237E0,3.0253165E0,3.154574E-1,1.83E2,1E1,2.1231422E-1,4E0,1.4E0,2.9761904E-1,7E0,1.698E0,-5.6535937E-2,1.198E0,-2.2501925E-2,2.2883295E-1,2.3923445E-1,1.25E2,7.41E-1,1.3E1,3.472222E-1,1.8E-2,-1.94E-1,5E0,4.4642857E-1,-4.935947E-2,6E0,3.0979607E-2,4.934265E-3,1.5991611E-2,-2.2319714E-2,2.2490993E-2,5.3477373E-2,-2.2513604E-2,9.237439E-3,-2.1800527E-2,5.965858E-4,-4.8560654E-3,4.0744506E-2,2.7240505E-2,-4.865709E-3,1.4720241E-2,-3.040429E-2,-4.6267767E-2,-1.6376246E-2,-4.3986615E-2,-9.762631E-3,9.507078E-3,-2.0301616E-2,-3.274768E-2,-1.6478168E-4],"split_indices":[23,23,3,3,14,24,17,9,22,16,2,23,17,6,0,0,0,23,23,17,1,8,22,4,5,9,24,0,17,0,0,0,0,0,0,0,0,0,0,0,0,0,0,0,0,0,0,0,0,0,0,0,0],"split_type":[0,0,0,0,0,0,0,0,0,0,0,0,0,0,0,0,0,0,0,0,0,0,0,0,0,0,0,0,0,0,0,0,0,0,0,0,0,0,0,0,0,0,0,0,0,0,0,0,0,0,0,0,0],"sum_hessian":[1.8540344E3,1.4619346E3,3.9209988E2,2.4013988E2,1.2217947E3,3.2223923E2,6.9860664E1,1.23457695E2,1.1668218E2,1.02037537E3,2.0141933E2,1.5784634E2,1.6439288E2,5.696318E1,1.2897481E1,1.0949155E2,1.3966145E1,3.4460377E1,8.22218E1,1.0389151E2,9.164838E2,1.0642908E2,9.499024E1,4.4596424E1,1.1324992E2,5.353501E1,1.1085788E2,1.0945044E1,4.601814E1,1.45793085E1,9.491224E1,2.430153E1,1.0158843E1,6.326009E1,1.8961714E1,8.191839E1,2.1973118E1,3.041114E1,8.860727E2,9.034026E1,1.6088818E1,8.214489E1,1.2845354E1,3.0653868E1,1.3942556E1,1.4864603E1,9.8385315E1,1.3692987E1,3.9842022E1,9.342011E1,1.7437765E1,1.4665678E1,3.1352459E1],"tree_param":{"num_deleted":"0","num_feature":"30","num_nodes":"53","size_leaf_vector":"1"}},{"base_weights":[1.4411697E-2,8.418419E-2,-1.8259233E-1,3.077553E-1,3.701972E-2,-3.689883E-1,-1.1962253E-1,1.1955733E-1,5.139222E-1,-1.3879245E-2,2.8436515E-1,-7.1590656E-1,-1.9532883E-1,-1.5854685E-1,2.3580505E-1,-6.774111E-3,4.3978578E-1,7.888514E-1,1.8601024E-1,-1.5907204E-1,4.0421277E-2,4.4244718E-2,2.1998292E-1,-2.0257918E-2,-4.993627E-2,2.1241628E-2,-2.9248336E-1,-1.1613635E-1,-6.476215E-1,3.2237913E-2,-5.4476336E-2,-1.2710258E-2,1.41660115E-2,2.4917647E-3,4.2482328E-2,2.070277E-2,5.5262234E-2,-1.9890731E-2,2.2110773E-2,2.797567E-3,-1.3221196E-2,2.0137608E-2,6.282472E-4,-2.5543127E-2,1.4368567E-2,-2.1883438E-3,-2.8305134E-2,-1.15064625E-2,7.377348E-4,3.261805E-3,-6.021471E-2,1.4552898E-2,-2.0920267E-2],"categories":[],"categories_nodes":[],"categories_segments":[],"categories_sizes":[],"default_left":[1,0,0,1,1,0,1,0,0,0,0,0,0,0,1,0,0,1,1,1,0,0,1,0,0,0,0,0,0,0,0,0,0,0,0,0,0,0,0,0,0,0,0,0,0,0,0,0,0,0,0,0,0],"id":13,"left_children":[1,3,5,7,9,11,13,15,17,19,21,23,25,27,29,31,33,35,37,39,41,-1,43,-1,-1,-1,45,47,49,-1,51,-1,-1,-1,-1,-1,-1,-1,-1,-1,-1,-1,-1,-1,-1,-1,-1,-1,-1,-1,-1,-1,-1],"loss_changes":[2.5474916E1,1.4393672E1,5.59437E0,9.1116295E0,1.4286542E1,7.087614E0,5.0665646E0,5.1438246E0,9.947117E0,7.426919E0,7.1811132E0,2.9665928E0,5.0830984E0,6.6723137E0,4.377782E0,6.6095223E0,5.6032004E0,6.6258926E0,8.112453E0,5.8457685E0,6.859342E0,0E0,8.810246E0,0E0,0E0,0E0,4.8193254E0,4.562983E0,1.04487295E1,0E0,2.8863413E0,0E0,0E0,0E0,0E0,0E0,0E0,0E0,0E0,0E0,0E0,0E0,0E0,0E0,0E0,0E0,0E0,0E0,0E0,0E0,0E0,0E0,0E0],"parents":[2147483647,0,0,1,1,2,2,3,3,4,4,5,5,6,6,7,7,8,8,9,9,10,10,11,11,12,12,13,13,14,14,15,15,16,16,17,17,18,18,19,19,20,20,22,22,26,26,27,27,28,28,30,30],"right_children":[2,4,6,8,10,12,14,16,18,20,22,24,26,28,30,32,34,36,38,40,42,-1,44,-1,-1,-1,46,48,50,-1,52,-1,-1,-1,-1,-1,-1,-1,-1,-1,-1,-1,-1,-1,-1,-1,-1,-1,-1,-1,-1,-1,-1],"split_conditions":[2.7322406E-1,2.5E-1,-2.95E-1,1.254E0,3.0253165E0,-1.46E-1,2.09E2,5.8278143E-1,5.531915E-1,1E1,-4E0,3.968254E-1,1.304E0,1.93E2,7E0,1.2E1,2.247191E-1,1.33E0,-2E0,2.5370371E0,9.6E-1,4.4244718E-2,-3E0,-2.0257918E-2,-4.993627E-2,2.1241628E-2,4.1152263E-1,7E0,2.9498526E-1,3.2237913E-2,2.967359E-1,-1.2710258E-2,1.41660115E-2,2.4917647E-3,4.2482328E-2,2.070277E-2,5.5262234E-2,-1.9890731E-2,2.2110773E-2,2.797567E-3,-1.3221196E-2,2.0137608E-2,6.282472E-4,-2.5543127E-2,1.4368567E-2,-2.1883438E-3,-2.8305134E-2,-1.15064625E-2,7.377348E-4,3.261805E-3,-6.021471E-2,1.4552898E-2,-2.0920267E-2],"split_indices":[23,23,4,3,14,5,17,15,15,16,10,22,2,17,7,17,23,0,10,14,3,0,10,0,0,0,22,8,23,0,23,0,0,0,0,0,0,0,0,0,0,0,0,0,0,0,0,0,0,0,0,0,0],"split_type":[0,0,0,0,0,0,0,0,0,0,0,0,0,0,0,0,0,0,0,0,0,0,0,0,0,0,0,0,0,0,0,0,0,0,0,0,0,0,0,0,0,0,0,0,0,0,0,0,0,0,0,0,0],"sum_hessian":[1.8519305E3,1.368376E3,4.835545E2,2.3705101E2,1.131325E3,1.204789E2,3.630756E2,1.2500555E2,1.1204546E2,9.3869836E2,1.926266E2,3.8956825E1,8.152207E1,3.2799124E2,3.5084373E1,9.0119576E1,3.4885975E1,6.0015987E1,5.202948E1,2.5548245E2,6.832159E2,1.7267284E1,1.7535931E2,1.9889414E1,1.9067411E1,1.0445272E1,7.1076805E1,3.0314566E2,2.4845587E1,1.4201048E1,2.0883326E1,4.8888977E1,4.1230595E1,1.8576992E1,1.630898E1,2.867391E1,3.1342075E1,1.5581125E1,3.6448357E1,8.3854645E1,1.716278E2,4.7559208E1,6.356567E2,1.4123319E1,1.6123601E2,3.8031803E1,3.3045E1,1.6203517E2,1.4111047E2,1.1202802E1,1.3642785E1,1.0674151E1,1.0209174E1],"tree_param":{"num_deleted":"0","num_feature":"30","num_nodes":"53","size_leaf_vector":"1"}},{"base_weights":[1.3256462E-2,-2.3199989E-2,3.4521544E-1,-2.0808628E-1,2.4405504E-2,4.8682234E-1,1.9382448E-1,-2.2994557E-1,1.5512082E-2,-3.2938877E-1,4.498449E-2,5.841896E-1,-8.028179E-4,-3.408576E-1,3.5229707E-1,-1.8930846E-1,-6.1233354E-1,-3.9922465E-2,-2.3723927E-1,1.3081894E-2,2.7646947E-1,7.1516204E-1,1.9704142E-1,-3.157936E-2,-7.059993E-4,2.3046413E-1,4.5955528E-2,-4.939235E-3,-1.8440964E-2,-5.131591E-2,-4.1762223E-3,-2.657035E-2,-0E0,9.752781E-3,-1.5615093E-3,3.243668E-3,2.8866941E-2,4.2690635E-2,1.4756548E-2,-1.2625418E-2,3.2900225E-2,2.7471993E-2,-1.129233E-2],"categories":[],"categories_nodes":[],"categories_segments":[],"categories_sizes":[],"default_left":[1,0,0,1,1,1,0,1,0,0,0,1,0,0,1,0,1,0,0,0,1,0,0,0,0,1,0,0,0,0,0,0,0,0,0,0,0,0,0,0,0,0,0],"id":14,"left_children":[1,3,5,7,9,11,13,15,-1,17,19,21,-1,23,25,27,29,-1,31,33,35,37,39,-1,-1,41,-1,-1,-1,-1,-1,-1,-1,-1,-1,-1,-1,-1,-1,-1,-1,-1,-1],"loss_changes":[2.2617266E1,1.4824369E1,3.8023262E0,3.9707403E0,9.7261715E0,4.6959743E0,7.864505E0,4.9577904E0,0E0,2.8791113E0,9.312093E0,3.7944279E0,0E0,1.9457531E0,4.585083E0,4.8160667E0,6.6286097E0,0E0,4.4291854E0,9.001539E0,9.628326E0,3.0553627E0,4.692513E0,0E0,0E0,8.893102E0,0E0,0E0,0E0,0E0,0E0,0E0,0E0,0E0,0E0,0E0,0E0,0E0,0E0,0E0,0E0,0E0,0E0],"parents":[2147483647,0,0,1,1,2,2,3,3,4,4,5,5,6,6,7,7,9,9,10,10,11,11,13,13,14,14,15,15,16,16,18,18,19,19,20,20,21,21,22,22,25,25],"right_children":[2,4,6,8,10,12,14,16,-1,18,20,22,-1,24,26,28,30,-1,32,34,36,38,40,-1,-1,42,-1,-1,-1,-1,-1,-1,-1,-1,-1,-1,-1,-1,-1,-1,-1,-1,-1],"split_conditions":[6.097561E-1,4.950495E-1,2.9464788E0,1.6325E0,2E0,4.96E-1,2.9784946E0,1.3785714E0,1.5512082E-2,1.463E0,1.2E1,1.7725E0,-8.028179E-4,2.0920502E-1,1.2E1,4.861111E-1,1.452E0,-3.9922465E-2,5E-1,2.5337837E0,1.75E0,7E0,7.751938E-1,-3.157936E-2,-7.059993E-4,1.31E0,4.5955528E-2,-4.939235E-3,-1.8440964E-2,-5.131591E-2,-4.1762223E-3,-2.657035E-2,-0E0,9.752781E-3,-1.5615093E-3,3.243668E-3,2.8866941E-2,4.2690635E-2,1.4756548E-2,-1.2625418E-2,3.2900225E-2,2.7471993E-2,-1.129233E-2],"split_indices":[26,26,14,1,9,5,14,1,0,3,8,1,0,23,8,15,0,0,15,14,1,10,22,0,0,0,0,0,0,0,0,0,0,0,0,0,0,0,0,0,0,0,0],"split_type":[0,0,0,0,0,0,0,0,0,0,0,0,0,0,0,0,0,0,0,0,0,0,0,0,0,0,0,0,0,0,0,0,0,0,0,0,0,0,0,0,0,0,0],"sum_hessian":[1.8645568E3,1.6806167E3,1.8394008E2,3.4386636E2,1.3367504E3,9.355505E1,9.0385025E1,3.306704E2,1.319596E1,7.238808E1,1.2643623E3,7.841042E1,1.5144637E1,2.0256899E1,7.012813E1,3.00493E2,3.0177383E1,1.044925E1,6.1938824E1,1.1125256E3,1.518366E2,5.776345E1,2.064697E1,1.0063435E1,1.0193464E1,5.9024258E1,1.11038685E1,2.0115956E2,9.933345E1,1.6292606E1,1.3884778E1,2.7228485E1,3.471034E1,2.1763443E2,8.9489124E2,9.005235E1,6.1784245E1,4.2472595E1,1.52908535E1,1.0572005E1,1.0074966E1,3.47488E1,2.427546E1],"tree_param":{"num_deleted":"0","num_feature":"30","num_nodes":"43","size_leaf_vector":"1"}},{"base_weights":[1.3461779E-3,-2.7177942E-1,5.6179058E-2,-1.6556819E-1,-4.7654766E-1,2.5372397E-2,3.9905572E-1,-5.9140664E-1,-8.805778E-2,-2.6182973E-1,-7.458263E-1,-1.160846E-2,1.7307676E-1,5.2081054E-1,-2.4225254E-2,-4.25265E-2,-8.102972E-3,-5.779284E-1,-2.4136931E-3,-4.148809E-1,8.124062E-3,-1.784815E-2,-9.832089E-1,2.2157066E-1,-4.0092357E-2,1.08420745E-1,7.239158E-1,4.03131E-1,8.602763E-1,-2.2276983E-2,2.900656E-2,-4.601063E-2,-2.868192E-3,3.124258E-3,-2.2819703E-2,-3.715871E-2,-9.9309655E-3,-6.6106014E-2,-1.9850088E-2,1.6769864E-2,-7.7468515E-3,-2.6355374E-3,1.8601606E-2,-1.7328924E-2,8.904913E-3,4.714593E-2,2.144105E-2,2.4827518E-2,-4.848447E-3,5.2152224E-2,2.732305E-2],"categories":[],"categories_nodes":[],"categories_segments":[],"categories_sizes":[],"default_left":[0,0,1,1,1,1,0,0,0,1,0,0,0,0,1,0,0,0,1,1,0,0,0,0,1,1,0,0,0,0,0,0,0,0,0,0,0,0,0,0,0,0,0,0,0,0,0,0,0,0,0],"id":15,"left_children":[1,3,5,7,9,11,13,15,17,19,21,23,25,27,29,-1,-1,31,33,35,-1,-1,37,39,41,43,45,47,49,-1,-1,-1,-1,-1,-1,-1,-1,-1,-1,-1,-1,-1,-1,-1,-1,-1,-1,-1,-1,-1,-1],"loss_changes":[2.7637205E1,6.5658703E0,1.6196774E1,6.64556E0,5.7461967E0,7.7355094E0,6.5809383E0,3.2309504E0,7.2735696E0,3.981937E0,3.7255688E0,7.498323E0,9.935534E0,3.4601002E0,7.6361628E0,0E0,0E0,4.4522724E0,4.485921E0,2.915317E0,0E0,0E0,4.7853146E0,5.3335433E0,5.232377E0,8.131335E0,1.361309E0,3.6020203E0,6.61644E-1,0E0,0E0,0E0,0E0,0E0,0E0,0E0,0E0,0E0,0E0,0E0,0E0,0E0,0E0,0E0,0E0,0E0,0E0,0E0,0E0,0E0,0E0],"parents":[2147483647,0,0,1,1,2,2,3,3,4,4,5,5,6,6,7,7,8,8,9,9,10,10,11,11,12,12,13,13,14,14,17,17,18,18,19,19,22,22,23,23,24,24,25,25,26,26,27,27,28,28],"right_children":[2,4,6,8,10,12,14,16,18,20,22,24,26,28,30,-1,-1,32,34,36,-1,-1,38,40,42,44,46,48,50,-1,-1,-1,-1,-1,-1,-1,-1,-1,-1,-1,-1,-1,-1,-1,-1,-1,-1,-1,-1,-1,-1],"split_conditions":[4.878049E-1,1.49E2,6.4102566E-1,3E0,1.048E0,3.148E0,1.61E2,2.5416667E0,1.078E0,7E0,2.3673334E0,2.3584905E-1,5.58E-1,5.9E1,3.258E0,-4.25265E-2,-8.102972E-3,2.5714285E0,1.34E0,1.77E2,8.124062E-3,-1.784815E-2,4E0,2.9675677E0,1.4E1,4.6478873E-1,1.4E1,1.2E1,4.22E0,-2.2276983E-2,2.900656E-2,-4.601063E-2,-2.868192E-3,3.124258E-3,-2.2819703E-2,-3.715871E-2,-9.9309655E-3,-6.6106014E-2,-1.9850088E-2,1.6769864E-2,-7.7468515E-3,-2.6355374E-3,1.8601606E-2,-1.7328924E-2,8.904913E-3,4.714593E-2,2.144105E-2,2.4827518E-2,-4.848447E-3,5.2152224E-2,2.732305E-2],"split_indices":[26,17,26,7,3,6,17,14,3,9,6,24,5,17,6,0,0,14,1,17,0,0,10,14,16,15,17,7,6,0,0,0,0,0,0,0,0,0,0,0,0,0,0,0,0,0,0,0,0,0,0],"split_type":[0,0,0,0,0,0,0,0,0,0,0,0,0,0,0,0,0,0,0,0,0,0,0,0,0,0,0,0,0,0,0,0,0,0,0,0,0,0,0,0,0,0,0,0,0,0,0,0,0,0,0],"sum_hessian":[1.8448207E3,3.074776E2,1.537343E3,2.0397481E2,1.03502785E2,1.4118567E3,1.2548635E2,3.019034E1,1.7378447E2,5.8889256E1,4.461353E1,1.1293458E3,2.8251083E2,9.745866E1,2.8027697E1,1.8070425E1,1.2119917E1,2.4832253E1,1.4895221E2,4.3468014E1,1.542124E1,1.8019793E1,2.6593737E1,1.21817314E2,1.00752856E3,2.5406744E2,2.8443388E1,7.421376E1,2.3244896E1,1.676711E1,1.1260587E1,1.4402459E1,1.0429793E1,1.3088377E2,1.806843E1,1.6111416E1,2.73566E1,1.5947714E1,1.0646023E1,9.3826324E1,2.7990988E1,9.786782E2,2.8850344E1,3.302203E1,2.2104543E2,1.4872027E1,1.3571361E1,6.2707054E1,1.1506707E1,1.3019715E1,1.022518E1],"tree_param":{"num_deleted":"0","num_feature":"30","num_nodes":"51","size_leaf_vector":"1"}},{"base_weights":[-7.3872474E-3,-1.9925381E-1,6.797625E-2,-4.79538E-1,-1.5275256E-1,2.4384925E-2,3.4343675E-1,1.6999666E-2,-6.180135E-1,-1.7043181E-1,2.0262597E-2,-2.2349492E-1,5.2919082E-2,4.356812E-1,1.0504303E-1,-7.89018E-1,-0E0,2.0301335E-1,-1.979968E-1,-5.00644E-1,2.6873587E-2,-8.108952E-3,1.4846575E-1,4.9883223E-1,-9.404613E-3,-2.7241722E-2,4.4052008E-1,-2.319905E-2,-5.356596E-2,2.6183253E-2,-1.0249386E-2,1.4153222E-2,-1.09253405E-2,-1.0107071E-2,-3.993741E-2,-1.0227687E-2,3.8712513E-2,2.708188E-2,-1.3028007E-3,2.707693E-3,1.6233375E-2,2.7386729E-2,-0E0,-9.439333E-3,3.7368737E-2],"categories":[],"categories_nodes":[],"categories_segments":[],"categories_sizes":[],"default_left":[0,0,1,0,1,1,1,0,0,0,0,0,1,0,0,0,0,0,0,0,1,0,0,1,0,0,0,0,0,0,0,0,0,0,0,0,0,0,0,0,0,0,0,0,0],"id":16,"left_children":[1,3,5,7,9,11,13,-1,15,17,-1,19,21,23,25,27,-1,29,31,33,35,37,39,41,-1,-1,43,-1,-1,-1,-1,-1,-1,-1,-1,-1,-1,-1,-1,-1,-1,-1,-1,-1,-1],"loss_changes":[2.6741638E1,6.6626987E0,1.5887538E1,8.574453E0,4.477068E0,8.107383E0,3.8782005E0,0E0,6.737011E0,4.5308723E0,0E0,8.264867E0,6.0197077E0,5.2383366E0,1.1585906E1,3.9058514E0,0E0,4.094678E0,4.071643E0,4.7532177E0,1.1090684E1,6.1654334E0,6.625828E0,2.927637E0,0E0,0E0,6.9573584E0,0E0,0E0,0E0,0E0,0E0,0E0,0E0,0E0,0E0,0E0,0E0,0E0,0E0,0E0,0E0,0E0,0E0,0E0],"parents":[2147483647,0,0,1,1,2,2,3,3,4,4,5,5,6,6,8,8,9,9,11,11,12,12,13,13,14,14,15,15,17,17,18,18,19,19,20,20,21,21,22,22,23,23,26,26],"right_children":[2,4,6,8,10,12,14,-1,16,18,-1,20,22,24,26,28,-1,30,32,34,36,38,40,42,-1,-1,44,-1,-1,-1,-1,-1,-1,-1,-1,-1,-1,-1,-1,-1,-1,-1,-1,-1,-1],"split_conditions":[5.524862E-1,-2.19E-1,6.1349696E-1,1.078E0,3.366E0,3E0,5.06E-1,1.6999666E-2,4E0,-1.375E-1,2.0262597E-2,5.9E1,1.25E-2,1.2E1,1.8466667E0,1.222E0,-0E0,2E0,7.1E-1,1.1E1,4E0,2.3474178E-1,3.4265E0,4.6555555E-1,-9.404613E-3,-2.7241722E-2,3E0,-2.319905E-2,-5.356596E-2,2.6183253E-2,-1.0249386E-2,1.4153222E-2,-1.09253405E-2,-1.0107071E-2,-3.993741E-2,-1.0227687E-2,3.8712513E-2,2.708188E-2,-1.3028007E-3,2.707693E-3,1.6233375E-2,2.7386729E-2,-0E0,-9.439333E-3,3.7368737E-2],"split_indices":[26,5,26,3,6,7,4,0,10,5,0,17,5,7,1,0,0,10,0,9,8,23,6,5,0,0,10,0,0,0,0,0,0,0,0,0,0,0,0,0,0,0,0,0,0],"split_type":[0,0,0,0,0,0,0,0,0,0,0,0,0,0,0,0,0,0,0,0,0,0,0,0,0,0,0,0,0,0,0,0,0,0,0,0,0,0,0,0,0,0,0,0,0],"sum_hessian":[1.8465417E3,5.206673E2,1.3258744E3,7.245929E1,4.4820804E2,1.1459764E3,1.7989798E2,1.0158926E1,6.230036E1,4.352905E2,1.29175205E1,1.1723181E2,1.0287446E3,1.2880927E2,5.1088707E1,4.86571E1,1.3643259E1,2.9234491E1,4.06056E2,5.5355263E1,6.1876545E1,6.2769116E2,4.0105344E2,1.17294914E2,1.1514359E1,1.7079874E1,3.4008835E1,2.4010084E1,2.4647017E1,1.6348032E1,1.2886459E1,1.5881414E1,3.901746E2,2.8665249E1,2.6690016E1,4.7698936E1,1.4177609E1,1.8745186E1,6.08946E2,2.6245135E2,1.3860208E2,1.06873215E2,1.0421695E1,1.1166702E1,2.284213E1],"tree_param":{"num_deleted":"0","num_feature":"30","num_nodes":"45","size_leaf_vector":"1"}},{"base_weights":[-2.1105053E-2,-4.963712E-2,3.9611027E-1,-2.4945028E-1,-1.7465081E-3,6.268595E-1,2.403282E-1,-3.7168527E-1,-1.3427734E-1,-2.6117218E-1,2.281599E-2,1.0841768E-2,8.956261E-1,-2.599562E-1,4.6246025E-1,-1.9122192E-1,-6.3985425E-1,3.1666446E-2,-1.9281033E-1,-3.354953E-1,2.356337E-2,-2.173E-1,4.673362E-2,2.3190914E-2,5.6086726E-2,7.5924024E-3,-3.3123862E-2,3.1147158E-1,4.1063752E-2,-1.7812883E-2,2.0943515E-3,-3.785808E-2,-1.4705536E-3,-2.150557E-2,-5.3984663E-3,-1.0628369E-2,-5.1567245E-2,-1.6882606E-2,7.991938E-3,1.9081548E-3,4.2956073E-2,2.8380726E-2,-5.1156207E-5],"categories":[],"categories_nodes":[],"categories_segments":[],"categories_sizes":[],"default_left":[1,0,0,1,1,0,0,0,0,1,0,0,0,0,1,0,1,0,0,1,0,0,1,0,0,0,0,0,0,0,0,0,0,0,0,0,0,0,0,0,0,0,0],"id":17,"left_children":[1,3,5,7,9,11,13,15,17,19,21,-1,23,25,27,29,31,-1,33,35,-1,37,39,-1,-1,-1,-1,41,-1,-1,-1,-1,-1,-1,-1,-1,-1,-1,-1,-1,-1,-1,-1],"loss_changes":[2.187962E1,1.6458735E1,3.99057E0,4.582489E0,8.89346E0,4.8213463E0,8.152325E0,7.55641E0,7.8624787E0,6.71739E0,7.2939553E0,0E0,2.0193253E0,3.9094071E0,2.3628006E0,3.7980843E0,4.4725456E0,0E0,3.1586142E0,9.093658E0,0E0,5.289545E0,7.935324E0,0E0,0E0,0E0,0E0,3.0426798E0,0E0,0E0,0E0,0E0,0E0,0E0,0E0,0E0,0E0,0E0,0E0,0E0,0E0,0E0,0E0],"parents":[2147483647,0,0,1,1,2,2,3,3,4,4,5,5,6,6,7,7,8,8,9,9,10,10,12,12,13,13,14,14,15,15,16,16,18,18,19,19,21,21,22,22,27,27],"right_children":[2,4,6,8,10,12,14,16,18,20,22,-1,24,26,28,30,32,-1,34,36,-1,38,40,-1,-1,-1,-1,42,-1,-1,-1,-1,-1,-1,-1,-1,-1,-1,-1,-1,-1,-1,-1],"split_conditions":[6.4102566E-1,4.950495E-1,5.519713E-1,1E0,2E0,1.244E0,3.1775E0,4.347826E-1,3E0,2.962E0,4E0,1.0841768E-2,5.091743E-1,2.7683334E0,1.901E0,4.8295453E-1,1.563E0,3.1666446E-2,5E0,1.052E0,2.356337E-2,5.613208E-1,2E0,2.3190914E-2,5.6086726E-2,7.5924024E-3,-3.3123862E-2,8E0,4.1063752E-2,-1.7812883E-2,2.0943515E-3,-3.785808E-2,-1.4705536E-3,-2.150557E-2,-5.3984663E-3,-1.0628369E-2,-5.1567245E-2,-1.6882606E-2,7.991938E-3,1.9081548E-3,4.2956073E-2,2.8380726E-2,-5.1156207E-5],"split_indices":[26,26,15,10,7,2,6,22,8,6,16,0,15,6,1,15,3,0,9,0,0,15,11,0,0,0,0,9,0,0,0,0,0,0,0,0,0,0,0,0,0,0,0],"split_type":[0,0,0,0,0,0,0,0,0,0,0,0,0,0,0,0,0,0,0,0,0,0,0,0,0,0,0,0,0,0,0,0,0,0,0,0,0,0,0,0,0,0,0],"sum_hessian":[1.8382622E3,1.7216449E3,1.1661727E2,3.316424E2,1.3900024E3,4.552232E1,7.109495E1,1.5938692E2,1.7225548E2,1.1974204E2,1.2702605E3,1.8887238E1,2.6635084E1,2.1669832E1,4.9425117E1,9.652005E1,6.286686E1,1.1387706E1,1.6086777E2,1.0932676E2,1.0415278E1,1.139561E2,1.1563043E3,1.03544235E1,1.628066E1,1.0896426E1,1.0773406E1,3.629781E1,1.3127309E1,5.645319E1,4.0066864E1,5.2394226E1,1.0472633E1,4.0984753E1,1.1988302E2,9.41445E1,1.5182261E1,8.666842E1,2.728768E1,1.1453907E3,1.0913571E1,1.9674664E1,1.6623146E1],"tree_param":{"num_deleted":"0","num_feature":"30","num_nodes":"43","size_leaf_vector":"1"}},{"base_weights":[-4.7099E-3,-3.3969652E-2,3.5530895E-1,-1.6828595E-1,1.2614996E-2,4.9675536E-1,-1.3906634E-1,-8.630446E-2,-3.2969487E-1,-1.071584E-2,2.6273403E-1,2.1550481E-1,6.764072E-1,-2.8206421E-2,2.4310378E-2,-3.0037206E-1,7.915382E-3,2.2778703E-2,-4.274818E-1,-3.3039978E-1,1.6191358E-2,5.2590775E-1,5.2300215E-2,3.3962023E-2,3.8541384E-2,4.69834E-2,5.5066127E-1,-7.5237835E-3,-2.9702673E-2,-1.8335342E-2,3.925324E-3,-1.3931488E-2,-4.9200844E-2,6.18017E-3,-2.1937817E-2,-1.979467E-2,1.6787936E-3,1.366091E-2,4.316477E-2,3.904971E-2,-5.225154E-3,-1.3438858E-2,1.4446514E-2,-3.9130715E-5,3.5656456E-2],"categories":[],"categories_nodes":[],"categories_segments":[],"categories_sizes":[],"default_left":[1,0,0,0,1,0,1,0,0,1,1,0,0,0,0,1,0,0,1,0,0,0,0,0,0,0,0,0,0,0,0,0,0,0,0,0,0,0,0,0,0,0,0,0,0],"id":18,"left_children":[1,3,5,7,9,11,13,15,17,19,21,23,25,-1,-1,27,29,-1,31,33,35,37,39,-1,41,-1,43,-1,-1,-1,-1,-1,-1,-1,-1,-1,-1,-1,-1,-1,-1,-1,-1,-1,-1],"loss_changes":[1.960849E1,1.0807735E1,9.886791E0,5.814389E0,7.501874E0,5.2797318E0,8.718875E0,6.0153503E0,1.1635172E1,1.0118768E1,5.98881E0,3.5314689E0,1.515625E0,0E0,0E0,3.8430338E0,5.4649043E0,0E0,1.0629772E1,4.5785713E0,7.726614E0,3.777769E0,7.264142E0,0E0,2.6364872E0,0E0,4.307848E0,0E0,0E0,0E0,0E0,0E0,0E0,0E0,0E0,0E0,0E0,0E0,0E0,0E0,0E0,0E0,0E0,0E0,0E0],"parents":[2147483647,0,0,1,1,2,2,3,3,4,4,5,5,6,6,7,7,8,8,9,9,10,10,11,11,12,12,15,15,16,16,18,18,19,19,20,20,21,21,22,22,24,24,26,26],"right_children":[2,4,6,8,10,12,14,16,18,20,22,24,26,-1,-1,28,30,-1,32,34,36,38,40,-1,42,-1,44,-1,-1,-1,-1,-1,-1,-1,-1,-1,-1,-1,-1,-1,-1,-1,-1,-1,-1],"split_conditions":[6.289308E-1,5.263158E-1,1.62E2,1.49E2,1.81E2,1.376E0,3.2465E0,6E0,1.048E0,2E0,1.052E0,9.6E-1,1.682E0,-2.8206421E-2,2.4310378E-2,1.331E0,1.1788889E0,2.2778703E-2,2.486E0,-3E0,2E0,2.861472E0,1.912046E-1,3.3962023E-2,7E0,4.69834E-2,1.89E0,-7.5237835E-3,-2.9702673E-2,-1.8335342E-2,3.925324E-3,-1.3931488E-2,-4.9200844E-2,6.18017E-3,-2.1937817E-2,-1.979467E-2,1.6787936E-3,1.366091E-2,4.316477E-2,3.904971E-2,-5.225154E-3,-1.3438858E-2,1.4446514E-2,-3.9130715E-5,3.5656456E-2],"split_indices":[26,26,17,17,17,2,6,17,3,7,0,3,2,0,0,3,3,0,6,10,16,14,24,0,17,0,2,0,0,0,0,0,0,0,0,0,0,0,0,0,0,0,0,0,0],"split_type":[0,0,0,0,0,0,0,0,0,0,0,0,0,0,0,0,0,0,0,0,0,0,0,0,0,0,0,0,0,0,0,0,0,0,0,0,0,0,0,0,0,0,0,0,0],"sum_hessian":[1.8623414E3,1.7234547E3,1.3888664E2,4.4369495E2,1.2797599E3,1.0814312E2,3.0743523E1,2.9567328E2,1.4802167E2,1.1710801E3,1.08679756E2,4.3226646E1,6.491647E1,1.8455301E1,1.2288219E1,9.002033E1,2.0565294E2,1.5873056E1,1.321486E2,9.0328316E1,1.0807517E3,4.7411453E1,6.12683E1,1.0999328E1,3.2227318E1,1.8634792E1,4.6281677E1,6.082688E1,2.9193449E1,3.1717716E1,1.7393523E2,1.0558812E2,2.656049E1,1.71997E1,7.312862E1,4.263363E1,1.0381182E3,2.8312643E1,1.909881E1,1.0257378E1,5.101092E1,1.4256533E1,1.7970787E1,1.0618915E1,3.5662766E1],"tree_param":{"num_deleted":"0","num_feature":"30","num_nodes":"45","size_leaf_vector":"1"}},{"base_weights":[1.2670265E-2,-2.252165E-2,3.2631108E-1,-1.960503E-1,2.116665E-2,1.0413465E-1,4.348189E-1,-2.453359E-1,7.143113E-2,-3.5106876E-1,4.2247865E-2,-6.4720824E-2,4.3891814E-2,-6.2182224E-3,4.986038E-1,-1.8702811E-1,-7.4799716E-1,-1.5045989E-1,2.2653922E-2,-4.000858E-2,-2.4190977E-1,2.6444538E-2,3.9792752E-1,1.7292885E-2,-3.1125328E-1,8.815956E-1,3.6697048E-1,4.577648E-3,-1.318255E-2,-1.6168384E-2,-5.0584506E-2,-2.0909412E-2,1.3337853E-2,-2.091063E-2,7.8916707E-4,-2.031096E-3,6.228078E-3,3.397709E-2,6.953034E-3,7.2951927E-3,-2.6355326E-2,2.0759296E-2,6.517894E-2,9.293002E-3,2.9192258E-2],"categories":[],"categories_nodes":[],"categories_segments":[],"categories_sizes":[],"default_left":[1,0,0,1,1,0,0,1,0,0,1,0,0,0,0,0,0,0,0,0,0,0,0,0,0,0,0,0,0,0,0,0,0,0,0,0,0,0,0,0,0,0,0,0,0],"id":19,"left_children":[1,3,5,7,9,11,13,15,17,19,21,23,-1,-1,25,27,29,31,-1,-1,33,35,37,-1,39,41,43,-1,-1,-1,-1,-1,-1,-1,-1,-1,-1,-1,-1,-1,-1,-1,-1,-1,-1],"loss_changes":[2.0312078E1,1.2547099E1,4.376707E0,4.422961E0,1.034476E1,8.308368E0,4.526552E0,8.020296E0,4.5229897E0,3.164301E0,6.9771442E0,5.383879E0,0E0,0E0,5.186638E0,5.4599447E0,2.759552E0,3.882514E0,0E0,0E0,2.701182E0,7.902234E0,3.6776066E0,0E0,3.3980088E0,4.735302E0,3.156745E0,0E0,0E0,0E0,0E0,0E0,0E0,0E0,0E0,0E0,0E0,0E0,0E0,0E0,0E0,0E0,0E0,0E0,0E0],"parents":[2147483647,0,0,1,1,2,2,3,3,4,4,5,5,6,6,7,7,8,8,9,9,10,10,11,11,14,14,15,15,16,16,17,17,20,20,21,21,22,22,24,24,25,25,26,26],"right_children":[2,4,6,8,10,12,14,16,18,20,22,24,-1,-1,26,28,30,32,-1,-1,34,36,38,-1,40,42,44,-1,-1,-1,-1,-1,-1,-1,-1,-1,-1,-1,-1,-1,-1,-1,-1,-1,-1],"split_conditions":[6.097561E-1,4.950495E-1,1.312E0,1.8E-1,2E0,1.62E0,4.8550725E-1,1.3088889E0,4.6728972E-1,2.1725E0,6.785714E-1,5.22E-1,4.3891814E-2,-6.2182224E-3,5.519713E-1,2.44E0,-3.2666665E-1,3.154574E-1,2.2653922E-2,-4.000858E-2,5.148515E-1,1.735E0,3.3837209E0,1.7292885E-2,1.4947683E-1,5.3896105E-1,2.3923445E-1,4.577648E-3,-1.318255E-2,-1.6168384E-2,-5.0584506E-2,-2.0909412E-2,1.3337853E-2,-2.091063E-2,7.8916707E-4,-2.031096E-3,6.228078E-3,3.397709E-2,6.953034E-3,7.2951927E-3,-2.6355326E-2,2.0759296E-2,6.517894E-2,9.293002E-3,2.9192258E-2],"split_indices":[26,26,2,4,9,4,15,1,26,2,15,4,0,0,15,14,4,23,0,0,15,1,14,0,23,15,23,0,0,0,0,0,0,0,0,0,0,0,0,0,0,0,0,0,0],"split_type":[0,0,0,0,0,0,0,0,0,0,0,0,0,0,0,0,0,0,0,0,0,0,0,0,0,0,0,0,0,0,0,0,0,0,0,0,0,0,0,0,0,0,0,0,0],"sum_hessian":[1.8358407E3,1.6511802E3,1.8466052E2,3.3185666E2,1.3193235E3,6.1538326E1,1.2312219E2,2.806089E2,5.1247795E1,6.9620636E1,1.2497029E3,5.1160065E1,1.037826E1,1.234855E1,1.10773636E2,2.5284978E2,2.77591E1,3.2623894E1,1.8623901E1,1.2196262E1,5.7424377E1,1.1978369E3,5.186601E1,1.8890707E1,3.226936E1,2.66826E1,8.409104E1,5.4219967E1,1.986298E2,1.1632544E1,1.6126556E1,2.0016592E1,1.2607303E1,3.3957336E1,2.346704E1,7.112435E2,4.865933E2,2.3878197E1,2.7987812E1,1.0305035E1,2.1964323E1,1.3729034E1,1.2953566E1,4.7087067E1,3.7003975E1],"tree_param":{"num_deleted":"0","num_feature":"30","num_nodes":"45","size_leaf_vector":"1"}},{"base_weights":[5.7005514E-3,-2.6028827E-2,3.0233198E-1,-4.8921704E-2,3.056745E-1,1.1060697E-1,4.6733975E-1,-1.9545695E-1,-8.933137E-3,1.2611826E-1,6.3467E-1,3.697413E-2,2.6353288E-3,7.7151024E-1,2.7739975E-1,-6.698386E-1,-1.5346421E-1,-2.0973341E-1,1.9267771E-2,-4.70363E-2,4.5150936E-1,8.050131E-1,1.1913877E-2,-2.0622604E-1,2.7433026E-1,1.0354513E0,1.13094E-2,-3.2195423E-2,4.793608E-1,-1.8441845E-2,-4.549336E-2,-1.0021369E-2,8.7510515E-3,-1.5171677E-2,2.7800957E-2,9.852807E-3,-6.916548E-4,1.6897462E-2,-1.1965832E-2,-9.757928E-3,4.967396E-2,5.3267624E-2,2.4098229E-2,-1.976552E-2,1.5252389E-2,3.1739917E-2,3.5782275E-6,3.8530197E-2,6.09114E-2,-4.22201E-3,3.3071544E-2],"categories":[],"categories_nodes":[],"categories_segments":[],"categories_sizes":[],"default_left":[1,1,1,0,1,0,1,0,0,0,0,0,0,0,0,0,1,0,0,0,0,1,0,0,0,0,0,0,0,0,0,0,0,0,0,0,0,0,0,0,0,0,0,0,0,0,0,0,0,0,0],"id":20,"left_children":[1,3,5,7,9,11,13,15,17,19,21,-1,23,25,27,29,31,33,35,37,39,41,-1,43,45,47,-1,-1,49,-1,-1,-1,-1,-1,-1,-1,-1,-1,-1,-1,-1,-1,-1,-1,-1,-1,-1,-1,-1,-1,-1],"loss_changes":[1.7343819E1,1.26091E1,5.5243816E0,9.094065E0,6.173479E0,5.6250124E0,5.176573E0,6.4474277E0,6.953132E0,4.048612E0,2.228303E0,0E0,4.194497E0,4.7925854E0,1.1515652E1,1.457304E0,4.7792416E0,1.0994236E1,6.338934E0,3.5420463E0,8.990673E0,1.4808292E0,0E0,4.1436844E0,3.1274776E0,1.0654449E-2,0E0,0E0,5.2600756E0,0E0,0E0,0E0,0E0,0E0,0E0,0E0,0E0,0E0,0E0,0E0,0E0,0E0,0E0,0E0,0E0,0E0,0E0,0E0,0E0,0E0,0E0],"parents":[2147483647,0,0,1,1,2,2,3,3,4,4,5,5,6,6,7,7,8,8,9,9,10,10,12,12,13,13,14,14,15,15,16,16,17,17,18,18,19,19,20,20,21,21,23,23,24,24,25,25,28,28],"right_children":[2,4,6,8,10,12,14,16,18,20,22,-1,24,26,28,30,32,34,36,38,40,42,-1,44,46,48,-1,-1,50,-1,-1,-1,-1,-1,-1,-1,-1,-1,-1,-1,-1,-1,-1,-1,-1,-1,-1,-1,-1,-1,-1],"split_conditions":[6.097561E-1,1.3E1,2E0,4.9751243E-1,1.8E0,5E0,9.77E-1,2E0,5E0,1.34E2,1.5E1,3.697413E-2,4.1152263E-1,8E0,1.15375E0,4.7311828E-1,7E0,9E0,2.5104895E0,2.6692913E0,4.347826E-1,5.4901963E-1,1.1913877E-2,7.092199E-1,6.451613E-1,2.9571428E0,1.13094E-2,-3.2195423E-2,7E0,-1.8441845E-2,-4.549336E-2,-1.0021369E-2,8.7510515E-3,-1.5171677E-2,2.7800957E-2,9.852807E-3,-6.916548E-4,1.6897462E-2,-1.1965832E-2,-9.757928E-3,4.967396E-2,5.3267624E-2,2.4098229E-2,-1.976552E-2,1.5252389E-2,3.1739917E-2,3.5782275E-6,3.8530197E-2,6.09114E-2,-4.22201E-3,3.3071544E-2],"split_indices":[26,8,10,26,1,8,3,7,16,17,7,0,24,10,3,15,10,10,14,14,24,15,0,22,26,14,0,0,8,0,0,0,0,0,0,0,0,0,0,0,0,0,0,0,0,0,0,0,0,0,0],"split_type":[0,0,0,0,0,0,0,0,0,0,0,0,0,0,0,0,0,0,0,0,0,0,0,0,0,0,0,0,0,0,0,0,0,0,0,0,0,0,0,0,0,0,0,0,0,0,0,0,0,0,0],"sum_hessian":[1.8379764E3,1.6608931E3,1.7708339E2,1.5547446E3,1.0614845E2,8.2963356E1,9.412003E1,3.3194977E2,1.2227948E3,6.976179E1,3.6386665E1,1.11640215E1,7.179933E1,3.48011E1,5.9318928E1,2.5585379E1,3.063644E2,1.5022801E2,1.0725668E3,4.588992E1,2.3871868E1,2.4552507E1,1.1834157E1,4.0521755E1,3.127758E1,2.2721514E1,1.207959E1,1.0182923E1,4.9136005E1,1.2661189E1,1.2924189E1,2.6865005E2,3.771433E1,1.3450397E2,1.5724039E1,1.6804526E2,9.0452155E2,1.4859806E1,3.1030111E1,1.109223E1,1.2779638E1,1.2152031E1,1.2400476E1,2.9889956E1,1.0631799E1,1.2789139E1,1.8488441E1,1.16310625E1,1.109045E1,1.1991113E1,3.714489E1],"tree_param":{"num_deleted":"0","num_feature":"30","num_nodes":"51","size_leaf_vector":"1"}},{"base_weights":[-7.0272675E-3,-3.4610257E-2,2.606035E-1,-5.050042E-2,3.1284904E-1,3.6197278E-1,-0E0,-5.639077E-2,3.553057E-2,-1.0009539E-2,5.849754E-1,4.2245123E-1,-1.2500852E-2,-3.4597527E-2,2.761756E-1,-6.1297294E-2,2.5379423E-2,-3.6429352E-1,3.653124E-2,-4.778627E-3,8.204465E-1,6.332461E-1,2.3607613E-1,-1.9917779E-2,5.6617886E-1,2.4837537E-3,-4.2554056E-3,-1.6457919E-3,-3.6410492E-2,5.255395E-2,1.6143821E-2,3.8481105E-2,7.2041242E-3,-9.609028E-3,2.290836E-2,6.9034956E-3,4.175408E-2],"categories":[],"categories_nodes":[],"categories_segments":[],"categories_sizes":[],"default_left":[1,1,1,1,1,1,1,1,0,0,0,0,0,0,0,0,0,0,0,0,1,1,1,0,0,0,0,0,0,0,0,0,0,0,0,0,0],"id":21,"left_children":[1,3,5,7,9,11,13,15,-1,17,19,21,-1,-1,23,25,-1,27,-1,-1,29,31,33,-1,35,-1,-1,-1,-1,-1,-1,-1,-1,-1,-1,-1,-1],"loss_changes":[1.3599507E1,9.226505E0,4.5376377E0,7.152151E0,6.479483E0,4.705925E0,9.593812E0,4.3855605E0,0E0,9.207568E0,6.5308123E0,4.211241E0,0E0,0E0,7.2728205E0,4.1749835E0,0E0,2.7824872E0,0E0,0E0,2.9420147E0,3.285246E0,6.0050745E0,0E0,2.7403088E0,0E0,0E0,0E0,0E0,0E0,0E0,0E0,0E0,0E0,0E0,0E0,0E0],"parents":[2147483647,0,0,1,1,2,2,3,3,4,4,5,5,6,6,7,7,9,9,10,10,11,11,14,14,15,15,17,17,20,20,21,21,22,22,24,24],"right_children":[2,4,6,8,10,12,14,16,-1,18,20,22,-1,-1,24,26,-1,28,-1,-1,30,32,34,-1,36,-1,-1,-1,-1,-1,-1,-1,-1,-1,-1,-1,-1],"split_conditions":[6.1349696E-1,1.4E1,5.16E-1,4.57E0,4E0,2.1725E0,3.0525E0,4E-1,3.553057E-2,3.0042372E0,3.31E0,5.618557E-1,-1.2500852E-2,-3.4597527E-2,2E0,-5.26E-1,2.5379423E-2,2.7886178E0,3.653124E-2,-4.778627E-3,3.76E0,7E0,7E0,-1.9917779E-2,1.9511111E0,2.4837537E-3,-4.2554056E-3,-1.6457919E-3,-3.6410492E-2,5.255395E-2,1.6143821E-2,3.8481105E-2,7.2041242E-3,-9.609028E-3,2.290836E-2,6.9034956E-3,4.175408E-2],"split_indices":[26,8,4,6,10,2,6,13,0,14,6,15,0,0,10,4,0,14,0,0,6,10,8,0,1,0,0,0,0,0,0,0,0,0,0,0,0],"split_type":[0,0,0,0,0,0,0,0,0,0,0,0,0,0,0,0,0,0,0,0,0,0,0,0,0,0,0,0,0,0,0,0,0,0,0,0,0],"sum_hessian":[1.8430779E3,1.6719999E3,1.71078E2,1.5999718E3,7.202815E1,1.228257E2,4.82523E1,1.5887336E3,1.1238132E1,3.3215755E1,3.8812393E1,1.1220993E2,1.0615769E1,1.3312043E1,3.4940258E1,1.5760906E3,1.26431E1,2.2903143E1,1.03126135E1,1.0020638E1,2.8791756E1,5.1278458E1,6.0931473E1,1.0289354E1,2.4650904E1,2.7749854E2,1.298592E3,1.2702049E1,1.0201093E1,1.8775553E1,1.0016202E1,3.9490864E1,1.1787595E1,2.0700073E1,4.02314E1,1.0237516E1,1.4413386E1],"tree_param":{"num_deleted":"0","num_feature":"30","num_nodes":"37","size_leaf_vector":"1"}},{"base_weights":[4.2837798E-3,-5.3904075E-2,1.1849063E-1,-1.9827689E-1,3.5922881E-3,3.6896616E-2,1.0391147E-1,-1.05361916E-1,-5.14396E-1,-5.244105E-1,1.9457119E-2,1.729842E-1,-1.4023004E-2,-1.463989E-1,3.1157067E-1,-1.11168556E-1,-7.433638E-1,-5.3937893E-2,-2.5937832E-3,-1.741956E-2,2.092504E-1,-1.8047601E-1,2.1848793E-1,-1.5529805E-1,3.5938916E-1,-4.756729E-3,-3.603534E-2,-3.329954E-4,2.8348943E-2,1.4029796E-2,-1.6727736E-2,-2.2433553E-2,-4.7635105E-2,2.0604362E-3,-6.764531E-3,1.881415E-2,-8.44271E-3,2.486108E-2,-2.6554167E-2,9.355566E-3,3.981451E-2,5.626608E-3,-1.3659735E-2,-1.2210785E-2,3.0025935E-2],"categories":[],"categories_nodes":[],"categories_segments":[],"categories_sizes":[],"default_left":[1,0,0,1,0,0,1,1,0,1,1,0,1,0,0,0,0,0,0,0,0,1,1,0,0,0,0,0,0,0,0,0,0,0,0,0,0,0,0,0,0,0,0,0,0],"id":22,"left_children":[1,3,5,7,9,-1,11,13,15,17,19,21,23,25,27,29,31,-1,-1,33,35,37,39,41,43,-1,-1,-1,-1,-1,-1,-1,-1,-1,-1,-1,-1,-1,-1,-1,-1,-1,-1,-1,-1],"loss_changes":[1.223112E1,1.013173E1,5.4515667E0,1.0089474E1,7.261367E0,0E0,4.9751835E0,4.649278E0,7.0726566E0,6.452702E0,5.9536424E0,6.225086E0,1.191263E1,7.1141176E0,2.0347211E0,2.7018013E0,2.4976635E0,0E0,0E0,4.9215517E0,8.823679E0,1.0754032E1,5.9387913E0,5.232825E0,9.1926155E0,0E0,0E0,0E0,0E0,0E0,0E0,0E0,0E0,0E0,0E0,0E0,0E0,0E0,0E0,0E0,0E0,0E0,0E0,0E0,0E0],"parents":[2147483647,0,0,1,1,2,2,3,3,4,4,6,6,7,7,8,8,9,9,10,10,11,11,12,12,13,13,14,14,15,15,16,16,19,19,20,20,21,21,22,22,23,23,24,24],"right_children":[2,4,6,8,10,-1,12,14,16,18,20,22,24,26,28,30,32,-1,-1,34,36,38,40,42,44,-1,-1,-1,-1,-1,-1,-1,-1,-1,-1,-1,-1,-1,-1,-1,-1,-1,-1,-1,-1],"split_conditions":[9E0,5.2910054E-1,7.716049E-2,1.208E0,7.171429E-1,3.6896616E-2,5.464481E-1,2.09E2,1.228E0,2.6363637E0,3.0421052E0,6E0,3.474E0,1.9E2,3.2051283E-1,4.0650406E-1,6E0,-5.3937893E-2,-2.5937832E-3,2.8333333E0,4.0375E0,6.6333336E-1,2.9313726E0,3.2258064E-1,5.5801105E-1,-4.756729E-3,-3.603534E-2,-3.329954E-4,2.8348943E-2,1.4029796E-2,-1.6727736E-2,-2.2433553E-2,-4.7635105E-2,2.0604362E-3,-6.764531E-3,1.881415E-2,-8.44271E-3,2.486108E-2,-2.6554167E-2,9.355566E-3,3.981451E-2,5.626608E-3,-1.3659735E-2,-1.2210785E-2,3.0025935E-2],"split_indices":[7,26,24,0,1,0,15,17,2,14,14,16,6,17,24,22,8,0,0,14,6,2,14,24,15,0,0,0,0,0,0,0,0,0,0,0,0,0,0,0,0,0,0,0,0],"split_type":[0,0,0,0,0,0,0,0,0,0,0,0,0,0,0,0,0,0,0,0,0,0,0,0,0,0,0,0,0,0,0,0,0,0,0,0,0,0,0,0,0,0,0,0,0],"sum_hessian":[1.8375922E3,1.217125E3,6.204671E2,3.4645944E2,8.706656E2,1.2968873E1,6.074982E2,2.6903363E2,7.74258E1,2.4278734E1,8.463869E2,3.8335385E2,2.2414436E2,2.457356E2,2.3298044E1,2.8738192E1,4.8687603E1,1.0484478E1,1.3794255E1,7.090084E2,1.3737843E2,4.3134365E1,3.4021948E2,1.6323767E2,6.0906685E1,2.2682806E2,1.8907532E1,1.0632579E1,1.2665464E1,1.0180441E1,1.855775E1,2.1725231E1,2.6962374E1,4.7336288E2,2.3564555E2,9.547182E1,4.190661E1,1.4467119E1,2.8667246E1,3.241158E2,1.610367E1,4.9647926E1,1.1358975E2,1.7263786E1,4.36429E1],"tree_param":{"num_deleted":"0","num_feature":"30","num_nodes":"45","size_leaf_vector":"1"}},{"base_weights":[-1.3657288E-3,-1.9813362E-1,3.7437525E-2,-4.7490963E-1,-1.3755783E-1,2.0557702E-1,5.326666E-4,-4.8635717E-2,-3.3753598E-1,-4.977331E-2,-3.4060147E-1,1.1869279E-1,5.276784E-1,-4.3339457E-2,1.312455E-1,-5.0698596E-1,4.381532E-3,3.0638801E-2,-4.1037917E-1,-5.347059E-1,6.1459623E-2,2.3770435E-1,-8.471621E-2,7.188612E-1,-4.9593556E-3,-3.934505E-2,-3.422003E-2,6.436634E-2,4.126876E-1,-3.776455E-2,-6.444357E-3,-1.8099912E-3,4.2645235E-2,-4.076408E-2,-8.313804E-3,-3.953801E-2,-1.2586973E-2,-2.1697203E-2,2.1943463E-2,2.0586237E-2,-3.7928193E-3,-1.7753443E-2,1.0833553E-2,2.8697923E-2,4.994567E-2,-2.8240136E-3,1.19857825E-2,1.6407898E-3,3.793246E-2,3.3999886E-2,-8.463341E-3],"categories":[],"categories_nodes":[],"categories_segments":[],"categories_sizes":[],"default_left":[0,1,0,0,0,1,1,0,1,1,0,0,1,0,1,1,0,1,0,0,0,0,0,0,0,0,1,1,1,0,0,0,0,0,0,0,0,0,0,0,0,0,0,0,0,0,0,0,0,0,0],"id":23,"left_children":[1,3,5,7,9,11,13,-1,15,17,19,21,23,25,27,29,-1,31,33,35,37,39,41,43,-1,-1,45,47,49,-1,-1,-1,-1,-1,-1,-1,-1,-1,-1,-1,-1,-1,-1,-1,-1,-1,-1,-1,-1,-1,-1],"loss_changes":[1.4136983E1,4.9880886E0,9.5625725E0,3.2384968E0,4.4354897E0,7.638133E0,7.2855954E0,0E0,3.2612004E0,5.195876E0,5.975958E0,5.362817E0,7.133774E0,6.329274E0,5.9384875E0,2.802104E0,0E0,8.125205E0,2.9933343E0,3.4078274E0,4.9261694E0,7.6717944E0,6.7443295E0,1.0956802E0,0E0,0E0,5.722084E0,5.582073E0,9.634097E0,0E0,0E0,0E0,0E0,0E0,0E0,0E0,0E0,0E0,0E0,0E0,0E0,0E0,0E0,0E0,0E0,0E0,0E0,0E0,0E0,0E0,0E0],"parents":[2147483647,0,0,1,1,2,2,3,3,4,4,5,5,6,6,8,8,9,9,10,10,11,11,12,12,13,13,14,14,15,15,17,17,18,18,19,19,20,20,21,21,22,22,23,23,26,26,27,27,28,28],"right_children":[2,4,6,8,10,12,14,-1,16,18,20,22,24,26,28,30,-1,32,34,36,38,40,42,44,-1,-1,46,48,50,-1,-1,-1,-1,-1,-1,-1,-1,-1,-1,-1,-1,-1,-1,-1,-1,-1,-1,-1,-1,-1,-1],"split_conditions":[4.878049E-1,3E0,2.617801E-1,-2.16E-1,1.5E2,1.5655556E0,1E1,-4.8635717E-2,8.2875E-1,1.41E-1,2.09E2,2.9464788E0,2.1825E0,2.6385224E-1,3.66E-1,1.54E2,4.381532E-3,6.6E-2,4.2918456E-1,4.4052863E-1,2.4753363E0,2.3640662E-1,6.451613E-1,1.912E0,-4.9593556E-3,-3.934505E-2,1.8566667E0,5.076142E-1,1.28E0,-3.776455E-2,-6.444357E-3,-1.8099912E-3,4.2645235E-2,-4.076408E-2,-8.313804E-3,-3.953801E-2,-1.2586973E-2,-2.1697203E-2,2.1943463E-2,2.0586237E-2,-3.7928193E-3,-1.7753443E-2,1.0833553E-2,2.8697923E-2,4.994567E-2,-2.8240136E-3,1.19857825E-2,1.6407898E-3,3.793246E-2,3.3999886E-2,-8.463341E-3],"split_indices":[26,7,23,5,17,3,7,0,1,5,17,14,2,23,5,17,0,5,26,26,14,23,26,2,0,0,0,28,2,0,0,0,0,0,0,0,0,0,0,0,0,0,0,0,0,0,0,0,0,0,0],"split_type":[0,0,0,0,0,0,0,0,0,0,0,0,0,0,0,0,0,0,0,0,0,0,0,0,0,0,0,0,0,0,0,0,0,0,0,0,0,0,0,0,0,0,0,0,0,0,0,0,0,0,0],"sum_hessian":[1.8474691E3,3.0406305E2,1.5434061E3,5.307375E1,2.509893E2,2.7647925E2,1.2669269E3,1.0006E1,4.306775E1,1.7644302E2,7.454629E1,2.1906674E2,5.7412518E1,9.484836E2,3.1844324E2,3.082516E1,1.2242591E1,1.4479309E2,3.1649931E1,5.0220142E1,2.4326143E1,1.3840883E2,8.065791E1,4.4004646E1,1.3407868E1,1.0325557E1,9.38158E2,2.5858066E2,5.986257E1,1.784434E1,1.2980818E1,1.3467987E2,1.01132145E1,1.0869966E1,2.0779966E1,2.5236176E1,2.4983967E1,1.0339423E1,1.3986721E1,8.9013725E1,4.9395107E1,4.2599068E1,3.8058846E1,3.1244745E1,1.2759903E1,8.687237E2,6.943434E1,2.484802E2,1.0100477E1,4.1022842E1,1.883973E1],"tree_param":{"num_deleted":"0","num_feature":"30","num_nodes":"51","size_leaf_vector":"1"}},{"base_weights":[1.2707092E-2,-1.733013E-2,2.1042033E-1,-3.6644034E-2,2.0775887E-1,1.6918299E-1,4.443885E-2,-4.7621332E-2,3.186365E-1,3.1373492E-1,-2.2547358E-1,2.6699308E-1,-1.0896292E-1,2.6628605E-1,-6.037436E-2,5.8855635E-1,-8.426269E-3,4.2524374E-1,-7.0082145E-3,7.810548E-3,-2.9100245E-2,-1.5887383E-2,4.1638827E-1,2.280995E-2,-3.6689067E-1,-1.2368922E-2,2.2416187E-2,-2.0638159E-2,-2.3667344E-3,3.972442E-2,1.7147964E-2,-6.1048474E-3,2.6297221E-2,-4.282242E-2,1.1343803E-2,2.7033895E-2,-3.2041557E-4,-1.8914996E-3,-3.9908808E-2],"categories":[],"categories_nodes":[],"categories_segments":[],"categories_sizes":[],"default_left":[1,1,0,1,0,0,0,0,0,1,0,0,0,0,0,0,0,0,0,0,0,0,1,0,0,0,0,0,0,0,0,0,0,0,0,0,0,0,0],"id":24,"left_children":[1,3,5,7,9,11,-1,13,15,17,19,21,23,25,27,29,-1,31,-1,-1,-1,33,35,-1,37,-1,-1,-1,-1,-1,-1,-1,-1,-1,-1,-1,-1,-1,-1],"loss_changes":[1.0933363E1,6.9260097E0,6.5361443E0,5.7231703E0,5.855901E0,6.309514E0,0E0,5.71055E0,5.917879E0,5.23497E0,3.5523734E0,7.2698402E0,8.956041E0,5.331172E0,6.2433705E0,1.06143E0,0E0,4.6274805E0,0E0,0E0,0E0,1.2460219E1,5.948538E0,0E0,5.8632207E0,0E0,0E0,0E0,0E0,0E0,0E0,0E0,0E0,0E0,0E0,0E0,0E0,0E0,0E0],"parents":[2147483647,0,0,1,1,2,2,3,3,4,4,5,5,7,7,8,8,9,9,10,10,11,11,12,12,13,13,14,14,15,15,17,17,21,21,22,22,24,24],"right_children":[2,4,6,8,10,12,-1,14,16,18,20,22,24,26,28,30,-1,32,-1,-1,-1,34,36,-1,38,-1,-1,-1,-1,-1,-1,-1,-1,-1,-1,-1,-1,-1,-1],"split_conditions":[1.735E0,6.097561E-1,1.2E1,6.785714E-1,7E0,1.44E0,4.443885E-2,1.754386E-1,1.5771428E0,1.49875E0,2.903226E0,7.407407E-1,7E0,1.062E0,3.8910505E-1,1.4433334E0,-8.426269E-3,1.4204545E-1,-7.0082145E-3,7.810548E-3,-2.9100245E-2,1E0,4.138E0,2.280995E-2,5.4789275E-1,-1.2368922E-2,2.2416187E-2,-2.0638159E-2,-2.3667344E-3,3.972442E-2,1.7147964E-2,-6.1048474E-3,2.6297221E-2,-4.282242E-2,1.1343803E-2,2.7033895E-2,-3.2041557E-4,-1.8914996E-3,-3.9908808E-2],"split_indices":[1,26,10,15,10,3,0,24,1,1,14,26,7,2,26,3,0,22,0,0,0,10,6,0,15,0,0,0,0,0,0,0,0,0,0,0,0,0,0],"split_type":[0,0,0,0,0,0,0,0,0,0,0,0,0,0,0,0,0,0,0,0,0,0,0,0,0,0,0,0,0,0,0,0,0,0,0,0,0,0,0],"sum_hessian":[1.8361536E3,1.5943427E3,2.4181102E2,1.4695302E3,1.24812485E2,2.2927046E2,1.2540551E1,1.4265991E3,4.2930992E1,1.0068891E2,2.4123573E1,1.6991827E2,5.9352192E1,5.4613064E1,1.3719861E3,2.7623106E1,1.5307887E1,8.1058754E1,1.9630154E1,1.1786701E1,1.2336872E1,5.880155E1,1.1111672E2,1.8236538E1,4.1115654E1,1.4052413E1,4.056065E1,4.7589417E1,1.3243966E3,1.3587747E1,1.4035358E1,1.2408584E1,6.865017E1,1.2702735E1,4.609882E1,8.584001E1,2.5276709E1,2.407022E1,1.7045433E1],"tree_param":{"num_deleted":"0","num_feature":"30","num_nodes":"39","size_leaf_vector":"1"}},{"base_weights":[-2.1691984E-2,-4.961318E-2,2.6305372E-1,-2.7068955E-1,-2.658865E-2,7.0449926E-2,3.7609008E-1,-1.3385436E-1,-6.734744E-1,-2.65036E-1,-6.9892E-3,2.2781743E-1,-2.4051918E-2,4.5153067E-1,-3.7428427E-3,-3.7860772E-1,7.053626E-2,-4.3134686E-1,-5.5990186E-2,-4.8972422E-1,-7.2831996E-2,-1.1565999E-1,3.15024E-2,4.1895312E-1,-5.27453E-3,5.639789E-1,-1.1698337E-3,8.652094E-3,-2.6330039E-2,-1.7079536E-3,2.9540721E-2,-6.780635E-3,-3.0190794E-2,-8.076559E-3,-3.6842298E-2,-1.7140074E-2,9.472918E-3,-1.1414072E-2,1.9410991E-3,1.1815319E-2,-2.7455948E-4,1.9960213E-3,2.9545387E-2,1.8534921E-2,4.393726E-2],"categories":[],"categories_nodes":[],"categories_segments":[],"categories_sizes":[],"default_left":[1,1,0,1,0,0,1,1,1,1,0,0,0,0,0,1,0,0,0,1,1,0,0,0,0,1,0,0,0,0,0,0,0,0,0,0,0,0,0,0,0,0,0,0,0],"id":25,"left_children":[1,3,5,7,9,11,13,15,17,19,21,23,-1,25,-1,27,29,31,-1,33,35,37,39,41,-1,43,-1,-1,-1,-1,-1,-1,-1,-1,-1,-1,-1,-1,-1,-1,-1,-1,-1,-1,-1],"loss_changes":[1.4562632E1,8.464787E0,3.4884672E0,8.483452E0,7.0474424E0,5.467277E0,3.5576353E0,5.992452E0,3.6180325E0,4.8568954E0,5.8706555E0,3.2020164E0,0E0,4.7733135E0,0E0,4.5651245E0,3.6311765E0,1.2368422E0,0E0,4.042388E0,4.553779E0,6.416926E0,7.8612075E0,1.9717126E0,0E0,3.8968468E0,0E0,0E0,0E0,0E0,0E0,0E0,0E0,0E0,0E0,0E0,0E0,0E0,0E0,0E0,0E0,0E0,0E0,0E0,0E0],"parents":[2147483647,0,0,1,1,2,2,3,3,4,4,5,5,6,6,7,7,8,8,9,9,10,10,11,11,13,13,15,15,16,16,17,17,19,19,20,20,21,21,22,22,23,23,25,25],"right_children":[2,4,6,8,10,12,14,16,18,20,22,24,-1,26,-1,28,30,32,-1,34,36,38,40,42,-1,44,-1,-1,-1,-1,-1,-1,-1,-1,-1,-1,-1,-1,-1,-1,-1,-1,-1,-1,-1],"split_conditions":[6.1728394E-1,2E0,3.19E0,3.3112583E-1,4E0,3.925E-1,4.18E0,9.1E1,1.676E0,2.6091955E0,5.208333E-1,1.736E0,-2.4051918E-2,1.2E1,-3.7428427E-3,2.5461538E0,2.874317E0,1.41E2,-5.5990186E-2,-1.28E-1,-6.666667E-3,3.154574E-1,2.5337837E0,6E0,-5.27453E-3,-3.6666665E-2,-1.1698337E-3,8.652094E-3,-2.6330039E-2,-1.7079536E-3,2.9540721E-2,-6.780635E-3,-3.0190794E-2,-8.076559E-3,-3.6842298E-2,-1.7140074E-2,9.472918E-3,-1.1414072E-2,1.9410991E-3,1.1815319E-2,-2.7455948E-4,1.9960213E-3,2.9545387E-2,1.8534921E-2,4.393726E-2],"split_indices":[26,7,6,24,16,4,6,17,2,14,26,2,0,7,0,14,14,17,0,5,5,24,14,9,0,5,0,0,0,0,0,0,0,0,0,0,0,0,0,0,0,0,0,0,0],"split_type":[0,0,0,0,0,0,0,0,0,0,0,0,0,0,0,0,0,0,0,0,0,0,0,0,0,0,0,0,0,0,0,0,0,0,0,0,0,0,0,0,0,0,0,0,0],"sum_hessian":[1.8317192E3,1.6692183E3,1.6250093E2,1.5602278E2,1.5131956E3,6.1026012E1,1.01474915E2,1.1763879E2,3.838399E1,1.1359321E2,1.3996023E3,4.807579E1,1.2950224E1,8.7120636E1,1.4354277E1,5.3368294E1,6.427049E1,2.6304594E1,1.2079398E1,5.1417484E1,6.2175724E1,3.6623328E2,1.033369E3,3.058174E1,1.749405E1,7.046075E1,1.6659891E1,1.1110082E1,4.2258213E1,5.4121742E1,1.0148754E1,1.0561244E1,1.574335E1,2.2970089E1,2.8447395E1,3.0675959E1,3.1499763E1,2.1191283E2,1.5432045E2,1.576886E2,8.756804E2,1.0110119E1,2.047162E1,4.5200825E1,2.5259924E1],"tree_param":{"num_deleted":"0","num_feature":"30","num_nodes":"45","size_leaf_vector":"1"}},{"base_weights":[-7.710022E-3,-3.4828585E-2,1.6272107E-1,1.5092713E-1,-6.246575E-2,-2.526062E-1,2.5482118E-1,-9.851244E-2,3.183412E-1,-1.6553114E-1,-7.29618E-3,-3.8828086E-2,-3.3172306E-2,4.0442955E-2,1.924565E-1,-2.1345492E-1,2.397806E-2,5.355577E-1,-1.091627E-1,-2.697542E-1,-4.6437465E-2,2.1366164E-1,-3.4625605E-2,-1.205389E-2,1.5295589E-2,-0E0,4.5695218E-1,-2.5301024E-2,4.7803293E-3,3.430313E-2,1.3600978E-2,-2.9838575E-2,1.1452356E-2,-9.245482E-3,-2.598671E-2,3.1747862E-3,-1.9897087E-2,1.6339516E-2,-2.6864221E-2,-2.3014839E-3,2.5122235E-2,-9.908598E-3,2.6680056E-2,3.7696477E-2,1.2773243E-2],"categories":[],"categories_nodes":[],"categories_segments":[],"categories_sizes":[],"default_left":[1,0,0,1,0,0,0,0,0,1,0,0,0,0,1,1,0,0,0,0,1,0,1,0,0,1,0,0,0,0,0,0,0,0,0,0,0,0,0,0,0,0,0,0,0],"id":26,"left_children":[1,3,5,7,9,11,13,15,17,19,21,23,-1,-1,25,27,-1,29,31,33,35,37,39,-1,-1,41,43,-1,-1,-1,-1,-1,-1,-1,-1,-1,-1,-1,-1,-1,-1,-1,-1,-1,-1],"loss_changes":[8.492339E0,8.15228E0,9.70841E0,8.633824E0,7.8475533E0,3.9498327E0,6.8982677E0,5.5936604E0,1.1562769E1,5.934222E0,5.4408216E0,2.2650418E0,0E0,0E0,9.562674E0,6.4285593E0,0E0,2.976656E0,7.1428185E0,5.267393E0,8.808938E0,8.573666E0,4.9057145E0,0E0,0E0,1.1674835E1,4.437828E0,0E0,0E0,0E0,0E0,0E0,0E0,0E0,0E0,0E0,0E0,0E0,0E0,0E0,0E0,0E0,0E0,0E0,0E0],"parents":[2147483647,0,0,1,1,2,2,3,3,4,4,5,5,6,6,7,7,8,8,9,9,10,10,11,11,14,14,15,15,17,17,18,18,19,19,20,20,21,21,22,22,25,25,26,26],"right_children":[2,4,6,8,10,12,14,16,18,20,22,24,-1,-1,26,28,-1,30,32,34,36,38,40,-1,-1,42,44,-1,-1,-1,-1,-1,-1,-1,-1,-1,-1,-1,-1,-1,-1,-1,-1,-1,-1],"split_conditions":[3.0324323E0,2.512563E-1,4.3290043E-1,6E0,2E-2,6.238532E-1,5.208333E-1,5.84E-1,5.546875E-1,2.546E0,1.13E-1,3.504E0,-3.3172306E-2,4.0442955E-2,1.518E0,1.5575E0,2.397806E-2,2.1E-1,3.1775E0,2.7685184E0,3.6900368E-1,1.8322222E0,6.166667E-1,-1.205389E-2,1.5295589E-2,7.88E-1,1.776E0,-2.5301024E-2,4.7803293E-3,3.430313E-2,1.3600978E-2,-2.9838575E-2,1.1452356E-2,-9.245482E-3,-2.598671E-2,3.1747862E-3,-1.9897087E-2,1.6339516E-2,-2.6864221E-2,-2.3014839E-3,2.5122235E-2,-9.908598E-3,2.6680056E-2,3.7696477E-2,1.2773243E-2],"split_indices":[14,23,22,9,5,15,22,15,15,6,5,6,0,0,2,1,0,4,6,14,22,1,15,0,0,4,2,0,0,0,0,0,0,0,0,0,0,0,0,0,0,0,0,0,0],"split_type":[0,0,0,0,0,0,0,0,0,0,0,0,0,0,0,0,0,0,0,0,0,0,0,0,0,0,0,0,0,0,0,0,0,0,0,0,0,0,0,0,0,0,0,0,0],"sum_hessian":[1.8379753E3,1.5868606E3,2.5111482E2,2.044728E2,1.3823877E3,4.506497E1,2.0604985E2,8.204445E1,1.2242835E2,4.8064835E2,9.017394E2,3.05213E1,1.4543669E1,1.9473866E1,1.8657599E2,6.9107124E1,1.2937323E1,8.1167816E1,4.1260536E1,2.5520486E2,2.254435E2,9.810285E1,8.0363654E2,1.9608364E1,1.0912935E1,1.0850521E2,7.807078E1,3.533982E1,3.3767303E1,5.0401257E1,3.0766558E1,1.6706038E1,2.4554499E1,1.9213345E2,6.307141E1,1.7214111E2,5.3302376E1,8.586538E1,1.223747E1,7.8800464E2,1.5631887E1,7.9622055E1,2.8883158E1,3.0248543E1,4.782223E1],"tree_param":{"num_deleted":"0","num_feature":"30","num_nodes":"45","size_leaf_vector":"1"}},{"base_weights":[2.8713353E-3,-3.5982963E-2,1.7045893E-1,-4.2314123E-2,3.6373064E-2,-1.4139657E-4,3.001378E-1,-2.9530808E-1,-2.468035E-2,1.2117967E-1,-4.479037E-2,-2.1070428E-2,3.433468E-1,8.050284E-3,-3.875064E-1,-3.4372006E-2,-1.6415646E-2,4.490125E-1,-3.0304343E-2,-1.4515953E-2,3.840875E-1,-4.2829137E-2,-1.0987889E-2,-1.219682E-3,2.4854392E-2,-2.6730308E-3,4.0323585E-2,-7.0314975E-3,2.9151669E-2,2.2964835E-2,-5.8609206E-4],"categories":[],"categories_nodes":[],"categories_segments":[],"categories_sizes":[],"default_left":[1,1,0,1,0,0,0,0,0,0,0,0,0,0,1,0,1,0,0,0,0,0,0,0,0,0,0,0,0,0,0],"id":27,"left_children":[1,3,5,7,-1,9,11,13,15,17,-1,-1,19,-1,21,-1,23,25,27,-1,29,-1,-1,-1,-1,-1,-1,-1,-1,-1,-1],"loss_changes":[1.2062412E1,7.22084E0,7.745453E0,6.609959E0,0E0,1.6624203E1,6.324642E0,4.151455E0,7.5583305E0,6.710734E0,0E0,0E0,4.9726963E0,0E0,6.0686693E0,0E0,5.6133766E0,7.774517E0,6.2893023E0,0E0,5.3240376E0,0E0,0E0,0E0,0E0,0E0,0E0,0E0,0E0,0E0,0E0],"parents":[2147483647,0,0,1,1,2,2,3,3,5,5,6,6,7,7,8,8,9,9,12,12,14,14,16,16,17,17,18,18,20,20],"right_children":[2,4,6,8,-1,10,12,14,16,18,-1,-1,20,-1,22,-1,24,26,28,-1,30,-1,-1,-1,-1,-1,-1,-1,-1,-1,-1],"split_conditions":[3.116E0,4E-1,-3.8333334E-2,2E0,3.6373064E-2,-7.6E-2,4.379562E-1,2.8735632E-1,3.5714287E-1,3.366E0,-4.479037E-2,-2.1070428E-2,1.1222222E0,8.050284E-3,3.7E1,-3.4372006E-2,6.4102566E-1,1.356E0,4.332E0,-1.4515953E-2,4.332E0,-4.2829137E-2,-1.0987889E-2,-1.219682E-3,2.4854392E-2,-2.6730308E-3,4.0323585E-2,-7.0314975E-3,2.9151669E-2,2.2964835E-2,-5.8609206E-4],"split_indices":[6,13,5,9,0,5,15,29,26,6,0,0,1,0,17,0,29,3,6,0,6,0,0,0,0,0,0,0,0,0,0],"split_type":[0,0,0,0,0,0,0,0,0,0,0,0,0,0,0,0,0,0,0,0,0,0,0,0,0,0,0,0,0,0,0],"sum_hessian":[1.8484717E3,1.5007251E3,3.4774658E2,1.4894487E3,1.1276282E1,1.5027654E2,1.9747003E2,9.565513E1,1.3937937E3,1.3301257E2,1.726396E1,1.0531843E1,1.8693819E2,1.5770731E1,7.98844E1,1.6005552E1,1.3777881E3,4.1625393E1,9.1387184E1,1.0774532E1,1.7616365E2,1.980397E1,6.0080425E1,1.3578394E3,1.9948698E1,1.7540194E1,2.40852E1,7.8246216E1,1.3140972E1,1.481125E2,2.8051157E1],"tree_param":{"num_deleted":"0","num_feature":"30","num_nodes":"31","size_leaf_vector":"1"}},{"base_weights":[3.0487503E-3,-1.4973491E-1,3.3469494E-2,-6.1810905E-1,-1.0797442E-1,-1.4635085E-1,5.8698032E-2,-1.3650238E-2,-4.4925816E-2,-2.4196818E-1,8.4012255E-2,1.8738848E-1,-2.5259468E-1,-3.518859E-1,6.985539E-2,1.579625E-2,-2.9462883E-1,-3.8320804E-1,2.182251E-1,5.5010825E-1,-2.0562781E-2,-3.205313E-1,2.673994E-2,6.5611484E-3,-6.3073707E-1,5.1976776E-1,5.856244E-2,1.2760939E-2,-1.6977679E-2,-2.718499E-3,-3.629416E-2,4.467475E-3,3.580656E-2,4.2642403E-2,1.022473E-2,-2.0425472E-2,1.1529638E-2,-5.038901E-2,-1.089223E-2,3.715618E-2,3.668629E-3,2.0164966E-3,1.54335145E-2],"categories":[],"categories_nodes":[],"categories_segments":[],"categories_sizes":[],"default_left":[0,0,0,0,0,0,0,0,0,0,0,0,1,0,0,0,0,0,0,0,0,0,0,0,0,0,1,0,0,0,0,0,0,0,0,0,0,0,0,0,0,0,0],"id":28,"left_children":[1,3,5,7,9,11,13,-1,-1,15,17,19,21,23,25,-1,27,29,31,33,-1,35,-1,-1,37,39,41,-1,-1,-1,-1,-1,-1,-1,-1,-1,-1,-1,-1,-1,-1,-1,-1],"loss_changes":[8.487701E0,5.789279E0,6.920395E0,1.9992304E0,7.231453E0,6.7018456E0,6.130404E0,0E0,0E0,4.9471617E0,7.303915E0,1.0146184E1,7.79251E0,4.8952494E0,6.540457E0,0E0,3.8428335E0,2.8066857E0,5.6598635E0,2.7478743E0,0E0,6.525071E0,0E0,0E0,3.194624E0,3.014658E0,5.7624435E0,0E0,0E0,0E0,0E0,0E0,0E0,0E0,0E0,0E0,0E0,0E0,0E0,0E0,0E0,0E0,0E0],"parents":[2147483647,0,0,1,1,2,2,3,3,4,4,5,5,6,6,9,9,10,10,11,11,12,12,13,13,14,14,16,16,17,17,18,18,19,19,21,21,24,24,25,25,26,26],"right_children":[2,4,6,8,10,12,14,-1,-1,16,18,20,22,24,26,-1,28,30,32,34,-1,36,-1,-1,38,40,42,-1,-1,-1,-1,-1,-1,-1,-1,-1,-1,-1,-1,-1,-1,-1,-1],"split_conditions":[4.878049E-1,2E0,6E0,3.125E-1,3.164557E-1,-2.1E-1,1.758E0,-1.3650238E-2,-4.4925816E-2,9.95E-1,1.044E0,1.429E0,5.075E-1,4.833837E-1,1.946E0,1.579625E-2,7.74E-1,-4.06E-1,4.4444445E-1,-3.6E-1,-2.0562781E-2,9E0,2.673994E-2,6.5611484E-3,5.3488374E-1,1.1222222E0,2.0166667E0,1.2760939E-2,-1.6977679E-2,-2.718499E-3,-3.629416E-2,4.467475E-3,3.580656E-2,4.2642403E-2,1.022473E-2,-2.0425472E-2,1.1529638E-2,-5.038901E-2,-1.089223E-2,3.715618E-2,3.668629E-3,2.0164966E-3,1.54335145E-2],"split_indices":[26,7,16,23,23,5,6,0,0,3,1,1,5,15,6,0,0,4,26,4,0,10,0,0,15,1,1,0,0,0,0,0,0,0,0,0,0,0,0,0,0,0,0],"split_type":[0,0,0,0,0,0,0,0,0,0,0,0,0,0,0,0,0,0,0,0,0,0,0,0,0,0,0,0,0,0,0,0,0,0,0,0,0,0,0,0,0,0,0],"sum_hessian":[1.8266024E3,3.0210675E2,1.5244956E3,2.3405153E1,2.787016E2,1.8649051E2,1.3380051E3,1.1536776E1,1.1868378E1,1.6429517E2,1.1440643E2,4.462062E1,1.4186989E2,3.4352516E1,1.3036526E3,1.3575586E1,1.5071957E2,2.4950104E1,8.945633E1,2.7939898E1,1.6680723E1,1.3126428E2,1.060561E1,1.2634347E1,2.171817E1,3.060157E1,1.273051E3,1.0862548E1,1.3985703E2,1.3472296E1,1.1477807E1,7.215926E1,1.7297066E1,1.3957164E1,1.3982734E1,1.13574196E2,1.7690086E1,1.0472222E1,1.1245947E1,1.9803877E1,1.0797695E1,1.1880079E3,8.504303E1],"tree_param":{"num_deleted":"0","num_feature":"30","num_nodes":"43","size_leaf_vector":"1"}},{"base_weights":[6.1113806E-3,-1.2272099E-1,4.7598153E-2,-1.8367071E-1,1.0732928E-1,2.2635628E-1,8.20013E-3,-1.299968E-1,-4.9712086E-1,3.0718982E-2,4.960603E-3,5.7856554E-1,1.5822622E-1,-5.2623194E-2,1.4158024E-1,-5.2815676E-1,-7.462525E-2,-2.2920997E-1,-7.949519E-1,-3.9518252E-1,2.2958693E-1,8.318084E-1,4.891252E-5,1.153584E-1,3.8745694E-2,-7.9165876E-2,3.0428168E-1,-1.3015778E-3,3.983877E-1,-1.2521318E-3,-4.2600892E-2,3.5135814E-3,-9.473412E-3,9.149412E-3,-2.5351545E-2,-5.5149015E-2,-2.248028E-2,-3.9055835E-2,-5.9644664E-3,2.6059186E-3,3.8069084E-2,2.4916567E-2,5.8658987E-2,-1.1520853E-3,1.377963E-2,-1.4064359E-2,-1.729304E-3,3.4077488E-2,-4.67997E-3,2.2133368E-3,-3.326955E-2,-6.1431653E-3,2.507549E-2],"categories":[],"categories_nodes":[],"categories_segments":[],"categories_sizes":[],"default_left":[0,1,0,1,0,0,1,1,0,0,0,0,0,0,0,0,1,0,0,0,1,1,0,0,0,0,1,1,1,0,0,0,0,0,0,0,0,0,0,0,0,0,0,0,0,0,0,0,0,0,0,0,0],"id":29,"left_children":[1,3,5,7,9,11,13,15,17,-1,19,21,23,25,27,29,31,33,35,37,39,41,-1,43,-1,45,47,49,51,-1,-1,-1,-1,-1,-1,-1,-1,-1,-1,-1,-1,-1,-1,-1,-1,-1,-1,-1,-1,-1,-1,-1,-1],"loss_changes":[9.770529E0,6.2675447E0,9.723907E0,5.8038816E0,4.7883315E0,5.8218384E0,9.230632E0,6.572251E0,3.7780457E0,0E0,7.172013E0,5.741227E0,5.39103E0,7.3933907E0,1.31217E1,5.848443E0,4.4692945E0,3.375887E0,1.8518257E0,2.861918E0,4.72699E0,2.3862152E0,0E0,4.42941E0,0E0,6.5122924E0,8.222097E0,7.0459695E0,6.9636517E0,0E0,0E0,0E0,0E0,0E0,0E0,0E0,0E0,0E0,0E0,0E0,0E0,0E0,0E0,0E0,0E0,0E0,0E0,0E0,0E0,0E0,0E0,0E0,0E0],"parents":[2147483647,0,0,1,1,2,2,3,3,4,4,5,5,6,6,7,7,8,8,10,10,11,11,12,12,13,13,14,14,15,15,16,16,17,17,18,18,19,19,20,20,21,21,23,23,25,25,26,26,27,27,28,28],"right_children":[2,4,6,8,10,12,14,16,18,-1,20,22,24,26,28,30,32,34,36,38,40,42,-1,44,-1,46,48,50,52,-1,-1,-1,-1,-1,-1,-1,-1,-1,-1,-1,-1,-1,-1,-1,-1,-1,-1,-1,-1,-1,-1,-1,-1],"split_conditions":[5.2910054E-1,9E0,2.5974026E-1,2.588E0,4.1322315E-1,1.167E0,6E-2,5E0,1.5E1,3.0718982E-2,4.608295E-1,2.9464788E0,2.16E2,1.81E2,3.3915E0,2.2575E0,5E0,4.784689E-1,1.8E-2,8E0,2.872E0,0E0,4.891252E-5,6.4102566E-1,3.8745694E-2,2.546E0,2.01E2,2.8328612E-1,4.6875E-1,-1.2521318E-3,-4.2600892E-2,3.5135814E-3,-9.473412E-3,9.149412E-3,-2.5351545E-2,-5.5149015E-2,-2.248028E-2,-3.9055835E-2,-5.9644664E-3,2.6059186E-3,3.8069084E-2,2.4916567E-2,5.8658987E-2,-1.1520853E-3,1.377963E-2,-1.4064359E-2,-1.729304E-3,3.4077488E-2,-4.67997E-3,2.2133368E-3,-3.326955E-2,-6.1431653E-3,2.507549E-2],"split_indices":[26,7,23,6,26,1,5,17,17,0,26,14,17,17,6,6,7,26,4,8,6,10,0,26,0,6,17,23,15,0,0,0,0,0,0,0,0,0,0,0,0,0,0,0,0,0,0,0,0,0,0,0,0],"split_type":[0,0,0,0,0,0,0,0,0,0,0,0,0,0,0,0,0,0,0,0,0,0,0,0,0,0,0,0,0,0,0,0,0,0,0,0,0,0,0,0,0,0,0,0,0,0,0,0,0,0,0,0,0],"sum_hessian":[1.8273431E3,4.4404483E2,1.3832982E3,3.51543E2,9.250185E1,2.4850209E2,1.1347961E3,3.0162732E2,4.991567E1,1.4533975E1,7.796787E1,3.8825832E1,2.0967625E2,7.792859E2,3.5551028E2,3.5562664E1,2.6606467E2,2.738612E1,2.2529547E1,2.759911E1,5.0368763E1,2.65651E1,1.2260733E1,1.9730986E2,1.2366388E1,7.2632794E2,5.295795E1,2.2881075E2,1.2669955E2,1.4469921E1,2.1092741E1,1.1742608E2,1.4863858E2,1.1018928E1,1.6367193E1,1.0595548E1,1.1933999E1,1.0590651E1,1.7008457E1,3.8729984E1,1.1638779E1,1.4830392E1,1.1734709E1,1.0599245E2,9.131742E1,1.2988528E2,5.964426E2,2.6946167E1,2.6011784E1,2.1485092E2,1.3959824E1,2.0734045E1,1.059655E2],"tree_param":{"num_deleted":"0","num_feature":"30","num_nodes":"53","size_leaf_vector":"1"}},{"base_weights":[1.4453785E-2,-2.1476764E-2,1.720426E-1,-3.4716758E-1,-1.0440375E-2,4.3540123E-1,9.9234596E-2,-1.0483303E-1,-4.3158036E-2,-2.9848602E-2,1.2985097E-1,5.193128E-2,2.929581E-1,-1.5748279E-1,2.6979813E-1,-3.0920092E-2,1.3334174E-1,-4.500907E-1,-2.1792315E-2,1.9339149E-1,-2.0933619E-2,1.2798001E-1,5.0416525E-2,-3.7140417E-1,8.968565E-2,3.6422125E-1,1.6389528E-2,2.6233677E-2,-9.4170105E-3,-5.472274E-3,-3.6128443E-2,-3.8712367E-4,-1.2339744E-2,-1.5251546E-2,1.2945197E-2,-1.718538E-2,1.545551E-2,-2.0412179E-3,-3.3760633E-2,-9.852236E-3,1.7365037E-2,-1.252821E-2,2.1345394E-2,2.680376E-2,-1.2164462E-2],"categories":[],"categories_nodes":[],"categories_segments":[],"categories_sizes":[],"default_left":[1,0,0,1,1,0,0,0,0,0,1,0,0,0,0,0,0,0,0,1,0,0,0,0,0,0,0,0,0,0,0,0,0,0,0,0,0,0,0,0,0,0,0,0,0],"id":30,"left_children":[1,3,5,7,9,11,13,15,-1,17,19,-1,21,23,25,-1,27,29,31,33,-1,35,-1,37,39,41,43,-1,-1,-1,-1,-1,-1,-1,-1,-1,-1,-1,-1,-1,-1,-1,-1,-1,-1],"loss_changes":[1.0472964E1,5.3662047E0,6.4884367E0,5.935078E0,3.958033E0,5.9028196E0,1.1904142E1,4.361452E0,0E0,4.277955E0,6.209964E0,0E0,6.9824967E0,5.7948093E0,3.8611422E0,0E0,3.193642E0,2.0468106E0,3.9482613E0,5.2668676E0,0E0,4.460569E0,0E0,5.779867E0,3.842916E0,4.694088E0,6.3187847E0,0E0,0E0,0E0,0E0,0E0,0E0,0E0,0E0,0E0,0E0,0E0,0E0,0E0,0E0,0E0,0E0,0E0,0E0],"parents":[2147483647,0,0,1,1,2,2,3,3,4,4,5,5,6,6,7,7,9,9,10,10,12,12,13,13,14,14,16,16,17,17,18,18,19,19,21,21,23,23,24,24,25,25,26,26],"right_children":[2,4,6,8,10,12,14,16,-1,18,20,-1,22,24,26,-1,28,30,32,34,-1,36,-1,38,40,42,44,-1,-1,-1,-1,-1,-1,-1,-1,-1,-1,-1,-1,-1,-1,-1,-1,-1,-1],"split_conditions":[3.116E0,3.8910505E-1,9.48E-1,8E0,5.780347E-1,1.572E0,1.3133334E0,3.7174723E-1,-4.3158036E-2,2E0,2.95E0,5.193128E-2,2.285E0,3E0,1.872E0,-3.0920092E-2,2.4672897E0,5E0,3.2083333E0,-6E0,-2.0933619E-2,3.416E0,5.0416525E-2,5.8E-1,6E0,1.1757143E0,1.4475E0,2.6233677E-2,-9.4170105E-3,-5.472274E-3,-3.6128443E-2,-3.8712367E-4,-1.2339744E-2,-1.5251546E-2,1.2945197E-2,-1.718538E-2,1.545551E-2,-2.0412179E-3,-3.3760633E-2,-9.852236E-3,1.7365037E-2,-1.252821E-2,2.1345394E-2,2.680376E-2,-1.2164462E-2],"split_indices":[6,26,2,9,26,0,2,22,0,9,6,0,1,10,2,0,14,10,14,10,0,6,0,4,9,1,0,0,0,0,0,0,0,0,0,0,0,0,0,0,0,0,0,0,0],"split_type":[0,0,0,0,0,0,0,0,0,0,0,0,0,0,0,0,0,0,0,0,0,0,0,0,0,0,0,0,0,0,0,0,0,0,0,0,0,0,0,0,0,0,0,0,0],"sum_hessian":[1.8452992E3,1.502871E3,3.4242828E2,4.7962086E1,1.4549088E3,7.2788086E1,2.696402E2,3.358566E1,1.437643E1,1.2794121E3,1.7549678E2,1.2568578E1,6.021951E1,1.07432526E2,1.6220767E2,1.0268168E1,2.331749E1,2.2800173E1,1.2566119E3,1.5802144E2,1.7475342E1,5.0005913E1,1.0213599E1,5.753693E1,4.989559E1,1.17568375E2,4.4639305E1,1.037543E1,1.2942059E1,1.0918639E1,1.1881534E1,1.1841489E3,7.246299E1,1.7755335E1,1.402661E2,1.347237E1,3.6533543E1,2.8255312E1,2.928162E1,2.3540983E1,2.6354609E1,1.0453695E1,1.0711468E2,1.4647171E1,2.9992134E1],"tree_param":{"num_deleted":"0","num_feature":"30","num_nodes":"45","size_leaf_vector":"1"}},{"base_weights":[-5.8689187E-3,-2.7808476E-2,3.1864393E-1,-5.1697966E-2,1.2445589E-1,4.5609176E-1,-1.0796124E-1,-6.940528E-2,2.1049769E-1,-3.2295418E-1,2.1614915E-1,5.378876E-1,-9.014853E-4,-2.251112E-2,2.2833297E-2,-4.2221463E-1,-5.683501E-2,5.873411E-1,4.519908E-2,-6.10425E-1,2.024952E-3,5.7920635E-1,1.06443726E-1,3.0588314E-1,7.040149E-1,-4.511253E-2,-6.227342E-4,-1.9585479E-3,-1.444605E-2,4.669651E-2,3.5989822E-3,-2.4492567E-2,1.1982675E-2,-4.7917306E-2,-8.8707935E-3,-1.3563603E-3,3.7971508E-2,1.0238E-3,2.1503804E-2,-1.6843582E-3,3.77749E-2,5.293516E-2,2.3144998E-2],"categories":[],"categories_nodes":[],"categories_segments":[],"categories_sizes":[],"default_left":[1,1,0,1,0,1,1,0,1,1,0,0,0,0,0,0,0,0,0,0,0,0,1,0,0,0,0,0,0,0,0,0,0,0,0,0,0,0,0,0,0,0,0],"id":31,"left_children":[1,3,5,7,9,11,13,15,17,19,21,23,-1,-1,-1,25,27,29,31,33,-1,35,37,39,41,-1,-1,-1,-1,-1,-1,-1,-1,-1,-1,-1,-1,-1,-1,-1,-1,-1,-1],"loss_changes":[1.30636E1,6.2649083E0,6.895586E0,6.9191885E0,9.6314125E0,3.483261E0,5.7973456E0,6.1238375E0,5.775861E0,4.2507114E0,7.613783E0,2.5920124E0,0E0,0E0,0E0,9.266787E0,5.4919686E0,4.9126053E0,7.0342855E0,3.1054058E0,0E0,4.976385E0,4.1402535E0,5.213169E0,3.0311089E0,0E0,0E0,0E0,0E0,0E0,0E0,0E0,0E0,0E0,0E0,0E0,0E0,0E0,0E0,0E0,0E0,0E0,0E0],"parents":[2147483647,0,0,1,1,2,2,3,3,4,4,5,5,6,6,7,7,8,8,9,9,10,10,11,11,15,15,16,16,17,17,18,18,19,19,21,21,22,22,23,23,24,24],"right_children":[2,4,6,8,10,12,14,16,18,20,22,24,-1,-1,-1,26,28,30,32,34,-1,36,38,40,42,-1,-1,-1,-1,-1,-1,-1,-1,-1,-1,-1,-1,-1,-1,-1,-1,-1,-1],"split_conditions":[6.4102566E-1,3.0253165E0,1.61E2,4.7393364E-1,4.3290043E-1,4.5555556E-1,3.258E0,3.1948882E-1,7.6E-1,1.1825E0,5E0,6.25E-2,-9.014853E-4,-2.251112E-2,2.2833297E-2,3.06E-1,2.9725087E0,2E0,6E0,1.24E2,2.024952E-3,6E0,3.8E0,6.896552E-1,5.531915E-1,-4.511253E-2,-6.227342E-4,-1.9585479E-3,-1.444605E-2,4.669651E-2,3.5989822E-3,-2.4492567E-2,1.1982675E-2,-4.7917306E-2,-8.8707935E-3,-1.3563603E-3,3.7971508E-2,1.0238E-3,2.1503804E-2,-1.6843582E-3,3.77749E-2,5.293516E-2,2.3144998E-2],"split_indices":[26,14,17,24,22,5,6,22,1,1,7,5,0,0,0,5,14,10,17,17,0,17,6,26,15,0,0,0,0,0,0,0,0,0,0,0,0,0,0,0,0,0,0],"split_type":[0,0,0,0,0,0,0,0,0,0,0,0,0,0,0,0,0,0,0,0,0,0,0,0,0,0,0,0,0,0,0,0,0,0,0,0,0,0,0,0,0,0,0],"sum_hessian":[1.836701E3,1.7215345E3,1.1516648E2,1.4892035E3,2.3233105E2,8.722785E1,2.7938631E1,1.3960391E3,9.3164444E1,3.8901505E1,1.9342955E2,7.445861E1,1.2769238E1,1.7630962E1,1.0307668E1,4.663353E1,1.3494055E3,2.7442827E1,6.572161E1,2.1495447E1,1.7406055E1,4.3681053E1,1.497485E2,3.2505875E1,4.1952736E1,2.0809336E1,2.5824194E1,1.2554526E3,9.395281E1,1.5806484E1,1.1636342E1,1.6976532E1,4.8745083E1,1.1118008E1,1.03774395E1,1.0076138E1,3.3604916E1,1.1940322E2,3.034528E1,1.891958E1,1.3586294E1,1.543772E1,2.6515017E1],"tree_param":{"num_deleted":"0","num_feature":"30","num_nodes":"43","size_leaf_vector":"1"}},{"base_weights":[1.0884957E-2,-1.8528089E-1,4.9794883E-2,-2.9621769E-2,-1.5674458E-1,2.8412187E-2,4.3421738E-2,2.1938505E-2,-1.8786028E-1,-2.733072E-1,5.2075464E-2,-5.7147264E-1,-1.4139548E-1,-3.6066502E-2,8.0336835E-3,1.14909746E-1,-5.7758234E-4,-2.6413219E-3,-4.4706207E-2,2.509143E-2,-8.842985E-3,4.4586402E-3,2.34122E-2,-5.307512E-3,4.985327E-3],"categories":[],"categories_nodes":[],"categories_segments":[],"categories_sizes":[],"default_left":[0,0,0,0,0,0,0,0,0,0,0,0,0,0,0,1,1,0,0,0,0,0,0,0,0],"id":32,"left_children":[1,3,5,-1,7,-1,9,-1,11,13,15,17,19,-1,-1,21,23,-1,-1,-1,-1,-1,-1,-1,-1],"loss_changes":[1.39248705E1,3.3392906E0,4.9498997E0,0E0,5.313638E0,0E0,4.1221614E0,0E0,4.668377E0,7.9352407E0,4.867936E0,4.6535378E0,5.5945153E0,0E0,0E0,5.9963884E0,8.468177E0,0E0,0E0,0E0,0E0,0E0,0E0,0E0,0E0],"parents":[2147483647,0,0,1,1,2,2,4,4,6,6,8,8,9,9,10,10,11,11,12,12,15,15,16,16],"right_children":[2,4,6,-1,8,-1,10,-1,12,14,16,18,20,-1,-1,22,24,-1,-1,-1,-1,-1,-1,-1,-1],"split_conditions":[4.878049E-1,8.44E-1,7.716049E-2,-2.9621769E-2,7.64E-1,2.8412187E-2,7.41E-1,2.1938505E-2,3E0,1.6957142E0,7E0,2.8089887E-1,-4.52E-1,-3.6066502E-2,8.0336835E-3,4.4052863E-1,9E0,-2.6413219E-3,-4.4706207E-2,2.509143E-2,-8.842985E-3,4.4586402E-3,2.34122E-2,-5.307512E-3,4.985327E-3],"split_indices":[26,1,24,0,0,0,1,0,7,3,9,24,5,0,0,24,9,0,0,0,0,0,0,0,0],"split_type":[0,0,0,0,0,0,0,0,0,0,0,0,0,0,0,0,0,0,0,0,0,0,0,0,0],"sum_hessian":[1.8239131E3,3.0084747E2,1.5230656E3,1.8180721E1,2.8266675E2,1.723412E1,1.5058314E3,1.3225846E1,2.6944092E2,3.8927696E1,1.4669038E3,2.765669E1,2.4178421E2,1.8941559E1,1.9986137E1,6.691184E2,7.977854E2,1.1171967E1,1.6484724E1,1.1799711E1,2.299845E2,6.2511993E2,4.3998478E1,3.891023E2,4.0868307E2],"tree_param":{"num_deleted":"0","num_feature":"30","num_nodes":"25","size_leaf_vector":"1"}},{"base_weights":[-3.7740085E-3,-1.0207306E-2,3.8368307E-2,-3.3103055E-1,-4.4104503E-4,-1.3393022E-1,-3.8027164E-2,-3.6530167E-1,8.677778E-3,1.4895533E-1,-2.588428E-2,-5.4866993E-1,6.88084E-3,-8.598018E-3,1.5595418E-1,-1.0072374E-2,2.6852656E-2,-7.1301027E-3,-4.145275E-2,-7.190422E-4,2.898184E-2,-1.1836862E-2,1.3750545E-2],"categories":[],"categories_nodes":[],"categories_segments":[],"categories_sizes":[],"default_left":[1,0,0,1,0,0,0,0,1,0,0,0,0,1,0,0,0,0,0,0,0,0,0],"id":33,"left_children":[1,3,-1,5,7,9,-1,11,13,15,-1,17,-1,19,21,-1,-1,-1,-1,-1,-1,-1,-1],"loss_changes":[8.9993725E0,5.6495047E0,0E0,4.3189473E0,5.8992987E0,4.2274904E0,0E0,4.1041756E0,