{"learner":{"attributes":{"best_iteration":"23","best_score":"0.6033688733882939","scikit_learn":"{\"_estimator_type\": \"classifier\"}"},"feature_names":[],"feature_types":[],"gradient_booster":{"model":{"cats":{"enc":[],"feature_segments":[],"sorted_idx":[]},"gbtree_model_param":{"num_parallel_tree":"1","num_trees":"54"},"iteration_indptr":[0,1,2,3,4,5,6,7,8,9,10,11,12,13,14,15,16,17,18,19,20,21,22,23,24,25,26,27,28,29,30,31,32,33,34,35,36,37,38,39,40,41,42,43,44,45,46,47,48,49,50,51,52,53,54],"tree_info":[0,0,0,0,0,0,0,0,0,0,0,0,0,0,0,0,0,0,0,0,0,0,0,0,0,0,0,0,0,0,0,0,0,0,0,0,0,0,0,0,0,0,0,0,0,0,0,0,0,0,0,0,0,0],"trees":[{"base_weights":[-1.8828546E-3,-1.0495433E-1,5.796428E-1,-1.6248514E-1,3.4947655E-1,3.2810873E-1,8.570115E-1,-4.1482824E-1,-9.1438815E-2,1.7487043E-1,1.0917687E0,7.097768E-1,1.2942469E-1,3.4759238E-3,9.4323677E-1,-3.3008224E-1,-6.513977E-1,-1.5153384E-1,1.2025619E-1,2.589337E-1,-2.925163E-2,3.250445E-2,7.6750115E-2,1.0394392E0,3.21611E-3,-2.970658E-2,2.4051657E-1,1.2112125E0,6.769373E-1,-1.4309487E-2,-4.0682152E-2,-3.9937865E-2,3.4759238E-3,-2.1745464E-2,-4.995276E-3,-2.7468072E-3,1.843631E-2,-1.6134648E-2,1.8927937E-2,3.2612722E-2,7.796174E-2,3.0263562E-2,-7.794955E-4,9.143295E-2,4.9893565E-2,5.687866E-3,4.8068978E-2],"categories":[],"categories_nodes":[],"categories_segments":[],"categories_sizes":[],"default_left":[1,1,0,0,0,0,0,1,1,1,0,1,0,0,1,0,0,0,1,1,0,0,0,0,0,0,0,0,0,0,0,0,0,0,0,0,0,0,0,0,0,0,0,0,0,0,0],"id":0,"left_children":[1,3,5,7,9,11,13,15,17,19,21,23,25,-1,27,29,31,33,35,37,-1,-1,-1,39,-1,-1,41,43,45,-1,-1,-1,-1,-1,-1,-1,-1,-1,-1,-1,-1,-1,-1,-1,-1,-1,-1],"loss_changes":[9.396544E1,3.4873806E1,1.6065613E1,2.1131285E1,1.9105032E1,9.346687E0,7.3992996E0,4.8881454E0,1.17912245E1,7.951724E0,4.311569E0,8.886251E0,6.857885E0,0E0,6.1443634E0,3.7609806E0,7.2554493E0,1.0457581E1,8.964539E0,7.865875E0,0E0,0E0,0E0,4.402321E0,0E0,0E0,6.9469213E0,4.28228E0,8.230057E0,0E0,0E0,0E0,0E0,0E0,0E0,0E0,0E0,0E0,0E0,0E0,0E0,0E0,0E0,0E0,0E0,0E0,0E0],"parents":[2147483647,0,0,1,1,2,2,3,3,4,4,5,5,6,6,7,7,8,8,9,9,10,10,11,11,12,12,14,14,15,15,16,16,17,17,18,18,19,19,23,23,26,26,27,27,28,28],"right_children":[2,4,6,8,10,12,14,16,18,20,22,24,26,-1,28,30,32,34,36,38,-1,-1,-1,40,-1,-1,42,44,46,-1,-1,-1,-1,-1,-1,-1,-1,-1,-1,-1,-1,-1,-1,-1,-1,-1,-1],"split_conditions":[5.780347E-1,1.741E0,6.4102566E-1,4.878049E-1,4.32E-1,2.2727273E-1,1.3550135E-1,2.228E0,5.652174E-1,2.2075056E-1,1.3E1,1.615E0,2.466E0,3.4759238E-3,1.505E0,1.5E1,5.2910054E-1,6E0,1.4E0,6.6333336E-1,-2.925163E-2,3.250445E-2,7.6750115E-2,1.34E2,3.21611E-3,-2.970658E-2,1.489E0,0E0,6.756757E-1,-1.4309487E-2,-4.0682152E-2,-3.9937865E-2,3.4759238E-3,-2.1745464E-2,-4.995276E-3,-2.7468072E-3,1.843631E-2,-1.6134648E-2,1.8927937E-2,3.2612722E-2,7.796174E-2,3.0263562E-2,-7.794955E-4,9.143295E-2,4.9893565E-2,5.687866E-3,4.8068978E-2],"split_indices":[26,1,26,26,5,29,28,6,15,29,8,1,6,0,0,8,28,16,2,2,0,0,0,17,0,0,1,10,26,0,0,0,0,0,0,0,0,0,0,0,0,0,0,0,0,0,0],"split_type":[0,0,0,0,0,0,0,0,0,0,0,0,0,0,0,0,0,0,0,0,0,0,0,0,0,0,0,0,0,0,0,0,0,0,0,0,0,0,0,0,0,0,0,0,0,0,0],"sum_hessian":[1.5664691E3,1.3314672E3,2.3500204E2,1.1826113E3,1.4885574E2,1.2457431E2,1.10427734E2,2.584389E2,9.241725E2,1.2161831E2,2.7237434E1,4.159515E1,8.297916E1,1.1190574E1,9.923716E1,1.9235118E2,6.608773E1,7.2041956E2,2.037529E2,1.1021659E2,1.1401716E1,1.4991146E1,1.2246288E1,2.702629E1,1.456886E1,1.0346002E1,7.2633156E1,4.7507153E1,5.173001E1,1.7799347E2,1.43577175E1,5.4897152E1,1.1190574E1,1.0958316E2,6.108364E2,1.19718025E2,8.4034874E1,1.8369432E1,9.184716E1,1.6891432E1,1.0134859E1,2.9560005E1,4.307315E1,1.0134859E1,3.737229E1,1.7947145E1,3.3782864E1],"tree_param":{"num_deleted":"0","num_feature":"30","num_nodes":"47","size_leaf_vector":"1"}},{"base_weights":[3.4881902E-3,-5.6272358E-2,7.771081E-1,-3.4296995E-1,5.3480137E-2,9.1488945E-1,4.549411E-3,-7.5017416E-1,-2.7987948E-1,-1.8794073E-2,2.5239456E-1,1.2594755E0,6.8049234E-1,-1.0645493E-2,-8.7930155E-1,-4.6527013E-1,-1.3842441E-1,5.3037804E-1,-4.7815967E-2,6.1650515E-2,5.7861286E-1,3.574543E-2,1.5528754E0,3.600685E-1,6.308399E-2,-2.6499411E-2,-4.8772708E-2,-3.0913416E-2,-1.0225151E-2,2.3233652E-2,-9.56595E-3,4.737996E-2,1.1967974E-2,-1.4258901E-2,1.6754703E-4,-1.4536624E-2,1.7211711E-2,3.724852E-2,3.208141E-3,1.0055747E-1,4.430358E-2,2.9569983E-2,-7.943887E-3],"categories":[],"categories_nodes":[],"categories_segments":[],"categories_sizes":[],"default_left":[1,0,1,1,1,0,0,0,0,0,0,0,0,0,0,0,0,0,0,1,0,0,0,0,0,0,0,0,0,0,0,0,0,0,0,0,0,0,0,0,0,0,0],"id":1,"left_children":[1,3,5,7,9,11,-1,13,15,17,19,21,23,-1,25,27,29,31,33,35,37,-1,39,41,-1,-1,-1,-1,-1,-1,-1,-1,-1,-1,-1,-1,-1,-1,-1,-1,-1,-1,-1],"loss_changes":[7.352519E1,4.6453003E1,1.0597839E1,1.0186005E1,1.53695965E1,6.6015244E0,0E0,3.4509163E0,9.202015E0,1.24612465E1,1.7624134E1,4.576206E0,1.0321825E1,0E0,7.7939224E-1,5.903202E0,6.5520473E0,4.417323E0,9.078037E0,1.8134363E1,8.839001E0,0E0,4.980541E0,4.863811E0,0E0,0E0,0E0,0E0,0E0,0E0,0E0,0E0,0E0,0E0,0E0,0E0,0E0,0E0,0E0,0E0,0E0,0E0,0E0],"parents":[2147483647,0,0,1,1,2,2,3,3,4,4,5,5,7,7,8,8,9,9,10,10,11,11,12,12,14,14,15,15,16,16,17,17,18,18,19,19,20,20,22,22,23,23],"right_children":[2,4,6,8,10,12,-1,14,16,18,20,22,24,-1,26,28,30,32,34,36,38,-1,40,42,-1,-1,-1,-1,-1,-1,-1,-1,-1,-1,-1,-1,-1,-1,-1,-1,-1,-1,-1],"split_conditions":[6.4102566E-1,5.405405E-1,1.707E0,2E0,1E1,2.8853211E0,4.549411E-3,2.857143E-1,2.38E-1,2.3364486E-1,9.3E1,4.8550725E-1,3.0357144E0,-1.0645493E-2,2.496E0,2.665236E0,2.3947368E0,7E0,6E0,-9.6E-2,1.88E2,3.574543E-2,1.1E1,2.247191E-1,6.308399E-2,-2.6499411E-2,-4.8772708E-2,-3.0913416E-2,-1.0225151E-2,2.3233652E-2,-9.56595E-3,4.737996E-2,1.1967974E-2,-1.4258901E-2,1.6754703E-4,-1.4536624E-2,1.7211711E-2,3.724852E-2,3.208141E-3,1.0055747E-1,4.430358E-2,2.9569983E-2,-7.943887E-3],"split_indices":[26,26,3,7,8,14,0,23,4,23,17,15,14,0,6,14,14,17,16,4,17,0,8,23,0,0,0,0,0,0,0,0,0,0,0,0,0,0,0,0,0,0,0],"split_type":[0,0,0,0,0,0,0,0,0,0,0,0,0,0,0,0,0,0,0,0,0,0,0,0,0,0,0,0,0,0,0,0,0,0,0,0,0,0,0,0,0,0,0],"sum_hessian":[1.5868495E3,1.4737996E3,1.13049995E2,4.0766788E2,1.0661317E3,9.3745544E1,1.9304447E1,5.3015427E1,3.5465244E2,7.822934E2,2.8383826E2,3.600901E1,5.7736538E1,1.0936181E1,4.2079247E1,1.521928E2,2.0245964E2,3.8226406E1,7.44067E2,1.8005394E2,1.0378431E2,1.3930563E1,2.2078447E1,3.8372417E1,1.9364119E1,1.0712761E1,3.1366486E1,9.48107E1,5.73821E1,1.5544761E1,1.8691489E2,1.46391325E1,2.3587275E1,1.3148628E2,6.1258075E2,7.996035E1,1.0009359E2,7.793881E1,2.5845503E1,1.1801537E1,1.0276912E1,2.657786E1,1.1794559E1],"tree_param":{"num_deleted":"0","num_feature":"30","num_nodes":"43","size_leaf_vector":"1"}},{"base_weights":[-2.2080052E-3,5.025547E-1,-9.551116E-2,2.5157428E-1,6.135287E-1,-1.6735597E-1,3.204681E-1,4.4102114E-2,3.8859516E-2,1.1180253E0,4.9651167E-1,-6.1352883E-2,-3.402377E-1,4.272018E-2,5.1004285E-1,-1.4382766E-1,3.1892803E-2,3.8770817E-2,8.0866046E-2,9.127263E-1,3.6918625E-1,-3.9427796E-1,1.852513E-2,-5.2638143E-1,-2.3068E-1,-2.5953678E-2,1.4618982E-1,9.601254E-1,3.560441E-1,1.953861E-2,-1.9599026E-2,5.7401586E-2,2.0927614E-2,-1.2886754E-2,2.4181718E-2,-3.8483392E-2,-1.3584554E-2,-1.0633378E-3,3.891095E-2,-4.7825836E-2,-2.0818133E-2,-1.3682351E-3,-1.9056542E-2,2.0102251E-2,-5.9286277E-3,1.4442389E-2,6.8860166E-2,2.3974944E-2,-1.9915694E-2],"categories":[],"categories_nodes":[],"categories_segments":[],"categories_sizes":[],"default_left":[0,0,0,0,0,1,1,0,0,0,0,0,0,1,0,0,0,0,0,0,0,0,1,0,0,0,1,0,0,0,0,0,0,0,0,0,0,0,0,0,0,0,0,0,0,0,0,0,0],"id":2,"left_children":[1,3,5,7,9,11,13,-1,15,17,19,21,23,25,27,29,-1,-1,-1,31,33,35,37,39,41,-1,43,45,47,-1,-1,-1,-1,-1,-1,-1,-1,-1,-1,-1,-1,-1,-1,-1,-1,-1,-1,-1,-1],"loss_changes":[7.395945E1,6.581936E0,3.9675484E1,1.0210322E1,9.253632E0,2.068058E1,1.0215078E1,0E0,6.5751824E0,3.7818527E0,6.903717E0,1.874519E1,8.564308E0,4.723703E0,7.5576324E0,6.221706E0,0E0,0E0,0E0,3.0500526E0,7.920622E0,5.9615746E0,1.7257782E1,6.9441376E0,8.286148E0,0E0,4.7497206E0,7.4942493E0,8.402386E0,0E0,0E0,0E0,0E0,0E0,0E0,0E0,0E0,0E0,0E0,0E0,0E0,0E0,0E0,0E0,0E0,0E0,0E0,0E0,0E0],"parents":[2147483647,0,0,1,1,2,2,3,3,4,4,5,5,6,6,8,8,9,9,10,10,11,11,12,12,13,13,14,14,15,15,19,19,20,20,21,21,22,22,23,23,24,24,26,26,27,27,28,28],"right_children":[2,4,6,8,10,12,14,-1,16,18,20,22,24,26,28,30,-1,-1,-1,32,34,36,38,40,42,-1,44,46,48,-1,-1,-1,-1,-1,-1,-1,-1,-1,-1,-1,-1,-1,-1,-1,-1,-1,-1,-1,-1],"split_conditions":[2.5773194E-1,1.2355555E0,3.0304878E0,1.6051364E-1,-1.9E-1,1.984127E-1,-2.1222222E-1,4.4102114E-2,3.982E0,-2.9285714E-1,1.39E0,6E0,4E-3,4E0,1.1788889E0,-7E-2,3.1892803E-2,3.8770817E-2,8.0866046E-2,2.2988506E-1,1.495E0,1.102E0,2.05375E0,2.624672E-1,2.95858E-1,-2.5953678E-2,3.1975307E0,1.656E0,1.867E0,1.953861E-2,-1.9599026E-2,5.7401586E-2,2.0927614E-2,-1.2886754E-2,2.4181718E-2,-3.8483392E-2,-1.3584554E-2,-1.0633378E-3,3.891095E-2,-4.7825836E-2,-2.0818133E-2,-1.3682351E-3,-1.9056542E-2,2.0102251E-2,-5.9286277E-3,1.4442389E-2,6.8860166E-2,2.3974944E-2,-1.9915694E-2],"split_indices":[23,3,14,23,5,24,5,0,6,5,3,16,4,9,3,5,0,0,0,23,3,3,1,24,23,0,14,1,1,0,0,0,0,0,0,0,0,0,0,0,0,0,0,0,0,0,0,0,0],"split_type":[0,0,0,0,0,0,0,0,0,0,0,0,0,0,0,0,0,0,0,0,0,0,0,0,0,0,0,0,0,0,0,0,0,0,0,0,0,0,0,0,0,0,0,0,0,0,0,0,0],"sum_hessian":[1.5692443E3,2.4396341E2,1.3252809E3,7.607629E1,1.6788713E2,1.1308134E3,1.944675E2,1.827981E1,5.7796474E1,2.9837872E1,1.3804926E2,7.021939E2,4.2861945E2,7.959902E1,1.14868484E2,4.4743233E1,1.3053241E1,1.9328354E1,1.0509519E1,3.0709387E1,1.07339874E2,1.3535619E2,5.668377E2,1.5705618E2,2.7156326E2,1.1605145E1,6.799387E1,2.7783472E1,8.708501E1,1.3874805E1,3.0868427E1,1.9770159E1,1.0939228E1,1.624232E1,9.109756E1,3.1820381E1,1.0353581E2,5.394237E2,2.7414013E1,3.0237E1,1.2681919E2,1.16276634E2,1.5528664E2,3.4506973E1,3.34869E1,1.1387637E1,1.6395836E1,7.5264496E1,1.1820515E1],"tree_param":{"num_deleted":"0","num_feature":"30","num_nodes":"49","size_leaf_vector":"1"}},{"base_weights":[8.322915E-3,6.592064E-1,-6.287118E-2,5.5911124E-1,6.670967E-2,-3.976278E-1,9.061466E-3,6.850758E-1,-1.274682E-1,6.823869E-3,-4.4410425E-1,-5.787081E-2,3.4261233E-1,1.1200426E0,5.121146E-1,-3.0610282E-2,1.6619164E-2,-7.629284E-1,-3.568585E-1,-1.0741846E-1,2.0633352E-1,-1.9753182E-1,4.7028795E-1,9.4678976E-2,2.6456608E-2,3.1157343E-2,6.5317075E-3,-1.3962993E-2,-4.3957718E-2,-2.8306356E-2,-1.1031034E-2,-1.2367315E-2,-2.7918378E-3,5.2614287E-3,2.7427468E-2,1.0682355E-2,-2.5547912E-2,-1.0951225E-2,2.6567077E-2],"categories":[],"categories_nodes":[],"categories_segments":[],"categories_sizes":[],"default_left":[0,0,0,1,0,0,1,0,0,0,0,1,0,0,0,0,0,0,0,0,0,0,0,0,0,0,0,0,0,0,0,0,0,0,0,0,0,0,0],"id":3,"left_children":[1,3,5,7,-1,9,11,13,15,-1,17,19,21,23,25,-1,-1,27,29,31,33,35,37,-1,-1,-1,-1,-1,-1,-1,-1,-1,-1,-1,-1,-1,-1,-1,-1],"loss_changes":[7.323628E1,9.59346E0,3.4318466E1,1.2040066E1,0E0,6.3477135E0,2.6222315E1,8.028984E0,5.1455812E0,0E0,6.076496E0,1.2802637E1,1.3660042E1,1.3448082E1,3.4593353E0,0E0,0E0,2.3807106E0,5.056238E0,5.901366E0,5.2163377E0,5.0477543E0,6.849411E0,0E0,0E0,0E0,0E0,0E0,0E0,0E0,0E0,0E0,0E0,0E0,0E0,0E0,0E0,0E0,0E0],"parents":[2147483647,0,0,1,1,2,2,3,3,5,5,6,6,7,7,8,8,10,10,11,11,12,12,13,13,14,14,17,17,18,18,19,19,20,20,21,21,22,22],"right_children":[2,4,6,8,-1,10,12,14,16,-1,18,20,22,24,26,-1,-1,28,30,32,34,36,38,-1,-1,-1,-1,-1,-1,-1,-1,-1,-1,-1,-1,-1,-1,-1,-1],"split_conditions":[2.3364486E-1,7.518797E-1,4.878049E-1,1E1,6.670967E-2,2.402062E0,3.0304878E0,6.1728394E-1,7E0,6.823869E-3,3.3112583E-1,1.1E1,6.097561E-1,8E0,2.985294E0,-3.0610282E-2,1.6619164E-2,2.174E0,7.125E-2,2.604E0,2.9E0,3.258E0,-5.042857E-1,9.4678976E-2,2.6456608E-2,3.1157343E-2,6.5317075E-3,-1.3962993E-2,-4.3957718E-2,-2.8306356E-2,-1.1031034E-2,-1.2367315E-2,-2.7918378E-3,5.2614287E-3,2.7427468E-2,1.0682355E-2,-2.5547912E-2,-1.0951225E-2,2.6567077E-2],"split_indices":[23,26,26,9,0,14,14,22,8,0,22,8,26,17,14,0,0,6,5,6,14,6,5,0,0,0,0,0,0,0,0,0,0,0,0,0,0,0,0],"split_type":[0,0,0,0,0,0,0,0,0,0,0,0,0,0,0,0,0,0,0,0,0,0,0,0,0,0,0,0,0,0,0,0,0,0,0,0,0,0,0],"sum_hessian":[1.5772627E3,1.5483624E2,1.4224265E3,1.3656172E2,1.8274523E1,2.510349E2,1.1713916E3,1.15516174E2,2.104555E1,1.9768467E1,2.3126643E2,9.7605695E2,1.9533463E2,3.1143064E1,8.437311E1,1.0190118E1,1.0855432E1,4.7778313E1,1.8348813E2,8.2273663E2,1.533203E2,3.709027E1,1.5824437E2,1.2459324E1,1.868374E1,6.465828E1,1.9714832E1,1.0082714E1,3.76956E1,7.081815E1,1.1266997E2,2.2005382E2,6.026828E2,1.19588524E2,3.3731773E1,1.6043009E1,2.104726E1,1.2531774E1,1.4571259E2],"tree_param":{"num_deleted":"0","num_feature":"30","num_nodes":"39","size_leaf_vector":"1"}},{"base_weights":[7.0344345E-3,-6.523943E-2,5.573631E-1,-1.13318056E-1,2.9699263E-1,3.091481E-1,6.967899E-1,-3.2683152E-1,-4.569718E-2,1.7512761E-1,8.5040915E-1,7.2598614E-2,5.36468E-2,2.6890612E-3,7.710923E-1,2.4184471E-1,-3.7645143E-1,4.910605E-1,-6.646346E-2,6.356964E-2,7.286013E-1,1.6623287E-2,6.110018E-2,2.7702987E-2,-1.3865721E-1,8.874434E-1,9.606428E-3,2.632973E-2,-6.3054534E-3,-1.5208423E-2,-3.2925982E-2,4.097529E-3,4.1470855E-2,-4.2886287E-3,1.309866E-2,-5.957109E-3,2.096721E-2,1.5352489E-2,5.3042438E-2,1.8556526E-2,-1.9514643E-2,7.24856E-2,3.5626736E-2],"categories":[],"categories_nodes":[],"categories_segments":[],"categories_sizes":[],"default_left":[1,1,0,0,0,1,0,0,0,0,0,0,0,0,0,0,1,0,1,0,0,0,0,0,1,0,0,0,0,0,0,0,0,0,0,0,0,0,0,0,0,0,0],"id":4,"left_children":[1,3,5,7,9,11,13,15,17,19,21,23,-1,-1,25,27,29,31,33,35,37,-1,-1,-1,39,41,-1,-1,-1,-1,-1,-1,-1,-1,-1,-1,-1,-1,-1,-1,-1,-1,-1],"loss_changes":[6.2838394E1,2.4315424E1,6.031502E0,1.7746616E1,1.0777268E1,1.2097921E1,5.4366913E0,8.456942E0,1.044308E1,8.236214E0,5.039768E0,5.5204515E0,0E0,0E0,6.7351875E0,2.6422086E0,5.265438E0,4.667714E0,5.7372723E0,7.487459E0,2.6848078E0,0E0,0E0,0E0,4.9662714E0,7.2355194E0,0E0,0E0,0E0,0E0,0E0,0E0,0E0,0E0,0E0,0E0,0E0,0E0,0E0,0E0,0E0,0E0,0E0],"parents":[2147483647,0,0,1,1,2,2,3,3,4,4,5,5,6,6,7,7,8,8,9,9,10,10,11,11,14,14,15,15,16,16,17,17,18,18,19,19,20,20,24,24,25,25],"right_children":[2,4,6,8,10,12,14,16,18,20,22,24,-1,-1,26,28,30,32,34,36,38,-1,-1,-1,40,42,-1,-1,-1,-1,-1,-1,-1,-1,-1,-1,-1,-1,-1,-1,-1,-1,-1],"split_conditions":[6.060606E-1,1.8066666E0,6.4102566E-1,5.050505E-1,4.738E0,1.68E2,1.4204545E-1,2.402062E0,2.3364486E-1,3.1975307E0,1.19E-1,3.472222E-1,5.36468E-2,2.6890612E-3,2.512563E-1,3.2051283E-1,2.445E0,4.9358973E-1,5.35E-1,2.14E-1,7E-1,1.6623287E-2,6.110018E-2,2.7702987E-2,9.2375E-1,1.452E0,9.606428E-3,2.632973E-2,-6.3054534E-3,-1.5208423E-2,-3.2925982E-2,4.097529E-3,4.1470855E-2,-4.2886287E-3,1.309866E-2,-5.957109E-3,2.096721E-2,1.5352489E-2,5.3042438E-2,1.8556526E-2,-1.9514643E-2,7.24856E-2,3.5626736E-2],"split_indices":[26,0,26,26,6,17,22,14,23,14,5,22,0,0,23,23,6,15,5,5,15,0,0,0,3,0,0,0,0,0,0,0,0,0,0,0,0,0,0,0,0,0,0],"split_type":[0,0,0,0,0,0,0,0,0,0,0,0,0,0,0,0,0,0,0,0,0,0,0,0,0,0,0,0,0,0,0,0,0,0,0,0,0,0,0,0,0,0,0],"sum_hessian":[1.5767196E3,1.394307E3,1.8241258E2,1.2317778E3,1.6252916E2,6.7025246E1,1.15387344E2,2.950002E2,9.3677765E2,1.344252E2,2.8103947E1,5.2111874E1,1.4913368E1,1.227032E1,1.0311703E2,2.3201925E1,2.7179828E2,3.3869568E1,9.029081E2,1.1295381E2,2.14714E1,1.2644016E1,1.545993E1,1.5541893E1,3.656998E1,8.527437E1,1.7842653E1,1.2989962E1,1.0211964E1,2.1829161E2,5.350667E1,1.6027874E1,1.7841694E1,8.537581E2,4.9149944E1,7.488161E1,3.8072205E1,1.0444582E1,1.1026817E1,1.17973995E1,2.4772583E1,1.8367933E1,6.690643E1],"tree_param":{"num_deleted":"0","num_feature":"30","num_nodes":"43","size_leaf_vector":"1"}},{"base_weights":[1.6163873E-2,6.001903E-1,-4.826765E-2,3.9043874E-1,8.010729E-1,-7.701095E-2,5.624533E-1,9.297349E-1,1.6017787E-1,9.59392E-1,1.50377145E-2,-2.048811E-2,-3.3307052E-1,7.844224E-2,3.2397142E-1,6.946855E-2,1.9554252E-2,-8.810775E-2,5.196286E-1,4.3783933E-1,1.3065406E0,-2.1208002E-1,3.8044184E-2,-4.2286217E-1,6.773508E-2,4.4115987E-3,6.961583E-1,-2.2783846E-2,6.7674452E-3,3.925946E-2,9.689531E-3,-5.242264E-5,4.6974976E-2,3.3731055E-2,8.275723E-2,-2.9997608E-2,-6.950242E-3,-2.3263526E-4,1.566261E-2,-1.7915051E-2,-4.4892192E-2,3.4264512E-2,-6.818335E-3,-1.55839445E-2,2.5634453E-2,5.2360434E-2,1.8237125E-2],"categories":[],"categories_nodes":[],"categories_segments":[],"categories_sizes":[],"default_left":[0,1,1,0,0,1,0,0,0,1,0,0,0,0,0,0,0,0,0,0,0,0,1,1,0,1,0,0,0,0,0,0,0,0,0,0,0,0,0,0,0,0,0,0,0,0,0],"id":5,"left_children":[1,3,5,7,9,11,13,15,17,19,-1,21,23,-1,25,-1,-1,27,29,31,33,35,37,39,41,43,45,-1,-1,-1,-1,-1,-1,-1,-1,-1,-1,-1,-1,-1,-1,-1,-1,-1,-1,-1,-1],"loss_changes":[5.9628582E1,6.2025375E0,2.5025602E1,9.579743E0,5.861553E0,1.9682848E1,1.4676739E1,5.0636177E0,5.1631036E0,1.00407715E1,0E0,1.2560935E1,8.919428E0,0E0,6.2455597E0,0E0,0E0,2.9124644E0,1.7866278E0,5.6934237E0,6.3939133E0,7.272581E0,1.0098707E1,5.7275467E0,5.907596E0,4.957208E0,2.3146467E0,0E0,0E0,0E0,0E0,0E0,0E0,0E0,0E0,0E0,0E0,0E0,0E0,0E0,0E0,0E0,0E0,0E0,0E0,0E0,0E0],"parents":[2147483647,0,0,1,1,2,2,3,3,4,4,5,5,6,6,7,7,8,8,9,9,11,11,12,12,14,14,17,17,18,18,19,19,20,20,21,21,22,22,23,23,24,24,25,25,26,26],"right_children":[2,4,6,8,10,12,14,16,18,20,-1,22,24,-1,26,-1,-1,28,30,32,34,36,38,40,42,44,46,-1,-1,-1,-1,-1,-1,-1,-1,-1,-1,-1,-1,-1,-1,-1,-1,-1,-1,-1,-1],"split_conditions":[2.3364486E-1,1.2355555E0,2.0166667E0,1.5673982E-1,1.675E0,2.9498526E-1,1.945E0,2.1422222E0,6.15E-1,-4.74E-1,1.50377145E-2,6E0,5.3413653E-1,7.844224E-2,1.6E-1,6.946855E-2,1.9554252E-2,8E0,1.6750419E-1,7E0,1.8975332E-1,4.7311828E-1,6.081081E-1,1.67E0,1.288E0,1.4E0,1.129E0,-2.2783846E-2,6.7674452E-3,3.925946E-2,9.689531E-3,-5.242264E-5,4.6974976E-2,3.3731055E-2,8.275723E-2,-2.9997608E-2,-6.950242E-3,-2.3263526E-4,1.566261E-2,-1.7915051E-2,-4.4892192E-2,3.4264512E-2,-6.818335E-3,-1.55839445E-2,2.5634453E-2,5.2360434E-2,1.8237125E-2],"split_indices":[23,3,1,23,1,23,0,1,5,4,0,17,15,0,5,0,0,7,24,8,23,15,15,2,3,2,3,0,0,0,0,0,0,0,0,0,0,0,0,0,0,0,0,0,0,0,0],"split_type":[0,0,0,0,0,0,0,0,0,0,0,0,0,0,0,0,0,0,0,0,0,0,0,0,0,0,0,0,0,0,0,0,0,0,0,0,0,0,0,0,0,0,0,0,0,0,0],"sum_hessian":[1.5813777E3,1.564555E2,1.4249221E3,7.822172E1,7.823379E1,1.3618643E3,6.305787E1,2.2366018E1,5.5855698E1,5.8579617E1,1.9654173E1,1.1168092E3,2.4505504E2,1.0931069E1,5.21268E1,1.1115785E1,1.1250234E1,3.3318253E1,2.2537445E1,2.442821E1,3.4151405E1,2.6113373E2,8.5567554E2,2.0036267E2,4.4692368E1,2.873524E1,2.3391558E1,1.23733425E1,2.094491E1,1.14714575E1,1.1065987E1,1.3455211E1,1.0972999E1,1.3287335E1,2.0864073E1,4.0038227E1,2.2109549E2,7.4128876E2,1.1438681E2,1.7811723E2,2.2245432E1,1.0637776E1,3.405459E1,1.7834358E1,1.0900883E1,1.016393E1,1.3227627E1],"tree_param":{"num_deleted":"0","num_feature":"30","num_nodes":"47","size_leaf_vector":"1"}},{"base_weights":[4.2862687E-3,-6.4353414E-2,5.787958E-1,-2.857506E-1,3.1963818E-2,7.039163E-1,3.5469034E-1,-5.200215E-1,-2.0019975E-1,-2.6868073E-2,3.447935E-1,6.054298E-1,6.367619E-2,5.4273003E-1,-1.1594336E-2,-4.0585285E-1,-8.233426E-1,-9.310211E-2,-4.533012E-1,-4.7731962E-2,7.1896684E-1,1.8909016E-1,8.3986145E-1,4.5048773E-1,8.0469084E-1,6.292292E-3,7.573725E-1,-1.3844872E-2,-3.6277782E-2,-2.8499693E-2,-5.0963294E-2,-1.7996123E-2,3.7201704E-4,-3.1801444E-2,-8.133801E-3,-5.0045825E-3,8.481293E-3,9.493897E-3,5.6166895E-2,5.034389E-2,5.0211456E-3,2.6377508E-2,6.401599E-2,8.056476E-3,3.8898222E-2,7.6961555E-2,1.8213646E-2,5.2932758E-2,1.7020179E-2],"categories":[],"categories_nodes":[],"categories_segments":[],"categories_sizes":[],"default_left":[1,0,1,0,1,0,0,1,1,1,0,0,0,1,0,0,0,0,0,1,1,0,0,1,0,0,0,0,0,0,0,0,0,0,0,0,0,0,0,0,0,0,0,0,0,0,0,0,0],"id":6,"left_children":[1,3,5,7,9,11,13,15,17,19,21,23,-1,25,-1,27,29,31,33,35,37,39,41,43,45,-1,47,-1,-1,-1,-1,-1,-1,-1,-1,-1,-1,-1,-1,-1,-1,-1,-1,-1,-1,-1,-1,-1,-1],"loss_changes":[6.2229065E1,3.0067083E1,4.3673286E0,8.389286E0,1.811409E1,5.0315247E0,7.066965E0,3.4692955E0,8.441467E0,1.2839445E1,1.1746851E1,2.3862953E0,0E0,4.0996723E0,0E0,3.1861591E0,7.3898697E-1,6.0168295E0,4.7618084E0,9.180311E0,4.4568987E0,8.486341E0,4.2099915E0,4.985592E0,1.192087E1,0E0,3.4244251E0,0E0,0E0,0E0,0E0,0E0,0E0,0E0,0E0,0E0,0E0,0E0,0E0,0E0,0E0,0E0,0E0,0E0,0E0,0E0,0E0,0E0,0E0],"parents":[2147483647,0,0,1,1,2,2,3,3,4,4,5,5,6,6,7,7,8,8,9,9,10,10,11,11,13,13,15,15,16,16,17,17,18,18,19,19,20,20,21,21,22,22,23,23,24,24,26,26],"right_children":[2,4,6,8,10,12,14,16,18,20,22,24,-1,26,-1,28,30,32,34,36,38,40,42,44,46,-1,48,-1,-1,-1,-1,-1,-1,-1,-1,-1,-1,-1,-1,-1,-1,-1,-1,-1,-1,-1,-1,-1,-1],"split_conditions":[6.097561E-1,5.3763443E-1,1.8E-1,4.4247788E-1,1.735E0,7.1428573E-1,2.2883295E-1,2.084E0,1.463E0,5.780347E-1,4.25E-1,2.43309E-1,6.367619E-2,3.09E0,-1.1594336E-2,9E0,4.8387095E-1,2.857143E-1,2.9084966E0,2.9464788E0,-2.46E-1,1.562E0,4.002E0,8E0,2.5773194E-1,6.292292E-3,1.2E1,-1.3844872E-2,-3.6277782E-2,-2.8499693E-2,-5.0963294E-2,-1.7996123E-2,3.7201704E-4,-3.1801444E-2,-8.133801E-3,-5.0045825E-3,8.481293E-3,9.493897E-3,5.6166895E-2,5.034389E-2,5.0211456E-3,2.6377508E-2,6.401599E-2,8.056476E-3,3.8898222E-2,7.6961555E-2,1.8213646E-2,5.2932758E-2,1.7020179E-2],"split_indices":[26,28,4,26,1,26,23,6,3,26,5,23,0,6,0,9,15,24,14,14,4,0,6,8,23,0,8,0,0,0,0,0,0,0,0,0,0,0,0,0,0,0,0,0,0,0,0,0,0],"split_type":[0,0,0,0,0,0,0,0,0,0,0,0,0,0,0,0,0,0,0,0,0,0,0,0,0,0,0,0,0,0,0,0,0,0,0,0,0,0,0,0,0,0,0,0,0,0,0,0,0],"sum_hessian":[1.5748009E3,1.407369E3,1.6743188E2,4.263718E2,9.8099725E2,1.0578418E2,6.164771E1,1.12381325E2,3.1399045E2,8.2621136E2,1.5478587E2,9.2098564E1,1.3685614E1,4.686831E1,1.4779397E1,8.3587204E1,2.8794119E1,2.2187076E2,9.2119705E1,8.04769E2,2.1442425E1,1.1895682E2,3.5829056E1,5.392782E1,3.8170746E1,1.662704E1,3.024127E1,6.1114815E1,2.2472395E1,1.44842205E1,1.4309899E1,6.028931E1,1.6158144E2,5.5617928E1,3.6501778E1,6.493464E2,1.5542258E2,1.0032508E1,1.1409916E1,1.0512784E1,1.0844403E2,2.2382965E1,1.3446091E1,2.958443E1,2.434339E1,1.328751E1,2.4883238E1,1.6523438E1,1.37178335E1],"tree_param":{"num_deleted":"0","num_feature":"30","num_nodes":"49","size_leaf_vector":"1"}},{"base_weights":[2.3134746E-2,-2.8965842E-2,6.4425474E-1,-3.8582584E-1,4.2733397E-2,5.674165E-1,6.8096146E-2,-7.0685667E-1,-2.9868928E-1,-7.028996E-3,2.4728386E-1,-8.671771E-3,6.4789706E-1,-1.35250045E-2,-8.191327E-1,-3.6213192E-1,1.4335917E-1,2.4922591E-1,-4.1279018E-2,7.420972E-2,5.6076586E-1,9.067214E-1,4.625739E-1,-2.6099218E-2,-4.7455736E-2,-1.35247735E-2,-2.9783834E-2,-1.3521949E-2,2.7597537E-2,5.0554997E-3,4.1601494E-2,-1.0472637E-3,-2.526888E-2,-2.8630598E-2,7.603373E-3,3.766596E-2,-6.6798567E-3,6.6096485E-2,3.2004423E-2,3.774315E-2,2.532269E-3],"categories":[],"categories_nodes":[],"categories_segments":[],"categories_sizes":[],"default_left":[1,0,0,1,1,0,0,0,0,0,0,0,1,0,1,1,1,1,1,0,1,0,0,0,0,0,0,0,0,0,0,0,0,0,0,0,0,0,0,0,0],"id":7,"left_children":[1,3,5,7,9,11,-1,13,15,17,19,-1,21,-1,23,25,27,29,31,33,35,37,39,-1,-1,-1,-1,-1,-1,-1,-1,-1,-1,-1,-1,-1,-1,-1,-1,-1,-1],"loss_changes":[5.1244267E1,3.7394566E1,5.792202E0,6.5281944E0,1.2403258E1,6.869774E0,0E0,2.1789665E0,5.5226116E0,8.578705E0,1.2827201E1,0E0,4.3286743E0,0E0,9.049187E-1,3.3987408E0,4.3879395E0,9.764938E0,8.094541E0,7.847293E0,1.1450964E1,3.5219269E0,7.299819E0,0E0,0E0,0E0,0E0,0E0,0E0,0E0,0E0,0E0,0E0,0E0,0E0,0E0,0E0,0E0,0E0,0E0,0E0],"parents":[2147483647,0,0,1,1,2,2,3,3,4,4,5,5,7,7,8,8,9,9,10,10,12,12,14,14,15,15,16,16,17,17,18,18,19,19,20,20,21,21,22,22],"right_children":[2,4,6,8,10,12,-1,14,16,18,20,-1,22,-1,24,26,28,30,32,34,36,38,40,-1,-1,-1,-1,-1,-1,-1,-1,-1,-1,-1,-1,-1,-1,-1,-1,-1,-1],"split_conditions":[6.4102566E-1,4.854369E-1,7.633588E-1,6E0,1.66E0,1.3550135E-1,6.8096146E-2,1.96E0,5.3413653E-1,2.5906736E-1,2.21E-1,-8.671771E-3,1.368E0,-1.35250045E-2,0E0,2.0595E0,-1.5666667E-1,2.94E0,1.582E0,-6.0875E-1,3.90625E-1,2.95E0,5.652174E-1,-2.6099218E-2,-4.7455736E-2,-1.35247735E-2,-2.9783834E-2,-1.3521949E-2,2.7597537E-2,5.0554997E-3,4.1601494E-2,-1.0472637E-3,-2.526888E-2,-2.8630598E-2,7.603373E-3,3.766596E-2,-6.6798567E-3,6.6096485E-2,3.2004423E-2,3.774315E-2,2.532269E-3],"split_indices":[26,26,26,17,0,28,0,6,15,23,5,0,0,0,10,6,5,6,0,5,28,6,15,0,0,0,0,0,0,0,0,0,0,0,0,0,0,0,0,0,0],"split_type":[0,0,0,0,0,0,0,0,0,0,0,0,0,0,0,0,0,0,0,0,0,0,0,0,0,0,0,0,0,0,0,0,0,0,0,0,0,0,0,0,0],"sum_hessian":[1.580055E3,1.4585055E3,1.2154953E2,2.435127E2,1.2149928E3,1.11537575E2,1.0011959E1,5.022238E1,1.9329031E2,9.776339E2,2.3735895E2,1.0694394E1,1.0084318E2,1.1157825E1,3.9064556E1,1.6938696E2,2.3903349E1,1.14177086E2,8.634568E2,1.5392972E2,8.342923E1,4.0228035E1,6.0615143E1,1.364842E1,2.5416134E1,1.23511055E2,4.5875904E1,1.19224E1,1.1980948E1,9.211238E1,2.2064705E1,8.2842145E2,3.5035366E1,1.571711E1,1.382126E2,6.536266E1,1.8066566E1,1.4036733E1,2.6191301E1,3.4827545E1,2.57876E1],"tree_param":{"num_deleted":"0","num_feature":"30","num_nodes":"41","size_leaf_vector":"1"}},{"base_weights":[2.0099528E-2,4.3069926E-1,-5.9161775E-2,-2.5031734E-1,5.029652E-1,-3.299549E-1,1.4808904E-2,-3.5484917E-2,7.244135E-3,4.3230838E-1,1.1564518E0,-8.6801E-1,-2.7705485E-1,-1.4629214E-2,4.9664545E-1,5.212073E-1,1.9672704E-1,3.8927026E-2,7.028622E-2,-5.9399135E-2,-2.0655438E-2,1.577991E-1,-3.1876564E-1,-2.4026741E-1,2.8021064E-2,1.5090476E-1,7.617763E-1,1.942644E-2,3.7776273E-2,2.1740897E-2,-6.601862E-3,2.4571432E-2,-1.1096336E-2,-1.454851E-3,-1.8891169E-2,-2.346086E-2,-6.9268006E-3,6.414273E-4,3.2430794E-2,-1.0595039E-2,2.7303562E-2,5.578148E-2,2.3171784E-2],"categories":[],"categories_nodes":[],"categories_segments":[],"categories_sizes":[],"default_left":[0,0,0,0,0,0,1,0,0,0,0,0,0,0,0,1,0,0,0,0,0,0,0,0,1,1,0,0,0,0,0,0,0,0,0,0,0,0,0,0,0,0,0],"id":8,"left_children":[1,3,5,7,9,11,13,-1,-1,15,17,19,21,23,25,27,29,-1,-1,-1,-1,31,33,35,37,39,41,-1,-1,-1,-1,-1,-1,-1,-1,-1,-1,-1,-1,-1,-1,-1,-1],"loss_changes":[5.1458313E1,1.2742691E1,2.656481E1,4.7125006E0,1.0042809E1,7.742367E0,1.4819944E1,0E0,0E0,4.2423515E0,7.4827194E-1,2.9629955E0,4.794237E0,9.475777E0,5.308154E0,4.3237457E0,4.760213E0,0E0,0E0,0E0,0E0,3.0843952E0,4.0264034E0,3.520401E0,7.7152314E0,4.094646E0,2.87607E0,0E0,0E0,0E0,0E0,0E0,0E0,0E0,0E0,0E0,0E0,0E0,0E0,0E0,0E0,0E0,0E0],"parents":[2147483647,0,0,1,1,2,2,3,3,4,4,5,5,6,6,9,9,10,10,11,11,12,12,13,13,14,14,15,15,16,16,21,21,22,22,23,23,24,24,25,25,26,26],"right_children":[2,4,6,8,10,12,14,-1,-1,16,18,20,22,24,26,28,30,-1,-1,-1,-1,32,34,36,38,40,42,-1,-1,-1,-1,-1,-1,-1,-1,-1,-1,-1,-1,-1,-1,-1,-1],"split_conditions":[2.5773194E-1,5.2910054E-1,5.050505E-1,1.584786E-1,7.518797E-1,3.7174723E-1,2.0166667E0,-3.5484917E-2,7.244135E-3,1.1E1,1.37E0,3E0,1.992032E-1,6E0,6.25E-2,4E0,7E0,3.8927026E-2,7.028622E-2,-5.9399135E-2,-2.0655438E-2,4.524887E-1,-2E0,2.466E0,1.5E1,1.4E0,2.16125E0,1.942644E-2,3.7776273E-2,2.1740897E-2,-6.601862E-3,2.4571432E-2,-1.1096336E-2,-1.454851E-3,-1.8891169E-2,-2.346086E-2,-6.9268006E-3,6.414273E-4,3.2430794E-2,-1.0595039E-2,2.7303562E-2,5.578148E-2,2.3171784E-2],"split_indices":[23,26,26,24,26,26,1,0,0,8,2,10,24,16,5,10,10,0,0,0,0,26,10,6,8,2,1,0,0,0,0,0,0,0,0,0,0,0,0,0,0,0,0],"split_type":[0,0,0,0,0,0,0,0,0,0,0,0,0,0,0,0,0,0,0,0,0,0,0,0,0,0,0,0,0,0,0,0,0,0,0,0,0,0,0,0,0,0,0],"sum_hessian":[1.578235E3,2.548509E2,1.323384E3,2.4079931E1,2.3077098E2,2.8348578E2,1.0398983E3,1.0884739E1,1.3195191E1,2.0989148E2,2.0879488E1,2.3828041E1,2.5965775E2,9.8074133E2,5.9156933E1,1.511984E2,5.8693096E1,1.0096714E1,1.0782774E1,1.2913486E1,1.0914556E1,2.2272839E1,2.373849E2,1.5554628E2,8.2519507E2,2.6520084E1,3.263685E1,9.850601E1,5.269238E1,3.4030106E1,2.466299E1,1.1839638E1,1.0433201E1,4.0741287E1,1.9664362E2,4.6438854E1,1.09107414E2,8.066301E2,1.856496E1,1.3936022E1,1.2584064E1,1.3522988E1,1.911386E1],"tree_param":{"num_deleted":"0","num_feature":"30","num_nodes":"43","size_leaf_vector":"1"}},{"base_weights":[-6.1440426E-3,-5.1747102E-2,5.319189E-1,-2.6766002E-1,3.2278676E-2,7.0229197E-1,1.4034687E-3,3.8892132E-1,-3.035819E-1,-2.1780852E-2,3.000389E-1,3.9048207E-1,8.45771E-1,-9.7086085E-3,1.8866284E-2,3.490392E-2,2.075587E-3,-5.5888534E-1,-2.4192214E-1,-4.7779903E-2,3.3509946E-1,4.676911E-1,-9.149087E-3,4.535362E-2,-1.117418E-2,6.644132E-1,6.938063E-2,-3.5576425E-2,1.788485E-2,-3.8933452E-2,-1.0149973E-2,-9.967969E-3,1.1158282E-4,5.55784E-2,7.500173E-3,1.4929861E-2,4.8541036E-2,-1.1788098E-2,2.4209833E-2,2.3866622E-2,5.512004E-2],"categories":[],"categories_nodes":[],"categories_segments":[],"categories_sizes":[],"default_left":[1,0,0,0,1,0,0,1,0,1,0,1,0,0,0,0,0,1,1,0,0,0,1,0,0,1,0,0,0,0,0,0,0,0,0,0,0,0,0,0,0],"id":9,"left_children":[1,3,5,7,9,11,13,15,17,19,21,23,25,-1,-1,-1,-1,27,29,31,33,35,37,-1,-1,39,-1,-1,-1,-1,-1,-1,-1,-1,-1,-1,-1,-1,-1,-1,-1],"loss_changes":[3.8428917E1,2.6259132E1,1.098719E1,9.671715E0,1.5105787E1,3.6827507E0,2.3623111E0,2.1873834E0,5.8469315E0,8.031075E0,9.135993E0,1.0171817E1,4.989708E0,0E0,0E0,0E0,0E0,1.062026E1,6.267462E0,6.1544247E0,8.148029E0,9.271873E0,7.065317E0,0E0,0E0,3.3057861E0,0E0,0E0,0E0,0E0,0E0,0E0,0E0,0E0,0E0,0E0,0E0,0E0,0E0,0E0,0E0],"parents":[2147483647,0,0,1,1,2,2,3,3,4,4,5,5,6,6,7,7,8,8,9,9,10,10,11,11,12,12,17,17,18,18,19,19,20,20,21,21,22,22,25,25],"right_children":[2,4,6,8,10,12,14,16,18,20,22,24,26,-1,-1,-1,-1,28,30,32,34,36,38,-1,-1,40,-1,-1,-1,-1,-1,-1,-1,-1,-1,-1,-1,-1,-1,-1,-1],"split_conditions":[6.369427E-1,5.4347825E-1,1.6E2,2.3947368E0,3.0324323E0,6.6225165E-1,1.356E0,1.27E2,4.473684E-1,1.87E2,1.958E0,-1.76E-1,3.0357144E0,-9.7086085E-3,1.8866284E-2,3.490392E-2,2.075587E-3,7E0,4E0,2.684E0,2.564E0,1.65E0,3.504E0,4.535362E-2,-1.117418E-2,3.582E0,6.938063E-2,-3.5576425E-2,1.788485E-2,-3.8933452E-2,-1.0149973E-2,-9.967969E-3,1.1158282E-4,5.55784E-2,7.500173E-3,1.4929861E-2,4.8541036E-2,-1.1788098E-2,2.4209833E-2,2.3866622E-2,5.512004E-2],"split_indices":[26,26,17,14,14,26,4,17,15,17,0,4,14,0,0,0,0,10,17,6,6,0,6,0,0,6,0,0,0,0,0,0,0,0,0,0,0,0,0,0,0],"split_type":[0,0,0,0,0,0,0,0,0,0,0,0,0,0,0,0,0,0,0,0,0,0,0,0,0,0,0,0,0,0,0,0,0,0,0,0,0,0,0,0,0],"sum_hessian":[1.565977E3,1.4446285E3,1.21348564E2,4.0442398E2,1.0402045E3,9.14632E1,2.988536E1,2.0324333E1,3.8409964E2,8.6592377E2,1.7428073E2,3.021601E1,6.1247196E1,1.980116E1,1.0084199E1,1.0067826E1,1.0256507E1,7.2835785E1,3.1126385E2,8.0819257E2,5.773123E1,1.12882706E2,6.1398033E1,1.6238457E1,1.3977552E1,4.7694363E1,1.35528345E1,6.2723015E1,1.0112766E1,1.9586712E1,2.9167715E2,2.0025505E2,6.079375E2,1.0045449E1,4.768578E1,8.582913E1,2.7053576E1,4.256917E1,1.8828861E1,3.504394E1,1.2650422E1],"tree_param":{"num_deleted":"0","num_feature":"30","num_nodes":"41","size_leaf_vector":"1"}},{"base_weights":[-1.9437082E-2,-7.045408E-2,3.9282534E-1,-1.3518065E-1,1.420596E-1,4.3797868E-1,-8.410632E-3,-4.501605E-1,-9.338892E-2,-7.490428E-2,4.1000962E-1,5.5129683E-1,1.760113E-1,-8.749338E-2,-5.540499E-1,-3.336414E-1,-1.8520633E-2,2.8978148E-2,-1.3311066E-1,6.984387E-1,9.937487E-2,3.4205875E-1,7.506298E-1,-1.1540298E-2,3.524146E-1,9.69392E-3,-2.6407769E-2,-3.5421025E-2,-8.685327E-3,-3.2731682E-2,-1.2247917E-2,1.1533076E-2,-4.101061E-3,2.1998195E-2,-1.0733473E-2,7.3995665E-3,4.5141544E-2,-2.1457037E-2,1.3207339E-2,3.3336603E-3,3.3113863E-2,4.9394984E-2,-5.9361495E-3,3.017701E-2,-1.7228341E-3],"categories":[],"categories_nodes":[],"categories_segments":[],"categories_sizes":[],"default_left":[1,0,0,0,1,0,0,0,0,0,0,0,1,0,1,1,0,0,1,0,1,0,0,0,0,0,0,0,0,0,0,0,0,0,0,0,0,0,0,0,0,0,0,0,0],"id":10,"left_children":[1,3,5,7,9,11,-1,13,15,17,19,21,23,25,27,29,31,-1,33,35,37,39,41,-1,43,-1,-1,-1,-1,-1,-1,-1,-1,-1,-1,-1,-1,-1,-1,-1,-1,-1,-1,-1,-1],"loss_changes":[3.299954E1,1.924103E1,4.476614E0,1.4015926E1,1.9039019E1,4.589283E0,0E0,4.5985126E0,1.7011196E1,6.9272785E0,1.2967348E1,4.2707405E0,3.6919446E0,3.7618737E0,5.4719124E0,6.1507893E0,1.1462778E1,0E0,7.8850555E0,8.264431E0,6.351067E0,4.8494806E0,1.1724789E1,0E0,3.5308824E0,0E0,0E0,0E0,0E0,0E0,0E0,0E0,0E0,0E0,0E0,0E0,0E0,0E0,0E0,0E0,0E0,0E0,0E0,0E0,0E0],"parents":[2147483647,0,0,1,1,2,2,3,3,4,4,5,5,7,7,8,8,9,9,10,10,11,11,12,12,13,13,14,14,15,15,16,16,18,18,19,19,20,20,21,21,22,22,24,24],"right_children":[2,4,6,8,10,12,-1,14,16,18,20,22,24,26,28,30,32,-1,34,36,38,40,42,-1,44,-1,-1,-1,-1,-1,-1,-1,-1,-1,-1,-1,-1,-1,-1,-1,-1,-1,-1,-1,-1],"split_conditions":[6.097561E-1,2.9424083E0,2.7027026E-1,6E0,-6.666667E-3,1.1E1,-8.410632E-3,-2.22E-1,4.878049E-1,2.173913E-1,1.366E0,6.5789473E-1,1.2E1,1.413E0,1.9111112E-1,6E0,2.5104895E0,2.8978148E-2,5.4497355E-1,2.9069766E-1,5.6363636E-1,1.762E0,1.62E2,-1.1540298E-2,2.26E0,9.69392E-3,-2.6407769E-2,-3.5421025E-2,-8.685327E-3,-3.2731682E-2,-1.2247917E-2,1.1533076E-2,-4.101061E-3,2.1998195E-2,-1.0733473E-2,7.3995665E-3,4.5141544E-2,-2.1457037E-2,1.3207339E-2,3.3336603E-3,3.3113863E-2,4.9394984E-2,-5.9361495E-3,3.017701E-2,-1.7228341E-3],"split_indices":[26,14,23,16,5,8,0,5,26,24,3,26,8,1,5,17,14,0,15,23,15,2,17,0,1,0,0,0,0,0,0,0,0,0,0,0,0,0,0,0,0,0,0,0,0],"split_type":[0,0,0,0,0,0,0,0,0,0,0,0,0,0,0,0,0,0,0,0,0,0,0,0,0,0,0,0,0,0,0,0,0,0,0,0,0,0,0,0,0,0,0,0,0],"sum_hessian":[1.5682034E3,1.3964642E3,1.717392E2,1.071075E3,3.2538928E2,1.5931482E2,1.2424369E1,1.2403935E2,9.470356E2,1.7999301E2,1.4539629E2,1.1017201E2,4.914281E1,2.8244717E1,9.579463E1,2.2386389E2,7.231717E2,1.3828749E1,1.6616426E2,7.457858E1,7.08177E1,5.5320385E1,5.485163E1,1.4599198E1,3.4543613E1,1.7441229E1,1.0803487E1,6.733839E1,2.8456247E1,4.6834606E1,1.7702928E2,1.4600955E2,5.771621E2,2.000166E1,1.461626E2,2.079337E1,5.3785213E1,1.6305498E1,5.45122E1,3.0559734E1,2.4760649E1,4.3074184E1,1.1777444E1,2.076384E1,1.3779775E1],"tree_param":{"num_deleted":"0","num_feature":"30","num_nodes":"45","size_leaf_vector":"1"}},{"base_weights":[4.9390695E-3,-6.476999E-2,3.7121582E-1,-3.3243388E-1,-7.297786E-3,4.3015358E-1,-1.00408636E-1,-2.122648E-1,-5.1874435E-1,-6.97164E-2,2.1271732E-1,2.8961682E-1,5.7444227E-1,-2.1714829E-2,1.3590033E-2,-4.3155962E-1,-0E0,-4.992286E-2,-4.3139765E-1,-3.1640208E-1,-2.7015109E-2,-1.8701765E-3,4.9621686E-1,1.4079474E-1,7.1705437E-1,6.6808754E-1,2.312106E-1,-2.7078984E-2,3.4096183E-3,-6.271788E-3,1.986534E-2,-3.945268E-2,-1.4914008E-2,-1.7861653E-3,-2.733295E-2,9.393947E-3,-3.5444803E-3,-2.9607485E-3,3.2019105E-2,-6.0803588E-3,3.0923E-2,2.1285504E-2,-5.1048775E-3,5.461781E-2,1.0245423E-2,5.178812E-2,2.6410788E-2,3.468298E-2,-1.4886386E-2],"categories":[],"categories_nodes":[],"categories_segments":[],"categories_sizes":[],"default_left":[1,0,0,0,1,0,1,0,0,0,1,0,0,0,0,0,0,0,0,1,0,0,0,0,0,1,0,0,0,0,0,0,0,0,0,0,0,0,0,0,0,0,0,0,0,0,0,0,0],"id":11,"left_children":[1,3,5,7,9,11,13,15,17,19,21,23,25,-1,-1,27,29,-1,31,33,35,37,39,41,43,45,47,-1,-1,-1,-1,-1,-1,-1,-1,-1,-1,-1,-1,-1,-1,-1,-1,-1,-1,-1,-1,-1,-1],"loss_changes":[4.0036552E1,2.0210308E1,7.0460587E0,5.0181007E0,1.4898626E1,4.2746773E0,3.6732614E0,6.6904254E0,3.2004128E0,8.870722E0,1.4629244E1,7.1587954E0,3.2525482E0,0E0,0E0,3.9648037E0,3.7354226E0,0E0,3.375924E0,7.9634857E0,6.816147E0,5.0326915E0,7.937847E0,6.1013923E0,5.2981377E0,3.6533203E0,6.3805923E0,0E0,0E0,0E0,0E0,0E0,0E0,0E0,0E0,0E0,0E0,0E0,0E0,0E0,0E0,0E0,0E0,0E0,0E0,0E0,0E0,0E0,0E0],"parents":[2147483647,0,0,1,1,2,2,3,3,4,4,5,5,6,6,7,7,8,8,9,9,10,10,11,11,12,12,15,15,16,16,18,18,19,19,20,20,21,21,22,22,23,23,24,24,25,25,26,26],"right_children":[2,4,6,8,10,12,14,16,18,20,22,24,26,-1,-1,28,30,-1,32,34,36,38,40,42,44,46,48,-1,-1,-1,-1,-1,-1,-1,-1,-1,-1,-1,-1,-1,-1,-1,-1,-1,-1,-1,-1,-1,-1],"split_conditions":[5.780347E-1,4.854369E-1,1.2E1,8E0,2E-1,6.4102566E-1,1.153E0,1.576E0,3.875969E-1,6E0,1.5E-1,1.68E2,1.62E2,-2.1714829E-2,1.3590033E-2,1.514E0,5.154639E-1,-4.992286E-2,3.4246576E-1,-2.5444445E-1,2.5104895E0,2.067E0,5.7471263E-1,7E0,4.575E-1,-3.0888888E-1,1.387E0,-2.7078984E-2,3.4096183E-3,-6.271788E-3,1.986534E-2,-3.945268E-2,-1.4914008E-2,-1.7861653E-3,-2.733295E-2,9.393947E-3,-3.5444803E-3,-2.9607485E-3,3.2019105E-2,-6.0803588E-3,3.0923E-2,2.1285504E-2,-5.1048775E-3,5.461781E-2,1.0245423E-2,5.178812E-2,2.6410788E-2,3.468298E-2,-1.4886386E-2],"split_indices":[26,26,9,9,5,26,1,3,26,16,4,17,17,0,0,0,28,0,28,5,14,3,26,9,4,5,3,0,0,0,0,0,0,0,0,0,0,0,0,0,0,0,0,0,0,0,0,0,0],"split_type":[0,0,0,0,0,0,0,0,0,0,0,0,0,0,0,0,0,0,0,0,0,0,0,0,0,0,0,0,0,0,0,0,0,0,0,0,0,0,0,0,0,0,0,0,0,0,0,0,0],"sum_hessian":[1.5649015E3,1.3151542E3,2.4974736E2,2.3131807E2,1.083836E3,2.222707E2,2.7476652E1,1.4224622E2,8.9071846E1,8.451916E2,2.3864449E2,1.1447383E2,1.0779688E2,1.4537626E1,1.2939025E1,6.95773E1,7.2668915E1,1.19370575E1,7.713479E1,1.23423225E2,7.217684E2,1.3619553E2,1.0244895E2,8.606996E1,2.8403868E1,8.371797E1,2.4078913E1,5.7118996E1,1.2458301E1,5.5651764E1,1.7017155E1,1.9381763E1,5.7753025E1,5.633788E1,6.708535E1,1.21433685E2,6.0033466E2,1.2600815E2,1.0187387E1,1.6788094E1,8.566086E1,3.9451706E1,4.6618256E1,1.5625387E1,1.2778481E1,2.110917E1,6.2608795E1,1.2781622E1,1.1297291E1],"tree_param":{"num_deleted":"0","num_feature":"30","num_nodes":"49","size_leaf_vector":"1"}},{"base_weights":[-1.0549873E-2,2.952011E-1,-6.307721E-2,4.977562E-2,2.4930133E-1,-1.0687929E-2,-3.116992E-1,3.737967E-2,1.9797741E-1,-5.3842906E-2,1.9437866E-1,-2.496241E-1,-7.4061227E-1,-2.2380783E-1,2.7873158E-1,-3.522218E-1,-2.4876306E-3,6.942787E-1,1.2360205E-1,-4.0637797E-1,-9.978987E-2,-2.2153994E-2,-5.3862464E-2,-4.057694E-2,1.0274172E-2,1.7505227E-2,-1.09232785E-2,-2.6652783E-2,-6.3777915E-3,-1.0747168E-3,2.3381114E-2,5.1875217E-3,5.9183326E-2,2.9633803E-2,1.4772648E-3,-2.3944043E-2,1.0665196E-2,-1.3197017E-2,8.881757E-3],"categories":[],"categories_nodes":[],"categories_segments":[],"categories_sizes":[],"default_left":[0,0,1,0,0,0,1,0,0,0,0,1,0,0,0,0,1,0,0,1,1,0,0,0,0,0,0,0,0,0,0,0,0,0,0,0,0,0,0],"id":12,"left_children":[1,3,5,-1,7,9,11,-1,13,15,17,19,21,23,25,27,29,31,33,35,37,-1,-1,-1,-1,-1,-1,-1,-1,-1,-1,-1,-1,-1,-1,-1,-1,-1,-1],"loss_changes":[2.5244184E1,7.032919E0,1.7453766E1,0E0,5.324548E0,9.823145E0,5.928423E0,0E0,6.8425364E0,1.4038801E1,6.656243E0,4.7363873E0,2.2540102E0,8.381212E0,6.0365086E0,5.33383E0,6.9792175E0,6.547949E0,7.435523E0,4.6125546E0,4.916466E0,0E0,0E0,0E0,0E0,0E0,0E0,0E0,0E0,0E0,0E0,0E0,0E0,0E0,0E0,0E0,0E0,0E0,0E0],"parents":[2147483647,0,0,1,1,2,2,4,4,5,5,6,6,8,8,9,9,10,10,11,11,12,12,13,13,14,14,15,15,16,16,17,17,18,18,19,19,20,20],"right_children":[2,4,6,-1,8,10,12,-1,14,16,18,20,22,24,26,28,30,32,34,36,38,-1,-1,-1,-1,-1,-1,-1,-1,-1,-1,-1,-1,-1,-1,-1,-1,-1,-1],"split_conditions":[2.512563E-1,6.430868E-2,2.9498526E-1,4.977562E-2,4E0,3.0304878E0,1.685E0,3.737967E-2,1.042E0,6E0,5E0,8E0,2.4175E0,1.62E0,1.3E1,2.6091955E0,2.05375E0,9E0,1.172E0,1.446E0,7E0,-2.2153994E-2,-5.3862464E-2,-4.057694E-2,1.0274172E-2,1.7505227E-2,-1.09232785E-2,-2.6652783E-2,-6.3777915E-3,-1.0747168E-3,2.3381114E-2,5.1875217E-3,5.9183326E-2,2.9633803E-2,1.4772648E-3,-2.3944043E-2,1.0665196E-2,-1.3197017E-2,8.881757E-3],"split_indices":[23,24,23,0,9,14,2,0,2,16,16,17,6,1,8,14,1,8,1,3,8,0,0,0,0,0,0,0,0,0,0,0,0,0,0,0,0,0,0],"split_type":[0,0,0,0,0,0,0,0,0,0,0,0,0,0,0,0,0,0,0,0,0,0,0,0,0,0,0,0,0,0,0,0,0,0,0,0,0,0,0],"sum_hessian":[1.571125E3,2.2938689E2,1.341738E3,1.2703095E1,2.1668379E2,1.1094099E3,2.3232812E2,1.8785463E1,1.9789833E2,9.175437E2,1.9186624E2,2.0454077E2,2.7787346E1,3.1317076E1,1.6658125E2,1.3358673E2,7.83957E2,2.2527891E1,1.6933835E2,9.8799225E1,1.05741554E2,1.613759E1,1.1649756E1,1.2941605E1,1.8375471E1,1.461048E2,2.0476456E1,7.30062E1,6.0580532E1,7.546146E2,2.9342335E1,1.0850857E1,1.1677035E1,2.7220667E1,1.4211768E2,8.8798386E1,1.0000834E1,6.6690384E1,3.9051174E1],"tree_param":{"num_deleted":"0","num_feature":"30","num_nodes":"39","size_leaf_vector":"1"}},{"base_weights":[7.829949E-3,3.303144E-1,-4.735098E-2,5.075389E-2,4.290743E-1,2.190188E-2,-2.190352E-1,-1.587689E-1,3.0215813E-2,5.5076784E-1,1.2566434E-1,-2.4453845E-2,3.4246904E-1,-4.758883E-1,-1.5679069E-1,1.4297377E-1,-3.660896E-2,-6.741219E-3,6.2627625E-1,2.7402028E-2,-2.328848E-2,-7.79262E-2,2.4209283E-1,1.5010586E-1,7.84774E-1,-7.5178E-1,-2.2327988E-1,-1.18747145E-1,-3.591528E-2,2.9002374E-2,-6.0881744E-3,4.550476E-2,2.2930069E-2,-1.4805662E-2,2.770255E-2,-1.2147042E-2,-7.109203E-4,1.7506935E-2,-1.2920848E-2,-6.150609E-3,2.9731302E-2,1.4896782E-2,5.4309346E-2,-5.512429E-2,-2.5700638E-2,8.1374956E-4,-2.8778827E-2,-1.264917E-2,3.761764E-3],"categories":[],"categories_nodes":[],"categories_segments":[],"categories_sizes":[],"default_left":[0,0,1,1,0,1,0,1,0,0,0,1,1,1,1,0,0,0,0,0,1,0,0,0,0,0,0,1,0,0,0,0,0,0,0,0,0,0,0,0,0,0,0,0,0,0,0,0,0],"id":13,"left_children":[1,3,5,7,9,11,13,15,-1,17,19,21,23,25,27,29,-1,-1,31,-1,33,35,37,39,41,43,45,47,-1,-1,-1,-1,-1,-1,-1,-1,-1,-1,-1,-1,-1,-1,-1,-1,-1,-1,-1,-1,-1],"loss_changes":[2.800072E1,6.278658E0,1.5981702E1,7.2646003E0,6.1221104E0,1.425894E1,6.037695E0,7.98748E0,0E0,6.3693733E0,3.2145457E0,1.1926654E1,1.0102747E1,4.929714E0,6.511495E0,3.6282806E0,0E0,0E0,4.624176E0,0E0,6.0908046E0,7.307602E0,7.6555634E0,1.0546119E1,4.8716106E0,2.191656E0,3.485388E0,7.698906E0,0E0,0E0,0E0,0E0,0E0,0E0,0E0,0E0,0E0,0E0,0E0,0E0,0E0,0E0,0E0,0E0,0E0,0E0,0E0,0E0,0E0],"parents":[2147483647,0,0,1,1,2,2,3,3,4,4,5,5,6,6,7,7,9,9,10,10,11,11,12,12,13,13,14,14,15,15,18,18,20,20,21,21,22,22,23,23,24,24,25,25,26,26,27,27],"right_children":[2,4,6,8,10,12,14,16,-1,18,20,22,24,26,28,30,-1,-1,32,-1,34,36,38,40,42,44,46,48,-1,-1,-1,-1,-1,-1,-1,-1,-1,-1,-1,-1,-1,-1,-1,-1,-1,-1,-1,-1,-1],"split_conditions":[2.512563E-1,4.9333334E-1,2.7322406E-1,4.72E-1,1.1E1,1.2E1,-1.28E-1,-1.76E-1,3.0215813E-2,1.048E0,1.707E0,3.0253165E0,4.25E-1,-2.8E-1,5.98E-1,2.4816625E0,-3.660896E-2,-6.741219E-3,2.9E0,2.7402028E-2,2.472E0,1E1,1.146E0,9.3E1,1.741E0,-3.475E-1,6E0,7E0,-3.591528E-2,2.9002374E-2,-6.0881744E-3,4.550476E-2,2.2930069E-2,-1.4805662E-2,2.770255E-2,-1.2147042E-2,-7.109203E-4,1.7506935E-2,-1.2920848E-2,-6.150609E-3,2.9731302E-2,1.4896782E-2,5.4309346E-2,-5.512429E-2,-2.5700638E-2,8.1374956E-4,-2.8778827E-2,-1.264917E-2,3.761764E-3],"split_indices":[23,15,23,4,8,8,5,4,0,1,1,14,5,4,4,14,0,0,14,0,0,16,4,17,1,5,8,8,0,0,0,0,0,0,0,0,0,0,0,0,0,0,0,0,0,0,0,0,0],"split_type":[0,0,0,0,0,0,0,0,0,0,0,0,0,0,0,0,0,0,0,0,0,0,0,0,0,0,0,0,0,0,0,0,0,0,0,0,0,0,0,0,0,0,0,0,0,0,0,0,0],"sum_hessian":[1.5700479E3,2.2893698E2,1.3411108E3,6.042315E1,1.6851382E2,9.558402E2,3.8527066E2,4.4218884E1,1.6204264E1,1.1945659E2,4.905724E1,8.3561725E2,1.20222946E2,7.354281E1,3.1172784E2,2.9350296E1,1.48685875E1,1.1641903E1,1.0781469E2,1.2266357E1,3.6790882E1,6.968949E2,1.3872238E2,8.487525E1,3.53477E1,3.401771E1,3.95251E1,2.932493E2,1.847854E1,1.0764731E1,1.8585566E1,3.817415E1,6.964053E1,2.5432796E1,1.1358084E1,1.9289058E2,5.040043E2,1.1450437E2,2.4218014E1,5.288217E1,3.1993078E1,1.4403528E1,2.094417E1,1.2105191E1,2.1912521E1,2.3925901E1,1.5599197E1,1.7343988E2,1.1980942E2],"tree_param":{"num_deleted":"0","num_feature":"30","num_nodes":"49","size_leaf_vector":"1"}},{"base_weights":[1.3458688E-2,-4.9530644E-2,3.4824756E-1,-8.1294894E-2,2.2594811E-1,4.4714504E-1,8.2142234E-2,-9.895171E-2,3.3838016E-1,1.0507875E-1,6.888937E-1,2.547013E-2,5.1220375E-1,-2.64022E-2,2.141264E-1,-2.2717881E-1,-5.5734623E-2,5.123633E-2,3.729179E-2,-2.6933609E-2,1.9768794E-1,5.9507817E-2,1.2495095E-2,-1.1683238E-2,1.960136E-2,6.7269075E-1,3.069205E-1,4.6448237E-1,-1.9561127E-2,-6.4402744E-3,-2.207633E-2,-3.0724883E-2,-2.0013202E-3,1.9332796E-2,-7.8055444E-3,3.689989E-2,5.6291586E-3,2.7680932E-2,6.926237E-2,4.0162273E-2,8.688712E-3,5.2887764E-2,8.319403E-3],"categories":[],"categories_nodes":[],"categories_segments":[],"categories_sizes":[],"default_left":[1,1,0,0,1,0,0,0,1,0,0,1,0,0,1,1,0,1,0,0,0,0,0,0,0,0,0,0,0,0,0,0,0,0,0,0,0,0,0,0,0,0,0],"id":14,"left_children":[1,3,5,7,9,11,13,15,17,19,21,23,25,-1,27,29,31,33,-1,-1,35,-1,-1,-1,-1,37,39,41,-1,-1,-1,-1,-1,-1,-1,-1,-1,-1,-1,-1,-1,-1,-1],"loss_changes":[3.3347668E1,1.1639105E1,6.501026E0,8.851845E0,7.5369973E0,4.9282837E0,5.667083E0,6.3102646E0,5.518445E0,6.648832E0,5.741274E0,2.5386689E0,4.883934E0,0E0,8.958869E0,5.958811E0,7.4504337E0,2.1335113E0,0E0,0E0,4.306226E0,0E0,0E0,0E0,0E0,6.443962E0,4.4686017E0,7.042754E0,0E0,0E0,0E0,0E0,0E0,0E0,0E0,0E0,0E0,0E0,0E0,0E0,0E0,0E0,0E0],"parents":[2147483647,0,0,1,1,2,2,3,3,4,4,5,5,6,6,7,7,8,8,9,9,10,10,11,11,12,12,14,14,15,15,16,16,17,17,20,20,25,25,26,26,27,27],"right_children":[2,4,6,8,10,12,14,16,18,20,22,24,26,-1,28,30,32,34,-1,-1,36,-1,-1,-1,-1,38,40,42,-1,-1,-1,-1,-1,-1,-1,-1,-1,-1,-1,-1,-1,-1,-1],"split_conditions":[5.780347E-1,1.2E1,2.5773194E-1,6.785714E-1,5.825E-1,1.6556291E-1,1.194E0,5.050505E-1,1.388E0,1.684E0,6E0,3.148E0,1E1,-2.64022E-2,1.49375E0,2.165E0,7.171429E-1,3.23E0,3.729179E-2,-2.6933609E-2,1.9325E0,5.9507817E-2,1.2495095E-2,-1.1683238E-2,1.960136E-2,7.092199E-1,2.6145554E0,7E0,-1.9561127E-2,-6.4402744E-3,-2.207633E-2,-3.0724883E-2,-2.0013202E-3,1.9332796E-2,-7.8055444E-3,3.689989E-2,5.6291586E-3,2.7680932E-2,6.926237E-2,4.0162273E-2,8.688712E-3,5.2887764E-2,8.319403E-3],"split_indices":[26,8,23,15,5,22,1,26,0,0,9,6,8,0,1,6,1,14,0,0,0,0,0,0,0,26,14,9,0,0,0,0,0,0,0,0,0,0,0,0,0,0,0],"split_type":[0,0,0,0,0,0,0,0,0,0,0,0,0,0,0,0,0,0,0,0,0,0,0,0,0,0,0,0,0,0,0,0,0,0,0,0,0,0,0,0,0,0,0],"sum_hessian":[1.5781135E3,1.3286804E3,2.4943312E2,1.1922726E3,1.3640782E2,1.8107925E2,6.835386E1,1.1450978E3,4.717474E1,1.0931105E2,2.7096777E1,2.4595201E1,1.5648405E2,1.1487344E1,5.6866516E1,2.8699622E2,8.581016E2,2.8477282E1,1.8697458E1,1.30060625E1,9.6304985E1,1.1745861E1,1.5350915E1,1.4461489E1,1.0133713E1,8.627315E1,7.021091E1,4.0510403E1,1.6356112E1,1.9813231E2,8.886391E1,2.2247341E1,8.3585425E2,1.0732742E1,1.774454E1,1.1901099E1,8.4403885E1,7.556337E1,1.0709772E1,1.3627664E1,5.658325E1,1.258321E1,2.7927193E1],"tree_param":{"num_deleted":"0","num_feature":"30","num_nodes":"43","size_leaf_vector":"1"}},{"base_weights":[-5.285906E-3,-6.3545406E-2,2.7762508E-1,-1.0625147E-1,2.0567086E-1,1.7788243E-1,4.64748E-1,-2.936999E-1,-5.9174817E-2,9.342323E-2,7.224747E-1,2.3951478E-1,-2.569752E-2,6.010561E-1,-3.737342E-3,1.1618581E-2,-3.4560442E-1,-6.916628E-3,-1.505421E-1,1.6538125E-1,-2.4976378E-2,1.26775075E-2,5.2083064E-2,1.2658828E-1,6.3703865E-1,8.581717E-1,3.8562173E-1,-2.0329235E-2,2.8051576E-3,-2.9523717E-3,1.26314135E-2,-9.384002E-3,2.9919455E-2,-5.0603957E-3,1.5988374E-2,-2.4116708E-3,1.8820086E-2,4.7172587E-2,-7.13826E-4,1.1073796E-2,6.0483992E-2,-5.496944E-3,2.8557682E-2],"categories":[],"categories_nodes":[],"categories_segments":[],"categories_sizes":[],"default_left":[1,1,0,0,0,1,0,0,1,1,0,0,0,0,0,0,0,1,1,0,0,0,0,1,0,0,0,0,0,0,0,0,0,0,0,0,0,0,0,0,0,0,0],"id":15,"left_children":[1,3,5,7,9,11,13,15,17,19,21,23,-1,25,-1,-1,27,29,31,33,-1,-1,-1,35,37,39,41,-1,-1,-1,-1,-1,-1,-1,-1,-1,-1,-1,-1,-1,-1,-1,-1],"loss_changes":[2.5786942E1,1.4942817E1,4.838192E0,9.846921E0,1.0166413E1,7.608537E0,6.8556767E0,6.221979E0,4.2724457E0,6.338382E0,4.3096027E0,7.1422014E0,0E0,3.6227703E0,0E0,0E0,5.0776997E0,7.7513194E0,9.141645E0,5.5014133E0,0E0,0E0,0E0,5.644186E0,7.1966877E0,6.870821E0,3.9783974E0,0E0,0E0,0E0,0E0,0E0,0E0,0E0,0E0,0E0,0E0,0E0,0E0,0E0,0E0,0E0,0E0],"parents":[2147483647,0,0,1,1,2,2,3,3,4,4,5,5,6,6,7,7,8,8,9,9,10,10,11,11,13,13,16,16,17,17,18,18,19,19,23,23,24,24,25,25,26,26],"right_children":[2,4,6,8,10,12,14,16,18,20,22,24,-1,26,-1,-1,28,30,32,34,-1,-1,-1,36,38,40,42,-1,-1,-1,-1,-1,-1,-1,-1,-1,-1,-1,-1,-1,-1,-1,-1],"split_conditions":[5.7471263E-1,1.765E0,6.6225165E-1,4.854369E-1,4.738E0,2.078E0,1.64E2,2.402062E0,1.2166667E0,2.173913E-1,1.15E-1,1.73E2,-2.569752E-2,9E0,-3.737342E-3,1.1618581E-2,5.3413653E-1,6E0,6.7E-1,1.166E0,-2.4976378E-2,1.26775075E-2,5.2083064E-2,3E0,4.1666666E-1,1.204E0,2E0,-2.0329235E-2,2.8051576E-3,-2.9523717E-3,1.26314135E-2,-9.384002E-3,2.9919455E-2,-5.0603957E-3,1.5988374E-2,-2.4116708E-3,1.8820086E-2,4.7172587E-2,-7.13826E-4,1.1073796E-2,6.0483992E-2,-5.496944E-3,2.8557682E-2],"split_indices":[26,0,26,26,6,0,17,14,1,24,5,17,0,8,0,0,15,10,15,3,0,0,0,10,24,0,10,0,0,0,0,0,0,0,0,0,0,0,0,0,0,0,0],"split_type":[0,0,0,0,0,0,0,0,0,0,0,0,0,0,0,0,0,0,0,0,0,0,0,0,0,0,0,0,0,0,0,0,0,0,0,0,0,0,0,0,0,0,0],"sum_hessian":[1.5637562E3,1.2976597E3,2.6609656E2,1.1208369E3,1.7682277E2,1.7519626E2,9.09003E1,2.2350966E2,8.973272E2,1.4639964E2,3.0423122E1,1.615985E2,1.359776E1,7.262277E1,1.8277529E1,1.9586792E1,2.0392287E2,5.722149E2,3.2511234E2,1.3134938E2,1.5050272E1,1.3175032E1,1.724809E1,1.2707086E2,3.4527626E1,3.1536777E1,4.1085995E1,1.7725229E2,2.6670574E1,4.774705E2,9.47444E1,3.105936E2,1.4518762E1,4.8059135E1,8.3290245E1,7.499518E1,5.2075684E1,2.328033E1,1.1247298E1,1.1898779E1,1.9638E1,1.1156129E1,2.9929865E1],"tree_param":{"num_deleted":"0","num_feature":"30","num_nodes":"43","size_leaf_vector":"1"}},{"base_weights":[-1.1520822E-2,3.1796727E-1,-6.892949E-2,-1.5112223E-2,3.703385E-1,-2.0065616E-1,-8.522129E-3,4.1368163E-1,-2.0326275E-2,-1.0473339E-1,-3.720147E-1,-9.986015E-2,1.03276275E-1,3.6600888E-1,5.045966E-2,-5.477218E-1,-5.4116923E-2,-8.721155E-1,-2.7347678E-1,-1.3134977E-1,4.5435205E-1,-2.278545E-1,1.3814732E-1,1.4853758E-2,4.177822E-2,-4.2212646E-2,-1.567236E-2,2.2741223E-2,-5.0547603E-3,-5.5062767E-2,-2.8252665E-2,-7.3633865E-3,-2.8775338E-2,-3.272044E-3,-1.9172732E-2,1.9149192E-3,4.2896625E-2,1.0885327E-2,-1.962496E-2,7.986709E-3,-2.228777E-2],"categories":[],"categories_nodes":[],"categories_segments":[],"categories_sizes":[],"default_left":[0,0,0,0,0,1,1,0,0,0,0,1,0,0,0,0,0,0,1,1,0,0,1,0,0,0,0,0,0,0,0,0,0,0,0,0,0,0,0,0,0],"id":16,"left_children":[1,3,5,-1,7,9,11,13,-1,15,17,19,21,23,-1,25,27,29,31,33,35,37,39,-1,-1,-1,-1,-1,-1,-1,-1,-1,-1,-1,-1,-1,-1,-1,-1,-1,-1],"loss_changes":[2.9591574E1,7.656803E0,1.0588337E1,0E0,7.394888E0,6.7954273E0,9.361673E0,5.2811584E0,0E0,5.968611E0,7.013857E0,8.841036E0,4.7772927E0,5.804388E0,0E0,1.5227051E0,5.8396606E0,8.9857674E-1,4.665431E0,7.886052E0,4.445646E0,2.9886568E0,4.749723E0,0E0,0E0,0E0,0E0,0E0,0E0,0E0,0E0,0E0,0E0,0E0,0E0,0E0,0E0,0E0,0E0,0E0,0E0],"parents":[2147483647,0,0,1,1,2,2,4,4,5,5,6,6,7,7,9,9,10,10,11,11,12,12,13,13,15,15,16,16,17,17,18,18,19,19,20,20,21,21,22,22],"right_children":[2,4,6,-1,8,10,12,14,-1,16,18,20,22,24,-1,26,28,30,32,34,36,38,40,-1,-1,-1,-1,-1,-1,-1,-1,-1,-1,-1,-1,-1,-1,-1,-1,-1,-1],"split_conditions":[2.512563E-1,5.2910054E-1,5.7471263E-1,-1.5112223E-2,1.3E1,1.2955556E0,2.452E0,7.633588E-1,-2.0326275E-2,3.8314176E-1,5E0,2.055E0,-5.15E-1,2.4449877E-1,5.045966E-2,3.773585E-1,1.9995E0,2.9239765E-1,2.72E0,1.44E0,-1.375E-1,5E0,6.369427E-1,1.4853758E-2,4.177822E-2,-4.2212646E-2,-1.567236E-2,2.2741223E-2,-5.0547603E-3,-5.5062767E-2,-2.8252665E-2,-7.3633865E-3,-2.8775338E-2,-3.272044E-3,-1.9172732E-2,1.9149192E-3,4.2896625E-2,1.0885327E-2,-1.962496E-2,7.986709E-3,-2.228777E-2],"split_indices":[23,26,26,0,10,3,6,26,0,26,17,3,5,23,0,22,6,23,6,3,5,17,26,0,0,0,0,0,0,0,0,0,0,0,0,0,0,0,0,0,0],"split_type":[0,0,0,0,0,0,0,0,0,0,0,0,0,0,0,0,0,0,0,0,0,0,0,0,0,0,0,0,0,0,0,0,0,0,0,0,0,0,0,0,0],"sum_hessian":[1.5635688E3,2.3107419E2,1.3324948E3,1.7472595E1,2.136016E2,4.1768884E2,9.1480585E2,2.0287872E2,1.0722872E1,2.6919443E2,1.4849442E2,5.040247E2,4.1078116E2,1.8949179E2,1.3386934E1,2.6394726E1,2.427997E2,2.2983398E1,1.2551102E2,4.7781906E2,2.6205626E1,3.8336933E1,3.7244424E2,1.6684372E2,2.2648067E1,1.0311939E1,1.6082787E1,1.960439E1,2.2319531E2,1.1494065E1,1.1489333E1,8.980356E1,3.5707462E1,3.8010324E2,9.771584E1,1.3564535E1,1.264109E1,1.009317E1,2.8243763E1,3.600316E2,1.2412648E1],"tree_param":{"num_deleted":"0","num_feature":"30","num_nodes":"41","size_leaf_vector":"1"}},{"base_weights":[-1.713408E-2,-2.5128412E-1,3.425477E-2,-6.026984E-1,-1.9682014E-1,5.4327324E-3,3.1106693E-1,-4.1957375E-1,-4.458689E-2,2.9224426E-2,-2.3329334E-1,-4.0262666E-2,1.5712054E-1,4.2591524E-1,-1.5977563E-1,-4.368462E-3,-3.293966E-2,-5.040147E-1,-1.7008589E-1,-9.8049186E-2,5.0294023E-2,3.9495412E-2,1.24948844E-1,6.5346944E-1,2.4055941E-2,-2.6724631E-2,8.339591E-3,3.7916906E-3,-3.8170923E-2,2.5089433E-2,-1.1047869E-2,-3.2555629E-3,-2.2893803E-2,9.149934E-3,-6.186088E-3,1.7063081E-2,1.4139343E-3,3.4301907E-3,4.297137E-2,-1.5371342E-2,2.86732E-2],"categories":[],"categories_nodes":[],"categories_segments":[],"categories_sizes":[],"default_left":[0,0,1,0,0,1,1,0,0,0,0,1,0,0,0,0,0,0,0,1,0,0,1,0,1,0,0,0,0,0,0,0,0,0,0,0,0,0,0,0,0],"id":17,"left_children":[1,3,5,7,9,11,13,15,-1,-1,17,19,21,23,25,-1,-1,27,29,31,33,-1,35,37,39,-1,-1,-1,-1,-1,-1,-1,-1,-1,-1,-1,-1,-1,-1,-1,-1],"loss_changes":[1.8757265E1,5.1713085E0,1.0153116E1,1.4487638E0,7.0729656E0,8.04263E0,6.5868406E0,1.8307066E0,0E0,0E0,3.860817E0,4.6669626E0,5.280548E0,8.782927E0,3.0748754E0,0E0,0E0,6.683613E0,6.6446033E0,6.3690047E0,8.034285E0,0E0,5.328883E0,7.2814445E0,6.804921E0,0E0,0E0,0E0,0E0,0E0,0E0,0E0,0E0,0E0,0E0,0E0,0E0,0E0,0E0,0E0,0E0],"parents":[2147483647,0,0,1,1,2,2,3,3,4,4,5,5,6,6,7,7,10,10,11,11,12,12,13,13,14,14,17,17,18,18,19,19,20,20,22,22,23,23,24,24],"right_children":[2,4,6,8,10,12,14,16,-1,-1,18,20,22,24,26,-1,-1,28,30,32,34,-1,36,38,40,-1,-1,-1,-1,-1,-1,-1,-1,-1,-1,-1,-1,-1,-1,-1,-1],"split_conditions":[5.050505E-1,3.875969E-1,6.4102566E-1,8E0,3.968254E-1,2E-1,1.657E0,7E0,-4.458689E-2,2.9224426E-2,1.0088888E0,2.438E0,2.5974026E-1,1.1E1,1.81875E0,-4.368462E-3,-3.293966E-2,7.56E-1,1.1E0,2.2575E0,1.572E0,3.9495412E-2,2.2746665E0,1.21E0,2.03E0,-2.6724631E-2,8.339591E-3,3.7916906E-3,-3.8170923E-2,2.5089433E-2,-1.1047869E-2,-3.2555629E-3,-2.2893803E-2,9.149934E-3,-6.186088E-3,1.7063081E-2,1.4139343E-3,3.4301907E-3,4.297137E-2,-1.5371342E-2,2.86732E-2],"split_indices":[26,26,26,9,26,5,3,7,0,0,1,6,22,8,3,0,0,0,1,6,0,0,6,3,1,0,0,0,0,0,0,0,0,0,0,0,0,0,0,0,0],"split_type":[0,0,0,0,0,0,0,0,0,0,0,0,0,0,0,0,0,0,0,0,0,0,0,0,0,0,0,0,0,0,0,0,0,0,0,0,0,0,0,0,0],"sum_hessian":[1.5553384E3,2.7956665E2,1.2757717E3,3.5917374E1,2.4364928E2,1.156714E3,1.1905767E2,2.3699707E1,1.2217667E1,1.0074389E1,2.3357489E2,8.8898566E2,2.6772836E2,9.595906E1,2.3098614E1,1.066812E1,1.3031586E1,4.2592514E1,1.9098238E2,5.4330835E2,3.456773E2,1.1663175E1,2.560652E2,6.0707996E1,3.5251064E1,1.0602446E1,1.2496168E1,1.326446E1,2.9328054E1,1.2680303E1,1.7830208E2,4.990821E2,4.4226246E1,1.9641444E2,1.4926285E2,7.798914E1,1.7807605E2,1.6284103E1,4.442389E1,2.2147125E1,1.3103939E1],"tree_param":{"num_deleted":"0","num_feature":"30","num_nodes":"41","size_leaf_vector":"1"}},{"base_weights":[5.303916E-3,-1.9127944E-1,6.723345E-2,-9.657906E-2,-3.221948E-1,3.9923813E-2,4.0697783E-1,-3.8891557E-1,-3.020059E-2,-5.2164674E-1,-7.719906E-2,-1.50335515E-2,1.6420458E-1,5.7537216E-1,9.985203E-2,-5.529395E-1,3.2720987E-3,-7.850976E-2,1.9796964E-2,-6.323963E-1,-1.9792508E-1,2.321231E-2,-1.8647951E-1,-2.3733084E-1,2.8207019E-2,5.3481483E-1,1.05057955E-1,7.39313E-1,-8.147884E-3,2.902153E-2,-9.666694E-3,-1.3858636E-2,-4.8690274E-2,-2.4994245E-2,8.706366E-4,-7.299136E-3,-3.857158E-2,1.4994723E-2,-2.9689753E-2,-5.422729E-4,-2.660105E-2,-2.630924E-2,-6.8435767E-3,1.3092655E-2,-1.7028131E-3,5.807503E-2,1.1049801E-2,-2.7178003E-2,7.909708E-3,2.5879359E-2,5.6076046E-2],"categories":[],"categories_nodes":[],"categories_segments":[],"categories_sizes":[],"default_left":[0,1,1,1,0,0,0,0,1,0,0,0,0,0,0,0,0,0,0,0,0,0,0,0,0,0,0,0,0,0,0,0,0,0,0,0,0,0,0,0,0,0,0,0,0,0,0,0,0,0,0],"id":18,"left_children":[1,3,5,7,9,11,13,15,17,19,21,23,25,27,29,31,-1,33,-1,35,37,-1,39,41,43,45,47,49,-1,-1,-1,-1,-1,-1,-1,-1,-1,-1,-1,-1,-1,-1,-1,-1,-1,-1,-1,-1,-1,-1,-1],"loss_changes":[1.9205793E1,4.61071E0,1.1079899E1,4.2364717E0,7.6059265E0,7.617867E0,4.475706E0,3.10678E0,3.7365587E0,2.8941574E0,4.329022E0,7.447745E0,7.3730783E0,7.0817013E0,4.7896266E0,3.0937996E0,0E0,6.689703E0,0E0,4.109604E0,4.886613E0,0E0,3.636911E0,3.5233917E0,9.440451E0,8.763717E0,1.0258437E1,3.235485E0,0E0,0E0,0E0,0E0,0E0,0E0,0E0,0E0,0E0,0E0,0E0,0E0,0E0,0E0,0E0,0E0,0E0,0E0,0E0,0E0,0E0,0E0,0E0],"parents":[2147483647,0,0,1,1,2,2,3,3,4,4,5,5,6,6,7,7,8,8,9,9,10,10,11,11,12,12,13,13,14,14,15,15,17,17,19,19,20,20,22,22,23,23,24,24,25,25,26,26,27,27],"right_children":[2,4,6,8,10,12,14,16,18,20,22,24,26,28,30,32,-1,34,-1,36,38,-1,40,42,44,46,48,50,-1,-1,-1,-1,-1,-1,-1,-1,-1,-1,-1,-1,-1,-1,-1,-1,-1,-1,-1,-1,-1,-1,-1],"split_conditions":[5.405405E-1,1.96E0,6.6225165E-1,4E0,2.6420665E0,2.9344978E0,1.7233334E0,3.4602076E-1,1.7683333E0,3.8E-1,2.707317E0,6E0,2.9725087E0,4.25E0,8E0,4.7619048E-1,3.2720987E-3,1.555E0,1.9796964E-2,-2E0,2.744E0,2.321231E-2,5.618557E-1,1.164E0,2.5444446E0,5.4789275E-1,5.492958E-1,8E0,-8.147884E-3,2.902153E-2,-9.666694E-3,-1.3858636E-2,-4.8690274E-2,-2.4994245E-2,8.706366E-4,-7.299136E-3,-3.857158E-2,1.4994723E-2,-2.9689753E-2,-5.422729E-4,-2.660105E-2,-2.630924E-2,-6.8435767E-3,1.3092655E-2,-1.7028131E-3,5.807503E-2,1.1049801E-2,-2.7178003E-2,7.909708E-3,2.5879359E-2,5.6076046E-2],"split_indices":[26,6,26,9,14,14,2,24,6,4,14,16,14,6,9,15,0,3,0,10,6,0,15,3,14,15,15,9,0,0,0,0,0,0,0,0,0,0,0,0,0,0,0,0,0,0,0,0,0,0,0],"split_type":[0,0,0,0,0,0,0,0,0,0,0,0,0,0,0,0,0,0,0,0,0,0,0,0,0,0,0,0,0,0,0,0,0,0,0,0,0,0,0,0,0,0,0,0,0,0,0,0,0,0,0],"sum_hessian":[1.5765289E3,3.767872E2,1.1997417E3,2.2008539E2,1.5670183E2,1.1117852E3,8.795665E1,3.9547817E1,1.8053757E2,8.5532295E1,7.116953E1,7.7094507E2,3.4084003E2,5.603446E1,3.1922195E1,2.9060165E1,1.0487651E1,1.630984E2,1.7439156E1,6.2788937E1,2.2743362E1,1.1252781E1,5.9916756E1,1.2518747E2,6.4575757E2,4.5569645E1,2.952704E2,4.5962845E1,1.0071611E1,1.1853599E1,2.0068598E1,1.870207E1,1.0358094E1,2.965574E1,1.3344267E2,1.4573372E1,4.8215565E1,1.0069929E1,1.2673433E1,4.060074E1,1.931602E1,3.0953278E1,9.423419E1,1.3553946E2,5.1021814E2,1.4197624E1,3.137202E1,2.1516253E1,2.7375415E2,3.07437E1,1.5219146E1],"tree_param":{"num_deleted":"0","num_feature":"30","num_nodes":"51","size_leaf_vector":"1"}},{"base_weights":[-8.027241E-3,-7.033329E-2,2.3493077E-1,-1.2458499E-1,1.4717034E-1,4.0293135E-2,1.9792633E-1,-2.6404977E-1,-7.096306E-2,7.2182274E-1,8.95781E-2,9.600369E-2,4.346426E-1,-5.8978194E-1,-1.9974177E-1,-2.8623772E-1,-2.1242764E-2,5.125004E-2,1.8275326E-2,-9.896003E-2,2.845364E-1,-4.0409124E-1,1.6684191E-1,5.641661E-2,3.2953078E-1,-3.910671E-2,-9.0493085E-3,4.815295E-3,-1.3566963E-2,-9.37692E-3,-3.8447917E-2,-4.156259E-3,8.900051E-3,-2.442833E-2,5.7474436E-4,5.1380526E-2,9.228411E-3,-3.3907752E-2,-4.4839876E-3,1.590193E-2,-3.7275248E-3,1.0561476E-2,4.815312E-2],"categories":[],"categories_nodes":[],"categories_segments":[],"categories_sizes":[],"default_left":[1,1,0,0,0,0,0,0,0,0,1,0,0,0,0,1,1,0,0,0,0,0,0,0,0,0,0,0,0,0,0,0,0,0,0,0,0,0,0,0,0,0,0],"id":19,"left_children":[1,3,5,7,9,-1,11,13,15,17,19,21,23,25,27,29,31,-1,-1,33,35,37,39,-1,41,-1,-1,-1,-1,-1,-1,-1,-1,-1,-1,-1,-1,-1,-1,-1,-1,-1,-1],"loss_changes":[2.356725E1,1.4650183E1,6.451414E0,7.3776016E0,8.051095E0,0E0,7.1388464E0,5.564169E0,7.664239E0,1.8911209E0,8.368984E0,7.5241613E0,6.019928E0,3.267252E0,4.949421E0,6.1701097E0,7.229897E0,0E0,0E0,5.027307E0,7.996269E0,2.1300578E0,6.830874E0,0E0,5.6299334E0,0E0,0E0,0E0,0E0,0E0,0E0,0E0,0E0,0E0,0E0,0E0,0E0,0E0,0E0,0E0,0E0,0E0,0E0],"parents":[2147483647,0,0,1,1,2,2,3,3,4,4,6,6,7,7,8,8,9,9,10,10,11,11,12,12,13,13,14,14,15,15,16,16,19,19,20,20,21,21,22,22,24,24],"right_children":[2,4,6,8,10,-1,12,14,16,18,20,22,24,26,28,30,32,-1,-1,34,36,38,40,-1,42,-1,-1,-1,-1,-1,-1,-1,-1,-1,-1,-1,-1,-1,-1,-1,-1,-1,-1],"split_conditions":[5.586592E-1,2.9487178E0,2.4864864E0,5.2910054E-1,2.9675677E0,4.0293135E-2,6.6225165E-1,2.624672E-1,2.438E0,5.555556E-1,2E0,9.86E-1,8.58E-1,5.102041E-1,2.228E0,4.2016807E-1,1.42E0,5.125004E-2,1.8275326E-2,5.555556E-1,2.2575E0,1.656E0,2.985294E0,5.641661E-2,2.43309E-1,-3.910671E-2,-9.0493085E-3,4.815295E-3,-1.3566963E-2,-9.37692E-3,-3.8447917E-2,-4.156259E-3,8.900051E-3,-2.442833E-2,5.7474436E-4,5.1380526E-2,9.228411E-3,-3.3907752E-2,-4.4839876E-3,1.590193E-2,-3.7275248E-3,1.0561476E-2,4.815312E-2],"split_indices":[26,14,14,28,14,0,26,24,6,15,10,2,2,28,6,26,2,0,0,15,6,1,14,0,23,0,0,0,0,0,0,0,0,0,0,0,0,0,0,0,0,0,0],"split_type":[0,0,0,0,0,0,0,0,0,0,0,0,0,0,0,0,0,0,0,0,0,0,0,0,0,0,0,0,0,0,0,0,0,0,0,0,0,0,0,0,0,0,0],"sum_hessian":[1.5558486E3,1.2391846E3,3.1666406E2,9.925106E2,2.4667392E2,1.784581E1,2.9881824E2,2.7402145E2,7.1848914E2,2.1261189E1,2.2541273E2,2.1015855E2,8.865969E1,4.3575768E1,2.304457E2,1.3353831E2,5.849508E2,1.0321578E1,1.09396105E1,1.1458276E2,1.1082997E2,2.5316456E1,1.8484209E2,1.0260325E1,7.839936E1,2.8845224E1,1.4730543E1,4.4539227E1,1.8590648E2,1.1219422E2,2.1344093E1,4.471552E2,1.3779562E2,2.4753191E1,8.9829575E1,1.1923277E1,9.890669E1,1.2738072E1,1.25783825E1,1.13713875E2,7.112822E1,6.73198E1,1.1079565E1],"tree_param":{"num_deleted":"0","num_feature":"30","num_nodes":"43","size_leaf_vector":"1"}},{"base_weights":[5.5687972E-3,-1.6736107E-1,6.829842E-2,-6.538296E-1,-1.2705374E-1,3.3301793E-2,3.5825413E-1,-1.876857E-2,-5.006976E-2,3.8031748E-1,-1.6052681E-1,-1.2172554E-3,2.573524E-1,4.276367E-1,-1.0534811E-2,4.001338E-2,-4.750489E-3,-6.3169515E-1,-1.2782788E-1,-5.653403E-1,1.385971E-2,1.7446822E-1,4.0521305E-2,4.4710513E-2,3.5971987E-1,-4.0412705E-2,-2.1109609E-2,-9.2639625E-3,6.612163E-3,-2.6924906E-3,-5.4452218E-2,3.2253463E-2,2.5115136E-4,-1.652785E-5,2.079237E-2,2.4135256E-2,6.082717E-3],"categories":[],"categories_nodes":[],"categories_segments":[],"categories_sizes":[],"default_left":[0,0,1,0,0,1,0,0,0,0,0,0,0,0,0,0,0,1,1,1,0,0,0,0,1,0,0,0,0,0,0,0,0,0,0,0,0],"id":20,"left_children":[1,3,5,7,9,11,13,-1,-1,15,17,19,21,23,-1,-1,-1,25,27,29,31,33,-1,-1,35,-1,-1,-1,-1,-1,-1,-1,-1,-1,-1,-1,-1],"loss_changes":[1.6889885E1,7.962099E0,1.1553209E1,2.5126495E0,6.560808E0,7.9286675E0,4.957346E0,0E0,0E0,4.9130173E0,5.407135E0,7.5987506E0,6.031352E0,3.0352802E0,0E0,0E0,0E0,3.858776E-1,5.097155E0,6.0577335E0,4.749586E0,5.1219482E0,0E0,0E0,2.743988E0,0E0,0E0,0E0,0E0,0E0,0E0,0E0,0E0,0E0,0E0,0E0,0E0],"parents":[2147483647,0,0,1,1,2,2,3,3,4,4,5,5,6,6,9,9,10,10,11,11,12,12,13,13,17,17,18,18,19,19,20,20,21,21,24,24],"right_children":[2,4,6,8,10,12,14,-1,-1,16,18,20,22,24,-1,-1,-1,26,28,30,32,34,-1,-1,36,-1,-1,-1,-1,-1,-1,-1,-1,-1,-1,-1,-1],"split_conditions":[5.586592E-1,2E0,6.4102566E-1,4E0,2.402062E0,1.2E1,1.2E1,-1.876857E-2,-5.006976E-2,8E0,3.816794E-1,7.171429E-1,1E1,5E0,-1.0534811E-2,4.001338E-2,-4.750489E-3,2E0,1E1,-1.3E0,1.06723584E-1,8.4E1,4.0521305E-2,4.4710513E-2,1.3528571E0,-4.0412705E-2,-2.1109609E-2,-9.2639625E-3,6.612163E-3,-2.6924906E-3,-5.4452218E-2,3.2253463E-2,2.5115136E-4,-1.652785E-5,2.079237E-2,2.4135256E-2,6.082717E-3],"split_indices":[26,7,26,8,14,8,9,0,0,7,26,1,9,7,0,0,0,10,7,4,24,17,0,0,3,0,0,0,0,0,0,0,0,0,0,0,0],"split_type":[0,0,0,0,0,0,0,0,0,0,0,0,0,0,0,0,0,0,0,0,0,0,0,0,0,0,0,0,0,0,0,0,0,0,0,0,0],"sum_hessian":[1.5558429E3,4.1327768E2,1.1425652E3,3.0268278E1,3.830094E2,1.0208161E3,1.21749146E2,1.811936E1,1.2148918E1,2.2878408E1,3.60131E2,8.850122E2,1.358039E2,1.0889386E2,1.285529E1,1.189552E1,1.0982887E1,2.1983765E1,3.3814725E2,2.2260075E1,8.6275214E2,1.1940587E2,1.6398027E1,1.2103927E1,9.678993E1,1.0119913E1,1.1863852E1,2.775146E2,6.0632637E1,1.1915873E1,1.0344203E1,1.0761152E1,8.5199097E2,6.959316E1,4.981271E1,6.2865692E1,3.392424E1],"tree_param":{"num_deleted":"0","num_feature":"30","num_nodes":"37","size_leaf_vector":"1"}},{"base_weights":[-8.628292E-3,-3.4539998E-2,2.8875893E-1,-9.0080306E-2,8.8364035E-2,4.5217853E-2,2.1652974E-1,-5.9932575E-2,-2.4506769E-1,3.679834E-2,6.016065E-2,-1.2233967E-2,2.969064E-1,-8.893853E-2,1.6620831E-1,-2.939637E-1,1.6644854E-2,-7.6361865E-2,2.2073324E-1,3.789329E-1,-1.3174486E-2,-5.685158E-3,9.461277E-3,-1.2476589E-2,1.6485892E-2,8.778633E-3,-1.7128078E-2,2.3774242E-3,-1.471193E-2,1.7709818E-2,-5.129799E-3,3.284276E-2,5.581677E-3],"categories":[],"categories_nodes":[],"categories_segments":[],"categories_sizes":[],"default_left":[1,1,0,1,1,0,1,1,0,0,0,0,1,1,1,0,0,0,0,1,0,0,0,0,0,0,0,0,0,0,0,0,0],"id":21,"left_children":[1,3,5,7,9,-1,11,13,15,-1,17,-1,19,21,23,25,-1,27,29,31,-1,-1,-1,-1,-1,-1,-1,-1,-1,-1,-1,-1,-1],"loss_changes":[1.2017314E1,9.821158E0,5.247881E0,4.5861406E0,8.047388E0,0E0,4.2775416E0,5.4621553E0,4.630925E0,0E0,9.456558E0,0E0,4.5753756E0,5.0987515E0,6.514202E0,3.470189E0,0E0,6.323165E0,8.612869E0,6.185026E0,0E0,0E0,0E0,0E0,0E0,0E0,0E0,0E0,0E0,0E0,0E0,0E0,0E0],"parents":[2147483647,0,0,1,1,2,2,3,3,4,4,6,6,7,7,8,8,10,10,12,12,13,13,14,14,15,15,17,17,18,18,19,19],"right_children":[2,4,6,8,10,-1,12,14,16,-1,18,-1,20,22,24,26,-1,28,30,32,-1,-1,-1,-1,-1,-1,-1,-1,-1,-1,-1,-1,-1],"split_conditions":[6.4102566E-1,9E0,4E0,1.432E0,4.0816328E-1,4.5217853E-2,5E0,1.2825E0,2.0166667E0,3.679834E-2,2.8045113E0,-1.2233967E-2,8E0,2.018E0,2.6313365E0,-4E0,1.6644854E-2,5.105634E-1,1.914E0,1.362E0,-1.3174486E-2,-5.685158E-3,9.461277E-3,-1.2476589E-2,1.6485892E-2,8.778633E-3,-1.7128078E-2,2.3774242E-3,-1.471193E-2,1.7709818E-2,-5.129799E-3,3.284276E-2,5.581677E-3],"split_indices":[26,8,9,0,15,0,9,0,1,0,14,0,10,2,14,10,0,15,2,3,0,0,0,0,0,0,0,0,0,0,0,0,0],"split_type":[0,0,0,0,0,0,0,0,0,0,0,0,0,0,0,0,0,0,0,0,0,0,0,0,0,0,0,0,0,0,0,0,0],"sum_hessian":[1.5605182E3,1.4365684E3,1.2394982E2,9.901848E2,4.463836E2,1.16608715E1,1.1228895E2,8.3064233E2,1.5954245E2,1.7433645E1,4.2894995E2,1.6176773E1,9.6112175E1,7.371418E2,9.350055E1,1.477105E2,1.1831956E1,2.3178375E2,1.9716621E2,8.4278404E1,1.1833769E1,6.777529E2,5.938885E1,2.6072023E1,6.742852E1,1.3416295E1,1.342942E2,1.4795941E2,8.382434E1,1.397106E2,5.74556E1,4.0420273E1,4.385813E1],"tree_param":{"num_deleted":"0","num_feature":"30","num_nodes":"33","size_leaf_vector":"1"}},{"base_weights":[1.6027115E-2,4.0874362E-2,5.0808224E-3,-2.5430256E-1,2.9782675E-2,-4.7122246E-1,-8.723869E-2,3.9018312E-1,1.5120642E-2,-2.9455575E-1,-4.6212446E-2,-4.674254E-1,9.2272215E-2,6.9870883E-1,-5.9709217E-2,-9.912355E-2,7.5882494E-2,-4.2546657E-3,-3.9475493E-2,-2.0918017E-3,-4.1717347E-2,2.0974379E-2,-1.10464E-2,2.06142E-2,5.0090075E-2,-2.2897702E-2,1.7218404E-2,2.2880575E-3,-1.2757075E-2,2.499417E-2,2.8748396E-3],"categories":[],"categories_nodes":[],"categories_segments":[],"categories_sizes":[],"default_left":[0,0,1,0,1,1,1,1,0,0,0,1,0,1,0,1,0,0,0,0,0,0,0,0,0,0,0,0,0,0,0],"id":22,"left_children":[1,-1,3,5,7,9,11,13,15,17,-1,19,21,23,25,27,29,-1,-1,-1,-1,-1,-1,-1,-1,-1,-1,-1,-1,-1,-1],"loss_changes":[1.3564267E1,0E0,9.827608E0,4.7346506E0,7.3716598E0,4.2094097E0,5.322418E0,7.6803513E0,9.378228E0,4.304204E0,0E0,3.7778516E0,5.526557E0,2.2741508E0,3.8685348E0,1.0626669E1,6.795755E0,0E0,0E0,0E0,0E0,0E0,0E0,0E0,0E0,0E0,0E0,0E0,0E0,0E0,0E0],"parents":[2147483647,0,0,2,2,3,3,4,4,5,5,6,6,7,7,8,8,9,9,11,11,12,12,13,13,14,14,15,15,16,16],"right_children":[2,-1,4,6,8,10,12,14,16,18,-1,20,22,24,26,28,30,-1,-1,-1,-1,-1,-1,-1,-1,-1,-1,-1,-1,-1,-1],"split_conditions":[7.716049E-2,4.0874362E-2,2E0,6.097561E-1,4.1379312E-1,4E0,4.7906977E-1,-1.06E-1,4.9814126E-1,2.7395833E0,-4.6212446E-2,2.4887218E0,5.44E-1,3.75E-1,1E1,1.858E0,-1.145E0,-4.2546657E-3,-3.9475493E-2,-2.0918017E-3,-4.1717347E-2,2.0974379E-2,-1.10464E-2,2.06142E-2,5.0090075E-2,-2.2897702E-2,1.7218404E-2,2.2880575E-3,-1.2757075E-2,2.499417E-2,2.8748396E-3],"split_indices":[24,0,7,26,15,8,15,5,15,14,0,14,15,15,16,6,4,0,0,0,0,0,0,0,0,0,0,0,0,0,0],"split_type":[0,0,0,0,0,0,0,0,0,0,0,0,0,0,0,0,0,0,0,0,0,0,0,0,0,0,0,0,0,0,0],"sum_hessian":[1.5549841E3,1.9835848E1,1.5351483E3,1.3232439E2,1.4028239E3,5.651923E1,7.580516E1,5.3571682E1,1.3492522E3,4.200822E1,1.4511009E1,2.3977123E1,5.1828037E1,3.1582413E1,2.1989267E1,4.6766785E2,8.8158435E2,3.0482231E1,1.152599E1,1.17430315E1,1.2234092E1,2.5337088E1,2.649095E1,1.7620808E1,1.3961606E1,1.1132047E1,1.0857221E1,2.4251976E2,2.251481E2,3.5324425E1,8.4625995E2],"tree_param":{"num_deleted":"0","num_feature":"30","num_nodes":"31","size_leaf_vector":"1"}},{"base_weights":[-5.3151967E-3,-5.4244656E-2,1.9047125E-1,-1.1462644E-1,9.970571E-2,1.5383482E-1,4.6854604E-2,-3.690217E-1,-8.0048904E-2,1.6453926E-2,4.9840885E-1,3.8917936E-2,1.0835067E-1,-0E0,-4.4496453E-1,5.8715227E-3,-2.237193E-1,-4.1602376E-1,8.244682E-2,-0E0,7.0095825E-1,-3.8993502E-1,1.5763482E-1,-3.7018966E-2,-1.3485699E-2,-2.1117644E-3,1.4797016E-2,-9.023107E-3,-3.640034E-2,-4.4554964E-2,-9.547414E-3,-4.7749258E-4,1.2719686E-2,5.192511E-2,2.0724729E-2,-3.8225472E-2,2.5968964E-3,-1.5528226E-2,1.1410291E-2],"categories":[],"categories_nodes":[],"categories_segments":[],"categories_sizes":[],"default_left":[1,1,1,1,0,0,0,0,1,0,0,0,1,0,1,1,0,0,1,0,0,0,0,0,0,0,0,0,0,0,0,0,0,0,0,0,0,0,0],"id":23,"left_children":[1,3,5,7,9,11,-1,13,15,17,19,-1,21,-1,23,25,27,29,31,-1,33,35,37,-1,-1,-1,-1,-1,-1,-1,-1,-1,-1,-1,-1,-1,-1,-1,-1],"loss_changes":[1.4995114E1,1.1667871E1,8.304389E0,7.855483E0,1.1666843E1,8.335818E0,0E0,3.0316381E0,9.839886E0,8.377615E0,6.194148E0,0E0,6.927131E0,0E0,4.3108635E0,6.9896493E0,6.279916E0,3.8727627E0,4.0713997E0,0E0,3.6147423E0,4.307335E0,8.526709E0,0E0,0E0,0E0,0E0,0E0,0E0,0E0,0E0,0E0,0E0,0E0,0E0,0E0,0E0,0E0,0E0],"parents":[2147483647,0,0,1,1,2,2,3,3,4,4,5,5,7,7,8,8,9,9,10,10,12,12,14,14,15,15,16,16,17,17,18,18,20,20,21,21,22,22],"right_children":[2,4,6,8,10,12,-1,14,16,18,20,-1,22,-1,24,26,28,30,32,-1,34,36,38,-1,-1,-1,-1,-1,-1,-1,-1,-1,-1,-1,-1,-1,-1,-1,-1],"split_conditions":[5.586592E-1,1.397E0,8.3666664E-1,2E0,4.25E-1,2.4864864E0,4.6854604E-2,8.28E-1,-5.48E-1,5.3763443E-1,1.6E1,3.8917936E-2,4E0,-0E0,6.7E1,1.707E0,1.2E1,2.777778E-1,1.514E0,-0E0,8E0,6.0240966E-1,9.9E-1,-3.7018966E-2,-1.3485699E-2,-2.1117644E-3,1.4797016E-2,-9.023107E-3,-3.640034E-2,-4.4554964E-2,-9.547414E-3,-4.7749258E-4,1.2719686E-2,5.192511E-2,2.0724729E-2,-3.8225472E-2,2.5968964E-3,-1.5528226E-2,1.1410291E-2],"split_indices":[26,1,5,7,5,14,0,0,4,28,16,0,8,0,17,3,7,24,2,0,17,26,2,0,0,0,0,0,0,0,0,0,0,0,0,0,0,0,0],"split_type":[0,0,0,0,0,0,0,0,0,0,0,0,0,0,0,0,0,0,0,0,0,0,0,0,0,0,0,0,0,0,0,0,0,0,0,0,0,0,0],"sum_hessian":[1.5646404E3,1.2527871E3,3.1185333E2,9.005012E2,3.522859E2,2.9854385E2,1.3309464E1,1.062476E2,7.942536E2,2.9250174E2,5.978416E1,1.9023863E1,2.7952002E2,1.8172436E1,8.8075165E1,4.9718246E2,2.9707114E2,3.7821697E1,2.5468002E2,1.7446514E1,4.2337646E1,2.4353523E1,2.5516649E2,3.1381308E1,5.6693855E1,4.2689343E2,7.028902E1,2.7503513E2,2.2036032E1,1.1064346E1,2.6757353E1,1.6614854E2,8.853149E1,1.8070547E1,2.42671E1,1.29077835E1,1.1445739E1,3.2792004E1,2.2237448E2],"tree_param":{"num_deleted":"0","num_feature":"30","num_nodes":"39","size_leaf_vector":"1"}},{"base_weights":[5.1541426E-3,-6.3200724E-1,1.690696E-2,-4.500111E-3,-4.6254694E-2,-1.758946E-2,1.875882E-1,-5.666068E-2,2.6078582E-1,3.1514856E-1,5.8561932E-2,-7.140029E-2,3.4325415E-1,3.2304067E-2,6.10874E-1,-7.0486136E-2,4.5616603E-1,-3.1627413E-2,1.3003643E-1,-1.4675237E-2,-2.3752756E-3,3.6017787E-2,-1.7104626E-2,9.0877E-3,-1.7551742E-2,3.8489338E-2,-0E0,1.2471031E-2,-3.117011E-2,1.6792443E-2,4.0392853E-2,1.619773E-2,-9.239881E-3],"categories":[],"categories_nodes":[],"categories_segments":[],"categories_sizes":[],"default_left":[0,0,1,0,0,1,0,1,0,0,1,0,0,1,1,0,0,0,1,0,0,0,0,0,0,0,0,0,0,0,0,0,0],"id":24,"left_children":[1,3,5,-1,-1,7,9,11,13,15,17,19,21,23,25,27,29,-1,31,-1,-1,-1,-1,-1,-1,-1,-1,-1,-1,-1,-1,-1,-1],"loss_changes":[1.1598063E1,4.270445E0,9.020157E0,0E0,0E0,1.3828913E1,4.1833467E0,6.5789523E0,1.2427578E1,7.0804853E0,6.4370246E0,5.672695E0,1.0524088E1,5.539585E0,5.898958E0,6.4175134E0,3.621891E0,0E0,7.3067627E0,0E0,0E0,0E0,0E0,0E0,0E0,0E0,0E0,0E0,0E0,0E0,0E0,0E0,0E0],"parents":[2147483647,0,0,1,1,2,2,5,5,6,6,7,7,8,8,9,9,10,10,11,11,12,12,13,13,14,14,15,15,16,16,18,18],"right_children":[2,4,6,-1,-1,8,10,12,14,16,18,20,22,24,26,28,30,-1,32,-1,-1,-1,-1,-1,-1,-1,-1,-1,-1,-1,-1,-1,-1],"split_conditions":[3.816794E-1,2.4672897E0,5.780347E-1,-4.500111E-3,-4.6254694E-2,1.741E0,2.9464788E0,6.785714E-1,1.75E-1,3.3112583E-1,-5E0,5E0,1.5771428E0,3.8613334E0,9E0,8E0,5.4789275E-1,-3.1627413E-2,1.514E0,-1.4675237E-2,-2.3752756E-3,3.6017787E-2,-1.7104626E-2,9.0877E-3,-1.7551742E-2,3.8489338E-2,-0E0,1.2471031E-2,-3.117011E-2,1.6792443E-2,4.0392853E-2,1.619773E-2,-9.239881E-3],"split_indices":[26,14,26,0,0,1,14,15,5,22,10,16,1,6,10,7,15,0,1,0,0,0,0,0,0,0,0,0,0,0,0,0,0],"split_type":[0,0,0,0,0,0,0,0,0,0,0,0,0,0,0,0,0,0,0,0,0,0,0,0,0,0,0,0,0,0,0,0,0],"sum_hessian":[1.5545826E3,2.7045904E1,1.5275367E3,1.007061E1,1.6975294E1,1.2709714E3,2.5656525E2,1.1155541E3,1.5541736E2,1.279004E2,1.2866484E2,1.0769332E3,3.862089E1,9.48756E1,6.0541748E1,3.419092E1,9.370947E1,1.1192437E1,1.17472404E2,1.0310389E2,9.7382935E2,2.4974102E1,1.3646789E1,6.8828575E1,2.6047033E1,4.7710247E1,1.2831501E1,2.1892422E1,1.22985E1,7.149096E1,2.2218513E1,7.2874756E1,4.4597652E1],"tree_param":{"num_deleted":"0","num_feature":"30","num_nodes":"33","size_leaf_vector":"1"}},{"base_weights":[-1.141223E-2,-3.345149E-2,3.5274217E-1,-1.5424319E-1,1.3656957E-2,6.3403755E-1,1.3475369E-1,-2.9753935E-1,-4.1336045E-2,1.8986614E-1,-1.74266E-2,2.8576484E-1,6.1773587E-2,3.7351068E-2,-3.6736757E-2,-6.7131376E-1,-2.3306373E-1,-5.5274403E-1,2.2276131E-2,-9.122423E-2,4.5271078E-1,-2.053348E-1,2.3332538E-2,3.7492175E-2,-1.8982446E-2,2.438621E-2,-3.420238E-1,-4.8348255E-2,-9.602486E-3,-2.82351E-3,-2.0966822E-2,-4.2902865E-2,-3.912455E-3,-3.4171646E-3,1.6663963E-2,1.2475657E-2,-1.8255359E-2,5.2488554E-2,1.6559845E-2,-3.1230977E-2,-6.037823E-3,-1.5226811E-2,2.8860436E-3,8.6607635E-3,-3.4865435E-2],"categories":[],"categories_nodes":[],"categories_segments":[],"categories_sizes":[],"default_left":[1,0,0,0,0,0,0,0,1,1,1,0,0,0,0,0,0,1,0,1,0,0,1,0,0,0,0,0,0,0,0,0,0,0,0,0,0,0,0,0,0,0,0,0,0],"id":25,"left_children":[1,3,5,7,9,11,13,15,17,19,21,23,-1,-1,25,27,29,31,33,35,37,39,41,-1,-1,-1,43,-1,-1,-1,-1,-1,-1,-1,-1,-1,-1,-1,-1,-1,-1,-1,-1,-1,-1],"loss_changes":[1.2440998E1,8.353718E0,5.2604027E0,6.616066E0,5.795941E0,7.4838448E0,5.484234E0,4.113085E0,7.6082664E0,1.1801202E1,6.891256E0,8.214719E0,0E0,0E0,6.700159E0,3.362152E0,5.062276E0,3.5859451E0,5.8831377E0,7.3189783E0,5.489012E0,5.5376267E0,8.306714E0,0E0,0E0,0E0,5.0347395E0,0E0,0E0,0E0,0E0,0E0,0E0,0E0,0E0,0E0,0E0,0E0,0E0,0E0,0E0,0E0,0E0,0E0,0E0],"parents":[2147483647,0,0,1,1,2,2,3,3,4,4,5,5,6,6,7,7,8,8,9,9,10,10,11,11,14,14,15,15,16,16,17,17,18,18,19,19,20,20,21,21,22,22,26,26],"right_children":[2,4,6,8,10,12,14,16,18,20,22,24,-1,-1,26,28,30,32,34,36,38,40,42,-1,-1,-1,44,-1,-1,-1,-1,-1,-1,-1,-1,-1,-1,-1,-1,-1,-1,-1,-1,-1,-1],"split_conditions":[6.6225165E-1,5.586592E-1,9E0,2.38E-1,2.5370371E0,7.1428573E-1,9.02E-1,5E0,5E0,2E0,2.6313365E0,1.4E1,6.1773587E-2,3.7351068E-2,6.993007E-1,4.878049E-1,1.558E0,3.68E-1,5.3763443E-1,7.5E1,9.74E-1,2.41E0,4E0,3.7492175E-2,-1.8982446E-2,2.438621E-2,2.9151516E0,-4.8348255E-2,-9.602486E-3,-2.82351E-3,-2.0966822E-2,-4.2902865E-2,-3.912455E-3,-3.4171646E-3,1.6663963E-2,1.2475657E-2,-1.8255359E-2,5.2488554E-2,1.6559845E-2,-3.1230977E-2,-6.037823E-3,-1.5226811E-2,2.8860436E-3,8.6607635E-3,-3.4865435E-2],"split_indices":[26,26,8,4,14,26,2,9,17,10,14,17,0,0,26,26,2,4,22,17,2,6,8,0,0,0,14,0,0,0,0,0,0,0,0,0,0,0,0,0,0,0,0,0,0],"split_type":[0,0,0,0,0,0,0,0,0,0,0,0,0,0,0,0,0,0,0,0,0,0,0,0,0,0,0,0,0,0,0,0,0,0,0,0,0,0,0,0,0,0,0,0,0],"sum_hessian":[1.5516543E3,1.4642198E3,8.7434395E1,4.1077982E2,1.0534401E3,3.714048E1,5.0293915E1,1.7991704E2,2.3086278E2,1.5767981E2,8.9576025E2,2.455995E1,1.2580529E1,1.0397844E1,3.9896072E1,2.4856647E1,1.5506038E2,2.4862698E1,2.0600008E2,7.632697E1,8.1352844E1,1.5938367E2,7.363765E2,1.4482699E1,1.007725E1,1.433847E1,2.5557602E1,1.4614752E1,1.0241895E1,8.054279E1,7.451759E1,1.4508262E1,1.0354436E1,1.598748E2,4.612527E1,3.3889256E1,4.2437717E1,1.2326133E1,6.902671E1,2.5483835E1,1.3389984E2,6.888096E1,6.674956E2,1.0525039E1,1.5032562E1],"tree_param":{"num_deleted":"0","num_feature":"30","num_nodes":"45","size_leaf_vector":"1"}},{"base_weights":[2.4245642E-3,-5.0466552E-2,1.4530256E-1,1.9916734E-1,-8.6085E-2,5.257323E-1,1.0575396E-1,4.9131572E-1,4.502223E-2,-3.523905E-1,-6.343893E-2,7.935886E-1,-5.8511267E-3,1.3224798E-1,-3.9110705E-2,-1.6460402E-2,8.6543757E-1,-2.0112544E-1,2.7054536E-1,4.0128034E-2,-6.0963213E-1,-7.5308956E-2,3.553989E-2,5.4375928E-2,1.889163E-2,1.0589859E-1,4.497872E-2,-2.1823516E-2,2.009817E-2,5.7810318E-2,1.8933162E-2,-3.0156989E-2,4.1365824E-3,4.113103E-2,5.1367427E-3,-2.0314641E-2,3.0844793E-2,-4.2318655E-3,-3.7821278E-2,1.0513859E-2,-4.673453E-3,-1.1866159E-2,7.323719E-3],"categories":[],"categories_nodes":[],"categories_segments":[],"categories_sizes":[],"default_left":[1,0,0,0,0,1,1,0,1,0,1,0,0,1,0,0,0,0,0,1,0,0,0,0,0,1,0,0,0,0,0,0,0,0,0,0,0,0,0,0,0,0,0],"id":26,"left_children":[1,3,5,7,9,11,13,15,17,19,21,23,-1,25,-1,27,29,31,33,35,37,39,-1,-1,-1,41,-1,-1,-1,-1,-1,-1,-1,-1,-1,-1,-1,-1,-1,-1,-1,-1,-1],"loss_changes":[1.1789349E1,1.0117207E1,6.2251844E0,6.3166046E0,5.944148E0,6.9122114E0,9.059074E0,9.351119E0,5.2931013E0,7.908042E0,8.442446E0,2.8543606E0,0E0,7.351591E0,0E0,3.9623759E0,3.396368E0,5.2854505E0,4.4386253E0,8.375106E0,3.4771194E0,4.7112474E0,0E0,0E0,0E0,5.069249E0,0E0,0E0,0E0,0E0,0E0,0E0,0E0,0E0,0E0,0E0,0E0,0E0,0E0,0E0,0E0,0E0,0E0],"parents":[2147483647,0,0,1,1,2,2,3,3,4,4,5,5,6,6,7,7,8,8,9,9,10,10,11,11,13,13,15,15,16,16,17,17,18,18,19,19,20,20,21,21,25,25],"right_children":[2,4,6,8,10,12,14,16,18,20,22,24,-1,26,-1,28,30,32,34,36,38,40,-1,-1,-1,42,-1,-1,-1,-1,-1,-1,-1,-1,-1,-1,-1,-1,-1,-1,-1,-1,-1],"split_conditions":[2.9344978E0,2.512563E-1,9.3E-1,3.1111112E-2,3.3112583E-1,1.6051364E-1,1.6E1,4.9358973E-1,6E0,2.6385224E-1,3.9370078E-1,5E0,-5.8511267E-3,4.4775E0,-3.9110705E-2,9.6E-2,6.896552E-1,6.756757E-1,2.4967742E0,1E0,4.5614034E-1,-9.88E-1,3.553989E-2,5.4375928E-2,1.889163E-2,-5E0,4.497872E-2,-2.1823516E-2,2.009817E-2,5.7810318E-2,1.8933162E-2,-3.0156989E-2,4.1365824E-3,4.113103E-2,5.1367427E-3,-2.0314641E-2,3.0844793E-2,-4.2318655E-3,-3.7821278E-2,1.0513859E-2,-4.673453E-3,-1.1866159E-2,7.323719E-3],"split_indices":[14,23,2,5,22,23,8,15,9,22,29,10,0,6,0,4,22,22,14,10,15,4,0,0,0,10,0,0,0,0,0,0,0,0,0,0,0,0,0,0,0,0,0],"split_type":[0,0,0,0,0,0,0,0,0,0,0,0,0,0,0,0,0,0,0,0,0,0,0,0,0,0,0,0,0,0,0,0,0,0,0,0,0,0,0,0,0,0,0],"sum_hessian":[1.5568364E3,1.1361858E3,4.2065063E2,1.4094757E2,9.9523816E2,3.8216167E1,3.8243445E2,4.7702263E1,9.3245316E1,7.651278E1,9.187254E2,2.6919056E1,1.12971115E1,3.7229022E2,1.0144228E1,2.0528587E1,2.7173676E1,4.4423725E1,4.882159E1,3.0471836E1,4.6040943E1,9.058692E2,1.2856221E1,1.4682546E1,1.223651E1,3.611567E2,1.11335125E1,1.0342623E1,1.0185965E1,1.6022282E1,1.1151393E1,1.8065641E1,2.6358082E1,1.03321495E1,3.848944E1,1.7245743E1,1.3226092E1,1.0553831E1,3.5487114E1,5.319758E1,8.526716E2,3.7408962E1,3.2374777E2],"tree_param":{"num_deleted":"0","num_feature":"30","num_nodes":"43","size_leaf_vector":"1"}},{"base_weights":[8.0373045E-3,5.9997868E-2,-1.1236122E-1,-4.226237E-2,1.4512089E-1,-3.9305E-2,-8.9176044E-2,-1.6726701E-1,1.0262951E-1,3.4333628E-2,2.838075E-1,-1.51375E-1,1.1221644E-1,3.37168E-2,-2.0363337E-1,-2.8466547E-2,1.4408442E-1,3.4837052E-1,-3.5645038E-2,4.6949655E-1,1.9825295E-1,-1.0467839E-1,-6.6713744E-1,-4.304222E-1,2.4680021E-1,-1.3792087E-2,7.088886E-3,3.506248E-2,4.48681E-3,8.460058E-3,4.024606E-2,-2.892287E-2,1.7939862E-4,4.142299E-3,3.3234324E-2,1.5903493E-2,-6.202875E-3,2.8191999E-2,-6.878727E-3,-5.067828E-2,-1.8031303E-2,-5.157473E-4,-4.138299E-2,5.490879E-3,5.195089E-2],"categories":[],"categories_nodes":[],"categories_segments":[],"categories_sizes":[],"default_left":[1,1,0,1,1,0,1,0,0,0,0,1,0,0,1,0,0,0,0,0,0,0,1,0,0,0,0,0,0,0,0,0,0,0,0,0,0,0,0,0,0,0,0,0,0],"id":27,"left_children":[1,3,5,7,9,-1,11,13,15,17,19,21,23,-1,25,-1,27,29,31,33,35,37,39,41,43,-1,-1,-1,-1,-1,-1,-1,-1,-1,-1,-1,-1,-1,-1,-1,-1,-1,-1,-1,-1],"loss_changes":[9.79309E0,9.544117E0,7.2092905E0,9.033756E0,9.147819E0,0E0,5.7478848E0,8.286844E0,6.464591E0,7.384136E0,4.0510406E0,8.285289E0,7.980802E0,0E0,6.477437E0,0E0,6.464927E0,4.774329E0,5.8904743E0,6.096838E0,7.147466E0,7.125329E0,2.544917E0,3.528163E0,9.253775E0,0E0,0E0,0E0,0E0,0E0,0E0,0E0,0E0,0E0,0E0,0E0,0E0,0E0,0E0,0E0,0E0,0E0,0E0,0E0,0E0],"parents":[2147483647,0,0,1,1,2,2,3,3,4,4,6,6,7,7,8,8,9,9,10,10,11,11,12,12,14,14,16,16,17,17,18,18,19,19,20,20,21,21,22,22,23,23,24,24],"right_children":[2,4,6,8,10,-1,12,14,16,18,20,22,24,-1,26,-1,28,30,32,34,36,38,40,42,44,-1,-1,-1,-1,-1,-1,-1,-1,-1,-1,-1,-1,-1,-1,-1,-1,-1,-1,-1,-1],"split_conditions":[2.5773194E-1,1.132E0,7.78E-1,7.3E1,2.812E0,-3.9305E-2,9E0,5.208333E-1,2.35E0,-9.52E-1,1.4425E0,1.501E0,4.4444445E-1,3.37168E-2,1.735E0,-2.8466547E-2,2.8825E0,7E0,8.19E-1,-2E0,1.601111E0,1.984127E-1,2.04E-1,2.8735632E-1,3.0674848E-1,-1.3792087E-2,7.088886E-3,3.506248E-2,4.48681E-3,8.460058E-3,4.024606E-2,-2.892287E-2,1.7939862E-4,4.142299E-3,3.3234324E-2,1.5903493E-2,-6.202875E-3,2.8191999E-2,-6.878727E-3,-5.067828E-2,-1.8031303E-2,-5.157473E-4,-4.138299E-2,5.490879E-3,5.195089E-2],"split_indices":[23,3,2,17,6,0,7,22,6,4,0,1,26,0,1,0,6,7,1,10,3,29,4,29,23,0,0,0,0,0,0,0,0,0,0,0,0,0,0,0,0,0,0,0,0],"split_type":[0,0,0,0,0,0,0,0,0,0,0,0,0,0,0,0,0,0,0,0,0,0,0,0,0,0,0,0,0,0,0,0,0,0,0,0,0,0,0,0,0,0,0,0,0],"sum_hessian":[1.5641573E3,1.0935463E3,4.7061108E2,4.9646286E2,5.9708344E2,1.4418048E1,4.5619302E2,2.668099E2,2.2965295E2,3.330228E2,2.6406064E2,3.4911554E2,1.0707748E2,1.0210984E1,2.565989E2,1.2464502E1,2.1718846E2,6.0221775E1,2.7280103E2,8.1504745E1,1.825559E2,3.2141208E2,2.770347E1,2.0694904E1,8.6382576E1,2.1263779E2,4.396112E1,1.8081219E1,1.9910724E2,4.4390675E1,1.5831099E1,1.7633642E1,2.5516737E2,2.7992104E1,5.351264E1,1.3331885E2,4.9237038E1,1.4174611E1,3.0723746E2,1.1768892E1,1.5934577E1,1.0678904E1,1.0016001E1,7.472644E1,1.165613E1],"tree_param":{"num_deleted":"0","num_feature":"30","num_nodes":"45","size_leaf_vector":"1"}},{"base_weights":[6.488197E-3,-2.154984E-2,2.1390955E-1,-4.966851E-3,-3.4045425E-1,2.7021182E-1,-5.574061E-2,-1.5422614E-1,2.2515785E-2,-4.0515367E-2,-2.3962061E-1,4.997466E-1,1.4108226E-1,2.6189315E-1,-3.516956E-2,-3.4114763E-2,-4.3960705E-1,-1.7124398E-1,5.1926E-2,-3.4787136E-1,7.5630555E-3,2.1810548E-3,7.509985E-1,3.042215E-1,-1.22153245E-1,2.8185094E-2,-3.6158345E-3,-3.006353E-2,1.5341562E-3,-3.3253763E-2,-8.850652E-4,-1.3642393E-2,1.790747E-2,2.168131E-2,2.0068043E-3,4.596045E-4,-2.3074482E-2,5.7442486E-2,2.7058521E-2,3.7148718E-2,6.2789954E-3,-2.4956066E-2,1.1917429E-2],"categories":[],"categories_nodes":[],"categories_segments":[],"categories_sizes":[],"default_left":[1,0,0,0,0,0,0,1,0,0,1,0,1,1,0,0,1,0,0,0,0,0,0,0,0,0,0,0,0,0,0,0,0,0,0,0,0,0,0,0,0,0,0],"id":28,"left_children":[1,3,5,7,9,11,13,15,17,-1,19,21,23,25,-1,27,29,31,33,35,-1,-1,37,39,41,-1,-1,-1,-1,-1,-1,-1,-1,-1,-1,-1,-1,-1,-1,-1,-1,-1,-1],"loss_changes":[9.02728E0,7.178529E0,2.8431053E0,5.341674E0,2.8808846E0,4.41245E0,6.9046826E0,6.8805017E0,6.245916E0,0E0,2.4781063E0,6.140483E0,4.343343E0,2.3493285E0,0E0,5.363259E0,5.595807E0,7.850751E0,4.225253E0,1.8762817E0,0E0,0E0,2.12924E0,4.692433E0,5.4020567E0,0E0,0E0,0E0,0E0,0E0,0E0,0E0,0E0,0E0,0E0,0E0,0E0,0E0,0E0,0E0,0E0,0E0,0E0],"parents":[2147483647,0,0,1,1,2,2,3,3,4,4,5,5,6,6,7,7,8,8,10,10,11,11,12,12,13,13,15,15,16,16,17,17,18,18,19,19,22,22,23,23,24,24],"right_children":[2,4,6,8,10,12,14,16,18,-1,20,22,24,26,-1,28,30,32,34,36,-1,-1,38,40,42,-1,-1,-1,-1,-1,-1,-1,-1,-1,-1,-1,-1,-1,-1,-1,-1,-1,-1],"split_conditions":[6.097561E-1,1.5E1,1.2E1,4.854369E-1,3.06E0,7E0,1.6393442E-1,1.144E0,6E0,-4.0515367E-2,4.048583E-1,3.0975E0,2.968E0,3.21E-1,-3.516956E-2,1.08E0,2.86E-1,6.2184876E-1,4.0816328E-1,2E1,7.5630555E-3,2.1810548E-3,3.773585E-1,1.128E0,7E0,2.8185094E-2,-3.6158345E-3,-3.006353E-2,1.5341562E-3,-3.3253763E-2,-8.850652E-4,-1.3642393E-2,1.790747E-2,2.168131E-2,2.0068043E-3,4.596045E-4,-2.3074482E-2,5.7442486E-2,2.7058521E-2,3.7148718E-2,6.2789954E-3,-2.4956066E-2,1.1917429E-2],"split_indices":[26,9,7,26,6,9,24,1,16,0,22,6,6,5,0,3,4,15,15,16,0,0,22,0,7,0,0,0,0,0,0,0,0,0,0,0,0,0,0,0,0,0,0],"split_type":[0,0,0,0,0,0,0,0,0,0,0,0,0,0,0,0,0,0,0,0,0,0,0,0,0,0,0,0,0,0,0,0,0,0,0,0,0,0,0,0,0,0,0],"sum_hessian":[1.547129E3,1.3632646E3,1.8386435E2,1.2971426E3,6.61221E1,1.5241025E2,3.145411E1,2.0154898E2,1.0955935E3,1.026458E1,5.585752E1,5.3559975E1,9.885027E1,2.1399942E1,1.0054166E1,1.4288243E2,5.8666534E1,1.4329797E2,9.522956E2,4.402978E1,1.1827739E1,1.9582077E1,3.3977898E1,6.116665E1,3.768362E1,1.104147E1,1.0358474E1,1.3959894E1,1.2892255E2,3.7703987E1,2.0962545E1,1.20789024E2,2.2508947E1,2.7206903E1,9.250887E2,1.063779E1,3.339199E1,1.002255E1,2.3955349E1,1.6622395E1,4.4544254E1,1.8368742E1,1.9314878E1],"tree_param":{"num_deleted":"0","num_feature":"30","num_nodes":"43","size_leaf_vector":"1"}},{"base_weights":[-1.097325E-2,-1.4855763E-1,3.805894E-2,-4.417133E-1,-1.0341791E-1,1.9235829E-1,-8.369749E-3,-7.505568E-1,-2.1526867E-1,-1.3641639E-1,3.117206E-1,2.8905785E-1,-5.2317668E-2,-6.546351E-2,1.7913583E-1,-4.806186E-2,-2.231907E-2,-5.307735E-1,1.7276332E-2,-6.592265E-2,-4.4486246E-1,3.616427E-2,3.9204417E-5,4.5731786E-1,1.1578679E-1,-2.5057647E-1,3.5276565E-1,-2.7246132E-1,-2.3580065E-2,9.558744E-2,6.3881636E-1,-1.709363E-2,-3.294046E-2,-2.543242E-2,-8.843137E-4,-4.0581387E-2,-7.3863203E-3,3.8297873E-2,1.4142997E-2,1.8053634E-2,-7.832675E-3,-3.362912E-2,1.3813468E-4,3.7327945E-2,-4.1175387E-3,-7.26593E-3,-3.715866E-2,1.970446E-2,-2.9612517E-3,-2.4941452E-3,1.901107E-2,5.107525E-2,1.0747529E-2],"categories":[],"categories_nodes":[],"categories_segments":[],"categories_sizes":[],"default_left":[0,1,0,0,1,0,1,0,1,1,0,1,1,0,0,0,0,0,0,0,0,0,0,0,0,1,0,0,0,0,0,0,0,0,0,0,0,0,0,0,0,0,0,0,0,0,0,0,0,0,0,0,0],"id":29,"left_children":[1,3,5,7,9,11,13,15,17,19,21,23,25,27,29,-1,-1,31,-1,33,35,-1,-1,37,39,41,43,45,47,49,51,-1,-1,-1,-1,-1,-1,-1,-1,-1,-1,-1,-1,-1,-1,-1,-1,-1,-1,-1,-1,-1,-1],"loss_changes":[1.0460547E1,5.2922697E0,8.198599E0,3.5025063E0,4.884411E0,6.2992964E0,9.400069E0,8.501749E-1,5.9724607E0,7.0846896E0,3.2800703E0,5.4319057E0,6.1421776E0,5.8093734E0,7.7312407E0,0E0,0E0,1.9180393E-1,0E0,5.697175E0,6.417056E0,0E0,0E0,4.837351E0,6.4445114E0,5.568879E0,4.421995E0,6.563957E0,8.360672E0,7.284273E0,4.707838E0,0E0,0E0,0E0,0E0,0E0,0E0,0E0,0E0,0E0,0E0,0E0,0E0,0E0,0E0,0E0,0E0,0E0,0E0,0E0,0E0,0E0,0E0],"parents":[2147483647,0,0,1,1,2,2,3,3,4,4,5,5,6,6,7,7,8,8,9,9,10,10,11,11,12,12,13,13,14,14,17,17,19,19,20,20,23,23,24,24,25,25,26,26,27,27,28,28,29,29,30,30],"right_children":[2,4,6,8,10,12,14,16,18,20,22,24,26,28,30,-1,-1,32,-1,34,36,-1,-1,38,40,42,44,46,48,50,52,-1,-1,-1,-1,-1,-1,-1,-1,-1,-1,-1,-1,-1,-1,-1,-1,-1,-1,-1,-1,-1,-1],"split_conditions":[5.586592E-1,5E0,2.7173913E-1,2.8818443E-1,1.1E1,1.1E1,1.9111112E-1,4.8979592E-1,1.188E0,2.564E0,1.1E-1,-8.1E-2,3.598E0,2.496E0,1.4E1,-4.806186E-2,-2.231907E-2,2.726E0,1.7276332E-2,3.875969E-1,1.6E-2,3.616427E-2,3.9204417E-5,7E0,2.2779043E-1,3E0,2.26E0,1.09E2,1.036E0,9.1E1,5.4497355E-1,-1.709363E-2,-3.294046E-2,-2.543242E-2,-8.843137E-4,-4.0581387E-2,-7.3863203E-3,3.8297873E-2,1.4142997E-2,1.8053634E-2,-7.832675E-3,-3.362912E-2,1.3813468E-4,3.7327945E-2,-4.1175387E-3,-7.26593E-3,-3.715866E-2,1.970446E-2,-2.9612517E-3,-2.4941452E-3,1.901107E-2,5.107525E-2,1.0747529E-2],"split_indices":[26,17,23,23,7,8,5,15,1,6,5,5,6,6,8,0,0,6,0,26,4,0,0,17,23,10,1,17,1,17,15,0,0,0,0,0,0,0,0,0,0,0,0,0,0,0,0,0,0,0,0,0,0],"split_type":[0,0,0,0,0,0,0,0,0,0,0,0,0,0,0,0,0,0,0,0,0,0,0,0,0,0,0,0,0,0,0,0,0,0,0,0,0,0,0,0,0,0,0,0,0,0,0,0,0,0,0,0,0],"sum_hessian":[1.5471389E3,4.065024E2,1.1406366E3,5.27729E1,3.5372952E2,2.6360208E2,8.770345E2,2.1158749E1,3.1614151E1,3.2852783E2,2.5201696E1,1.890959E2,7.450618E1,6.7322705E2,2.0380739E2,1.1030099E1,1.012865E1,2.0380106E1,1.1234046E1,2.68664E2,5.9863827E1,1.01367E1,1.5064996E1,9.48107E1,9.428521E1,5.0445206E1,2.4060972E1,1.1196701E2,5.612601E2,1.7366814E2,3.0139252E1,1.0031308E1,1.0348797E1,2.5254421E1,2.4340958E2,2.586711E1,3.3996716E1,3.2807E1,6.20037E1,4.9637157E1,4.464805E1,1.8450571E1,3.1994635E1,1.2375151E1,1.16858225E1,8.935321E1,2.2613796E1,4.3121643E1,5.181384E2,1.152432E2,5.8424934E1,1.4974015E1,1.51652355E1],"tree_param":{"num_deleted":"0","num_feature":"30","num_nodes":"53","size_leaf_vector":"1"}},{"base_weights":[9.48787E-3,-2.1387434E-2,1.634508E-1,2.0211808E-2,-1.1969365E-1,-1.944827E-1,2.03509E-1,5.029334E-3,6.4227295E-1,1.0203085E-1,-1.6999662E-1,1.2183994E-2,-2.66759E-2,2.9316038E-1,1.9849358E-2,-4.1417755E-2,1.4446709E-1,1.51709765E-2,4.54907E-2,-3.032372E-2,2.4017684E-1,-3.3094116E-2,-3.5677716E-1,-1.4645286E-2,3.508487E-1,-2.454247E-2,1.8771718E-1,-1.2696425E-2,2.7680528E-4,4.272859E-2,3.8725075E-3,-1.8043363E-2,1.836481E-2,-4.3810452E-3,2.9140716E-2,-2.4088157E-2,-1.5887208E-3,2.1537228E-2,-0E0,1.4736882E-2,-1.4914113E-2],"categories":[],"categories_nodes":[],"categories_segments":[],"categories_sizes":[],"default_left":[1,1,0,1,0,0,1,0,0,0,1,0,0,1,0,0,0,0,0,0,0,0,0,0,0,0,0,0,0,0,0,0,0,0,0,0,0,0,0,0,0],"id":30,"left_children":[1,3,5,7,9,11,13,15,17,19,21,-1,-1,23,25,27,29,-1,-1,-1,31,33,35,-1,37,-1,39,-1,-1,-1,-1,-1,-1,-1,-1,-1,-1,-1,-1,-1,-1],"loss_changes":[7.4490905E0,5.338939E0,3.7940688E0,8.577141E0,4.3532834E0,4.1118917E0,3.8516722E0,5.8109317E0,1.5648041E0,7.1593866E0,8.058012E0,0E0,0E0,5.4595385E0,6.826801E0,6.7255726E0,1.0516026E1,0E0,0E0,0E0,4.8025427E0,6.194361E0,5.3648434E0,0E0,4.0518436E0,0E0,3.2217834E0,0E0,0E0,0E0,0E0,0E0,0E0,0E0,0E0,0E0,0E0,0E0,0E0,0E0,0E0],"parents":[2147483647,0,0,1,1,2,2,3,3,4,4,5,5,6,6,7,7,8,8,9,9,10,10,13,13,14,14,15,15,16,16,20,20,21,21,22,22,24,24,26,26],"right_children":[2,4,6,8,10,12,14,16,18,20,22,-1,-1,24,26,28,30,-1,-1,-1,32,34,36,-1,38,-1,40,-1,-1,-1,-1,-1,-1,-1,-1,-1,-1,-1,-1,-1,-1],"split_conditions":[5.780347E-1,2.0408164E-1,1.6556291E-1,2.6954177E-1,2.228E0,2.874317E0,1.612E0,2.9464788E0,6.52E-1,1.648E0,1.0955555E0,1.2183994E-2,-2.66759E-2,-6E0,2E0,2.445E0,2.9725087E0,1.51709765E-2,4.54907E-2,-3.032372E-2,1.11E0,5.586592E-1,2.9166667E0,-1.4645286E-2,2.7173913E-1,-2.454247E-2,2.4813896E-1,-1.2696425E-2,2.7680528E-4,4.272859E-2,3.8725075E-3,-1.8043363E-2,1.836481E-2,-4.3810452E-3,2.9140716E-2,-2.4088157E-2,-1.5887208E-3,2.1537228E-2,-0E0,1.4736882E-2,-1.4914113E-2],"split_indices":[26,24,22,23,6,14,1,14,4,6,3,0,0,10,10,6,14,0,0,0,3,26,14,0,23,0,23,0,0,0,0,0,0,0,0,0,0,0,0,0,0],"split_type":[0,0,0,0,0,0,0,0,0,0,0,0,0,0,0,0,0,0,0,0,0,0,0,0,0,0,0,0,0,0,0,0,0,0,0,0,0,0,0,0,0],"sum_hessian":[1.5623008E3,1.3015109E3,2.6078986E2,9.1436536E2,3.8714554E2,2.5609438E1,2.351804E2,8.9372144E2,2.064397E1,7.103269E1,3.1611285E2,1.1165572E1,1.4443867E1,1.5727008E2,7.7910324E1,6.7039636E2,2.2332503E2,1.0214589E1,1.042938E1,1.0918962E1,6.0113728E1,1.834004E2,1.3271243E2,1.3572608E1,1.4369746E2,1.8650574E1,5.925975E1,1.20905594E2,5.494908E2,1.811686E1,2.0520818E2,1.003603E1,5.0077698E1,1.6942151E2,1.3978902E1,9.528049E1,3.7431953E1,1.1683578E2,2.686169E1,4.905648E1,1.0203273E1],"tree_param":{"num_deleted":"0","num_feature":"30","num_nodes":"41","size_leaf_vector":"1"}},{"base_weights":[-2.7792342E-3,-2.8423773E-2,2.840227E-1,-6.698463E-2,9.0975754E-2,2.2695014E-1,4.244488E-2,-8.919637E-2,1.3626556E-1,4.739307E-1,2.347681E-2,-1.5171195E-2,2.9026827E-1,-4.4715214E-1,-7.5884536E-2,3.133668E-1,-3.2069045E-1,8.734261E-1,1.1712902E-1,-1.296338E-1,1.9072102E-1,3.7659478E-1,-8.337016E-3,1.3773042E-2,-3.9116185E-2,-4.606636E-3,1.243062E-2,-1.0258905E-2,2.4611285E-2,-3.2092534E-2,4.2991698E-4,6.458645E-2,1.7042968E-2,2.5305096E-2,-6.389215E-3,3.1689634E-3,-1.5320371E-2,1.3960375E-2,-3.3044722E-3,2.5107045E-2,2.8076877E-3],"categories":[],"categories_nodes":[],"categories_segments":[],"categories_sizes":[],"default_left":[1,1,0,1,0,1,0,0,1,1,1,0,0,0,1,0,0,0,1,0,0,1,0,0,0,0,0,0,0,0,0,0,0,0,0,0,0,0,0,0,0],"id":31,"left_children":[1,3,5,7,9,11,-1,13,15,17,19,-1,21,23,25,27,29,31,33,35,37,39,-1,-1,-1,-1,-1,-1,-1,-1,-1,-1,-1,-1,-1,-1,-1,-1,-1,-1,-1],"loss_changes":[1.1429847E1,6.5871925E0,3.810752E0,4.892403E0,8.95672E0,4.027337E0,0E0,4.5668225E0,8.722737E0,7.2108517E0,7.657964E0,0E0,4.246193E0,8.631427E0,4.9789925E0,7.3132677E0,3.2518384E0,4.797718E0,2.8418558E0,5.3589153E0,3.29101E0,3.5058575E0,0E0,0E0,0E0,0E0,0E0,0E0,0E0,0E0,0E0,0E0,0E0,0E0,0E0,0E0,0E0,0E0,0E0,0E0,0E0],"parents":[2147483647,0,0,1,1,2,2,3,3,4,4,5,5,7,7,8,8,9,9,10,10,12,12,13,13,14,14,15,15,16,16,17,17,18,18,19,19,20,20,21,21],"right_children":[2,4,6,8,10,12,-1,14,16,18,20,-1,22,24,26,28,30,32,34,36,38,40,-1,-1,-1,-1,-1,-1,-1,-1,-1,-1,-1,-1,-1,-1,-1,-1,-1,-1,-1],"split_conditions":[6.4102566E-1,2.9424083E0,7.633588E-1,5.555556E-1,2.9725087E0,-5E0,4.244488E-2,6.85E-1,1.49375E0,2.8735632E-1,1.308E0,-1.5171195E-2,1.89E2,2.5652175E0,5.35E-1,5E0,2.4096386E-1,5.4966885E-1,6E0,-1.72E-1,6E0,1.84E0,-8.337016E-3,1.3773042E-2,-3.9116185E-2,-4.606636E-3,1.243062E-2,-1.0258905E-2,2.4611285E-2,-3.2092534E-2,4.2991698E-4,6.458645E-2,1.7042968E-2,2.5305096E-2,-6.389215E-3,3.1689634E-3,-1.5320371E-2,1.3960375E-2,-3.3044722E-3,2.5107045E-2,2.8076877E-3],"split_indices":[26,14,26,26,14,10,0,2,1,22,0,0,17,14,5,7,23,15,7,4,10,0,0,0,0,0,0,0,0,0,0,0,0,0,0,0,0,0,0,0,0],"split_type":[0,0,0,0,0,0,0,0,0,0,0,0,0,0,0,0,0,0,0,0,0,0,0,0,0,0,0,0,0,0,0,0,0,0,0,0,0,0,0,0,0],"sum_hessian":[1.5554222E3,1.4289055E3,1.2651674E2,1.0810498E3,3.4785565E2,1.1634094E2,1.0175792E1,9.75498E2,1.05551895E2,5.1000687E1,2.9685498E2,1.1835065E1,1.0450588E2,3.3538666E1,9.419593E2,7.6453926E1,2.9097973E1,2.3245504E1,2.7755184E1,1.5478114E2,1.4207382E2,8.823376E1,1.6272123E1,1.0589034E1,2.294963E1,8.9801807E2,4.39412E1,1.9426542E1,5.702738E1,1.4404012E1,1.4693962E1,1.2115874E1,1.1129629E1,1.0469427E1,1.7285757E1,7.402814E1,8.075301E1,1.0589045E2,3.618337E1,6.2764187E1,2.5469572E1],"tree_param":{"num_deleted":"0","num_feature":"30","num_nodes":"41","size_leaf_vector":"1"}},{"base_weights":[4.0275715E-3,-2.2070186E-1,4.0056735E-2,-5.4498076E-1,-1.4095657E-1,1.2047297E-1,-2.8650401E-2,-8.725462E-3,-7.8326267E-1,-3.528263E-2,-3.2427445E-1,-3.6049023E-2,1.3588041E-1,-1.3317344E-1,4.8115853E-2,-4.791728E-2,-2.6091054E-2,2.2723797E-1,-2.5658947E-1,-1.6627565E-1,-3.9763294E-2,8.3205044E-2,3.8014522E-1,-1.651436E-1,2.2089135E-2,1.9293322E-1,-9.5055856E-2,-1.9109344E-2,1.9490052E-2,-2.4516307E-2,6.1973515E-5,-3.8210202E-2,7.0608605E-4,5.226012E-3,-3.3826362E-2,2.75065E-2,-4.599869E-3,-3.6452904E-3,-2.2979032E-2,1.6710933E-2,1.11484725E-4,-3.13872E-2,-1.9796356E-3],"categories":[],"categories_nodes":[],"categories_segments":[],"categories_sizes":[],"default_left":[0,1,0,0,0,0,1,0,0,0,1,0,1,1,0,0,0,0,0,0,0,1,1,1,0,0,1,0,0,0,0,0,0,0,0,0,0,0,0,0,0,0,0],"id":32,"left_children":[1,3,5,7,9,11,13,-1,15,17,19,-1,21,23,25,-1,-1,27,29,31,-1,33,35,37,-1,39,41,-1,-1,-1,-1,-1,-1,-1,-1,-1,-1,-1,-1,-1,-1,-1,-1],"loss_changes":[1.2495895E1,5.3670406E0,7.3737173E0,3.4290829E0,3.2979305E0,8.008808E0,5.780713E0,0E0,4.8670673E-1,6.51073E0,4.435881E0,0E0,7.701311E0,5.6534395E0,8.621954E0,0E0,0E0,5.212328E0,3.7202077E0,5.30183E0,0E0,8.093712E0,8.654717E0,7.7869515E0,0E0,5.5358152E0,6.075821E0,0E0,0E0,0E0,0E0,0E0,0E0,0E0,0E0,0E0,0E0,0E0,0E0,0E0,0E0,0E0,0E0],"parents":[2147483647,0,0,1,1,2,2,3,3,4,4,5,5,6,6,8,8,9,9,10,10,12,12,13,13,14,14,17,17,18,18,19,19,21,21,22,22,23,23,25,25,26,26],"right_children":[2,4,6,8,10,12,14,-1,16,18,20,-1,22,24,26,-1,-1,28,30,32,-1,34,36,38,-1,40,42,-1,-1,-1,-1,-1,-1,-1,-1,-1,-1,-1,-1,-1,-1,-1,-1],"split_conditions":[4.854369E-1,6E0,7E0,4.2553192E-1,8E0,6.7E-1,1.24E0,-8.725462E-3,3.0395138E-1,3.10559E-1,2.204E0,-3.6049023E-2,2.570694E-1,5.35E-1,1.5957143E0,-4.791728E-2,-2.6091054E-2,1.01E0,1.09E2,2.3310024E-1,-3.9763294E-2,2.3255815E-1,1.562E0,1.805E0,2.2089135E-2,4.3E1,-7E0,-1.9109344E-2,1.9490052E-2,-2.4516307E-2,6.1973515E-5,-3.8210202E-2,7.0608605E-4,5.226012E-3,-3.3826362E-2,2.75065E-2,-4.599869E-3,-3.6452904E-3,-2.2979032E-2,1.6710933E-2,1.11484725E-4,-3.13872E-2,-1.9796356E-3],"split_indices":[26,17,9,26,9,1,3,0,23,23,6,0,24,5,3,0,0,0,17,24,0,24,0,6,0,17,10,0,0,0,0,0,0,0,0,0,0,0,0,0,0,0,0],"split_type":[0,0,0,0,0,0,0,0,0,0,0,0,0,0,0,0,0,0,0,0,0,0,0,0,0,0,0,0,0,0,0,0,0,0,0,0,0,0,0,0,0,0,0],"sum_hessian":[1.5434495E3,2.1216759E2,1.3312819E3,4.0478096E1,1.7168948E2,6.136986E2,7.175833E2,1.668654E1,2.3791555E1,1.1001126E2,6.1678234E1,1.0094935E1,6.0360364E2,3.0409836E2,4.1348495E2,1.2423581E1,1.1367973E1,5.0101154E1,5.9910103E1,4.735715E1,1.432108E1,4.9796765E2,1.0563601E2,2.889198E2,1.5178546E1,2.0573553E2,2.0774942E2,1.0136132E1,3.996502E1,3.1153648E1,2.8756456E1,1.0354661E1,3.700249E1,4.853448E2,1.2622872E1,7.7706184E1,2.7929821E1,2.2120921E2,6.7710594E1,1.1744661E2,8.828893E1,1.8447899E1,1.8930153E2],"tree_param":{"num_deleted":"0","num_feature":"30","num_nodes":"43","size_leaf_vector":"1"}},{"base_weights":[6.5710023E-3,-4.4513818E-2,1.1863236E-1,-3.6659095E-2,-3.5710514E-2,-2.8015658E-2,1.4288104E-1,-4.1822293E-1,-2.224665E-2,1.9903338E-1,-9.810611E-2,5.2210735E-3,-7.463149E-1,-4.0333351E-1,-1.31502235E-2,1.6513354E-1,5.597325E-2,3.2878876E-2,-3.1260315E-2,-4.4076625E-2,-2.6454283E-2,-3.713794E-2,-1.6362753E-3,-1.1969897E-3,1.7010495E-2,4.298586E-2,7.1436316E-3,2.4133502E-2,-6.8550073E-3],"categories":[],"categories_nodes":[],"categories_segments":[],"categories_sizes":[],"default_left":[1,0,1,0,0,0,1,0,0,1,0,0,1,0,1,0,0,0,0,0,0,0,0,0,0,0,0,0,0],"id":33,"left_children":[1,3,5,-1,7,-1,9,11,13,15,17,-1,19,21,23,25,-1,27,-1,-1,-1,-1,-1,-1,-1,-1,-1,-1,-1],"loss_changes":[8.860621E0,6.3338046E0,8.0205765E0,0E0,5.351865E0,0E0,6.377001E0,6.2084603E0,3.4721277E0,1.1577617E1,6.2228518E0,0E0,3.7981987E-2,2.8387792E0,3.7616062E0,5.479783E0,0E0,5.610381E0,0E0,0E0,0E0,0E0,0E0,0E0,0E0,0E0,0E0,0E0,0E0],"parents":[2147483647,0,0,1,1,2,2,4,4,6,6,7,7,8,8,9,9,10,10,12,12,13,13,14,14,15,15,17,17],"right_children":[2,4,6,-1,8,-1,10,12,14,16,18,-1,20,22,24,26,-1,28,-1,-1,-1,-1,-1,-1,-1,-1,-1,-1,-1],"split_conditions":[1.402E0,8.06E-1,5.08E-1,-3.6659095E-2,3.8910505E-1,-2.8015658E-2,2.512563E-1,2.4672897E0,6.7E-1,2.4271844E-1,1.682E0,5.2210735E-3,1E0,1.99E0,2.13E0,-6E0,5.597325E-2,1.49375E0,-3.1260315E-2,-4.4076625E-2,-2.6454283E-2,-3.713794E-2,-1.6362753E-3,-1.1969897E-3,1.7010495E-2,4.298586E-2,7.1436316E-3,2.4133502E-2,-6.8550073E-3],"split_indices":[1,3,2,0,26,0,23,14,1,23,2,0,10,3,3,10,0,1,0,0,0,0,0,0,0,0,0,0,0],"split_type":[0,0,0,0,0,0,0,0,0,0,0,0,0,0,0,0,0,0,0,0,0,0,0,0,0,0,0,0,0],"sum_hessian":[1.5445885E3,1.0607434E3,4.838451E2,1.2206475E1,1.048537E3,1.5780189E1,4.6806488E2,3.437731E1,1.0141596E3,3.8008942E2,8.7975464E1,1.34032E1,2.0974112E1,2.237664E1,9.91783E2,3.6783017E2,1.2259272E1,7.106391E1,1.6911556E1,1.0758749E1,1.0215363E1,1.101471E1,1.136193E1,9.6357623E2,2.8206787E1,1.0114847E1,3.577153E2,1.914691E1,5.1917004E1],"tree_param":{"num_deleted":"0","num_feature":"30","num_nodes":"29","size_leaf_vector":"1"}},{"base_weights":[2.4247853E-2,-1.6816384E-1,5.2615512E-2,1.0149275E-1,-2.906093E-1,4.014783E-2,5.5695975E-1,-9.933747E-2,4.778922E-1,-5.7767842E-2,-5.908612E-1,-6.8731445E-1,5.3004924E-2,1.693749E-1,6.0824018E-2,2.1483292E-1,-2.8234024E-2,4.2185513E-3,4.0667523E-2,-2.6964918E-1,3.9309952E-1,-4.4059828E-2,-4.1811728E-1,-4.862621E-2,-1.7800722E-2,2.5900185E-2,2.856027E-1,-1.0972898E-3,1.7605573E-2,2.352391E-2,-4.822909E-3,-2.2059405E-2,1.483713E-2,5.0001526E-3,3.4439318E-2,-3.0485634E-2,5.616663E-3,-1.114333E-2,2.6130888E-3,1.0343483E-2,5.0281066E-2],"categories":[],"categories_nodes":[],"categories_segments":[],"categories_sizes":[],"default_left":[1,0,1,0,1,0,0,0,0,0,0,0,1,0,0,1,0,0,0,1,0,0,1,0,0,0,0,0,0,0,0,0,0,0,0,0,0,0,0,0,0],"id":34,"left_children":[1,3,5,7,9,11,13,15,17,19,21,23,25,27,-1,29,-1,-1,-1,31,33,-1,35,-1,-1,37,39,-1,-1,-1,-1,-1,-1,-1,-1,-1,-1,-1,-1,-1,-1],"loss_changes":[8.409138E0,6.579472E0,8.371001E0,4.7913775E0,9.447103E0,1.2255033E1,7.875972E0,6.186958E0,2.7465296E0,7.5643506E0,2.4779415E0,1.6698122E0,8.103186E0,7.9286295E-1,0E0,2.089882E0,0E0,0E0,0E0,5.3865633E0,2.0411596E0,0E0,4.1149573E0,0E0,0E0,7.5893917E0,7.283985E0,0E0,0E0,0E0,0E0,0E0,0E0,0E0,0E0,0E0,0E0,0E0,0E0,0E0,0E0],"parents":[2147483647,0,0,1,1,2,2,3,3,4,4,5,5,6,6,7,7,8,8,9,9,10,10,11,11,12,12,13,13,15,15,19,19,20,20,22,22,25,25,26,26],"right_children":[2,4,6,8,10,12,14,16,18,20,22,24,26,28,-1,30,-1,-1,-1,32,34,-1,36,-1,-1,38,40,-1,-1,-1,-1,-1,-1,-1,-1,-1,-1,-1,-1,-1,-1],"split_conditions":[4E0,3E0,6.329114E-1,5.294118E-1,2.689243E0,2.2222222E-1,2.0920502E-1,2.5714285E0,6.993007E-1,2.5652175E0,4.878049E-1,1.335E0,3.1294644E0,2.8837209E0,6.0824018E-2,2.95858E-1,-2.8234024E-2,4.2185513E-3,4.0667523E-2,4.878049E-1,4.9814126E-1,-4.4059828E-2,1.22E2,-4.862621E-2,-1.7800722E-2,6E0,1.75E2,-1.0972898E-3,1.7605573E-2,2.352391E-2,-4.822909E-3,-2.2059405E-2,1.483713E-2,5.0001526E-3,3.4439318E-2,-3.0485634E-2,5.616663E-3,-1.114333E-2,2.6130888E-3,1.0343483E-2,5.0281066E-2],"split_indices":[8,8,24,15,14,22,23,14,26,14,22,0,14,14,0,23,0,0,0,26,15,0,17,0,0,16,17,0,0,0,0,0,0,0,0,0,0,0,0,0,0],"split_type":[0,0,0,0,0,0,0,0,0,0,0,0,0,0,0,0,0,0,0,0,0,0,0,0,0,0,0,0,0,0,0,0,0,0,0,0,0,0,0,0,0],"sum_hessian":[1.5401191E3,1.9680185E2,1.3433173E3,6.12556E1,1.3554625E2,1.3121578E3,3.1159426E1,4.0250244E1,2.1005354E1,7.720232E1,5.8343933E1,2.1742075E1,1.2904158E3,2.0512909E1,1.0646518E1,2.422111E1,1.6029135E1,1.0379235E1,1.062612E1,5.294499E1,2.4257324E1,2.0018404E1,3.832553E1,1.0481464E1,1.1260611E1,1.1571176E3,1.3329823E2,1.01835985E1,1.0329309E1,1.3194829E1,1.102628E1,4.094261E1,1.2002378E1,1.30239105E1,1.1233415E1,2.8184546E1,1.01409855E1,1.0979224E2,1.0473253E3,1.2144463E2,1.1853605E1],"tree_param":{"num_deleted":"0","num_feature":"30","num_nodes":"41","size_leaf_vector":"1"}},{"base_weights":[-1.514991E-3,-2.4236831E-1,1.7078118E-2,-3.2212743E-1,1.5237664E-2,-9.36247E-3,1.4518984E-1,-1.9119135E-1,-6.434445E-1,-4.0843308E-2,1.0605457E-1,4.3425322E-1,6.272391E-2,