{"learner":{"attributes":{"best_iteration":"15","best_score":"0.5437670470385904","scikit_learn":"{\"_estimator_type\": \"classifier\"}"},"feature_names":[],"feature_types":[],"gradient_booster":{"model":{"cats":{"enc":[],"feature_segments":[],"sorted_idx":[]},"gbtree_model_param":{"num_parallel_tree":"1","num_trees":"66"},"iteration_indptr":[0,1,2,3,4,5,6,7,8,9,10,11,12,13,14,15,16,17,18,19,20,21,22,23,24,25,26,27,28,29,30,31,32,33,34,35,36,37,38,39,40,41,42,43,44,45,46,47,48,49,50,51,52,53,54,55,56,57,58,59,60,61,62,63,64,65,66],"tree_info":[0,0,0,0,0,0,0,0,0,0,0,0,0,0,0,0,0,0,0,0,0,0,0,0,0,0,0,0,0,0,0,0,0,0,0,0,0,0,0,0,0,0,0,0,0,0,0,0,0,0,0,0,0,0,0,0,0,0,0,0,0,0,0,0,0,0],"trees":[{"base_weights":[-1.686195E-3,-5.8612876E-2,2.4417977E-1,-1.3889265E-1,8.942538E-2,7.453249E-1,2.1354663E-1,-4.0145103E-2,-1.26657095E-2,-9.525289E-2,1.1700268E-2,1.0189643E-1,2.944815E-2,5.209746E-2,1.6634384E-2],"categories":[],"categories_nodes":[],"categories_segments":[],"categories_sizes":[],"default_left":[1,0,0,0,0,0,0,0,0,0,0,0,0,0,0],"id":0,"left_children":[1,3,5,7,9,11,13,-1,-1,-1,-1,-1,-1,-1,-1],"loss_changes":[2.4287909E1,1.6758057E1,4.849289E0,4.3249664E0,9.987023E0,1.5497065E0,4.812664E0,0E0,0E0,0E0,0E0,0E0,0E0,0E0,0E0],"parents":[2147483647,0,0,1,1,2,2,3,3,4,4,5,5,6,6],"right_children":[2,4,6,8,10,12,14,-1,-1,-1,-1,-1,-1,-1,-1],"split_conditions":[2.872E0,1E1,2.914E0,2E0,2.238E0,1.594E0,8.96E-1,-4.0145103E-2,-1.26657095E-2,-9.525289E-2,1.1700268E-2,1.0189643E-1,2.944815E-2,5.209746E-2,1.6634384E-2],"split_indices":[6,8,6,7,6,0,2,0,0,0,0,0,0,0,0],"split_type":[0,0,0,0,0,0,0,0,0,0,0,0,0,0,0],"sum_hessian":[1.7332823E3,1.4080342E3,3.252482E2,9.1299E2,4.9504425E2,1.7391993E1,3.078562E2,6.992657E1,8.430634E2,9.144243E0,4.859E2,1.129583E1,6.0961623E0,5.1996677E1,2.5585951E2],"tree_param":{"num_deleted":"0","num_feature":"30","num_nodes":"15","size_leaf_vector":"1"}},{"base_weights":[2.0331552E-2,-1.969006E-1,1.6260329E-1,-2.526885E-1,3.2378656E-1,-1.0146775E-1,2.1385412E-1,-3.2273393E-2,9.6149545E-4,-1.1365158E-2,5.8304794E-2,-6.6706344E-2,-1.0300393E-3,4.335794E-2,1.5105022E-2],"categories":[],"categories_nodes":[],"categories_segments":[],"categories_sizes":[],"default_left":[1,1,0,1,0,0,0,0,0,0,0,0,0,0,0],"id":1,"left_children":[1,3,5,7,9,11,13,-1,-1,-1,-1,-1,-1,-1,-1],"loss_changes":[5.3555195E1,2.0003107E1,1.4191656E1,8.105869E0,6.4679465E0,8.213946E0,1.2149387E1,0E0,0E0,0E0,0E0,0E0,0E0,0E0,0E0],"parents":[2147483647,0,0,1,1,2,2,3,3,4,4,5,5,6,6],"right_children":[2,4,6,8,10,12,14,-1,-1,-1,-1,-1,-1,-1,-1],"split_conditions":[2.642857E0,1.5575E0,2.63E0,6E-2,3E0,-3.34E-1,1.472E0,-3.2273393E-2,9.6149545E-4,-1.1365158E-2,5.8304794E-2,-6.6706344E-2,-1.0300393E-3,4.335794E-2,1.5105022E-2],"split_indices":[14,1,6,5,10,5,3,0,0,0,0,0,0,0,0],"split_type":[0,0,0,0,0,0,0,0,0,0,0,0,0,0,0],"sum_hessian":[1.7308057E3,6.8480505E2,1.0460005E3,6.1899854E2,6.580655E1,1.6985242E2,8.7614813E2,5.1967413E2,9.932437E1,2.2634794E1,4.3171753E1,2.4454504E1,1.4539792E2,2.3755673E2,6.385914E2],"tree_param":{"num_deleted":"0","num_feature":"30","num_nodes":"15","size_leaf_vector":"1"}},{"base_weights":[1.37341665E-2,-1.8804117E-1,1.0539358E-1,3.2356E-2,-2.7853787E-1,6.035922E-2,4.010522E-1,-3.381201E-2,2.0396467E-2,-3.2085832E-2,2.8445758E-2,4.5521297E-3,7.9314664E-2,1.3080075E-2,5.9110425E-2],"categories":[],"categories_nodes":[],"categories_segments":[],"categories_sizes":[],"default_left":[0,0,1,1,1,1,0,0,0,0,0,0,0,0,0],"id":2,"left_children":[1,3,5,7,9,11,13,-1,-1,-1,-1,-1,-1,-1,-1],"loss_changes":[3.204693E1,1.0805071E1,1.5839232E1,8.85853E0,4.7542114E0,1.2470068E1,6.642647E0,0E0,0E0,0E0,0E0,0E0,0E0,0E0,0E0],"parents":[2147483647,0,0,1,1,2,2,3,3,4,4,5,5,6,6],"right_children":[2,4,6,8,10,12,14,-1,-1,-1,-1,-1,-1,-1,-1],"split_conditions":[2.5846155E0,1.5457143E0,6.75E-1,0E0,1.2E1,1.6E1,6E0,-3.381201E-2,2.0396467E-2,-3.2085832E-2,2.8445758E-2,4.5521297E-3,7.9314664E-2,1.3080075E-2,5.9110425E-2],"split_indices":[14,3,15,10,8,8,10,0,0,0,0,0,0,0,0],"split_type":[0,0,0,0,0,0,0,0,0,0,0,0,0,0,0],"sum_hessian":[1.7306998E3,5.402856E2,1.1904143E3,1.5745631E2,3.8282925E2,1.0341049E3,1.5630943E2,4.8910698E1,1.0854561E2,3.6819763E2,1.4631627E1,1.00907043E3,2.5034443E1,5.6129158E1,1.0018027E2],"tree_param":{"num_deleted":"0","num_feature":"30","num_nodes":"15","size_leaf_vector":"1"}},{"base_weights":[-1.9156587E-3,-1.515261E-1,1.4158802E-1,-1.3070849E-1,-9.668236E-1,1.22647434E-1,5.845552E-1,-2.0424092E-2,1.9336917E-2,-1.4110793E-1,-2.4925794E-2,3.78878E-2,9.239854E-3,-2.4734313E-2,8.943736E-2],"categories":[],"categories_nodes":[],"categories_segments":[],"categories_sizes":[],"default_left":[0,0,1,1,0,0,0,0,0,0,0,0,0,0,0],"id":3,"left_children":[1,3,5,7,9,11,13,-1,-1,-1,-1,-1,-1,-1,-1],"loss_changes":[3.7023003E1,1.4202654E1,7.3131294E0,1.5676854E1,5.1411514E0,7.049759E0,7.6275425E0,0E0,0E0,0E0,0E0,0E0,0E0,0E0,0E0],"parents":[2147483647,0,0,1,1,2,2,3,3,4,4,5,5,6,6],"right_children":[2,4,6,8,10,12,14,-1,-1,-1,-1,-1,-1,-1,-1],"split_conditions":[5.2059925E-1,5.181818E-1,6.25E-1,2.705E0,7E0,4E0,2.652E0,-2.0424092E-2,1.9336917E-2,-1.4110793E-1,-2.4925794E-2,3.78878E-2,9.239854E-3,-2.4734313E-2,8.943736E-2],"split_indices":[15,15,5,6,10,17,6,0,0,0,0,0,0,0,0],"split_type":[0,0,0,0,0,0,0,0,0,0,0,0,0,0,0],"sum_hessian":[1.7224353E3,8.432476E2,8.791877E2,8.2338385E2,1.986376E1,8.44361E2,3.4826675E1,6.89416E2,1.3396785E2,1.2824805E1,7.0389547E0,1.11981514E2,7.323795E2,8.286726E0,2.653995E1],"tree_param":{"num_deleted":"0","num_feature":"30","num_nodes":"15","size_leaf_vector":"1"}},{"base_weights":[-2.8177658E-2,-7.401016E-2,3.3545342E-1,-1.1316211E-1,2.726168E-1,4.9931583E-1,9.4811E-2,-1.7632116E-2,8.640044E-3,-3.8518183E-2,3.456665E-2,5.9953276E-2,-4.489643E-3,-1.3862358E-2,5.7089753E-2],"categories":[],"categories_nodes":[],"categories_segments":[],"categories_sizes":[],"default_left":[0,1,1,1,0,0,1,0,0,0,0,0,0,0,0],"id":4,"left_children":[1,3,5,7,9,11,13,-1,-1,-1,-1,-1,-1,-1,-1],"loss_changes":[2.8819353E1,2.0864653E1,7.585581E0,1.39952755E1,5.2136755E0,3.9353657E0,7.9570956E0,0E0,0E0,0E0,0E0,0E0,0E0,0E0,0E0],"parents":[2147483647,0,0,1,1,2,2,3,3,4,4,5,5,6,6],"right_children":[2,4,6,8,10,12,14,-1,-1,-1,-1,-1,-1,-1,-1],"split_conditions":[6.75E-1,1.2E1,-4E0,6.888889E-2,2.4736843E0,1.5E2,-1.225E-1,-1.7632116E-2,8.640044E-3,-3.8518183E-2,3.456665E-2,5.9953276E-2,-4.489643E-3,-1.3862358E-2,5.7089753E-2],"split_indices":[15,8,10,5,14,17,4,0,0,0,0,0,0,0,0],"split_type":[0,0,0,0,0,0,0,0,0,0,0,0,0,0,0],"sum_hessian":[1.7267277E3,1.5341571E3,1.9257057E2,1.3790637E3,1.5509341E2,1.1392194E2,7.8648636E1,1.0871124E3,2.9195132E2,1.1206624E1,1.438868E2,1.0203539E2,1.1886549E1,5.254154E1,2.6107096E1],"tree_param":{"num_deleted":"0","num_feature":"30","num_nodes":"15","size_leaf_vector":"1"}},{"base_weights":[2.3513518E-2,-4.7422793E-2,2.3276378E-1,-9.885201E-2,1.9654565E-1,1.7295673E-1,4.928552E-1,-4.587164E-2,-7.5758337E-3,9.962755E-2,1.7611062E-2,5.636209E-2,1.0832312E-2,-1.34776E-2,5.817047E-2],"categories":[],"categories_nodes":[],"categories_segments":[],"categories_sizes":[],"default_left":[1,1,0,0,0,0,0,0,0,0,0,0,0,0,0],"id":5,"left_children":[1,3,5,7,9,11,13,-1,-1,-1,-1,-1,-1,-1,-1],"loss_changes":[2.5999681E1,1.6436176E1,6.81262E0,9.932514E0,5.130869E0,9.135839E0,2.7522469E0,0E0,0E0,0E0,0E0,0E0,0E0,0E0,0E0],"parents":[2147483647,0,0,1,1,2,2,3,3,4,4,5,5,6,6],"right_children":[2,4,6,8,10,12,14,-1,-1,-1,-1,-1,-1,-1,-1],"split_conditions":[5.759494E-1,2.882E0,3.6666667E0,3E0,-8.8666666E-1,5.873016E-1,3.097E0,-4.587164E-2,-7.5758337E-3,9.962755E-2,1.7611062E-2,5.636209E-2,1.0832312E-2,-1.34776E-2,5.817047E-2],"split_indices":[15,6,14,7,4,15,6,0,0,0,0,0,0,0,0],"split_type":[0,0,0,0,0,0,0,0,0,0,0,0,0,0,0],"sum_hessian":[1.7498502E3,1.307409E3,4.4244122E2,1.0802782E3,2.271308E2,3.6107773E2,8.13635E1,8.254939E1,9.977288E2,8.1012945E0,2.1902951E2,5.930003E1,3.0177768E2,6.261679E0,7.510182E1],"tree_param":{"num_deleted":"0","num_feature":"30","num_nodes":"15","size_leaf_vector":"1"}},{"base_weights":[4.8541194E-3,-1.4220408E-1,1.02376595E-1,-1.8616182E-1,2.606553E-1,6.597332E-2,3.122271E-1,5.9365872E-2,-2.1472592E-2,-1.9517759E-3,6.1995633E-2,-3.710778E-2,9.201567E-3,6.771561E-2,2.4091754E-2],"categories":[],"categories_nodes":[],"categories_segments":[],"categories_sizes":[],"default_left":[1,1,0,0,1,0,0,0,0,0,0,0,0,0,0],"id":6,"left_children":[1,3,5,7,9,11,13,-1,-1,-1,-1,-1,-1,-1,-1],"loss_changes":[2.4637812E1,1.2179296E1,7.8700686E0,7.086588E0,6.076486E0,7.4407263E0,4.1029205E0,0E0,0E0,0E0,0E0,0E0,0E0,0E0,0E0],"parents":[2147483647,0,0,1,1,2,2,3,3,4,4,5,5,6,6],"right_children":[2,4,6,8,10,12,14,-1,-1,-1,-1,-1,-1,-1,-1],"split_conditions":[4.9814126E-1,1.1E1,6.75E-1,7.9285717E-1,1.13E0,2E0,7E0,5.9365872E-2,-2.1472592E-2,-1.9517759E-3,6.1995633E-2,-3.710778E-2,9.201567E-3,6.771561E-2,2.4091754E-2],"split_indices":[15,8,15,3,3,7,8,0,0,0,0,0,0,0,0],"split_type":[0,0,0,0,0,0,0,0,0,0,0,0,0,0,0],"sum_hessian":[1.7159257E3,6.8401416E2,1.0319115E3,6.1720605E2,6.6808136E1,8.804859E2,1.5142566E2,1.1651748E1,6.0555426E2,3.62326E1,3.0575535E1,4.042682E1,8.400591E2,3.0611639E1,1.20814026E2],"tree_param":{"num_deleted":"0","num_feature":"30","num_nodes":"15","size_leaf_vector":"1"}},{"base_weights":[1.975573E-2,-9.9945225E-2,1.2566078E-1,-1.3731775E-1,3.9373285E-1,-9.931426E-3,1.8041886E-1,-1.0423488E-2,-4.408649E-2,2.4993252E-2,8.19354E-2,2.4411902E-2,-1.3606447E-2,1.3391539E-2,4.407749E-2],"categories":[],"categories_nodes":[],"categories_segments":[],"categories_sizes":[],"default_left":[1,1,0,1,0,0,1,0,0,0,0,0,0,0,0],"id":7,"left_children":[1,3,5,7,9,11,13,-1,-1,-1,-1,-1,-1,-1,-1],"loss_changes":[2.2093151E1,1.5149801E1,6.8666964E0,8.278457E0,3.272729E0,7.5302215E0,8.36158E0,0E0,0E0,0E0,0E0,0E0,0E0,0E0,0E0],"parents":[2147483647,0,0,1,1,2,2,3,3,4,4,5,5,6,6],"right_children":[2,4,6,8,10,12,14,-1,-1,-1,-1,-1,-1,-1,-1],"split_conditions":[2.6969697E0,1.644E0,3.148E0,4.6E-2,1.2E1,1.17E0,-2.7777778E-2,-1.0423488E-2,-4.408649E-2,2.4993252E-2,8.19354E-2,2.4411902E-2,-1.3606447E-2,1.3391539E-2,4.407749E-2],"split_indices":[14,1,6,4,8,1,5,0,0,0,0,0,0,0,0],"split_type":[0,0,0,0,0,0,0,0,0,0,0,0,0,0,0],"sum_hessian":[1.7407924E3,8.171975E2,9.235949E2,7.603585E2,5.6838963E1,2.6592615E2,6.5766876E2,6.6621155E2,9.414694E1,4.1014423E1,1.5824541E1,8.7452446E1,1.7847371E2,5.335583E2,1.2411047E2],"tree_param":{"num_deleted":"0","num_feature":"30","num_nodes":"15","size_leaf_vector":"1"}},{"base_weights":[-1.3048009E-2,-7.120478E-2,1.4154945E-1,-9.917025E-2,1.943789E-1,-9.437873E-2,1.5784787E-1,-5.0832387E-2,-8.175558E-3,3.098636E-2,-7.663638E-2,1.3492758E-2,7.0147485E-2],"categories":[],"categories_nodes":[],"categories_segments":[],"categories_sizes":[],"default_left":[1,1,0,0,0,0,1,0,0,0,0,0,0],"id":8,"left_children":[1,3,5,7,9,-1,11,-1,-1,-1,-1,-1,-1],"loss_changes":[1.5546045E1,9.349958E0,8.048068E0,9.6261215E0,1.0748245E1,0E0,7.2168007E0,0E0,0E0,0E0,0E0,0E0,0E0],"parents":[2147483647,0,0,1,1,2,2,3,3,4,4,6,6],"right_children":[2,4,6,8,10,-1,12,-1,-1,-1,-1,-1,-1],"split_conditions":[5.686275E-1,1.69E0,2E0,-4.075E-1,2.9822063E0,-9.437873E-2,3.8E0,-5.0832387E-2,-8.175558E-3,3.098636E-2,-7.663638E-2,1.3492758E-2,7.0147485E-2],"split_indices":[15,1,16,5,14,0,6,0,0,0,0,0,0],"split_type":[0,0,0,0,0,0,0,0,0,0,0,0,0],"sum_hessian":[1.7269678E3,1.2552898E3,4.716779E2,1.1362693E3,1.1902048E2,6.5387764E0,4.6513913E2,6.280255E1,1.0734668E3,1.0829386E2,1.0726615E1,4.3889105E2,2.6248072E1],"tree_param":{"num_deleted":"0","num_feature":"30","num_nodes":"13","size_leaf_vector":"1"}},{"base_weights":[-1.8670939E-2,-6.556261E-2,1.5054724E-1,-1.2855951E-1,4.0274654E-2,-2.615905E-1,2.0113444E-1,-1.7980894E-2,3.2992918E-2,-9.1354445E-2,7.4102622E-3,6.972518E-2,-5.6099482E-2,-5.1357266E-2,2.381327E-2],"categories":[],"categories_nodes":[],"categories_segments":[],"categories_sizes":[],"default_left":[1,0,0,1,0,0,1,0,0,0,0,0,0,0,0],"id":9,"left_children":[1,3,5,7,9,11,13,-1,-1,-1,-1,-1,-1,-1,-1],"loss_changes":[1.3658633E1,8.989916E0,7.840287E0,1.48718605E1,1.3253267E1,1.0334931E1,5.15018E0,0E0,0E0,0E0,0E0,0E0,0E0,0E0,0E0],"parents":[2147483647,0,0,1,1,2,2,3,3,4,4,5,5,6,6],"right_children":[2,4,6,8,10,12,14,-1,-1,-1,-1,-1,-1,-1,-1],"split_conditions":[1E1,5.4464287E-1,-1.225E-1,2.5625E-1,4E0,-1.02E-1,2.7272728E-1,-1.7980894E-2,3.2992918E-2,-9.1354445E-2,7.4102622E-3,6.972518E-2,-5.6099482E-2,-5.1357266E-2,2.381327E-2],"split_indices":[8,15,4,5,16,5,15,0,0,0,0,0,0,0,0],"split_type":[0,0,0,0,0,0,0,0,0,0,0,0,0,0,0],"sum_hessian":[1.7190873E3,1.3465581E3,3.725292E2,8.439838E2,5.025743E2,4.0270588E1,3.322586E2,7.738338E2,7.015002E1,1.4958753E1,4.8761557E2,8.696317E0,3.1574272E1,9.79547E0,3.2246313E2],"tree_param":{"num_deleted":"0","num_feature":"30","num_nodes":"15","size_leaf_vector":"1"}},{"base_weights":[1.3439851E-2,-2.9862905E-2,1.3353601E-1,-5.0786175E-2,2.5471005E-1,3.9379737E-1,7.8585446E-2,-6.4551383E-3,5.691557E-2,4.474176E-2,5.863237E-3,-3.500631E-2,4.9528796E-2,6.035308E-3,8.992288E-2],"categories":[],"categories_nodes":[],"categories_segments":[],"categories_sizes":[],"default_left":[0,1,1,1,0,0,1,0,0,0,0,0,0,0,0],"id":10,"left_children":[1,3,5,7,9,11,13,-1,-1,-1,-1,-1,-1,-1,-1],"loss_changes":[8.985743E0,7.576026E0,6.517497E0,6.775669E0,2.846541E0,4.210925E0,6.3306828E0,0E0,0E0,0E0,0E0,0E0,0E0,0E0,0E0],"parents":[2147483647,0,0,1,1,2,2,3,3,4,4,5,5,6,6],"right_children":[2,4,6,8,10,12,14,-1,-1,-1,-1,-1,-1,-1,-1],"split_conditions":[5.759494E-1,1.8333334E0,4E0,1.4E1,2.0677779E0,2.903226E0,6.95E-1,-6.4551383E-3,5.691557E-2,4.474176E-2,5.863237E-3,-3.500631E-2,4.9528796E-2,6.035308E-3,8.992288E-2],"split_indices":[15,3,17,16,3,14,5,0,0,0,0,0,0,0,0],"split_type":[0,0,0,0,0,0,0,0,0,0,0,0,0,0,0],"sum_hessian":[1.7260963E3,1.2692114E3,4.568849E2,1.1830491E3,8.616233E1,7.857328E1,3.783116E2,1.1645317E3,1.8517359E1,4.6601818E1,3.9560513E1,6.6766233E0,7.189665E1,3.687788E2,9.532801E0],"tree_param":{"num_deleted":"0","num_feature":"30","num_nodes":"15","size_leaf_vector":"1"}},{"base_weights":[-2.9659342E-2,-7.343424E-2,1.2378659E-1,-1.4405766E-2,-2.016679E-1,2.1880351E-2,2.7786443E-1,-1.1320159E-2,1.3806636E-2,-6.894911E-2,-1.3075153E-2,-9.938936E-2,5.832686E-3,5.6880705E-2,1.4668443E-2],"categories":[],"categories_nodes":[],"categories_segments":[],"categories_sizes":[],"default_left":[1,0,0,0,1,0,0,0,0,0,0,0,0,0,0],"id":11,"left_children":[1,3,5,7,9,11,13,-1,-1,-1,-1,-1,-1,-1,-1],"loss_changes":[1.1607681E1,1.0171141E1,6.017571E0,1.2176735E1,1.481992E1,7.3122344E0,5.3990774E0,0E0,0E0,0E0,0E0,0E0,0E0,0E0,0E0],"parents":[2147483647,0,0,1,1,2,2,3,3,4,4,5,5,6,6],"right_children":[2,4,6,8,10,12,14,-1,-1,-1,-1,-1,-1,-1,-1],"split_conditions":[5.111111E-2,1.6E1,1.515E0,9E0,1E0,3E0,1.585E0,-1.1320159E-2,1.3806636E-2,-6.894911E-2,-1.3075153E-2,-9.938936E-2,5.832686E-3,5.6880705E-2,1.4668443E-2],"split_indices":[5,17,0,10,9,9,1,0,0,0,0,0,0,0,0],"split_type":[0,0,0,0,0,0,0,0,0,0,0,0,0,0,0],"sum_hessian":[1.7257311E3,1.3430956E3,3.826355E2,9.2048883E2,4.2260675E2,2.3099721E2,1.5163828E2,5.6222876E2,3.5826007E2,6.268851E1,3.5991824E2,6.770786E0,2.2422643E2,5.276184E1,9.887644E1],"tree_param":{"num_deleted":"0","num_feature":"30","num_nodes":"15","size_leaf_vector":"1"}},{"base_weights":[-3.6062638E-3,-2.1297973E-1,2.1557644E-2,-2.6887363E-1,5.420883E-1,8.627533E-3,3.7724367E-1,-4.6047237E-2,-1.9862265E-3,3.196795E-2,7.533294E-2,2.2750469E-4,4.813743E-2,7.6018296E-2,2.0303473E-2],"categories":[],"categories_nodes":[],"categories_segments":[],"categories_sizes":[],"default_left":[0,1,1,0,0,1,0,0,0,0,0,0,0,0,0],"id":12,"left_children":[1,3,5,7,9,11,13,-1,-1,-1,-1,-1,-1,-1,-1],"loss_changes":[9.115364E0,7.9798155E0,7.100525E0,7.0653305E0,3.1085324E-1,4.2875323E0,3.2603078E0,0E0,0E0,0E0,0E0,0E0,0E0,0E0,0E0],"parents":[2147483647,0,0,1,1,2,2,3,3,4,4,5,5,6,6],"right_children":[2,4,6,8,10,12,14,-1,-1,-1,-1,-1,-1,-1,-1],"split_conditions":[1E1,1.48E2,3.8195E0,3.356E0,2.882E0,1.4E1,4.0625E0,-4.6047237E-2,-1.9862265E-3,3.196795E-2,7.533294E-2,2.2750469E-4,4.813743E-2,7.6018296E-2,2.0303473E-2],"split_indices":[16,17,6,6,6,16,6,0,0,0,0,0,0,0,0],"split_type":[0,0,0,0,0,0,0,0,0,0,0,0,0,0,0],"sum_hessian":[1.7282408E3,1.8462506E2,1.5436157E3,1.7249968E2,1.2125375E1,1.490458E3,5.3157764E1,1.0404226E2,6.845742E1,6.0408335E0,6.084542E0,1.4699028E3,2.0555134E1,1.8005785E1,3.5151978E1],"tree_param":{"num_deleted":"0","num_feature":"30","num_nodes":"15","size_leaf_vector":"1"}},{"base_weights":[1.8342328E-4,-2.0492073E-2,3.4258112E-1,-2.806873E-1,-4.884993E-3,-8.308559E-2,4.935419E-1,-7.9785965E-2,-4.071954E-3,-5.335467E-3,9.969505E-3,6.007189E-2,4.4980296E-3],"categories":[],"categories_nodes":[],"categories_segments":[],"categories_sizes":[],"default_left":[1,0,0,0,1,0,1,0,0,0,0,0,0],"id":13,"left_children":[1,3,5,7,9,-1,11,-1,-1,-1,-1,-1,-1],"loss_changes":[1.2311172E1,6.6586013E0,1.7153488E1,1.0490192E1,6.880374E0,0E0,2.743639E0,0E0,0E0,0E0,0E0,0E0,0E0],"parents":[2147483647,0,0,1,1,2,2,3,3,4,4,6,6],"right_children":[2,4,6,8,10,-1,12,-1,-1,-1,-1,-1,-1],"split_conditions":[1.3E1,1.985E0,1.3044444E0,0E0,1.181E0,-8.308559E-2,3.76E0,-7.9785965E-2,-4.071954E-3,-5.335467E-3,9.969505E-3,6.007189E-2,4.4980296E-3],"split_indices":[7,6,1,10,1,0,6,0,0,0,0,0,0],"split_type":[0,0,0,0,0,0,0,0,0,0,0,0,0],"sum_hessian":[1.7370604E3,1.6390287E3,9.803169E1,9.178811E1,1.5472406E3,1.1134978E1,8.689671E1,3.0639711E1,6.1148396E1,1.060859E3,4.8638162E2,7.505032E1,1.1846385E1],"tree_param":{"num_deleted":"0","num_feature":"30","num_nodes":"13","size_leaf_vector":"1"}},{"base_weights":[1.920791E-2,-6.215049E-1,2.6066396E-2,-1.1579965E-1,5.4125777E-3,9.861655E-3,2.48167E-1,3.4566762E-4,5.6422047E-2,-2.9856248E-2,3.4639556E-2],"categories":[],"categories_nodes":[],"categories_segments":[],"categories_sizes":[],"default_left":[0,0,1,0,0,1,0,0,0,0,0],"id":14,"left_children":[1,3,5,-1,-1,7,9,-1,-1,-1,-1],"loss_changes":[7.5902395E0,5.7661853E0,6.138677E0,0E0,0E0,5.468169E0,4.786196E0,0E0,0E0,0E0,0E0],"parents":[2147483647,0,0,1,1,2,2,5,5,6,6],"right_children":[2,4,6,-1,-1,8,10,-1,-1,-1,-1],"split_conditions":[-8.15E-1,5.3608245E-1,1.3E1,-1.1579965E-1,5.4125777E-3,1.4E1,3E0,3.4566762E-4,5.6422047E-2,-2.9856248E-2,3.4639556E-2],"split_indices":[5,15,8,0,0,16,9,0,0,0,0],"split_type":[0,0,0,0,0,0,0,0,0,0,0],"sum_hessian":[1.7225978E3,1.7295033E1,1.7053027E3,9.865409E0,7.429623E0,1.5903157E3,1.1498705E2,1.5712869E3,1.9028841E1,1.4237222E1,1.0074983E2],"tree_param":{"num_deleted":"0","num_feature":"30","num_nodes":"11","size_leaf_vector":"1"}},{"base_weights":[9.1140164E-4,-2.1708753E-2,2.768037E-1,-6.037623E-2,9.40306E-2,-8.434867E-2,3.736087E-1,-1.0337335E-2,1.5110412E-2,-3.454197E-3,2.5997914E-2,2.7381714E-2,-4.223895E-2,5.944878E-2,1.9778566E-2],"categories":[],"categories_nodes":[],"categories_segments":[],"categories_sizes":[],"default_left":[1,1,0,1,0,0,0,0,0,0,0,0,0,0,0],"id":15,"left_children":[1,3,5,7,9,11,13,-1,-1,-1,-1,-1,-1,-1,-1],"loss_changes":[1.0774381E1,7.1468797E0,4.60532E0,8.853701E0,7.5804424E0,3.1289992E0,3.4715786E0,0E0,0E0,0E0,0E0,0E0,0E0,0E0,0E0],"parents":[2147483647,0,0,1,1,2,2,3,3,4,4,5,5,6,6],"right_children":[2,4,6,8,10,12,14,-1,-1,-1,-1,-1,-1,-1,-1],"split_conditions":[6.8115944E-1,1.1E-2,2E0,1E1,3.002E0,7.5438595E-1,7.8571427E-1,-1.0337335E-2,1.5110412E-2,-3.454197E-3,2.5997914E-2,2.7381714E-2,-4.223895E-2,5.944878E-2,1.9778566E-2],"split_indices":[15,5,10,8,6,15,15,0,0,0,0,0,0,0,0],"split_type":[0,0,0,0,0,0,0,0,0,0,0,0,0,0,0],"sum_hessian":[1.7244998E3,1.5946752E3,1.2982462E2,1.1956857E3,3.9898953E2,2.7470085E1,1.0235453E2,1.0129467E3,1.8273888E2,2.1677373E2,1.8221579E2,1.3201104E1,1.4268982E1,5.0775993E1,5.1578537E1],"tree_param":{"num_deleted":"0","num_feature":"30","num_nodes":"15","size_leaf_vector":"1"}},{"base_weights":[1.2058399E-3,-5.401305E-2,1.2027959E-1,-1.8149737E-1,-1.7234541E-3,4.2152304E-2,2.7390367E-1,-2.5460754E-2,1.7524103E-2,4.5119803E-2,-1.6878705E-3,4.131242E-2,-2.4242522E-3,-4.9367037E-2,3.2753263E-2],"categories":[],"categories_nodes":[],"categories_segments":[],"categories_sizes":[],"default_left":[1,0,0,1,0,0,0,0,0,0,0,0,0,0,0],"id":16,"left_children":[1,3,5,7,9,11,13,-1,-1,-1,-1,-1,-1,-1,-1],"loss_changes":[1.11902E1,7.7505274E0,6.4599156E0,6.7345886E0,4.9528995E0,8.0416355E0,4.587578E0,0E0,0E0,0E0,0E0,0E0,0E0,0E0,0E0],"parents":[2147483647,0,0,1,1,2,2,3,3,4,4,5,5,6,6],"right_children":[2,4,6,8,10,12,14,-1,-1,-1,-1,-1,-1,-1,-1],"split_conditions":[2.9056604E0,1E0,9E0,2.7977529E0,7.2E-1,2.9531772E0,4E0,-2.5460754E-2,1.7524103E-2,4.5119803E-2,-1.6878705E-3,4.131242E-2,-2.4242522E-3,-4.9367037E-2,3.2753263E-2],"split_indices":[14,10,10,14,0,14,7,0,0,0,0,0,0,0,0],"split_type":[0,0,0,0,0,0,0,0,0,0,0,0,0,0,0],"sum_hessian":[1.6999125E3,1.1617244E3,5.381881E2,3.3718402E2,8.2454034E2,3.5760062E2,1.8058748E2,2.8955862E2,4.762541E1,2.5563227E1,7.989771E2,5.5789154E1,3.0181146E2,7.2337418E0,1.7335373E2],"tree_param":{"num_deleted":"0","num_feature":"30","num_nodes":"15","size_leaf_vector":"1"}},{"base_weights":[3.1040323E-3,-9.899857E-2,6.869573E-2,-2.591438E-1,-1.5185952E-2,1.23040095E-1,-4.021704E-2,-3.2127213E-2,3.90892E-2,3.6707126E-2,-7.369471E-3,1.8823678E-2,-1.3010136E-2,-1.264627E-2,1.6318684E-2],"categories":[],"categories_nodes":[],"categories_segments":[],"categories_sizes":[],"default_left":[0,0,0,0,0,1,1,0,0,0,0,0,0,0,0],"id":17,"left_children":[1,3,5,7,9,11,13,-1,-1,-1,-1,-1,-1,-1,-1],"loss_changes":[1.1441854E1,8.96566E0,6.1616893E0,6.158416E0,8.544925E0,9.116928E0,5.273146E0,0E0,0E0,0E0,0E0,0E0,0E0,0E0,0E0],"parents":[2147483647,0,0,1,1,2,2,3,3,4,4,5,5,6,6],"right_children":[2,4,6,8,10,12,14,-1,-1,-1,-1,-1,-1,-1,-1],"split_conditions":[4.9814126E-1,2E0,1.6E1,2.6969697E0,-2.42E-1,1.491E0,1.75E2,-3.2127213E-2,3.90892E-2,3.6707126E-2,-7.369471E-3,1.8823678E-2,-1.3010136E-2,-1.264627E-2,1.6318684E-2],"split_indices":[15,10,17,14,4,1,17,0,0,0,0,0,0,0,0],"split_type":[0,0,0,0,0,0,0,0,0,0,0,0,0,0,0],"sum_hessian":[1.7064678E3,6.6726605E2,1.0392017E3,2.2852301E2,4.3874304E2,6.9318994E2,3.4601175E2,2.1459718E2,1.392583E1,5.6533638E1,3.822094E2,5.692514E2,1.2393857E2,2.4645032E2,9.9561424E1],"tree_param":{"num_deleted":"0","num_feature":"30","num_nodes":"15","size_leaf_vector":"1"}},{"base_weights":[-3.194171E-2,4.3462077E-1,-4.0662374E-2,-5.66767E-2,6.843629E-1,-5.326918E-2,2.3735388E-1,9.470777E-3,9.280947E-2,-6.319974E-3,4.923442E-2,-3.8378444E-3,4.4701528E-2],"categories":[],"categories_nodes":[],"categories_segments":[],"categories_sizes":[],"default_left":[0,0,1,0,0,1,1,0,0,0,0,0,0],"id":18,"left_children":[1,3,5,-1,7,9,11,-1,-1,-1,-1,-1,-1],"loss_changes":[7.0426407E0,8.027764E0,5.9562774E0,0E0,2.7657986E0,5.0365925E0,3.6800137E0,0E0,0E0,0E0,0E0,0E0,0E0],"parents":[2147483647,0,0,1,1,2,2,4,4,5,5,6,6],"right_children":[2,4,6,-1,8,10,12,-1,-1,-1,-1,-1,-1],"split_conditions":[-7E0,2.635E0,3.6666667E0,-5.66767E-2,2.5666666E0,1.4E1,4E0,9.470777E-3,9.280947E-2,-6.319974E-3,4.923442E-2,-3.8378444E-3,4.4701528E-2],"split_indices":[10,6,14,0,14,16,8,0,0,0,0,0,0],"split_type":[0,0,0,0,0,0,0,0,0,0,0,0,0],"sum_hessian":[1.7255732E3,3.0765335E1,1.6948079E3,6.0877995E0,2.4677536E1,1.6220629E3,7.2744995E1,6.222436E0,1.84551E1,1.6042755E3,1.7787386E1,2.9378725E1,4.3366272E1],"tree_param":{"num_deleted":"0","num_feature":"30","num_nodes":"13","size_leaf_vector":"1"}},{"base_weights":[2.095009E-2,-7.206494E-1,2.8125692E-2,-1.6121663E-2,-1.1861637E-1,-3.1324208E-2,9.0238966E-2,-1.8769918E-3,-8.31075E-2,6.8780825E-2,8.175199E-3],"categories":[],"categories_nodes":[],"categories_segments":[],"categories_sizes":[],"default_left":[0,0,0,0,0,0,0,0,0,0,0],"id":19,"left_children":[1,3,5,-1,-1,7,9,-1,-1,-1,-1],"loss_changes":[9.174341E0,3.5167341E0,6.297678E0,0E0,0E0,8.9349575E0,6.232614E0,0E0,0E0,0E0,0E0],"parents":[2147483647,0,0,1,1,2,2,5,5,6,6],"right_children":[2,4,6,-1,-1,8,10,-1,-1,-1,-1],"split_conditions":[5.72E-1,7.722222E-1,5.197368E-1,-1.6121663E-2,-1.1861637E-1,5.181818E-1,5.225225E-1,-1.8769918E-3,-8.31075E-2,6.8780825E-2,8.175199E-3],"split_indices":[2,3,15,0,0,15,15,0,0,0,0],"split_type":[0,0,0,0,0,0,0,0,0,0,0],"sum_hessian":[1.7192305E3,1.55227375E1,1.7037078E3,6.889859E0,8.632878E0,8.707707E2,8.32937E2,8.560871E2,1.4683595E1,1.8792404E1,8.1414465E2],"tree_param":{"num_deleted":"0","num_feature":"30","num_nodes":"11","size_leaf_vector":"1"}},{"base_weights":[5.1367754E-4,-3.8995864E-3,8.222118E-2,3.2241833E-1,-1.3955586E-2,4.820608E-2,-5.7979535E-2,-3.1732332E-2,1.3456969E-5],"categories":[],"categories_nodes":[],"categories_segments":[],"categories_sizes":[],"default_left":[1,0,0,1,0,0,0,0,0],"id":20,"left_children":[1,3,-1,5,7,-1,-1,-1,-1],"loss_changes":[5.8372445E0,5.605984E0,0E0,5.9790373E0,6.6171722E0,0E0,0E0,0E0,0E0],"parents":[2147483647,0,0,1,1,3,3,4,4],"right_children":[2,4,-1,6,8,-1,-1,-1,-1],"split_conditions":[2E0,7.6E-1,8.222118E-2,-3.85E-1,8.6E-1,4.820608E-2,-5.7979535E-2,-3.1732332E-2,1.3456969E-5],"split_indices":[12,1,0,4,0,0,0,0,0],"split_type":[0,0,0,0,0,0,0,0,0],"sum_hessian":[1.7147906E3,1.7060137E3,8.777039E0,5.0073174E1,1.6559404E3,4.397096E1,6.1022143E0,7.7381714E1,1.5785587E3],"tree_param":{"num_deleted":"0","num_feature":"30","num_nodes":"9","size_leaf_vector":"1"}},{"base_weights":[7.884899E-3,-9.950825E-4,4.7113693E-1,-1.8484445E-1,2.0016178E-2,7.2877425E-1,1.0587378E-1,-4.010197E-3,-6.928511E-2,-1.2906695E-3,2.1512298E-2,5.2214056E-2,8.9631066E-2,-3.4520492E-2,6.445446E-2],"categories":[],"categories_nodes":[],"categories_segments":[],"categories_sizes":[],"default_left":[1,0,0,1,1,0,1,0,0,0,0,0,0,0,0],"id":21,"left_children":[1,3,5,7,9,11,13,-1,-1,-1,-1,-1,-1,-1,-1],"loss_changes":[7.0931416E0,6.542601E0,2.9747543E0,1.1865084E1,8.8735895E0,9.197998E-2,3.3187318E0,0E0,0E0,0E0,0E0,0E0,0E0,0E0,0E0],"parents":[2147483647,0,0,1,1,2,2,3,3,4,4,5,5,6,6],"right_children":[2,4,6,8,10,12,14,-1,-1,-1,-1,-1,-1,-1,-1],"split_conditions":[1.6E1,9E0,1.6E1,5E0,1.75E-1,2.9795918E0,2.822222E-1,-4.010197E-3,-6.928511E-2,-1.2906695E-3,2.1512298E-2,5.2214056E-2,8.9631066E-2,-3.4520492E-2,6.445446E-2],"split_indices":[8,16,17,10,4,14,5,0,0,0,0,0,0,0,0],"split_type":[0,0,0,0,0,0,0,0,0,0,0,0,0,0,0],"sum_hessian":[1.7231718E3,1.691741E3,3.1430779E1,1.7271146E2,1.5190295E3,1.7847143E1,1.3583636E1,1.319856E2,4.0725864E1,1.2916472E3,2.273823E2,7.395621E0,1.0451522E1,7.4847193E0,6.0989165E0],"tree_param":{"num_deleted":"0","num_feature":"30","num_nodes":"15","size_leaf_vector":"1"}},{"base_weights":[-2.0849962E-2,7.30403E-2,-5.7492837E-2,-2.826571E-2,3.177201E-1,-4.506278E-1,-4.2152714E-2,-5.355502E-3,4.9558625E-2,-5.5689933E-3,5.1010907E-2,4.4192225E-2,-7.095728E-2,-6.2716138E-3,3.6210123E-2],"categories":[],"categories_nodes":[],"categories_segments":[],"categories_sizes":[],"default_left":[1,1,1,1,1,0,1,0,0,0,0,0,0,0,0],"id":22,"left_children":[1,3,5,7,9,11,13,-1,-1,-1,-1,-1,-1,-1,-1],"loss_changes":[5.900504E0,1.1945268E1,7.418679E0,3.7187939E0,8.4074545E0,8.859984E0,7.5734406E0,0E0,0E0,0E0,0E0,0E0,0E0,0E0,0E0],"parents":[2147483647,0,0,1,1,2,2,3,3,4,4,5,5,6,6],"right_children":[2,4,6,8,10,12,14,-1,-1,-1,-1,-1,-1,-1,-1],"split_conditions":[-7E0,7E0,3.6363637E-1,1.244E0,2.5E0,1.75E0,1E1,-5.355502E-3,4.9558625E-2,-5.5689933E-3,5.1010907E-2,4.4192225E-2,-7.095728E-2,-6.2716138E-3,3.6210123E-2],"split_indices":[10,7,15,1,14,14,16,0,0,0,0,0,0,0,0],"split_type":[0,0,0,0,0,0,0,0,0,0,0,0,0,0,0],"sum_hessian":[1.7128379E3,4.8054398E2,1.232294E3,3.404643E2,1.4007968E2,4.5212685E1,1.1870813E3,3.2680914E2,1.3655134E1,4.2609875E1,9.746981E1,8.806929E0,3.6405758E1,1.1382561E3,4.882523E1],"tree_param":{"num_deleted":"0","num_feature":"30","num_nodes":"15","size_leaf_vector":"1"}},{"base_weights":[1.6284343E-2,-1.1524707E-1,3.953222E-2,8.433799E-2,-2.1826304E-1,-1.5347788E-1,5.3082865E-2,-3.5078367E-3,7.593489E-2,-7.531663E-2,-1.5034724E-2,-5.631597E-3,-1.290714E-1,1.6610238E-3,1.7790236E-2],"categories":[],"categories_nodes":[],"categories_segments":[],"categories_sizes":[],"default_left":[0,0,0,0,0,0,1,0,0,0,0,0,0,0,0],"id":23,"left_children":[1,3,5,7,9,11,13,-1,-1,-1,-1,-1,-1,-1,-1],"loss_changes":[5.2839007E0,5.355415E0,3.847376E0,6.579274E0,6.3675737E0,1.0208666E1,5.851898E0,0E0,0E0,0E0,0E0,0E0,0E0,0E0,0E0],"parents":[2147483647,0,0,1,1,2,2,3,3,4,4,5,5,6,6],"right_children":[2,4,6,8,10,12,14,-1,-1,-1,-1,-1,-1,-1,-1],"split_conditions":[4.379845E-1,2.2307692E0,2.0453334E0,2.148148E0,3.559322E-1,1.195E0,1.356E0,-3.5078367E-3,7.593489E-2,-7.531663E-2,-1.5034724E-2,-5.631597E-3,-1.290714E-1,1.6610238E-3,1.7790236E-2],"split_indices":[15,14,6,14,15,0,2,0,0,0,0,0,0,0,0],"split_type":[0,0,0,0,0,0,0,0,0,0,0,0,0,0,0],"sum_hessian":[1.7255024E3,2.5857642E2,1.466926E3,8.809018E1,1.7048624E2,9.5554756E1,1.3713712E3,7.502587E1,1.3064314E1,2.2195808E1,1.4829042E2,8.8202805E1,7.3519473E0,1.032137E3,3.3923428E2],"tree_param":{"num_deleted":"0","num_feature":"30","num_nodes":"15","size_leaf_vector":"1"}},{"base_weights":[-9.085356E-3,-4.2608373E-2,1.0090834E-1,-3.6460508E-2,-7.7447295E-2,1.3072541E-1,-5.8930117E-1,-5.144783E-3,3.099702E-2,1.0111971E-1,1.2185845E-2,-1.2616754E-1,6.212017E-3],"categories":[],"categories_nodes":[],"categories_segments":[],"categories_sizes":[],"default_left":[1,1,1,1,0,0,0,0,0,0,0,0,0],"id":24,"left_children":[1,3,5,7,-1,9,11,-1,-1,-1,-1,-1,-1],"loss_changes":[6.313807E0,5.488202E0,8.308816E0,5.030337E0,0E0,5.06137E0,6.5075836E0,0E0,0E0,0E0,0E0,0E0,0E0],"parents":[2147483647,0,0,1,1,2,2,3,3,5,5,6,6],"right_children":[2,4,6,8,-1,10,12,-1,-1,-1,-1,-1,-1],"split_conditions":[5.759494E-1,5.735294E-1,9.5E-1,1.973E0,-7.7447295E-2,9.47E-1,1.2E1,-5.144783E-3,3.099702E-2,1.0111971E-1,1.2185845E-2,-1.2616754E-1,6.212017E-3],"split_indices":[15,15,4,1,0,3,8,0,0,0,0,0,0],"split_type":[0,0,0,0,0,0,0,0,0,0,0,0,0],"sum_hessian":[1.7101364E3,1.3111477E3,3.9898865E2,1.3005054E3,1.064228E1,3.8324313E2,1.574552E1,1.2561149E3,4.439054E1,6.4462748E0,3.7679684E2,7.782397E0,7.9631224E0],"tree_param":{"num_deleted":"0","num_feature":"30","num_nodes":"13","size_leaf_vector":"1"}},{"base_weights":[-5.5464744E-3,-1.8082494E-2,2.9271868E-1,-2.50818E-1,-4.3959864E-3,5.05938E-1,1.6359502E-1,-9.149496E-3,-9.47065E-2,3.886372E-3,-8.510203E-3,7.887888E-2,3.8579938E-3,7.5343815E-3,6.0323622E-2],"categories":[],"categories_nodes":[],"categories_segments":[],"categories_sizes":[],"default_left":[1,0,0,0,0,1,1,0,0,0,0,0,0,0,0],"id":25,"left_children":[1,3,5,7,9,11,13,-1,-1,-1,-1,-1,-1,-1,-1],"loss_changes":[6.430315E0,5.2546577E0,1.8270235E0,9.559029E0,4.8048363E0,2.7932572E0,1.6297603E0,0E0,0E0,0E0,0E0,0E0,0E0,0E0,0E0],"parents":[2147483647,0,0,1,1,2,2,3,3,4,4,5,5,6,6],"right_children":[2,4,6,8,10,12,14,-1,-1,-1,-1,-1,-1,-1,-1],"split_conditions":[3.6666667E0,1.985E0,4E0,1.2255555E0,1.7E1,9E0,1.2E1,-9.149496E-3,-9.47065E-2,3.886372E-3,-8.510203E-3,7.887888E-2,3.8579938E-3,7.5343815E-3,6.0323622E-2],"split_indices":[14,6,14,1,17,8,8,0,0,0,0,0,0,0,0],"split_type":[0,0,0,0,0,0,0,0,0,0,0,0,0,0,0],"sum_hessian":[1.7173531E3,1.6489861E3,6.836715E1,9.062391E1,1.5583622E3,2.4685774E1,4.3681377E1,7.288431E1,1.77396E1,1.0112122E3,5.4714996E2,1.6100868E1,8.584906E0,3.6434513E1,7.246864E0],"tree_param":{"num_deleted":"0","num_feature":"30","num_nodes":"15","size_leaf_vector":"1"}},{"base_weights":[2.2076885E-3,2.8214542E-2,-1.3574953E-1,4.4390395E-1,1.9122165E-2,-1.2399081E-1,-1.00500554E-1,1.2313606E-3,6.907734E-2,5.3932206E-3,-1.1190888E-2,-4.233297E-2,4.7983294E-3],"categories":[],"categories_nodes":[],"categories_segments":[],"categories_sizes":[],"default_left":[1,0,1,0,0,0,0,0,0,0,0,0,0],"id":26,"left_children":[1,3,5,7,9,-1,11,-1,-1,-1,-1,-1,-1],"loss_changes":[6.108128E0,5.405244E0,9.657804E0,2.690568E0,5.4783845E0,0E0,1.1325938E1,0E0,0E0,0E0,0E0,0E0,0E0],"parents":[2147483647,0,0,1,1,2,2,3,3,4,4,6,6],"right_children":[2,4,6,8,10,-1,12,-1,-1,-1,-1,-1,-1],"split_conditions":[6E0,-7E0,2.1034484E0,1.144E0,1.32E2,-1.2399081E-1,1.57E0,1.2313606E-3,6.907734E-2,5.3932206E-3,-1.1190888E-2,-4.233297E-2,4.7983294E-3],"split_indices":[10,10,14,0,17,0,0,0,0,0,0,0,0],"split_type":[0,0,0,0,0,0,0,0,0,0,0,0,0],"sum_hessian":[1.7003883E3,1.4313538E3,2.690346E2,2.9614258E1,1.4017395E3,7.8667336E0,2.6116788E2,9.82697E0,1.9787289E1,1.1187245E3,2.8301495E2,8.540988E1,1.7575798E2],"tree_param":{"num_deleted":"0","num_feature":"30","num_nodes":"13","size_leaf_vector":"1"}},{"base_weights":[-5.508183E-3,8.472505E-2,-9.499642E-3,-7.3533036E-2,3.7345167E-2,-4.266251E-3,-6.635658E-2,3.400928E-2,8.6301885E-4],"categories":[],"categories_nodes":[],"categories_segments":[],"categories_sizes":[],"default_left":[0,0,1,1,0,0,0,0,0],"id":27,"left_children":[1,-1,3,5,7,-1,-1,-1,-1],"loss_changes":[5.5208545E0,0E0,5.1592884E0,1.3342573E1,8.179772E0,0E0,0E0,0E0,0E0],"parents":[2147483647,0,0,2,2,3,3,4,4],"right_children":[2,-1,4,6,8,-1,-1,-1,-1],"split_conditions":[-9E0,8.472505E-2,4.9814126E-1,4.8876405E-1,5.026178E-1,-4.266251E-3,-6.635658E-2,3.400928E-2,8.6301885E-4],"split_indices":[10,0,15,15,15,0,0,0,0],"split_type":[0,0,0,0,0,0,0,0,0],"sum_hessian":[1.7256423E3,7.5840564E0,1.7180582E3,7.256198E2,9.924385E2,6.84845E2,4.0774826E1,9.24726E1,8.999659E2],"tree_param":{"num_deleted":"0","num_feature":"30","num_nodes":"9","size_leaf_vector":"1"}},{"base_weights":[2.5340594E-2,-3.5060585E-2,8.63854E-2,-1.0546732E-1,1.0486732E-1,-5.595214E-2,1.3600935E-1,-1.2442082E-1,-8.859153E-3,-3.903622E-2,1.6036578E-2,-4.7170978E-2,3.7341989E-3,1.1587346E-2,4.620588E-2],"categories":[],"categories_nodes":[],"categories_segments":[],"categories_sizes":[],"default_left":[1,1,0,0,0,0,1,0,0,0,0,0,0,0,0],"id":28,"left_children":[1,3,5,7,9,11,13,-1,-1,-1,-1,-1,-1,-1,-1],"loss_changes":[6.325676E0,8.509657E0,6.033552E0,1.3553776E1,6.253955E0,7.7918763E0,5.0991573E0,0E0,0E0,0E0,0E0,0E0,0E0,0E0,0E0],"parents":[2147483647,0,0,1,1,2,2,3,3,4,4,5,5,6,6],"right_children":[2,4,6,8,10,12,14,-1,-1,-1,-1,-1,-1,-1,-1],"split_conditions":[7E0,-3.2E-1,2.968E0,2.0225E0,4E0,4E0,1.613E0,-1.2442082E-1,-8.859153E-3,-3.903622E-2,1.6036578E-2,-4.7170978E-2,3.7341989E-3,1.1587346E-2,4.620588E-2],"split_indices":[7,5,6,6,16,9,3,0,0,0,0,0,0,0,0],"split_type":[0,0,0,0,0,0,0,0,0,0,0,0,0,0,0],"sum_hessian":[1.713766E3,8.616382E2,8.521278E2,5.7338E2,2.8825815E2,2.2025053E2,6.3187726E2,1.0793735E1,5.625863E2,2.478139E1,2.6347675E2,4.1237637E1,1.790129E2,5.7988196E2,5.199531E1],"tree_param":{"num_deleted":"0","num_feature":"30","num_nodes":"15","size_leaf_vector":"1"}},{"base_weights":[-3.6699353E-3,-1.9284233E-2,2.2428782E-1,-5.817143E-2,1.0018443E-1,-2.495053E-1,2.9484123E-1,-4.3768184E-3,-3.8863484E-2,1.259129E-2,-7.4565E-2,1.2533116E-2,-6.489805E-2,1.0290707E-1,2.4195725E-2],"categories":[],"categories_nodes":[],"categories_segments":[],"categories_sizes":[],"default_left":[1,1,0,1,0,0,0,0,0,0,0,0,0,0,0],"id":29,"left_children":[1,3,5,7,9,11,13,-1,-1,-1,-1,-1,-1,-1,-1],"loss_changes":[6.1175156E0,7.477665E0,3.7565923E0,6.353679E0,5.7342215E0,2.0247736E0,4.1691036E0,0E0,0E0,0E0,0E0,0E0,0E0,0E0,0E0],"parents":[2147483647,0,0,1,1,2,2,3,3,4,4,5,5,6,6],"right_children":[2,4,6,8,10,12,14,-1,-1,-1,-1,-1,-1,-1,-1],"split_conditions":[3.4358974E0,1.1E-2,-1.55E-1,6E-1,3.3636363E0,-5.74E-1,4E-1,-4.3768184E-3,-3.8863484E-2,1.259129E-2,-7.4565E-2,1.2533116E-2,-6.489805E-2,1.0290707E-1,2.4195725E-2],"split_indices":[14,5,4,4,14,4,4,0,0,0,0,0,0,0,0],"split_type":[0,0,0,0,0,0,0,0,0,0,0,0,0,0,0],"sum_hessian":[1.7164777E3,1.6072987E3,1.09178856E2,1.212984E3,3.9431473E2,1.3822054E1,9.53568E1,1.1498053E3,6.317876E1,3.8651944E2,7.795286E0,7.1676874E0,6.6543665E0,7.564437E0,8.7792366E1],"tree_param":{"num_deleted":"0","num_feature":"30","num_nodes":"15","size_leaf_vector":"1"}},{"base_weights":[2.0490507E-2,1.4422296E-2,5.177625E-1,-5.4530984E-1,2.0189118E-2,3.175585E-3,8.801345E-2,-2.208754E-3,-1.02789305E-1,-5.272547E-3,7.003255E-3],"categories":[],"categories_nodes":[],"categories_segments":[],"categories_sizes":[],"default_left":[1,0,0,0,0,0,0,0,0,0,0],"id":30,"left_children":[1,3,5,7,9,-1,-1,-1,-1,-1,-1],"loss_changes":[5.17392E0,5.4900413E0,3.077848E0,3.788591E0,5.326877E0,0E0,0E0,0E0,0E0,0E0,0E0],"parents":[2147483647,0,0,1,1,2,2,3,3,4,4],"right_children":[2,4,6,8,10,-1,-1,-1,-1,-1,-1],"split_conditions":[1.4E1,5.72E-1,4.7311828E-1,7.722222E-1,4.9814126E-1,3.175585E-3,8.801345E-2,-2.208754E-3,-1.02789305E-1,-5.272547E-3,7.003255E-3],"split_indices":[16,2,15,3,15,0,0,0,0,0,0],"split_type":[0,0,0,0,0,0,0,0,0,0,0],"sum_hessian":[1.7160835E3,1.6964113E3,1.9672304E1,1.634549E1,1.6800658E3,8.029133E0,1.1643171E1,7.7195296E0,8.62596E0,6.637662E2,1.01629956E3],"tree_param":{"num_deleted":"0","num_feature":"30","num_nodes":"11","size_leaf_vector":"1"}},{"base_weights":[-8.755763E-3,-2.8646797E-1,5.9518158E-3,-7.966576E-2,-7.5323E-1,1.7893435E-1,-1.4016101E-2,7.2281145E-2,-1.9199403E-2,-1.153481E-1,1.7211536E-3,1.0276033E-2,6.1386783E-2,-2.0715863E-2,1.3358184E-3],"categories":[],"categories_nodes":[],"categories_segments":[],"categories_sizes":[],"default_left":[0,1,0,1,1,0,0,0,0,0,0,0,0,0,0],"id":31,"left_children":[1,3,5,7,9,11,13,-1,-1,-1,-1,-1,-1,-1,-1],"loss_changes":[6.9299064E0,8.177069E0,5.570154E0,4.702626E0,6.6071177E0,5.4111376E0,6.919979E0,0E0,0E0,0E0,0E0,0E0,0E0,0E0,0E0],"parents":[2147483647,0,0,1,1,2,2,3,3,4,4,5,5,6,6],"right_children":[2,4,6,8,10,12,14,-1,-1,-1,-1,-1,-1,-1,-1],"split_conditions":[2E0,-8.3E-1,-5.64E-1,4.1428572E-1,2.7695E0,-6.65E-1,-1.06E-1,7.2281145E-2,-1.9199403E-2,-1.153481E-1,1.7211536E-3,1.0276033E-2,6.1386783E-2,-2.0715863E-2,1.3358184E-3],"split_indices":[7,4,4,15,6,4,4,0,0,0,0,0,0,0,0],"split_type":[0,0,0,0,0,0,0,0,0,0,0,0,0,0,0],"sum_hessian":[1.6952284E3,8.433405E1,1.6108944E3,5.925249E1,2.508156E1,1.658832E2,1.4450112E3,6.259643E0,5.2992847E1,1.7294016E1,7.7875447E0,1.3833104E2,2.7552164E1,1.8466995E2,1.2603412E3],"tree_param":{"num_deleted":"0","num_feature":"30","num_nodes":"15","size_leaf_vector":"1"}},{"base_weights":[4.3579815E-3,-6.669868E-4,9.118639E-2,3.976874E-1,-7.889801E-3,5.440232E-3,7.432782E-2,-2.4856068E-3,1.9606404E-2],"categories":[],"categories_nodes":[],"categories_segments":[],"categories_sizes":[],"default_left":[1,0,0,0,1,0,0,0,0],"id":32,"left_children":[1,3,-1,5,7,-1,-1,-1,-1],"loss_changes":[7.300789E0,4.890783E0,0E0,3.1052837E0,4.9395485E0,0E0,0E0,0E0,0E0],"parents":[2147483647,0,0,1,1,3,3,4,4],"right_children":[2,4,-1,6,8,-1,-1,-1,-1],"split_conditions":[1.8E0,-7E0,9.118639E-2,4E0,3.416E0,5.440232E-3,7.432782E-2,-2.4856068E-3,1.9606404E-2],"split_indices":[11,10,0,7,6,0,0,0,0],"split_type":[0,0,0,0,0,0,0,0,0],"sum_hessian":[1.7067563E3,1.6977273E3,9.029023E0,2.9271626E1,1.6684557E3,1.4104446E1,1.5167179E1,1.5450929E3,1.2336274E2],"tree_param":{"num_deleted":"0","num_feature":"30","num_nodes":"9","size_leaf_vector":"1"}},{"base_weights":[1.0372966E-2,-2.5518823E-1,2.3056375E-2,-1.3239516E-1,-1.1784654E-1,-8.999053E-2,5.0187867E-2,1.758625E-2,-5.1591273E-2,-7.692619E-2,-4.2844587E-3,2.5609707E-2,3.4512135E-3],"categories":[],"categories_nodes":[],"categories_segments":[],"categories_sizes":[],"default_left":[0,0,1,0,0,0,0,0,0,0,0,0,0],"id":33,"left_children":[1,3,5,7,-1,9,11,-1,-1,-1,-1,-1,-1],"loss_changes":[5.7180557E0,7.92973E0,4.971777E0,7.262248E0,0E0,9.840691E0,4.416826E0,0E0,0E0,0E0,0E0,0E0,0E0],"parents":[2147483647,0,0,1,1,2,2,3,3,5,5,6,6],"right_children":[2,4,6,8,-1,10,12,-1,-1,-1,-1,-1,-1],"split_conditions":[1.896E0,1.1075E0,4.4444445E-1,8E0,-1.1784654E-1,6E0,1.037E0,1.758625E-2,-5.1591273E-2,-7.692619E-2,-4.2844587E-3,2.5609707E-2,3.4512135E-3],"split_indices":[6,0,15,9,0,16,3,0,0,0,0,0,0],"split_type":[0,0,0,0,0,0,0,0,0,0,0,0,0],"sum_hessian":[1.6949017E3,7.6388275E1,1.6185134E3,6.77545E1,8.633772E0,3.1281445E2,1.305699E3,3.698883E1,3.0765675E1,2.189094E1,2.9092352E2,1.1094703E2,1.194752E3],"tree_param":{"num_deleted":"0","num_feature":"30","num_nodes":"13","size_leaf_vector":"1"}},{"base_weights":[1.3094315E-2,3.687974E-2,-1.1563994E-1,3.0961385E-2,8.786994E-2,-5.288607E-1,-3.3321407E-2,2.6611017E-2,1.7266829E-3,-8.776323E-2,1.4130169E-2,1.6634496E-2,-1.3757293E-2],"categories":[],"categories_nodes":[],"categories_segments":[],"categories_sizes":[],"default_left":[1,1,0,0,0,0,0,0,0,0,0,0,0],"id":34,"left_children":[1,3,5,7,-1,9,11,-1,-1,-1,-1,-1,-1],"loss_changes":[5.206706E0,6.658235E0,9.0035515E0,4.5968614E0,0E0,8.665028E0,4.0451064E0,0E0,0E0,0E0,0E0,0E0,0E0],"parents":[2147483647,0,0,1,1,2,2,3,3,5,5,6,6],"right_children":[2,4,6,8,-1,10,12,-1,-1,-1,-1,-1,-1],"split_conditions":[6E0,4.57E0,1.4E1,1.023E0,8.786994E-2,9E0,4.88E-1,2.6611017E-2,1.7266829E-3,-8.776323E-2,1.4130169E-2,1.6634496E-2,-1.3757293E-2],"split_indices":[10,6,16,3,0,10,15,0,0,0,0,0,0],"split_type":[0,0,0,0,0,0,0,0,0,0,0,0,0],"sum_hessian":[1.6980344E3,1.4338285E3,2.6420602E2,1.4241589E3,9.6694565E0,4.298854E1,2.2121748E2,8.914138E1,1.3350176E3,2.9587156E1,1.3401384E1,7.406027E1,1.471572E2],"tree_param":{"num_deleted":"0","num_feature":"30","num_nodes":"13","size_leaf_vector":"1"}},{"base_weights":[1.4485525E-2,1.01490565E-1,-2.845225E-2,7.874382E-2,5.6637955E-1,-1.0239997E-2,-3.715934E-1,7.0895455E-3,7.029503E-2,3.0777354E-2,9.277135E-2,4.394934E-3,-1.3932459E-2,-1.1699113E-1,-2.2759173E-2],"categories":[],"categories_nodes":[],"categories_segments":[],"categories_sizes":[],"default_left":[0,0,1,1,0,0,0,0,0,0,0,0,0,0,0],"id":35,"left_children":[1,3,5,7,9,11,13,-1,-1,-1,-1,-1,-1,-1,-1],"loss_changes":[6.3993154E0,5.9405828E0,7.165514E0,3.80563E0,1.9614506E0,6.7605314E0,6.3973627E0,0E0,0E0,0E0,0E0,0E0,0E0,0E0,0E0],"parents":[2147483647,0,0,1,1,2,2,3,3,4,4,5,5,6,6],"right_children":[2,4,6,8,10,12,14,-1,-1,-1,-1,-1,-1,-1,-1],"split_conditions":[1.54E0,1.93E0,1.504E0,1.4E1,2.1E1,2.1E1,1.1E1,7.0895455E-3,7.029503E-2,3.0777354E-2,9.277135E-2,4.394934E-3,-1.3932459E-2,-1.1699113E-1,-2.2759173E-2],"split_indices":[3,2,1,16,17,17,16,0,0,0,0,0,0,0,0],"split_type":[0,0,0,0,0,0,0,0,0,0,0,0,0,0,0],"sum_hessian":[1.7111963E3,5.649901E2,1.1462062E3,5.397498E2,2.5240263E1,1.0894152E3,5.6790985E1,5.2967175E2,1.0078074E1,1.4198022E1,1.1042241E1,7.6372046E2,3.2569473E2,9.103873E0,4.768711E1],"tree_param":{"num_deleted":"0","num_feature":"30","num_nodes":"15","size_leaf_vector":"1"}},{"base_weights":[1.0297456E-3,-1.2288658E-2,2.291112E-1,-1.9151187E-2,3.565406E-1,4.1005594E-1,-6.1718803E-2,2.3208616E-2,-3.0300082E-3,1.3729517E-2,6.223883E-2,3.257788E-2,9.025061E-2,1.74279E-2,-6.8116814E-2],"categories":[],"categories_nodes":[],"categories_segments":[],"categories_sizes":[],"default_left":[1,1,1,0,0,1,0,0,0,0,0,0,0,0,0],"id":36,"left_children":[1,3,5,7,9,11,13,-1,-1,-1,-1,-1,-1,-1,-1],"loss_changes":[5.202066E0,4.1024127E0,4.9973307E0,3.491769E0,1.4564021E0,2.4043732E0,4.9249105E0,0E0,0E0,0E0,0E0,0E0,0E0,0E0,0E0],"parents":[2147483647,0,0,1,1,2,2,3,3,4,4,5,5,6,6],"right_children":[2,4,6,8,10,12,14,-1,-1,-1,-1,-1,-1,-1,-1],"split_conditions":[1.3E1,4.05E0,9.76E-1,7.2E-1,7E0,9E0,1.19E2,2.3208616E-2,-3.0300082E-3,1.3729517E-2,6.223883E-2,3.257788E-2,9.025061E-2,1.74279E-2,-6.8116814E-2],"split_indices":[7,14,3,0,17,10,17,0,0,0,0,0,0,0,0],"split_type":[0,0,0,0,0,0,0,0,0,0,0,0,0,0,0],"sum_hessian":[1.7105854E3,1.6171038E3,9.348173E1,1.5884958E3,2.8607876E1,5.7374973E1,3.610675E1,5.8946346E1,1.5295496E3,1.5063434E1,1.3544442E1,4.7652145E1,9.722827E0,2.6488283E1,9.61847E0],"tree_param":{"num_deleted":"0","num_feature":"30","num_nodes":"15","size_leaf_vector":"1"}},{"base_weights":[-1.097265E-2,-2.254542E-1,-2.7769334E-3,-7.984166E-2,-4.6367046E-1,1.7290904E-1,-1.3674565E-2,9.658795E-3,-5.7315536E-2,-1.1694326E-1,3.6478676E-3,-7.612681E-2,2.6251772E-2,-1.9523961E-3,4.1632872E-2],"categories":[],"categories_nodes":[],"categories_segments":[],"categories_sizes":[],"default_left":[0,1,0,1,1,0,1,0,0,0,0,0,0,0,0],"id":37,"left_children":[1,3,5,7,9,11,13,-1,-1,-1,-1,-1,-1,-1,-1],"loss_changes":[3.0232308E0,2.1587155E0,3.1765547E0,3.206531E0,7.5391655E0,6.4706388E0,2.93139E0,0E0,0E0,0E0,0E0,0E0,0E0,0E0,0E0],"parents":[2147483647,0,0,1,1,2,2,3,3,4,4,5,5,6,6],"right_children":[2,4,6,8,10,12,14,-1,-1,-1,-1,-1,-1,-1,-1],"split_conditions":[2.9411766E-1,1.3E1,4.1428572E-1,7E0,5E0,6E0,1.7E1,9.658795E-3,-5.7315536E-2,-1.1694326E-1,3.6478676E-3,-7.612681E-2,2.6251772E-2,-1.9523961E-3,4.1632872E-2],"split_indices":[15,17,15,8,8,16,8,0,0,0,0,0,0,0,0],"split_type":[0,0,0,0,0,0,0,0,0,0,0,0,0,0,0],"sum_hessian":[1.7192216E3,6.2300896E1,1.6569207E3,3.949455E1,2.2806349E1,9.590607E1,1.5610145E3,2.9362196E1,1.0132353E1,9.511993E0,1.3294355E1,6.6509814E0,8.925508E1,1.5442625E3,1.6752165E1],"tree_param":{"num_deleted":"0","num_feature":"30","num_nodes":"15","size_leaf_vector":"1"}},{"base_weights":[-1.6815258E-3,-9.781444E-2,2.8104918E-2,-3.9885244E-1,-3.8630612E-2,1.6903612E-1,-1.7261012E-2,-1.5229558E-2,-8.5698105E-2,2.767924E-2,-9.758256E-3,1.1695096E-2,4.8980363E-2,-3.292252E-2,-4.052854E-4],"categories":[],"categories_nodes":[],"categories_segments":[],"categories_sizes":[],"default_left":[0,0,0,1,0,0,0,0,0,0,0,0,0,0,0],"id":38,"left_children":[1,3,5,7,9,11,13,-1,-1,-1,-1,-1,-1,-1,-1],"loss_changes":[4.9346423E0,7.247513E0,8.414853E0,6.814987E0,5.4121413E0,5.472439E0,3.9071667E0,0E0,0E0,0E0,0E0,0E0,0E0,0E0,0E0],"parents":[2147483647,0,0,1,1,2,2,3,3,4,4,5,5,6,6],"right_children":[2,4,6,8,10,12,14,-1,-1,-1,-1,-1,-1,-1,-1],"split_conditions":[0E0,9.85E-1,1.44E-1,-5.58E-1,1.11E0,-3.2E-2,2.58E0,-1.5229558E-2,-8.5698105E-2,2.767924E-2,-9.758256E-3,1.1695096E-2,4.8980363E-2,-3.292252E-2,-4.052854E-4],"split_indices":[10,1,4,4,0,4,6,0,0,0,0,0,0,0,0],"split_type":[0,0,0,0,0,0,0,0,0,0,0,0,0,0,0],"sum_hessian":[1.7213558E3,4.0664948E2,1.3147063E3,6.586887E1,3.407806E2,3.1948535E2,9.9522095E2,4.1174355E1,2.4694517E1,5.0737072E1,2.9004352E2,2.663766E2,5.3108753E1,4.296619E1,9.5225476E2],"tree_param":{"num_deleted":"0","num_feature":"30","num_nodes":"15","size_leaf_vector":"1"}},{"base_weights":[-2.7371936E-2,2.6563755E-1,-3.7851952E-2,-1.4352688E-1,4.4310656E-1,-4.434544E-2,2.1463408E-1,-7.741392E-2,2.5337363E-2,1.5646748E-2,7.1890496E-2,-4.346183E-3,-7.674792E-2,4.053665E-2,-2.158423E-3],"categories":[],"categories_nodes":[],"categories_segments":[],"categories_sizes":[],"default_left":[0,0,1,0,0,1,1,0,0,0,0,0,0,0,0],"id":39,"left_children":[1,3,5,7,9,11,13,-1,-1,-1,-1,-1,-1,-1,-1],"loss_changes":[5.2115736E0,4.3200736E0,2.6922202E0,4.276114E0,2.7171888E0,3.8414202E0,1.6089371E0,0E0,0E0,0E0,0E0,0E0,0E0,0E0,0E0],"parents":[2147483647,0,0,1,1,2,2,3,3,4,4,5,5,6,6],"right_children":[2,4,6,8,10,12,14,-1,-1,-1,-1,-1,-1,-1,-1],"split_conditions":[-1.21E0,2.5714285E0,8.636364E-1,0E0,7.12E-1,8.333333E-1,7E0,-7.741392E-2,2.5337363E-2,1.5646748E-2,7.1890496E-2,-4.346183E-3,-7.674792E-2,4.053665E-2,-2.158423E-3],"split_indices":[4,14,15,10,0,15,8,0,0,0,0,0,0,0,0],"split_type":[0,0,0,0,0,0,0,0,0,0,0,0,0,0,0],"sum_hessian":[1.6928954E3,5.7617844E1,1.6352776E3,1.7488472E1,4.012937E1,1.5950793E3,4.0198223E1,6.5597587E0,1.0928714E1,1.8293816E1,2.1835554E1,1.5876969E3,7.3824334E0,2.322015E1,1.6978073E1],"tree_param":{"num_deleted":"0","num_feature":"30","num_nodes":"15","size_leaf_vector":"1"}},{"base_weights":[1.5183556E-2,2.1290822E-1,4.0118224E-3,-3.1410578E-1,3.1553686E-1,1.7195353E-2,-2.2041793E-1,-7.570624E-2,1.8099874E-2,2.1128306E-2,7.822438E-2,6.380713E-4,3.0891865E-2,-1.1629807E-2,-1.1404502E-1],"categories":[],"categories_nodes":[],"categories_segments":[],"categories_sizes":[],"default_left":[0,0,1,0,0,1,0,0,0,0,0,0,0,0,0],"id":40,"left_children":[1,3,5,7,9,11,13,-1,-1,-1,-1,-1,-1,-1,-1],"loss_changes":[3.7789707E0,5.047679E0,4.798978E0,3.0722327E0,3.6374912E0,4.6776357E0,8.391869E0,0E0,0E0,0E0,0E0,0E0,0E0,0E0,0E0],"parents":[2147483647,0,0,1,1,2,2,3,3,4,4,5,5,6,6],"right_children":[2,4,6,8,10,12,14,-1,-1,-1,-1,-1,-1,-1,-1],"split_conditions":[9.63E-1,5.72E-1,1.8242857E0,1.612E0,5.5714285E-1,3.476E0,1.7155555E0,-7.570624E-2,1.8099874E-2,2.1128306E-2,7.822438E-2,6.380713E-4,3.0891865E-2,-1.1629807E-2,-1.1404502E-1],"split_indices":[3,2,1,1,15,6,3,0,0,0,0,0,0,0,0],"split_type":[0,0,0,0,0,0,0,0,0,0,0,0,0,0,0],"sum_hessian":[1.7101587E3,9.049319E1,1.6196655E3,1.4414072E1,7.607912E1,1.5306736E3,8.899198E1,7.671321E0,6.7427506E0,6.0545074E1,1.5534039E1,1.4711593E3,5.951425E1,7.966984E1,9.322144E0],"tree_param":{"num_deleted":"0","num_feature":"30","num_nodes":"15","size_leaf_vector":"1"}},{"base_weights":[5.0462605E-3,3.591015E-1,-1.1012343E-3,6.761874E-1,-1.5379832E-2,-5.8989525E-2,3.759166E-2,3.5308942E-2,9.953468E-2,-3.6040572E-3,-4.5708828E-2,5.1187123E-3,-4.5223206E-2],"categories":[],"categories_nodes":[],"categories_segments":[],"categories_sizes":[],"default_left":[0,1,0,0,0,0,1,0,0,0,0,0,0],"id":41,"left_children":[1,3,5,7,-1,9,11,-1,-1,-1,-1,-1,-1],"loss_changes":[3.7196348E0,4.752325E0,3.7665553E0,1.294487E0,0E0,6.259102E0,4.8626947E0,0E0,0E0,0E0,0E0,0E0,0E0],"parents":[2147483647,0,0,1,1,2,2,3,3,5,5,6,6],"right_children":[2,4,6,8,-1,10,12,-1,-1,-1,-1,-1,-1],"split_conditions":[-7E0,1.474E0,3E0,5E0,-1.5379832E-2,3.3636363E0,2.19E0,3.5308942E-2,9.953468E-2,-3.6040572E-3,-4.5708828E-2,5.1187123E-3,-4.5223206E-2],"split_indices":[10,2,10,8,0,14,2,0,0,0,0,0,0],"split_type":[0,0,0,0,0,0,0,0,0,0,0,0,0],"sum_hessian":[1.7077751E3,2.816632E1,1.6796089E3,1.7069344E1,1.1096977E1,6.7268414E2,1.00692474E3,8.265179E0,8.804165E0,6.307806E2,4.190356E1,9.8560297E2,2.1321766E1],"tree_param":{"num_deleted":"0","num_feature":"30","num_nodes":"13","size_leaf_vector":"1"}},{"base_weights":[3.690868E-3,9.686402E-2,-4.2259146E-2,6.69423E-1,7.994527E-2,-4.960693E-2,8.825481E-2,3.97099E-2,9.386364E-2,-8.042597E-2,1.0024528E-2,-7.691238E-3,1.6469823E-2],"categories":[],"categories_nodes":[],"categories_segments":[],"categories_sizes":[],"default_left":[1,0,1,0,0,1,0,0,0,0,0,0,0],"id":42,"left_children":[1,3,5,7,9,11,-1,-1,-1,-1,-1,-1,-1],"loss_changes":[7.302544E0,5.4035993E0,7.3423524E0,6.7597723E-1,6.498976E0,5.219479E0,0E0,0E0,0E0,0E0,0E0,0E0,0E0],"parents":[2147483647,0,0,1,1,2,2,3,3,4,4,5,5],"right_children":[2,4,6,8,10,12,-1,-1,-1,-1,-1,-1,-1],"split_conditions":[-4E0,7.6E-1,1.8E0,6E0,7.966667E-1,3.416E0,8.825481E-2,3.97099E-2,9.386364E-2,-8.042597E-2,1.0024528E-2,-7.691238E-3,1.6469823E-2],"split_indices":[10,1,11,7,0,6,0,0,0,0,0,0,0],"split_type":[0,0,0,0,0,0,0,0,0,0,0,0,0],"sum_hessian":[1.7037246E3,5.623453E2,1.1413794E3,1.5033098E1,5.473122E2,1.1327535E3,8.6258545E0,7.3870883E0,7.64601E0,8.197095E0,5.391151E2,1.02076953E3,1.11984E2],"tree_param":{"num_deleted":"0","num_feature":"30","num_nodes":"13","size_leaf_vector":"1"}},{"base_weights":[-1.543352E-3,-1.584897E-2,2.9743585E-1,-4.1138846E-2,1.22218154E-1,4.1185442E-1,4.6623547E-2,-3.5617778E-3,-7.7630185E-2,-7.31922E-2,1.5886744E-2,3.1100543E-2,6.873167E-2,-4.9130455E-2,2.439625E-2],"categories":[],"categories_nodes":[],"categories_segments":[],"categories_sizes":[],"default_left":[0,1,1,1,0,1,0,0,0,0,0,0,0,0,0],"id":43,"left_children":[1,3,5,7,9,11,13,-1,-1,-1,-1,-1,-1,-1,-1],"loss_changes":[7.3090773E0,5.699143E0,2.2201838E0,7.3063903E0,5.5686054E0,1.3072891E0,2.4685273E0,0E0,0E0,0E0,0E0,0E0,0E0,0E0,0E0],"parents":[2147483647,0,0,1,1,2,2,3,3,4,4,5,5,6,6],"right_children":[2,4,6,8,10,12,14,-1,-1,-1,-1,-1,-1,-1,-1],"split_conditions":[8.636364E-1,1.63E0,8E0,1.598E0,6.02E-1,3E0,3.42E-1,-3.5617778E-3,-7.7630185E-2,-7.31922E-2,1.5886744E-2,3.1100543E-2,6.873167E-2,-4.9130455E-2,2.439625E-2],"split_indices":[15,2,8,2,1,7,5,0,0,0,0,0,0,0,0],"split_type":[0,0,0,0,0,0,0,0,0,0,0,0,0,0,0],"sum_hessian":[1.7067911E3,1.6297571E3,7.7033966E1,1.378042E3,2.5171512E2,5.2460037E1,2.4573933E1,1.3637222E3,1.4319836E1,7.272171E0,2.4444295E2,3.6072495E1,1.6387543E1,6.087877E0,1.8486055E1],"tree_param":{"num_deleted":"0","num_feature":"30","num_nodes":"15","size_leaf_vector":"1"}},{"base_weights":[-6.5537174E-3,-1.6516015E-2,2.5395095E-1,-5.1845163E-3,-3.6911067E-1,4.5343181E-1,-2.4597877E-1,-2.1490534E-3,1.9165302E-2,-5.4759946E-2,1.5898207E-2,6.4707726E-2,-5.03396E-2,1.3973153E-2,-7.859606E-2],"categories":[],"categories_nodes":[],"categories_segments":[],"categories_sizes":[],"default_left":[1,1,1,1,0,1,0,0,0,0,0,0,0,0,0],"id":44,"left_children":[1,3,5,7,9,11,13,-1,-1,-1,-1,-1,-1,-1,-1],"loss_changes":[4.478312E0,6.6361628E0,6.450308E0,4.461105E0,3.945692E0,6.783573E0,3.5724902E0,0E0,0E0,0E0,0E0,0E0,0E0,0E0,0E0],"parents":[2147483647,0,0,1,1,2,2,3,3,4,4,5,5,6,6],"right_children":[2,4,6,8,10,12,14,-1,-1,-1,-1,-1,-1,-1,-1],"split_conditions":[1.973E0,1.958E0,4.04E0,3.116E0,9E0,1.7833333E0,1.182E0,-2.1490534E-3,1.9165302E-2,-5.4759946E-2,1.5898207E-2,6.4707726E-2,-5.03396E-2,1.3973153E-2,-7.859606E-2],"split_indices":[1,0,6,6,9,2,3,0,0,0,0,0,0,0,0],"split_type":[0,0,0,0,0,0,0,0,0,0,0,0,0,0,0],"sum_hessian":[1.7229805E3,1.6604188E3,6.2561634E1,1.6097018E3,5.0717033E1,4.4784737E1,1.7776896E1,1.4899811E3,1.1972071E2,3.9672688E1,1.104435E1,3.871471E1,6.070029E0,1.047066E1,7.3062363E0],"tree_param":{"num_deleted":"0","num_feature":"30","num_nodes":"15","size_leaf_vector":"1"}},{"base_weights":[-2.9161948E-4,-4.0959653E-2,5.9745137E-2,-1.711317E-2,-3.1462863E-1,-1.7610823E-1,8.8519536E-2,1.9962075E-3,-1.6844872E-2,-4.3127835E-3,-6.690878E-2,-3.568342E-2,2.0242186E-2,3.2360338E-2,4.76607E-3],"categories":[],"categories_nodes":[],"categories_segments":[],"categories_sizes":[],"default_left":[1,1,0,1,1,1,1,0,0,0,0,0,0,0,0],"id":45,"left_children":[1,3,5,7,9,11,13,-1,-1,-1,-1,-1,-1,-1,-1],"loss_changes":[4.1668644E0,6.634403E0,4.69285E0,4.731307E0,6.963318E0,4.4292164E0,5.7788186E0,0E0,0E0,0E0,0E0,0E0,0E0,0E0,0E0],"parents":[2147483647,0,0,1,1,2,2,3,3,4,4,5,5,6,6],"right_children":[2,4,6,8,10,12,14,-1,-1,-1,-1,-1,-1,-1,-1],"split_conditions":[-3.2E-1,-5.1E-1,4E0,5.9907836E-1,5.181818E-1,3.188E0,1E0,1.9962075E-3,-1.6844872E-2,-4.3127835E-3,-6.690878E-2,-3.568342E-2,2.0242186E-2,3.2360338E-2,4.76607E-3],"split_indices":[5,5,9,15,15,6,2,0,0,0,0,0,0,0,0],"split_type":[0,0,0,0,0,0,0,0,0,0,0,0,0,0,0],"sum_hessian":[1.7046262E3,1.0164294E3,6.8819684E2,9.359378E2,8.049156E1,7.4274574E1,6.1392224E2,7.468087E2,1.891291E2,4.3493515E1,3.6998047E1,5.188598E1,2.2388597E1,1.02983795E2,5.1093845E2],"tree_param":{"num_deleted":"0","num_feature":"30","num_nodes":"15","size_leaf_vector":"1"}},{"base_weights":[9.184855E-3,-1.0248349E-1,4.4039655E-2,-3.3134353E-1,4.0496536E-2,1.3571952E-1,-4.484117E-3,-2.8867686E-2,-1.3142717E-1,-1.91721E-2,1.3905053E-2,5.0974857E-2,9.851773E-3,-7.9568155E-2,2.9920117E-4],"categories":[],"categories_nodes":[],"categories_segments":[],"categories_sizes":[],"default_left":[0,0,0,0,1,0,0,0,0,0,0,0,0,0,0],"id":46,"left_children":[1,3,5,7,9,11,13,-1,-1,-1,-1,-1,-1,-1,-1],"loss_changes":[6.6179237E0,1.3249434E1,5.7645526E0,8.172251E0,4.97065E0,6.608123E0,4.5877414E0,0E0,0E0,0E0,0E0,0E0,0E0,0E0,0E0],"parents":[2147483647,0,0,1,1,2,2,3,3,4,4,5,5,6,6],"right_children":[2,4,6,8,10,12,14,-1,-1,-1,-1,-1,-1,-1,-1],"split_conditions":[0E0,2.984E0,4.184E0,1E1,2.555184E0,4E0,4.38E0,-2.8867686E-2,-1.3142717E-1,-1.91721E-2,1.3905053E-2,5.0974857E-2,9.851773E-3,-7.9568155E-2,2.9920117E-4],"split_indices":[10,6,6,8,14,7,6,0,0,0,0,0,0,0,0],"split_type":[0,0,0,0,0,0,0,0,0,0,0,0,0,0,0],"sum_hessian":[1.6981543E3,4.034939E2,1.2946604E3,1.54645E2,2.488489E2,4.474535E2,8.472069E2,1.4611067E2,8.534323E0,7.1831154E1,1.7701776E2,4.9162186E1,3.982913E2,7.259918E0,8.3994696E2],"tree_param":{"num_deleted":"0","num_feature":"30","num_nodes":"15","size_leaf_vector":"1"}},{"base_weights":[-1.3244408E-2,-1.2436004E-1,1.275743E-2,-3.0241773E-2,-3.1878915E-1,2.6238877E-1,-9.675014E-3,-6.506847E-3,6.46149E-2,-5.0973795E-2,-2.2723104E-3,4.307707E-2,-9.624861E-3,1.9394754E-2,-3.5940348E-3],"categories":[],"categories_nodes":[],"categories_segments":[],"categories_sizes":[],"default_left":[0,0,0,1,0,1,0,0,0,0,0,0,0,0,0],"id":47,"left_children":[1,3,5,7,9,11,13,-1,-1,-1,-1,-1,-1,-1,-1],"loss_changes":[4.9460545E0,5.9307E0,7.7736354E0,4.340571E0,4.999263E0,5.7496667E0,5.870381E0,0E0,0E0,0E0,0E0,0E0,0E0,0E0,0E0],"parents":[2147483647,0,0,1,1,2,2,3,3,4,4,5,5,6,6],"right_children":[2,4,6,8,10,12,14,-1,-1,-1,-1,-1,-1,-1,-1],"split_conditions":[4.5E-1,2.4615386E0,4.6666667E-1,1.5575E0,2.598131E0,8E0,2.2853334E0,-6.506847E-3,6.46149E-2,-5.0973795E-2,-2.2723104E-3,4.307707E-2,-9.624861E-3,1.9394754E-2,-3.5940348E-3],"split_indices":[15,14,15,1,14,9,6,0,0,0,0,0,0,0,0],"split_type":[0,0,0,0,0,0,0,0,0,0,0,0,0,0,0],"sum_hessian":[1.7103561E3,3.2362064E2,1.3867354E3,2.1884082E2,1.04779816E2,1.1345835E2,1.2732771E3,2.0960526E2,9.235568E0,6.7859024E1,3.6920784E1,8.085753E1,3.2600822E1,1.4118323E2,1.1320939E3],"tree_param":{"num_deleted":"0","num_feature":"30","num_nodes":"15","size_leaf_vector":"1"}},{"base_weights":[-1.6990168E-3,-5.5329236E-3,6.741224E-2,1.4230861E-2,-1.10217445E-1,-4.092169E-4,1.9361792E-2,-1.999547E-2,6.4211027E-3],"categories":[],"categories_nodes":[],"categories_segments":[],"categories_sizes":[],"default_left":[1,1,0,1,0,0,0,0,0],"id":48,"left_children":[1,3,-1,5,7,-1,-1,-1,-1],"loss_changes":[4.166719E0,3.5269334E0,0E0,4.336681E0,3.5768676E0,0E0,0E0,0E0,0E0],"parents":[2147483647,0,0,1,1,3,3,4,4],"right_children":[2,4,-1,6,8,-1,-1,-1,-1],"split_conditions":[1.8E0,6E0,6.741224E-2,4E0,9E0,-4.092169E-4,1.9361792E-2,-1.999547E-2,6.4211027E-3],"split_indices":[11,10,0,16,10,0,0,0,0],"split_type":[0,0,0,0,0,0,0,0,0],"sum_hessian":[1.7122385E3,1.7029291E3,9.309457E0,1.4332117E3,2.6971738E2,1.2944154E3,1.3879628E2,1.8550146E2,8.421591E1],"tree_param":{"num_deleted":"0","num_feature":"30","num_nodes":"9","size_leaf_vector":"1"}},{"base_weights":[1.4095462E-2,-1.3717021E-1,2.6879277E-2,-2.852497E-2,-7.4585193E-1,3.102829E-1,1.190066E-2,4.421472E-2,-1.163996E-2,-1.1782429E-1,-1.1149349E-2,-1.3437952E-2,4.1854903E-2,-1.4608437E-2,3.3570952E-3],"categories":[],"categories_nodes":[],"categories_segments":[],"categories_sizes":[],"default_left":[1,1,0,0,0,0,0,0,0,0,0,0,0,0,0],"id":49,"left_children":[1,3,5,7,9,11,13,-1,-1,-1,-1,-1,-1,-1,-1],"loss_changes":[3.307156E0,8.793072E0,6.6865587E0,4.123063E0,4.522952E0,2.8851E0,4.370861E0,0E0,0E0,0E0,0E0,0E0,0E0,0E0,0E0],"parents":[2147483647,0,0,1,1,2,2,3,3,4,4,5,5,6,6],"right_children":[2,4,6,8,10,12,14,-1,-1,-1,-1,-1,-1,-1,-1],"split_conditions":[3.6363637E-1,2.2631578E0,4.1884816E-1,5E0,1.3E1,-1E0,-2.91E-1,4.421472E-2,-1.163996E-2,-1.1782429E-1,-1.1149349E-2,-1.3437952E-2,4.1854903E-2,-1.4608437E-2,3.3570952E-3],"split_indices":[15,14,15,7,7,10,5,0,0,0,0,0,0,0,0],"split_type":[0,0,0,0,0,0,0,0,0,0,0,0,0,0,0],"sum_hessian":[1.7073206E3,1.3228741E2,1.5750331E3,1.1313967E2,1.9147743E1,7.807608E1,1.496957E3,1.6778421E1,9.636125E1,1.1812502E1,7.3352423E0,1.2292441E1,6.578364E1,1.7328052E2,1.3236765E3],"tree_param":{"num_deleted":"0","num_feature":"30","num_nodes":"15","size_leaf_vector":"1"}},{"base_weights":[-6.556878E-3,-1.1393659E-2,4.7729108E-1,6.7062765E-2,-4.2236812E-2,3.7571536E-3,9.898163E-2,1.8931738E-4,3.8247418E-2,-6.281008E-3,1.7672032E-2],"categories":[],"categories_nodes":[],"categories_segments":[],"categories_sizes":[],"default_left":[1,0,0,0,1,0,0,0,0,0,0],"id":50,"left_children":[1,3,5,7,9,-1,-1,-1,-1,-1,-1],"loss_changes":[3.972815E0,4.0668745E0,3.3161457E0,9.02879E0,4.1884804E0,0E0,0E0,0E0,0E0,0E0,0E0],"parents":[2147483647,0,0,1,1,2,2,3,3,4,4],"right_children":[2,4,6,8,10,-1,-1,-1,-1,-1,-1],"split_conditions":[4.487E0,4.7244096E-1,5.5714285E-1,4.6242774E-1,1.8333334E0,3.7571536E-3,9.898163E-2,1.8931738E-4,3.8247418E-2,-6.281008E-3,1.7672032E-2],"split_indices":[6,15,15,15,3,0,0,0,0,0,0],"split_type":[0,0,0,0,0,0,0,0,0,0,0],"sum_hessian":[1.694267E3,1.6784646E3,1.5802303E1,4.733131E2,1.2051515E3,8.523435E0,7.278869E0,3.875455E2,8.576762E1,1.1164225E3,8.872905E1],"tree_param":{"num_deleted":"0","num_feature":"30","num_nodes":"11","size_leaf_vector":"1"}},{"base_weights":[-3.8513772E-3,-8.743986E-3,9.391906E-2,-1.6754005E-2,2.966226E-1,-7.1185865E-2,-1.4788663E-3,5.9657726E-2,-6.384178E-2],"categories":[],"categories_nodes":[],"categories_segments":[],"categories_sizes":[],"default_left":[1,1,0,0,0,0,0,0,0],"id":51,"left_children":[1,3,-1,5,7,-1,-1,-1,-1],"loss_changes":[7.3433304E0,4.1306624E0,0E0,3.0800152E0,1.0490589E1,0E0,0E0,0E0,0E0],"parents":[2147483647,0,0,1,1,3,3,4,4],"right_children":[2,4,-1,6,8,-1,-1,-1,-1],"split_conditions":[1.8E0,1.1E1,9.391906E-2,-2.39E0,7E0,-7.1185865E-2,-1.4788663E-3,5.9657726E-2,-6.384178E-2],"split_indices":[11,16,0,4,10,0,0,0,0],"split_type":[0,0,0,0,0,0,0,0,0],"sum_hessian":[1.6940494E3,1.6857155E3,8.334056E0,1.6435488E3,4.2166515E1,6.241419E0,1.6373075E3,3.288799E1,9.278527E0],"tree_param":{"num_deleted":"0","num_feature":"30","num_nodes":"9","size_leaf_vector":"1"}},{"base_weights":[3.6936451E-3,2.6205364E-1,-9.104974E-3,-5.2987696E-3,4.4234842E-1,7.5414926E-2,-1.2601391E-2,2.3962736E-2,-8.6225465E-2,6.684943E-2,-3.730684E-2,-3.4662474E-2,-6.611124E-4],"categories":[],"categories_nodes":[],"categories_segments":[],"categories_sizes":[],"default_left":[0,0,0,0,1,0,0,0,0,0,0,0,0],"id":52,"left_children":[1,3,5,7,9,-1,11,-1,-1,-1,-1,-1,-1],"loss_changes":[5.687613E0,3.9156704E0,4.113973E0,6.4050617E0,7.307785E0,0E0,3.262663E0,0E0,0E0,0E0,0E0,0E0,0E0],"parents":[2147483647,0,0,1,1,2,2,3,3,4,4,6,6],"right_children":[2,4,6,8,10,-1,12,-1,-1,-1,-1,-1,-1],"split_conditions":[-4.9333334E-1,1.35E0,6.6E-1,2.8846154E0,1.7833333E0,7.5414926E-2,-4.1E-1,2.3962736E-2,-8.6225465E-2,6.684943E-2,-3.730684E-2,-3.4662474E-2,-6.611124E-4],"split_indices":[5,1,3,14,2,0,5,0,0,0,0,0,0],"split_type":[0,0,0,0,0,0,0,0,0,0,0,0,0],"sum_hessian":[1.7183309E3,8.018557E1,1.6381453E3,3.2686535E1,4.749903E1,6.979964E0,1.6311653E3,2.5970467E1,6.71607E0,3.8695404E1,8.803629E0,3.1754269E1,1.5994111E3],"tree_param":{"num_deleted":"0","num_feature":"30","num_nodes":"13","size_leaf_vector":"1"}},{"base_weights":[-1.6095828E-2,-1.04407325E-1,1.8891891E-2,-8.276932E-2,-8.804372E-2,-5.2377038E-2,6.579984E-2,4.7914118E-2,-1.1461264E-2,-1.0575152E-2,2.1929668E-2,2.278242E-2,2.9834786E-3],"categories":[],"categories_nodes":[],"categories_segments":[],"categories_sizes":[],"default_left":[0,0,1,0,0,1,1,0,0,0,0,0,0],"id":53,"left_children":[1,3,5,-1,7,9,11,-1,-1,-1,-1,-1,-1],"loss_changes":[5.3372545E0,5.3191404E0,4.1408253E0,0E0,5.0553336E0,5.9571066E0,4.169782E0,0E0,0E0,0E0,0E0,0E0,0E0],"parents":[2147483647,0,0,1,1,2,2,4,4,5,5,6,6],"right_children":[2,4,6,-1,8,10,12,-1,-1,-1,-1,-1,-1],"split_conditions":[6E-2,6.02E-1,6E0,-8.276932E-2,7.6E-1,2E0,-5E0,4.7914118E-2,-1.1461264E-2,-1.0575152E-2,2.1929668E-2,2.278242E-2,2.9834786E-3],"split_indices":[5,1,7,0,1,10,10,0,0,0,0,0,0],"split_type":[0,0,0,0,0,0,0,0,0,0,0,0,0],"sum_hessian":[1.7257301E3,4.8913486E2,1.2365953E3,1.0528084E1,4.7860678E2,4.9079547E2,7.457998E2,1.5929483E1,4.6267728E2,4.1597964E2,7.481583E1,1.5099509E2,5.9480475E2],"tree_param":{"num_deleted":"0","num_feature":"30","num_nodes":"13","size_leaf_vector":"1"}},{"base_weights":[2.4606753E-2,1.03010856E-1,-1.4082231E-2,1.2734632E-1,-6.41295E-1,-2.0487403E-2,8.188318E-2,6.531349E-2,1.0534251E-2,-5.313258E-3,-1.1712547E-1,-6.564636E-3,1.0597799E-2],"categories":[],"categories_nodes":[],"categories_segments":[],"categories_sizes":[],"default_left":[1,1,1,0,0,0,0,0,0,0,0,0,0],"id":54,"left_children":[1,3,5,7,9,11,-1,-1,-1,-1,-1,-1,-1],"loss_changes":[5.1722507E0,1.028569E1,5.7365465E0,7.5105667E0,4.8111196E0,5.588364E0,0E0,0E0,0E0,0E0,0E0,0E0,0E0],"parents":[2147483647,0,0,1,1,2,2,3,3,4,4,5,5],"right_children":[2,4,6,8,10,12,-1,-1,-1,-1,-1,-1,-1],"split_conditions":[-4E0,1.3E1,2E-1,2.744E0,1.27E0,9E0,8.188318E-2,6.531349E-2,1.0534251E-2,-5.313258E-3,-1.1712547E-1,-6.564636E-3,1.0597799E-2],"split_indices":[10,9,13,6,0,9,0,0,0,0,0,0,0],"split_type":[0,0,0,0,0,0,0,0,0,0,0,0,0],"sum_hessian":[1.7036359E3,5.623527E2,1.1412831E3,5.4535114E2,1.7001629E1,1.1329758E3,8.307273E0,2.9191582E1,5.1615955E2,7.893881E0,9.107748E0,8.4420703E2,2.887688E2],"tree_param":{"num_deleted":"0","num_feature":"30","num_nodes":"13","size_leaf_vector":"1"}},{"base_weights":[-1.1757619E-2,-4.1902304E-2,8.7213494E-2,-1.5675548E-2,-1.8929131E-1,-4.4650742E-1,1.2657857E-1,1.9196462E-2,-3.6710217E-3,-8.269462E-2,-1.4074831E-2,1.3389291E-2,-8.9195505E-2,4.791528E-2,8.471782E-3],"categories":[],"categories_nodes":[],"categories_segments":[],"categories_sizes":[],"default_left":[1,1,0,0,0,0,0,0,0,0,0,0,0,0,0],"id":55,"left_children":[1,3,5,7,9,11,13,-1,-1,-1,-1,-1,-1,-1,-1],"loss_changes":[5.1124344E0,5.0734835E0,8.462862E0,4.100218E0,6.5587845E0,6.284091E0,5.644851E0,0E0,0E0,0E0,0E0,0E0,0E0,0E0,0E0],"parents":[2147483647,0,0,1,1,2,2,3,3,4,4,5,5,6,6],"right_children":[2,4,6,8,10,12,14,-1,-1,-1,-1,-1,-1,-1,-1],"split_conditions":[5.759494E-1,5.4651165E-1,4E0,9.75E-1,2.6969697E0,6.0301507E-1,5.873016E-1,1.9196462E-2,-3.6710217E-3,-8.269462E-2,-1.4074831E-2,1.3389291E-2,-8.9195505E-2,4.791528E-2,8.471782E-3],"split_indices":[15,15,8,2,14,15,15,0,0,0,0,0,0,0,0],"split_type":[0,0,0,0,0,0,0,0,0,0,0,0,0,0,0],"sum_hessian":[1.7113716E3,1.3122594E3,3.9911218E2,1.1149661E3,1.9729337E2,2.670444E1,3.7240775E2,9.6730545E1,1.0182355E3,1.6456556E1,1.8083682E2,1.1098301E1,1.5606138E1,4.637531E1,3.2603244E2],"tree_param":{"num_deleted":"0","num_feature":"30","num_nodes":"15","size_leaf_vector":"1"}},{"base_weights":[-3.290831E-3,5.2353265E-3,-2.7160546E-1,-1.18999155E-2,1.9302016E-1,2.1552885E-1,-5.0569856E-1,-8.706944E-4,-7.5370565E-2,3.6935724E-2,-1.2330275E-2,-2.1693451E-2,6.285679E-2,-1.0904478E-1,-3.5469748E-2],"categories":[],"categories_nodes":[],"categories_segments":[],"categories_sizes":[],"default_left":[1,1,1,1,0,1,0,0,0,0,0,0,0,0,0],"id":56,"left_children":[1,3,5,7,9,11,13,-1,-1,-1,-1,-1,-1,-1,-1],"loss_changes":[3.9298046E0,5.3607206E0,6.141973E0,3.9575388E0,6.632508E0,2.9194431E0,2.8833265E0,0E0,0E0,0E0,0E0,0E0,0E0,0E0,0E0],"parents":[2147483647,0,0,1,1,2,2,3,3,4,4,5,5,6,6],"right_children":[2,4,6,8,10,12,14,-1,-1,-1,-1,-1,-1,-1,-1],"split_conditions":[2.18E0,1.621E0,2.7222223E0,1.60875E0,2.9565217E0,3.598E0,1E0,-8.706944E-4,-7.5370565E-2,3.6935724E-2,-1.2330275E-2,-2.1693451E-2,6.285679E-2,-1.0904478E-1,-3.5469748E-2],"split_indices":[0,1,14,1,14,6,10,0,0,0,0,0,0,0,0],"split_type":[0,0,0,0,0,0,0,0,0,0,0,0,0,0,0],"sum_hessian":[1.7161809E3,1.6642762E3,5.190474E1,1.5259692E3,1.3830704E2,1.687277E1,3.503197E1,1.518816E3,7.1530833E0,9.232133E1,4.5985718E1,8.171833E0,8.700937E0,7.5582E0,2.747377E1],"tree_param":{"num_deleted":"0","num_feature":"30","num_nodes":"15","size_leaf_vector":"1"}},{"base_weights":[5.6631137E-3,2.3217298E-1,-6.036764E-3,-5.0130904E-1,3.9609045E-1,8.416517E-2,-1.0745234E-2,-9.213643E-2,2.627432E-4,5.4319672E-2,-2.1977052E-2,-4.70359E-3,1.0498826E-2],"categories":[],"categories_nodes":[],"categories_segments":[],"categories_sizes":[],"default_left":[0,0,0,1,0,0,1,0,0,0,0,0,0],"id":57,"left_children":[1,3,5,7,9,-1,11,-1,-1,-1,-1,-1,-1],"loss_changes":[4.5170145E0,1.0263619E1,6.0789757E0,2.8764205E0,4.809968E0,0E0,5.87879E0,0E0,0E0,0E0,0E0,0E0,0E0],"parents":[2147483647,0,0,1,1,2,2,3,3,4,4,6,6],"right_children":[2,4,6,8,10,-1,12,-1,-1,-1,-1,-1,-1],"split_conditions":[-4.825E-1,3E0,6.6E-1,2.602E0,3.0857143E0,8.416517E-2,5.759494E-1,-9.213643E-2,2.627432E-4,5.4319672E-2,-2.1977052E-2,-4.70359E-3,1.0498826E-2],"split_indices":[5,7,3,6,14,0,15,0,0,0,0,0,0],"split_type":[0,0,0,0,0,0,0,0,0,0,0,0,0],"sum_hessian":[1.7029163E3,8.271466E1,1.6202017E3,1.4732554E1,6.798211E1,8.55557E0,1.611646E3,8.150297E0,6.5822573E0,5.734899E1,1.0633118E1,1.234944E3,3.7670203E2],"tree_param":{"num_deleted":"0","num_feature":"30","num_nodes":"13","size_leaf_vector":"1"}},{"base_weights":[-1.6529998E-3,-7.517369E-2,1.8459016E-3,-1.0278181E-1,2.4800226E-2,-5.759553E-3,-6.985868E-2,4.3249797E-2,3.764239E-4],"categories":[],"categories_nodes":[],"categories_segments":[],"categories_sizes":[],"default_left":[0,0,0,0,0,0,0,0,0],"id":58,"left_children":[1,-1,3,5,7,-1,-1,-1,-1],"loss_changes":[4.15605E0,0E0,4.0400696E0,8.117519E0,1.1170728E1,0E0,0E0,0E0,0E0],"parents":[2147483647,0,0,2,2,3,3,4,4],"right_children":[2,-1,4,6,8,-1,-1,-1,-1],"split_conditions":[3.6E0,-7.517369E-2,1.162E0,4.6E-2,1.264E0,-5.759553E-3,-6.985868E-2,4.3249797E-2,3.764239E-4],"split_indices":[11,0,0,4,0,0,0,0,0],"split_type":[0,0,0,0,0,0,0,0,0],"sum_hessian":[1.6875004E3,7.361827E0,1.6801385E3,3.0166174E2,1.3784768E3,2.7819147E2,2.347026E1,7.1977036E1,1.3064998E3],"tree_param":{"num_deleted":"0","num_feature":"30","num_nodes":"9","size_leaf_vector":"1"}},{"base_weights":[1.2873567E-2,-3.649534E-1,2.0129777E-2,2.4900086E-2,-5.3791827E-1,4.7751486E-1,1.4552295E-2,-3.167482E-4,-8.288089E-2,3.1953404E-4,8.4114894E-2,-6.6697806E-2,1.9164789E-3],"categories":[],"categories_nodes":[],"categories_segments":[],"categories_sizes":[],"default_left":[0,0,0,0,0,0,0,0,0,0,0,0,0],"id":59,"left_children":[1,3,5,-1,7,9,11,-1,-1,-1,-1,-1,-1],"loss_changes":[4.7335167E0,3.4933524E0,4.3103127E0,0E0,3.2669988E0,3.0040607E0,3.6714585E0,0E0,0E0,0E0,0E0,0E0,0E0],"parents":[2147483647,0,0,1,1,2,2,4,4,5,5,6,6],"right_children":[2,4,6,-1,8,10,12,-1,-1,-1,-1,-1,-1],"split_conditions":[6.32E-1,6.8E-1,-1.682E0,2.4900086E-2,2E0,5.1E-1,-1.452E0,-3.167482E-4,-8.288089E-2,3.1953404E-4,8.4114894E-2,-6.6697806E-2,1.9164789E-3],"split_indices":[2,3,4,0,10,0,4,0,0,0,0,0,0],"split_type":[0,0,0,0,0,0,0,0,0,0,0,0,0],"sum_hessian":[1.7228777E3,3.1535702E1,1.691342E3,6.9924717E0,2.454323E1,1.9356844E1,1.6719852E3,7.897652E0,1.6645578E1,8.067087E0,1.1289757E1,7.9170823E0,1.6640681E3],"tree_param":{"num_deleted":"0","num_feature":"30","num_nodes":"13","size_leaf_vector":"1"}},{"base_weights":[1.2912572E-3,3.1044599E-2,-7.395322E-2,2.6283648E-2,6.3656636E-2,1.0882361E-1,-1.3261858E-1,1.5553088E-3,2.6690979E-2,7.022733E-2,4.904435E-3,-2.9954191E-2,-2.7001768E-3],"categories":[],"categories_nodes":[],"categories_segments":[],"categories_sizes":[],"default_left":[0,1,1,1,0,0,0,0,0,0,0,0,0],"id":60,"left_children":[1,3,5,7,-1,9,11,-1,-1,-1,-1,-1,-1],"loss_changes":[3.8650212E0,3.3172894E0,5.2601433E0,3.2142146E0,0E0,4.0944586E0,5.8917165E0,0E0,0E0,0E0,0E0,0E0,0E0],"parents":[2147483647,0,0,1,1,2,2,3,3,5,5,6,6],"right_children":[2,4,6,8,-1,10,12,-1,-1,-1,-1,-1,-1],"split_conditions":[1E1,4.658E0,4.4827586E-1,3.4358974E0,6.3656636E-2,5E0,2.8E0,1.5553088E-3,2.6690979E-2,7.022733E-2,4.904435E-3,-2.9954191E-2,-2.7001768E-3],"split_indices":[9,6,15,14,0,8,14,0,0,0,0,0,0],"split_type":[0,0,0,0,0,0,0,0,0,0,0,0,0],"sum_hessian":[1.7243748E3,1.2361578E3,4.8821692E2,1.2268818E3,9.276E0,1.18418655E2,3.6979825E2,1.1669948E3,5.9887074E1,1.1175017E1,1.0724364E2,1.5458238E2,2.1521588E2],"tree_param":{"num_deleted":"0","num_feature":"30","num_nodes":"13","size_leaf_vector":"1"}},{"base_weights":[7.8050303E-3,-6.2418852E-2,4.2610034E-2,-1.7385384E-1,2.6349062E-2,2.8932953E-1,1.5806051E-2,-2.2481969E-2,5.2680448E-2,4.8035312E-2,-1.0201184E-3,-3.212226E-2,3.9842457E-2,-2.4915626E-3,1.3979253E-2],"categories":[],"categories_nodes":[],"categories_segments":[],"categories_sizes":[],"default_left":[0,0,0,0,0,0,1,0,0,0,0,0,0,0,0],"id":61,"left_children":[1,3,5,7,9,11,13,-1,-1,-1,-1,-1,-1,-1,-1],"loss_changes":[4.169284E0,5.5967484E0,7.5370207E0,6.2946424E0,4.810169E0,5.671419E0,4.6526036E0,0E0,0E0,0E0,0E0,0E0,0E0,0E0,0E0],"parents":[2147483647,0,0,1,1,2,2,3,3,4,4,5,5,6,6],"right_children":[2,4,6,8,10,12,14,-1,-1,-1,-1,-1,-1,-1,-1],"split_conditions":[6E0,5.5E-1,1.2125E0,6.75E-1,5E0,-4.1E-1,5.759494E-1,-2.2481969E-2,5.2680448E-2,4.8035312E-2,-1.0201184E-3,-3.212226E-2,3.9842457E-2,-2.4915626E-3,1.3979253E-2],"split_indices":[9,5,2,15,7,5,15,0,0,0,0,0,0,0,0],"split_type":[0,0,0,0,0,0,0,0,0,0,0,0,0,0,0],"sum_hessian":[1.7037388E3,5.643307E2,1.1394082E3,2.4979343E2,3.1453726E2,1.1069672E2,1.0287114E3,2.3734247E2,1.2450961E1,2.3656824E1,2.9088043E2,1.3502933E1,9.719378E1,7.6841437E2,2.602971E2],"tree_param":{"num_deleted":"0","num_feature":"30","num_nodes":"15","size_leaf_vector":"1"}},{"base_weights":[-7.7162404E-3,-1.5981806E-2,4.299227E-1,4.8022203E-2,-5.2385066E-2,1.256431E-1,6.993479E-1,2.0461926E-2,-2.0303214E-3,-3.991532E-3,-5.3588446E-2,4.704385E-2,-1.4273727E-2,3.9050255E-2,9.986593E-2],"categories":[],"categories_nodes":[],"categories_segments":[],"categories_sizes":[],"default_left":[1,0,1,1,1,0,0,0,0,0,0,0,0,0,0],"id":62,"left_children":[1,3,5,7,9,11,13,-1,-1,-1,-1,-1,-1,-1,-1],"loss_changes":[6.1514792E0,3.8891912E0,2.4964232E0,5.8429155E0,7.142908E0,1.3707805E0,9.6052074E-1,0E0,0E0,0E0,0E0,0E0,0E0,0E0,0E0],"parents":[2147483647,0,0,1,1,2,2,3,3,4,4,5,5,6,6],"right_children":[2,4,6,8,10,12,14,-1,-1,-1,-1,-1,-1,-1,-1],"split_conditions":[7.5555557E-1,1.81E0,2.635E0,4.8407644E-1,-4.28E-1,-2.3333333E-1,5.506329E-1,2.0461926E-2,-2.0303214E-3,-3.991532E-3,-5.3588446E-2,4.704385E-2,-1.4273727E-2,3.9050255E-2,9.986593E-2],"split_indices":[5,2,6,15,4,4,15,0,0,0,0,0,0,0,0],"split_type":[0,0,0,0,0,0,0,0,0,0,0,0,0,0,0],"sum_hessian":[1.6976567E3,1.6671335E3,3.0523207E1,6.043136E2,1.06282E3,1.5023039E1,1.5500168E1,1.9155418E2,4.127594E2,1.0296888E3,3.313105E1,6.4640136E0,8.559025E0,7.5023007E0,7.9978676E0],"tree_param":{"num_deleted":"0","num_feature":"30","num_nodes":"15","size_leaf_vector":"1"}},{"base_weights":[1.35540785E-2,3.8603917E-2,-1.1489982E-1,-2.5935283E-1,4.5934178E-2,-1.5196031E-1,5.2121526E-1,-6.9395326E-2,7.7084345E-3,4.286794E-3,5.9609946E-2,4.3048907E-2,-1.9451566E-2,9.177061E-2,2.1163885E-2],"categories":[],"categories_nodes":[],"categories_segments":[],"categories_sizes":[],"default_left":[0,0,1,0,1,0,0,0,0,0,0,0,0,0,0],"id":63,"left_children":[1,3,5,7,9,11,13,-1,-1,-1,-1,-1,-1,-1,-1],"loss_changes":[5.4672875E0,3.116452E0,6.6164393E0,4.496356E0,4.0630217E0,4.5182576E0,1.5258899E0,0E0,0E0,0E0,0E0,0E0,0E0,0E0,0E0],"parents":[2147483647,0,0,1,1,2,2,3,3,4,4,5,5,6,6],"right_children":[2,4,6,8,10,12,14,-1,-1,-1,-1,-1,-1,-1,-1],"split_conditions":[1.5E2,7.02E-1,1.8333334E0,1.3933333E0,1.4E1,9.175E-1,1.981E0,-6.9395326E-2,7.7084345E-3,4.286794E-3,5.9609946E-2,4.3048907E-2,-1.9451566E-2,9.177061E-2,2.1163885E-2],"split_indices":[17,2,3,1,16,3,3,0,0,0,0,0,0,0,0],"split_type":[0,0,0,0,0,0,0,0,0,0,0,0,0,0,0],"sum_hessian":[1.6967244E3,1.420426E3,2.7629828E2,3.32804E1,1.3871456E3,2.6180637E2,1.4491905E1,1.4824052E1,1.8456347E1,1.3728724E3,1.4273222E1,1.2960183E1,2.4884619E2,6.2524614E0,8.239444E0],"tree_param":{"num_deleted":"0","num_feature":"30","num_nodes":"15","size_leaf_vector":"1"}},{"base_weights":[-1.0472441E-2,2.4229985E-2,-7.460656E-2,4.8126336E-2,-1.8925269E-1,-1.3603792E-1,9.788739E-2,3.4412127E-3,4.5410275E-2,-1.0172585E-1,-1.3772138E-2,2.8935656E-2,-1.7244471E-2,2.5855426E-2,-1.49307E-2],"categories":[],"categories_nodes":[],"categories_segments":[],"categories_sizes":[],"default_left":[0,1,1,1,0,0,0,0,0,0,0,0,0,0,0],"id":64,"left_children":[1,3,5,7,9,11,13,-1,-1,-1,-1,-1,-1,-1,-1],"loss_changes":[3.7847986E0,5.639638E0,6.339924E0,5.9360805E0,4.9929547E0,4.6510096E0,5.445941E0,0E0,0E0,0E0,0E0,0E0,0E0,0E0,0E0],"parents":[2147483647,0,0,1,1,2,2,3,3,4,4,5,5,6,6],"right_children":[2,4,6,8,10,12,14,-1,-1,-1,-1,-1,-1,-1,-1],"split_conditions":[1.6E1,1.63E0,1.81E2,1.51E0,2.6575E0,-8.45E-1,6E0,3.4412127E-3,4.5410275E-2,-1.0172585E-1,-1.3772138E-2,2.8935656E-2,-1.7244471E-2,2.5855426E-2,-1.49307E-2],"split_indices":[17,0,17,0,6,4,10,0,0,0,0,0,0,0,0],"split_type":[0,0,0,0,0,0,0,0,0,0,0,0,0,0,0],"sum_hessian":[1.698755E3,1.1027101E3,5.9604486E2,9.923996E2,1.1031047E2,4.396728E2,1.5637209E2,9.5345245E2,3.8947147E1,6.9561806E0,1.03354294E2,2.5490366E1,4.141824E2,9.7254524E1,5.9117558E1],"tree_param":{"num_deleted":"0","num_feature":"30","num_nodes":"15","size_leaf_vector":"1"}},{"base_weights":[-2.6400859E-2,-3.0014386E-2,6.177239E-2,-6.7640096E-2,1.7175786E-2,-5.55829E-3,-4.011999E-2,4.4186143E-3,-6.063043E-2],"categories":[],"categories_nodes":[],"categories_segments":[],"categories_sizes":[],"default_left":[1,1,0,1,1,0,0,0,0],"id":65,"left_children":[1,3,-1,5,7,-1,-1,-1,-1],"loss_changes":[3.7593358E0,3.0207355E0,0E0,4.512618E0,1.0753765E1,0E0,0E0,0E0,0E0],"parents":[2147483647,0,0,1,1,3,3,4,4],"right_children":[2,4,-1,6,8,-1,-1,-1,-1],"split_conditions":[1.8E1,1E0,6.177239E-2,1.79E0,1.981E0,-5.55829E-3,-4.011999E-2,4.4186143E-3,-6.063043E-2],"split_indices":[8,10,0,0,3,0,0,0,0],"split_type":[0,0,0,0,0,0,0,0,0],"sum_hessian":[1.7088186E3,1.6996283E3,9.190274E0,9.4540436E2,7.5422394E2,9.0124396E2,4.4160435E1,7.251216E2,2.9102346E1],"tree_param":{"num_deleted":"0","num_feature":"30","num_nodes":"9","size_leaf_vector":"1"}}]},"name":"gbtree"},"learner_model_param":{"base_score":"[7.658968E-1]","boost_from_average":"1","num_class":"0","num_feature":"30","num_target":"1"},"objective":{"name":"binary:logistic","reg_loss_param":{"scale_pos_weight":"1"}}},"version":[3,2,0]}