{"learner":{"attributes":{"scikit_learn":"{\"_estimator_type\": \"classifier\"}"},"feature_names":[],"feature_types":[],"gradient_booster":{"model":{"cats":{"enc":[],"feature_segments":[],"sorted_idx":[]},"gbtree_model_param":{"num_parallel_tree":"1","num_trees":"206"},"iteration_indptr":[0,1,2,3,4,5,6,7,8,9,10,11,12,13,14,15,16,17,18,19,20,21,22,23,24,25,26,27,28,29,30,31,32,33,34,35,36,37,38,39,40,41,42,43,44,45,46,47,48,49,50,51,52,53,54,55,56,57,58,59,60,61,62,63,64,65,66,67,68,69,70,71,72,73,74,75,76,77,78,79,80,81,82,83,84,85,86,87,88,89,90,91,92,93,94,95,96,97,98,99,100,101,102,103,104,105,106,107,108,109,110,111,112,113,114,115,116,117,118,119,120,121,122,123,124,125,126,127,128,129,130,131,132,133,134,135,136,137,138,139,140,141,142,143,144,145,146,147,148,149,150,151,152,153,154,155,156,157,158,159,160,161,162,163,164,165,166,167,168,169,170,171,172,173,174,175,176,177,178,179,180,181,182,183,184,185,186,187,188,189,190,191,192,193,194,195,196,197,198,199,200,201,202,203,204,205,206],"tree_info":[0,0,0,0,0,0,0,0,0,0,0,0,0,0,0,0,0,0,0,0,0,0,0,0,0,0,0,0,0,0,0,0,0,0,0,0,0,0,0,0,0,0,0,0,0,0,0,0,0,0,0,0,0,0,0,0,0,0,0,0,0,0,0,0,0,0,0,0,0,0,0,0,0,0,0,0,0,0,0,0,0,0,0,0,0,0,0,0,0,0,0,0,0,0,0,0,0,0,0,0,0,0,0,0,0,0,0,0,0,0,0,0,0,0,0,0,0,0,0,0,0,0,0,0,0,0,0,0,0,0,0,0,0,0,0,0,0,0,0,0,0,0,0,0,0,0,0,0,0,0,0,0,0,0,0,0,0,0,0,0,0,0,0,0,0,0,0,0,0,0,0,0,0,0,0,0,0,0,0,0,0,0,0,0,0,0,0,0,0,0,0,0,0,0,0,0,0,0,0,0,0,0,0,0,0,0],"trees":[{"base_weights":[-2.258305E-3,-4.0814143E-2,3.716959E-1,-6.775724E-2,2.8646618E-1,1.8723047E-1,6.4857656E-1,-1.4350249E-2,-2.6863328E-1,4.8829946E-3,4.6330866E-1,5.4544044E-1,3.0011907E-2,-5.748563E-1,7.5843734E-1,3.5564945E-4,-1.9738916E-3,-1.6009029E-4,-4.969036E-3,3.1612816E-3,-5.8881785E-3,-9.052881E-3,7.379776E-3,-8.850242E-3,9.129669E-3,-4.3633176E-4,1.0317126E-2,7.6949853E-3,-1.7380552E-2,-7.3950514E-3,1.1360733E-2],"categories":[],"categories_nodes":[],"categories_segments":[],"categories_sizes":[],"default_left":[0,0,0,0,0,0,0,0,0,0,0,0,0,0,0,0,0,0,0,0,0,0,0,0,0,0,0,0,0,0,0],"id":0,"left_children":[1,3,5,7,9,11,13,15,17,19,21,23,25,27,29,-1,-1,-1,-1,-1,-1,-1,-1,-1,-1,-1,-1,-1,-1,-1,-1],"loss_changes":[3.588332E1,1.9913557E1,1.1759441E1,2.2367645E1,8.552445E0,7.9250765E0,1.2882645E1,8.225759E0,9.507185E0,6.351309E0,7.4635315E0,5.615177E0,4.2718525E0,6.745263E0,5.770794E0,0E0,0E0,0E0,0E0,0E0,0E0,0E0,0E0,0E0,0E0,0E0,0E0,0E0,0E0,0E0,0E0],"parents":[2147483647,0,0,1,1,2,2,3,3,4,4,5,5,6,6,7,7,8,8,9,9,10,10,11,11,12,12,13,13,14,14],"right_children":[2,4,6,8,10,12,14,16,18,20,22,24,26,28,30,-1,-1,-1,-1,-1,-1,-1,-1,-1,-1,-1,-1,-1,-1,-1,-1],"split_conditions":[1.964129E0,5.204031E0,4.1795315E1,2.4479611E-1,1.2371062E0,4.5826554E-2,8.769154E-1,2.777778E-1,2.2222222E-1,6.666667E-1,3.5E-1,6E-1,6.045792E0,5.3927517E0,3.0769232E-1,3.5564945E-4,-1.9738916E-3,-1.6009029E-4,-4.969036E-3,3.1612816E-3,-5.8881785E-3,-9.052881E-3,7.379776E-3,-8.850242E-3,9.129669E-3,-4.3633176E-4,1.0317126E-2,7.6949853E-3,-1.7380552E-2,-7.3950514E-3,1.1360733E-2],"split_indices":[4,9,11,30,2,31,3,14,13,19,17,12,8,8,19,0,0,0,0,0,0,0,0,0,0,0,0,0,0,0,0],"split_type":[0,0,0,0,0,0,0,0,0,0,0,0,0,0,0,0,0,0,0,0,0,0,0,0,0,0,0,0,0,0,0],"sum_hessian":[2.4867139E3,2.2550972E3,2.3161664E2,2.0843015E3,1.7079555E2,1.4001263E2,9.160401E1,1.6473827E3,4.3691885E2,6.628258E1,1.0451298E2,4.195414E1,9.8058495E1,7.199231E0,8.440478E1,1.2536592E3,3.9372348E2,1.0823672E2,3.2868213E2,4.3940136E1,2.2342442E1,4.964987E0,9.954799E1,2.9789922E0,3.8975147E1,9.110751E1,6.950982E0,2.730743E0,4.468488E0,2.730743E0,8.1674034E1],"tree_param":{"num_deleted":"0","num_feature":"32","num_nodes":"31","size_leaf_vector":"1"}},{"base_weights":[-1.8152469E-3,-8.417429E-2,2.8394246E-1,-1.7862703E-3,-3.096513E-1,6.551655E-1,2.0824066E-1,-4.16801E-2,2.5129575E-1,-3.7262923E-1,1.1725735E-1,7.613785E-1,3.314717E-1,5.933784E-2,3.7650195E-1,-1.3245337E-2,-4.6751273E-4,2.370778E-3,1.2847895E-2,-1.5021716E-3,-6.6410396E-3,-5.227707E-3,5.167609E-3,3.4274792E-3,1.225861E-2,-8.934881E-3,9.611343E-3,-6.81255E-3,2.3226591E-3,2.2437903E-3,7.6305633E-3],"categories":[],"categories_nodes":[],"categories_segments":[],"categories_sizes":[],"default_left":[0,0,0,0,0,0,0,0,0,0,0,0,0,0,0,0,0,0,0,0,0,0,0,0,0,0,0,0,0,0,0],"id":1,"left_children":[1,3,5,7,9,11,13,15,17,19,21,23,25,27,29,-1,-1,-1,-1,-1,-1,-1,-1,-1,-1,-1,-1,-1,-1,-1,-1],"loss_changes":[5.8851994E1,3.6059536E1,1.558601E1,1.4374513E1,1.401004E1,2.9896889E0,1.1657425E1,9.3294E0,1.047197E1,1.1899864E1,8.385208E0,3.7745361E0,8.946649E0,1.4351374E1,7.777359E0,0E0,0E0,0E0,0E0,0E0,0E0,0E0,0E0,0E0,0E0,0E0,0E0,0E0,0E0,0E0,0E0],"parents":[2147483647,0,0,1,1,2,2,3,3,4,4,5,5,6,6,7,7,8,8,9,9,10,10,11,11,12,12,13,13,14,14],"right_children":[2,4,6,8,10,12,14,16,18,20,22,24,26,28,30,-1,-1,-1,-1,-1,-1,-1,-1,-1,-1,-1,-1,-1,-1,-1,-1],"split_conditions":[1.6878462E0,2.382106E-1,8.0376506E-2,1.8515346E0,1.6842407E0,2.2222222E-1,1.3737187E0,1.8782502E-2,1.8862231E0,2.2222222E-1,2.7499258E1,2.631579E-1,9.048615E-1,1.5384616E-1,4.500363E1,-1.3245337E-2,-4.6751273E-4,2.370778E-3,1.2847895E-2,-1.5021716E-3,-6.6410396E-3,-5.227707E-3,5.167609E-3,3.4274792E-3,1.225861E-2,-8.934881E-3,9.611343E-3,-6.81255E-3,2.3226591E-3,2.2437903E-3,7.6305633E-3],"split_indices":[0,30,30,5,5,15,5,31,2,13,11,14,2,14,10,0,0,0,0,0,0,0,0,0,0,0,0,0,0,0,0],"split_type":[0,0,0,0,0,0,0,0,0,0,0,0,0,0,0,0,0,0,0,0,0,0,0,0,0,0,0,0,0,0,0],"sum_hessian":[2.498629E3,1.9401562E3,5.5847253E2,1.4216876E3,5.184687E2,9.329961E1,4.6517294E2,1.2288213E3,1.9286627E2,4.5192715E2,6.654155E1,6.923086E1,2.4068754E1,2.4750027E2,2.1767268E2,1.0426749E1,1.2183945E3,1.7251671E2,2.0349571E1,1.23381546E2,3.285456E2,2.2350073E1,4.419148E1,1.2657211E1,5.6573643E1,6.2038655E0,1.786489E1,3.9718555E1,2.0778172E2,9.506542E1,1.22607254E2],"tree_param":{"num_deleted":"0","num_feature":"32","num_nodes":"31","size_leaf_vector":"1"}},{"base_weights":[-2.3659198E-3,-7.942012E-2,3.0575013E-1,-1.989091E-3,-3.0025285E-1,1.9685051E-1,5.2876335E-1,-4.1521415E-2,2.4975936E-1,-3.560264E-1,2.1716878E-1,2.379954E-1,-5.483773E-1,3.2291374E-1,7.703148E-1,3.861679E-4,-2.2207096E-3,6.841897E-3,3.6927714E-4,-5.7265307E-3,-5.0560164E-4,8.116037E-3,-1.5210037E-3,2.981104E-3,1.1862314E-2,-2.1215307E-2,-2.6696767E-3,1.5122449E-3,9.699355E-3,1.1965827E-2,3.287377E-4],"categories":[],"categories_nodes":[],"categories_segments":[],"categories_sizes":[],"default_left":[0,0,0,0,0,0,0,0,0,0,0,0,0,0,0,0,0,0,0,0,0,0,0,0,0,0,0,0,0,0,0],"id":2,"left_children":[1,3,5,7,9,11,13,15,17,19,21,23,25,27,29,-1,-1,-1,-1,-1,-1,-1,-1,-1,-1,-1,-1,-1,-1,-1,-1],"loss_changes":[5.9068546E1,3.403085E1,1.1983719E1,1.4685456E1,1.4987522E1,1.043357E1,7.841709E0,1.0228912E1,1.0568112E1,7.583626E0,6.0128746E0,4.8754387E0,5.865905E0,6.9940405E0,4.403763E0,0E0,0E0,0E0,0E0,0E0,0E0,0E0,0E0,0E0,0E0,0E0,0E0,0E0,0E0,0E0,0E0],"parents":[2147483647,0,0,1,1,2,2,3,3,4,4,5,5,6,6,7,7,8,8,9,9,10,10,11,11,12,12,13,13,14,14],"right_children":[2,4,6,8,10,12,14,16,18,20,22,24,26,28,30,-1,-1,-1,-1,-1,-1,-1,-1,-1,-1,-1,-1,-1,-1,-1,-1],"split_conditions":[1.7562462E0,2.382106E-1,2.081945E0,2E0,4.944546E0,8.8235295E-1,2.5169523E0,5.102374E-1,7.3333335E-1,1.3328831E0,3.5160288E-1,5.9E1,1.9649084E0,2.6441386E0,5.6870506E1,3.861679E-4,-2.2207096E-3,6.841897E-3,3.6927714E-4,-5.7265307E-3,-5.0560164E-4,8.116037E-3,-1.5210037E-3,2.981104E-3,1.1862314E-2,-2.1215307E-2,-2.6696767E-3,1.5122449E-3,9.699355E-3,1.1965827E-2,3.287377E-4],"split_indices":[0,30,4,1,9,16,9,29,13,4,29,11,0,4,11,0,0,0,0,0,0,0,0,0,0,0,0,0,0,0,0],"split_type":[0,0,0,0,0,0,0,0,0,0,0,0,0,0,0,0,0,0,0,0,0,0,0,0,0,0,0,0,0,0,0],"sum_hessian":[2.4859502E3,1.9892238E3,4.9672635E2,1.4735566E3,5.156671E2,3.350169E2,1.6170946E2,1.2742888E3,1.9926784E2,4.657728E2,4.9894325E1,3.1813303E2,1.6883856E1,8.856844E1,7.314101E1,8.003454E2,4.739434E2,9.627956E1,1.0298829E2,4.0168744E2,6.408536E1,2.3332102E1,2.6562222E1,3.0622702E2,1.1906029E1,3.724234E0,1.3159621E1,5.657676E1,3.1991678E1,6.595028E1,7.1907344E0],"tree_param":{"num_deleted":"0","num_feature":"32","num_nodes":"31","size_leaf_vector":"1"}},{"base_weights":[-1.7067418E-2,-8.988624E-2,2.3375309E-1,-1.514546E-1,1.9744524E-1,1.3914396E-1,4.5504916E-1,-4.644767E-2,-2.578825E-1,6.671344E-2,4.2480034E-1,2.6028445E-1,-8.4464066E-2,7.4905133E-1,2.8157037E-1,-1.1092897E-3,5.6866026E-3,-5.7969894E-3,-2.4168827E-3,1.6634045E-3,-7.6402817E-3,4.9244985E-3,1.48904435E-2,2.2761405E-3,8.429474E-3,-2.3056543E-3,4.534865E-3,1.4692079E-2,7.237828E-3,-7.991978E-3,5.4754266E-3],"categories":[],"categories_nodes":[],"categories_segments":[],"categories_sizes":[],"default_left":[0,0,0,0,0,0,0,0,0,0,0,0,0,0,0,0,0,0,0,0,0,0,0,0,0,0,0,0,0,0,0],"id":3,"left_children":[1,3,5,7,9,11,13,15,17,19,21,23,25,27,29,-1,-1,-1,-1,-1,-1,-1,-1,-1,-1,-1,-1,-1,-1,-1,-1],"loss_changes":[4.5484455E1,3.4169685E1,1.1668356E1,1.7755695E1,1.0106478E1,1.0693789E1,8.325695E0,1.1719177E1,1.040316E1,6.894336E0,5.525385E0,8.440226E0,4.5447783E0,3.721264E0,9.976065E0,0E0,0E0,0E0,0E0,0E0,0E0,0E0,0E0,0E0,0E0,0E0,0E0,0E0,0E0,0E0,0E0],"parents":[2147483647,0,0,1,1,2,2,3,3,4,4,5,5,6,6,7,7,8,8,9,9,10,10,11,11,12,12,13,13,14,14],"right_children":[2,4,6,8,10,12,14,16,18,20,22,24,26,28,30,-1,-1,-1,-1,-1,-1,-1,-1,-1,-1,-1,-1,-1,-1,-1,-1],"split_conditions":[1.6878462E0,1.6842407E0,4.353808E0,8.3333336E-2,4.6153846E-1,2.2222222E-1,4.8197923E0,1.6907E0,4.5E-1,5.625E-1,2.6960416E0,4.9634314E0,2.3991847E0,4.608267E1,1.4144782E0,-1.1092897E-3,5.6866026E-3,-5.7969894E-3,-2.4168827E-3,1.6634045E-3,-7.6402817E-3,4.9244985E-3,1.48904435E-2,2.2761405E-3,8.429474E-3,-2.3056543E-3,4.534865E-3,1.4692079E-2,7.237828E-3,-7.991978E-3,5.4754266E-3],"split_indices":[0,5,9,14,18,15,9,3,18,16,1,8,0,11,5,0,0,0,0,0,0,0,0,0,0,0,0,0,0,0,0],"split_type":[0,0,0,0,0,0,0,0,0,0,0,0,0,0,0,0,0,0,0,0,0,0,0,0,0,0,0,0,0,0,0],"sum_hessian":[2.488176E3,1.9288339E3,5.5934216E2,1.588853E3,3.3998083E2,3.9296808E2,1.6637408E2,8.0048865E2,7.8836444E2,2.1668048E2,1.2330034E2,2.5477744E2,1.3819064E2,6.0508984E1,1.05865105E2,7.475964E2,5.2892265E1,2.8147177E2,5.0689267E2,2.0055128E2,1.6129198E1,1.116453E2,1.1655038E1,1.984864E2,5.6291027E1,1.1612725E2,2.2063395E1,2.5296349E1,3.5212635E1,1.1408645E1,9.445646E1],"tree_param":{"num_deleted":"0","num_feature":"32","num_nodes":"31","size_leaf_vector":"1"}},{"base_weights":[-3.9583305E-3,-7.4408896E-2,2.9343453E-1,-1.046337E-1,3.4725636E-1,2.2793299E-1,7.497455E-1,-4.016735E-2,-3.1581992E-1,-8.1044845E-2,5.566183E-1,2.6154694E-1,-4.5975628E-1,9.233771E-1,-4.1136656E-2,-2.2991602E-3,3.130938E-4,-6.108538E-4,-5.2836537E-3,2.5167326E-3,-7.1332417E-3,5.2580116E-3,1.1891586E-2,1.820384E-3,5.2963127E-3,-1.0993409E-2,9.308361E-3,-3.616411E-3,1.4250561E-2,8.522094E-3,-1.2468303E-2],"categories":[],"categories_nodes":[],"categories_segments":[],"categories_sizes":[],"default_left":[0,0,0,0,0,0,0,0,0,0,0,0,0,0,0,0,0,0,0,0,0,0,0,0,0,0,0,0,0,0,0],"id":4,"left_children":[1,3,5,7,9,11,13,15,17,19,21,23,25,27,29,-1,-1,-1,-1,-1,-1,-1,-1,-1,-1,-1,-1,-1,-1,-1,-1],"loss_changes":[5.2184692E1,2.5699913E1,1.4087296E1,2.5578896E1,1.2143E1,9.796419E0,8.200985E0,1.10853195E1,7.1180344E0,5.088415E0,4.4727325E0,6.0161514E0,7.675042E0,5.3936768E0,6.9049654E0,0E0,0E0,0E0,0E0,0E0,0E0,0E0,0E0,0E0,0E0,0E0,0E0,0E0,0E0,0E0,0E0],"parents":[2147483647,0,0,1,1,2,2,3,3,4,4,5,5,6,6,7,7,8,8,9,9,10,10,11,11,12,12,13,13,14,14],"right_children":[2,4,6,8,10,12,14,16,18,20,22,24,26,28,30,-1,-1,-1,-1,-1,-1,-1,-1,-1,-1,-1,-1,-1,-1,-1,-1],"split_conditions":[1.7785307E0,5.204031E0,2.6902924E0,2.4479611E-1,4.5E-1,8.947368E-1,1.3198227E-1,2.5597808E-1,1.3333334E-1,4.5454547E-1,2.0059755E0,1.1534462E0,2.081945E0,1.5E-1,9.2955387E-1,-2.2991602E-3,3.130938E-4,-6.108538E-4,-5.2836537E-3,2.5167326E-3,-7.1332417E-3,5.2580116E-3,1.1891586E-2,1.820384E-3,5.2963127E-3,-1.0993409E-2,9.308361E-3,-3.616411E-3,1.4250561E-2,8.522094E-3,-1.2468303E-2],"split_indices":[0,9,0,30,18,16,31,31,13,16,5,3,4,14,3,0,0,0,0,0,0,0,0,0,0,0,0,0,0,0,0],"split_type":[0,0,0,0,0,0,0,0,0,0,0,0,0,0,0,0,0,0,0,0,0,0,0,0,0,0,0,0,0,0,0],"sum_hessian":[2.4886958E3,2.012659E3,4.760369E2,1.8787433E3,1.3391573E2,4.175927E2,5.844419E1,1.440277E3,4.384663E2,4.4169353E1,8.974637E1,3.9872296E2,1.8869732E1,4.778571E1,1.0658483E1,4.8377637E2,9.565006E2,7.90106E1,3.5945572E2,2.7789186E1,1.6380169E1,5.629997E1,3.34464E1,1.8627136E2,2.1245161E2,1.4901799E1,3.9679322E0,3.2235775E0,4.456213E1,6.1975727E0,4.46091E0],"tree_param":{"num_deleted":"0","num_feature":"32","num_nodes":"31","size_leaf_vector":"1"}},{"base_weights":[2.1218106E-3,-1.01006545E-1,1.8154453E-1,-2.8458681E-2,-3.1784412E-1,1.207487E-1,5.083157E-1,-2.4687977E-1,5.7858834E-3,-3.4374586E-1,8.484162E-1,1.1412939E-2,3.24386E-1,5.8719474E-1,-5.0953142E-2,-1.4607398E-3,-7.3303534E-3,2.3513695E-4,-1.2052886E-2,-5.3869933E-3,2.0324641E-3,1.6397085E-2,3.0886107E-3,-1.3324617E-4,9.806457E-3,-1.3815318E-2,5.1408075E-3,5.47851E-3,1.2089095E-2,-5.6335446E-3,1.1359044E-2],"categories":[],"categories_nodes":[],"categories_segments":[],"categories_sizes":[],"default_left":[0,0,0,0,0,0,0,0,0,0,0,0,0,0,0,0,0,0,0,0,0,0,0,0,0,0,0,0,0,0,0],"id":5,"left_children":[1,3,5,7,9,11,13,15,17,19,21,23,25,27,29,-1,-1,-1,-1,-1,-1,-1,-1,-1,-1,-1,-1,-1,-1,-1,-1],"loss_changes":[4.6278385E1,2.4975185E1,1.8073694E1,8.9108925E0,1.2316273E1,1.7161852E1,6.3331757E0,6.275378E0,9.7189045E0,7.4841766E0,1.5240631E0,7.2000217E0,1.4735043E1,6.405739E0,5.892434E0,0E0,0E0,0E0,0E0,0E0,0E0,0E0,0E0,0E0,0E0,0E0,0E0,0E0,0E0,0E0,0E0],"parents":[2147483647,0,0,1,1,2,2,3,3,4,4,5,5,6,6,7,7,8,8,9,9,10,10,11,11,12,12,13,13,14,14],"right_children":[2,4,6,8,10,12,14,16,18,20,22,24,26,28,30,-1,-1,-1,-1,-1,-1,-1,-1,-1,-1,-1,-1,-1,-1,-1,-1],"split_conditions":[1.3328831E0,2.4479611E-1,2.1228023E0,1.6577628E-1,5.906915E0,1.5372539E0,2.1061E0,4E-1,8.125E-1,3.7281772E-1,4.117647E-1,2.3991847E0,3.0769232E-1,1.0741076E0,1.1599308E0,-1.4607398E-3,-7.3303534E-3,2.3513695E-4,-1.2052886E-2,-5.3869933E-3,2.0324641E-3,1.6397085E-2,3.0886107E-3,-1.3324617E-4,9.806457E-3,-1.3815318E-2,5.1408075E-3,5.47851E-3,1.2089095E-2,-5.6335446E-3,1.1359044E-2],"split_indices":[4,30,4,31,9,1,1,13,18,30,16,0,17,1,2,0,0,0,0,0,0,0,0,0,0,0,0,0,0,0,0],"split_type":[0,0,0,0,0,0,0,0,0,0,0,0,0,0,0,0,0,0,0,0,0,0,0,0,0,0,0,0,0,0,0],"sum_hessian":[2.499061E3,1.5872059E3,9.118551E2,1.1901469E3,3.9705902E2,7.699714E2,1.4188376E2,1.6046275E2,1.0296841E3,3.8912216E2,7.936842E0,5.0167236E2,2.6829898E2,1.24302284E2,1.7581478E1,1.0631248E2,5.4150276E1,1.0177727E3,1.1911461E1,3.605279E2,2.8594276E1,4.7123227E0,3.2245195E0,4.8779706E2,1.3875295E1,7.44436E0,2.6085464E2,7.3326355E1,5.0975933E1,1.2873823E1,4.7076554E0],"tree_param":{"num_deleted":"0","num_feature":"32","num_nodes":"31","size_leaf_vector":"1"}},{"base_weights":[5.125852E-4,-9.774241E-2,1.9426444E-1,-2.6969217E-2,-3.1225148E-1,1.4168742E-1,5.58565E-1,1.950115E-2,-2.4998857E-1,-3.7217075E-1,1.4560735E-1,4.7383737E-2,3.0222648E-1,6.697733E-1,1.1044211E-1,-2.147914E-4,3.45236E-3,-4.0784446E-3,1.669239E-2,-1.7850414E-3,-6.0381363E-3,-5.5525163E-3,6.9731004E-3,-4.9442938E-3,1.6877557E-3,8.924391E-3,3.0912927E-3,6.469325E-3,1.4221809E-2,-2.1457719E-3,1.1920423E-2],"categories":[],"categories_nodes":[],"categories_segments":[],"categories_sizes":[],"default_left":[0,0,0,0,0,0,0,0,0,0,0,0,0,0,0,0,0,0,0,0,0,0,0,0,0,0,0,0,0,0,0],"id":6,"left_children":[1,3,5,7,9,11,13,15,17,19,21,23,25,27,29,-1,-1,-1,-1,-1,-1,-1,-1,-1,-1,-1,-1,-1,-1,-1,-1],"loss_changes":[4.721005E1,2.4972141E1,1.5903584E1,1.2838852E1,1.1250607E1,1.1045627E1,5.1537437E0,8.054936E0,1.2549728E1,4.9829063E0,9.255498E0,1.3384754E1,7.2647095E0,5.537998E0,4.3995705E0,0E0,0E0,0E0,0E0,0E0,0E0,0E0,0E0,0E0,0E0,0E0,0E0,0E0,0E0,0E0,0E0],"parents":[2147483647,0,0,1,1,2,2,3,3,4,4,5,5,6,6,7,7,8,8,9,9,10,10,11,11,12,12,13,13,14,14],"right_children":[2,4,6,8,10,12,14,16,18,20,22,24,26,28,30,-1,-1,-1,-1,-1,-1,-1,-1,-1,-1,-1,-1,-1,-1,-1,-1],"split_conditions":[1.3853568E0,2.4479611E-1,2.3991847E0,2.5E-1,1.7076606E0,1.5145769E0,1.4523971E-1,1.8606905E0,2.6960416E0,2.3529412E-1,3.7983738E1,4.5454547E-1,4.1666666E-1,5.529131E0,4.5454547E-1,-2.147914E-4,3.45236E-3,-4.0784446E-3,1.669239E-2,-1.7850414E-3,-6.0381363E-3,-5.5525163E-3,6.9731004E-3,-4.9442938E-3,1.6877557E-3,8.924391E-3,3.0912927E-3,6.469325E-3,1.4221809E-2,-2.1457719E-3,1.1920423E-2],"split_indices":[4,30,0,14,5,1,30,5,1,17,11,18,13,8,14,0,0,0,0,0,0,0,0,0,0,0,0,0,0,0,0],"split_type":[0,0,0,0,0,0,0,0,0,0,0,0,0,0,0,0,0,0,0,0,0,0,0,0,0,0,0,0,0,0,0],"sum_hessian":[2.4779014E3,1.6444614E3,8.334399E2,1.2373478E3,4.0711365E2,7.2953937E2,1.03900536E2,1.0247367E3,2.1261104E2,3.6016638E2,4.6947254E1,4.6039172E2,2.6914764E2,8.2846375E1,2.1054161E1,8.8882874E2,1.3590799E2,2.0765512E2,4.955906E0,6.836368E1,2.918027E2,1.8404638E1,2.8542618E1,7.027605E1,3.9011566E2,5.2300533E1,2.1684712E2,5.269708E1,3.01493E1,1.6100187E1,4.9539742E0],"tree_param":{"num_deleted":"0","num_feature":"32","num_nodes":"31","size_leaf_vector":"1"}},{"base_weights":[7.320766E-3,-9.538056E-2,1.8672636E-1,4.1173287E-3,-2.4389009E-1,4.3824485E-1,1.244416E-1,-3.5199206E-2,2.8567728E-1,-3.1246993E-1,3.3011105E-2,3.1014383E-1,7.32385E-1,-6.410563E-3,2.582085E-1,-4.699092E-3,-7.9307516E-5,4.524135E-3,-1.3704361E-2,-4.223008E-3,-1.9825526E-2,-2.5996265E-3,7.868658E-3,4.841294E-3,-1.4025061E-2,1.1767549E-2,-4.8602554E-3,-6.364899E-4,8.268147E-3,-6.651207E-3,4.0941187E-3],"categories":[],"categories_nodes":[],"categories_segments":[],"categories_sizes":[],"default_left":[0,0,0,0,0,0,0,0,0,0,0,0,0,0,0,0,0,0,0,0,0,0,0,0,0,0,0,0,0,0,0],"id":7,"left_children":[1,3,5,7,9,11,13,15,17,19,21,23,25,27,29,-1,-1,-1,-1,-1,-1,-1,-1,-1,-1,-1,-1,-1,-1,-1,-1],"loss_changes":[4.618024E1,2.3554071E1,1.4239391E1,1.058705E1,1.2154289E1,6.581791E0,1.2827048E1,7.4092126E0,5.591893E0,6.555668E0,1.4746444E1,5.985338E0,6.3347473E0,8.586801E0,8.792654E0,0E0,0E0,0E0,0E0,0E0,0E0,0E0,0E0,0E0,0E0,0E0,0E0,0E0,0E0,0E0,0E0],"parents":[2147483647,0,0,1,1,2,2,3,3,4,4,5,5,6,6,7,7,8,8,9,9,10,10,11,11,12,12,13,13,14,14],"right_children":[2,4,6,8,10,12,14,16,18,20,22,24,26,28,30,-1,-1,-1,-1,-1,-1,-1,-1,-1,-1,-1,-1,-1,-1,-1,-1],"split_conditions":[1.3328831E0,1E-1,1.0571881E-1,1.4384462E0,4.439464E-1,2.462354E0,1.329174E0,3.0160445E-1,8.5191864E-1,1.329996E0,1.8515346E0,4.375E-1,7.3333335E-1,5.1243176E1,3.5E-1,-4.699092E-3,-7.9307516E-5,4.524135E-3,-1.3704361E-2,-4.223008E-3,-1.9825526E-2,-2.5996265E-3,7.868658E-3,4.841294E-3,-1.4025061E-2,1.1767549E-2,-4.8602554E-3,-6.364899E-4,8.268147E-3,-6.651207E-3,4.0941187E-3],"split_indices":[4,14,30,3,31,0,5,31,29,4,5,15,16,11,17,0,0,0,0,0,0,0,0,0,0,0,0,0,0,0,0],"split_type":[0,0,0,0,0,0,0,0,0,0,0,0,0,0,0,0,0,0,0,0,0,0,0,0,0,0,0,0,0,0,0],"sum_hessian":[2.5043977E3,1.5929668E3,9.114308E2,9.5446796E2,6.3849884E2,1.7970589E2,7.317249E2,8.382862E2,1.16181816E2,5.1165045E2,1.268484E2,1.266172E2,5.3088673E1,3.703737E2,3.6135123E2,7.457576E1,7.637104E2,1.1369727E2,2.484542E0,5.0717853E2,4.471896E0,9.01768E1,3.6671593E1,1.2413912E2,2.478088E0,4.863247E1,4.4562025E0,3.485198E2,2.1853857E1,1.489384E1,3.464574E2],"tree_param":{"num_deleted":"0","num_feature":"32","num_nodes":"31","size_leaf_vector":"1"}},{"base_weights":[3.8988877E-3,-5.040531E-2,3.0483717E-1,-9.7970165E-2,1.6680959E-1,2.325018E-1,7.0275855E-1,-3.9139256E-2,-3.170803E-1,-2.3515475E-1,2.4137892E-1,6.2027723E-2,3.9103457E-1,8.276836E-1,-3.8185805E-1,-3.5938987E-4,-6.283217E-3,-5.052076E-3,1.7494512E-3,7.486128E-3,-7.5303996E-3,2.7900755E-3,1.0618152E-2,-1.7176202E-3,4.3889885E-3,3.1486896E-3,8.720156E-3,1.3508532E-2,1.3806134E-3,-3.707196E-5,-9.025963E-3],"categories":[],"categories_nodes":[],"categories_segments":[],"categories_sizes":[],"default_left":[0,0,0,0,0,0,0,0,0,0,0,0,0,0,0,0,0,0,0,0,0,0,0,0,0,0,0,0,0,0,0],"id":8,"left_children":[1,3,5,7,9,11,13,15,17,19,21,23,25,27,29,-1,-1,-1,-1,-1,-1,-1,-1,-1,-1,-1,-1,-1,-1,-1,-1],"loss_changes":[4.0831608E1,2.1885231E1,1.0830212E1,2.2378994E1,1.1465104E1,8.750504E0,8.20944E0,7.5824013E0,6.8382607E0,1.4101571E1,6.967104E0,7.286732E0,6.2873E0,4.97176E0,6.57635E-1,0E0,0E0,0E0,0E0,0E0,0E0,0E0,0E0,0E0,0E0,0E0,0E0,0E0,0E0,0E0,0E0],"parents":[2147483647,0,0,1,1,2,2,3,3,4,4,5,5,6,6,7,7,8,8,9,9,10,10,11,11,12,12,13,13,14,14],"right_children":[2,4,6,8,10,12,14,16,18,20,22,24,26,28,30,-1,-1,-1,-1,-1,-1,-1,-1,-1,-1,-1,-1,-1,-1,-1,-1],"split_conditions":[1.9052615E0,1.6842407E0,2.6902924E0,2.4884295E-1,4.4444445E-1,1.158803E0,8.125E-1,4.7368422E-1,5.2607346E1,4.375E-1,2.6025626E-1,3.6842105E-1,1.9701926E0,1.3198227E-1,6.871453E-1,-3.5938987E-4,-6.283217E-3,-5.052076E-3,1.7494512E-3,7.486128E-3,-7.5303996E-3,2.7900755E-3,1.0618152E-2,-1.7176202E-3,4.3889885E-3,3.1486896E-3,8.720156E-3,1.3508532E-2,1.3806134E-3,-3.707196E-5,-9.025963E-3],"split_indices":[0,5,0,30,17,3,16,14,10,19,30,14,4,31,29,0,0,0,0,0,0,0,0,0,0,0,0,0,0,0,0],"split_type":[0,0,0,0,0,0,0,0,0,0,0,0,0,0,0,0,0,0,0,0,0,0,0,0,0,0,0,0,0,0,0],"sum_hessian":[2.4965964E3,2.115659E3,3.8093738E2,1.7360538E3,3.7960522E2,3.236818E2,5.725556E1,1.3695178E3,3.6653595E2,5.9064716E1,3.205405E2,1.5663725E2,1.6704456E2,5.155446E1,5.701104E0,1.3262815E3,4.3236362E1,3.349433E2,3.1592646E1,1.6384163E1,4.2680553E1,2.969579E2,2.358263E1,9.048133E1,6.615593E1,9.7584076E1,6.946048E1,4.338278E1,8.17168E0,2.7263405E0,2.9747634E0],"tree_param":{"num_deleted":"0","num_feature":"32","num_nodes":"31","size_leaf_vector":"1"}},{"base_weights":[1.364555E-2,-2.1831652E-2,3.7808624E-1,-7.9775766E-2,1.0637471E-1,2.6149648E-1,6.712537E-1,1.9523857E-2,-1.6239503E-1,5.358368E-3,2.7136543E-1,3.4420288E-1,-3.1249884E-1,7.6600724E-1,-3.5111323E-1,9.517064E-4,-3.0714604E-3,-5.8939178E-3,-1.1608566E-3,9.3029474E-4,-3.4720013E-3,-7.934322E-3,4.2334767E-3,7.208527E-5,6.4220773E-3,2.1618044E-3,-1.2017356E-2,-1.3967264E-3,1.2027511E-2,-1.3065044E-2,3.4295516E-3],"categories":[],"categories_nodes":[],"categories_segments":[],"categories_sizes":[],"default_left":[0,0,0,0,0,0,0,0,0,0,0,0,0,0,0,0,0,0,0,0,0,0,0,0,0,0,0,0,0,0,0],"id":9,"left_children":[1,3,5,7,9,11,13,15,17,19,21,23,25,27,29,-1,-1,-1,-1,-1,-1,-1,-1,-1,-1,-1,-1,-1,-1,-1,-1],"loss_changes":[3.2061947E1,1.679879E1,7.343544E0,1.2778539E1,1.1731312E1,7.6571198E0,6.270645E0,8.112077E0,1.7382462E1,6.7166185E0,6.739397E0,5.299116E0,5.317051E0,4.4539337E0,2.2656202E0,0E0,0E0,0E0,0E0,0E0,0E0,0E0,0E0,0E0,0E0,0E0,0E0,0E0,0E0,0E0,0E0],"parents":[2147483647,0,0,1,1,2,2,3,3,4,4,5,5,6,6,7,7,8,8,9,9,10,10,11,11,12,12,13,13,14,14],"right_children":[2,4,6,8,10,12,14,16,18,20,22,24,26,28,30,-1,-1,-1,-1,-1,-1,-1,-1,-1,-1,-1,-1,-1,-1,-1,-1],"split_conditions":[2.1425154E0,1.4213129E0,5.6672306E0,2.9411766E-1,1.3263918E0,1.924315E0,5.6870506E1,5E-2,4.4444445E-1,4.6666667E-1,3.5E-1,1.9344077E0,2.197577E0,1.3333334E-1,5.421206E1,9.517064E-4,-3.0714604E-3,-5.8939178E-3,-1.1608566E-3,9.3029474E-4,-3.4720013E-3,-7.934322E-3,4.2334767E-3,7.208527E-5,6.4220773E-3,2.1618044E-3,-1.2017356E-2,-1.3967264E-3,1.2027511E-2,-1.3065044E-2,3.4295516E-3],"split_indices":[0,5,8,18,4,5,11,15,18,12,17,4,4,13,10,0,0,0,0,0,0,0,0,0,0,0,0,0,0,0,0],"split_type":[0,0,0,0,0,0,0,0,0,0,0,0,0,0,0,0,0,0,0,0,0,0,0,0,0,0,0,0,0,0,0],"sum_hessian":[2.4781448E3,2.2591624E3,2.1898254E2,1.5562002E3,7.0296204E2,1.5802826E2,6.0954277E1,7.0710205E2,8.4909814E2,4.366522E2,2.6630988E2,1.3847578E2,1.9552486E1,5.6013653E1,4.940625E0,5.88723E2,1.1837908E2,2.0076648E2,6.4833167E2,3.524534E2,8.4198784E1,8.447525E0,2.5786234E2,3.4664566E1,1.0381121E2,1.0891406E1,8.66108E0,5.1900344E0,5.0823616E1,2.2228603E0,2.7177649E0],"tree_param":{"num_deleted":"0","num_feature":"32","num_nodes":"31","size_leaf_vector":"1"}},{"base_weights":[9.607174E-3,-6.525089E-2,2.6754057E-1,-4.4220663E-3,-2.663507E-1,1.9628598E-1,6.814757E-1,-1.9414466E-2,4.878318E-1,-3.1468198E-1,2.7182582E-1,5.6398194E-2,3.6584166E-1,7.9544455E-1,2.4271674E-1,2.5306988E-4,-2.8728435E-3,2.7810202E-3,1.4469349E-2,-3.9471537E-3,-1.3031726E-2,1.0402443E-2,-2.2090664E-3,4.0666E-3,-1.3150565E-3,-1.3349608E-2,5.5571957E-3,-1.3342977E-3,1.24302E-2,-9.093295E-3,6.4325263E-3],"categories":[],"categories_nodes":[],"categories_segments":[],"categories_sizes":[],"default_left":[0,0,0,0,0,0,0,0,0,0,0,0,0,0,0,0,0,0,0,0,0,0,0,0,0,0,0,0,0,0,0],"id":10,"left_children":[1,3,5,7,9,11,13,15,17,19,21,23,25,27,29,-1,-1,-1,-1,-1,-1,-1,-1,-1,-1,-1,-1,-1,-1,-1,-1],"loss_changes":[4.8079575E1,2.3608719E1,1.6386623E1,1.0953065E1,1.1743868E1,1.13468075E1,3.8999863E0,9.949944E0,6.6749544E0,8.355133E0,7.6239643E0,9.218044E0,8.627502E0,5.1248207E0,3.7845213E0,0E0,0E0,0E0,0E0,0E0,0E0,0E0,0E0,0E0,0E0,0E0,0E0,0E0,0E0,0E0,0E0],"parents":[2147483647,0,0,1,1,2,2,3,3,4,4,5,5,6,6,7,7,8,8,9,9,10,10,11,11,12,12,13,13,14,14],"right_children":[2,4,6,8,10,12,14,16,18,20,22,24,26,28,30,-1,-1,-1,-1,-1,-1,-1,-1,-1,-1,-1,-1,-1,-1,-1,-1],"split_conditions":[1.6823515E0,2.4479611E-1,2.5288944E0,2.6960416E0,5E0,1.3651587E0,1.4216073E-1,2.777778E-1,1.0315846E0,4.638054E0,3.6317432E-1,5.5E-1,1.0546693E0,1.5E-1,1.5610759E-1,2.5306988E-4,-2.8728435E-3,2.7810202E-3,1.4469349E-2,-3.9471537E-3,-1.3031726E-2,1.0402443E-2,-2.2090664E-3,4.0666E-3,-1.3150565E-3,-1.3349608E-2,5.5571957E-3,-1.3342977E-3,1.24302E-2,-9.093295E-3,6.4325263E-3],"split_indices":[0,30,0,1,9,5,30,14,2,9,29,16,1,14,30,0,0,0,0,0,0,0,0,0,0,0,0,0,0,0,0],"split_type":[0,0,0,0,0,0,0,0,0,0,0,0,0,0,0,0,0,0,0,0,0,0,0,0,0,0,0,0,0,0,0],"sum_hessian":[2.4881824E3,1.9290701E3,5.591124E2,1.4818584E3,4.472117E2,4.782593E2,8.085312E1,1.4389921E3,4.2866306E1,4.1074017E2,3.6471516E1,2.627864E2,2.154729E2,6.353642E1,1.73167E1,1.1974578E3,2.415343E2,2.8773785E1,1.4092522E1,3.9033972E2,2.0400446E1,1.7105898E1,1.936562E1,1.0260991E2,1.601765E2,3.9681132E0,2.1150479E2,5.6930575E0,5.784336E1,2.9730108E0,1.4343689E1],"tree_param":{"num_deleted":"0","num_feature":"32","num_nodes":"31","size_leaf_vector":"1"}},{"base_weights":[1.0021524E-2,-7.460206E-2,1.5789922E-1,-1.272748E-2,-2.6049894E-1,3.3373055E-1,7.293661E-2,-2.4145575E-1,2.3101276E-2,-3.1250843E-1,2.5791463E-1,1.8213642E-1,6.0800004E-1,-1.01517595E-1,2.7146325E-1,-4.064737E-3,8.691906E-3,4.2076604E-4,-1.6092125E-2,-3.2415397E-3,-7.625195E-3,-1.5544136E-3,1.194226E-2,3.4202067E-3,-6.056925E-3,1.0272238E-2,2.6823792E-3,-1.8409748E-3,9.572684E-3,5.9187463E-3,1.4700749E-3],"categories":[],"categories_nodes":[],"categories_segments":[],"categories_sizes":[],"default_left":[0,0,0,0,0,0,0,0,0,0,0,0,0,0,0,0,0,0,0,0,0,0,0,0,0,0,0,0,0,0,0],"id":11,"left_children":[1,3,5,7,9,11,13,15,17,19,21,23,25,27,29,-1,-1,-1,-1,-1,-1,-1,-1,-1,-1,-1,-1,-1,-1,-1,-1],"loss_changes":[3.105384E1,1.8152052E1,1.346842E1,9.71914E0,1.0706949E1,1.2111591E1,2.1161846E1,6.711323E0,8.163793E0,6.633484E0,8.03056E0,7.2167645E0,5.161846E0,7.5412283E0,7.068939E0,0E0,0E0,0E0,0E0,0E0,0E0,0E0,0E0,0E0,0E0,0E0,0E0,0E0,0E0,0E0,0E0],"parents":[2147483647,0,0,1,1,2,2,3,3,4,4,5,5,6,6,7,7,8,8,9,9,10,10,11,11,12,12,13,13,14,14],"right_children":[2,4,6,8,10,12,14,16,18,20,22,24,26,28,30,-1,-1,-1,-1,-1,-1,-1,-1,-1,-1,-1,-1,-1,-1,-1,-1],"split_conditions":[1.3328831E0,2.4479611E-1,1.3852437E-1,1.6577628E-1,4.944546E0,2.311346E0,1.4336077E0,4.715023E0,5.6922207E1,1.0787411E0,1.9669125E0,7.3333335E-1,4.6672832E1,5.4E1,1.6381855E0,-4.064737E-3,8.691906E-3,4.2076604E-4,-1.6092125E-2,-3.2415397E-3,-7.625195E-3,-1.5544136E-3,1.194226E-2,3.4202067E-3,-6.056925E-3,1.0272238E-2,2.6823792E-3,-1.8409748E-3,9.572684E-3,5.9187463E-3,1.4700749E-3],"split_indices":[4,30,30,31,9,0,1,8,10,0,1,16,11,11,4,0,0,0,0,0,0,0,0,0,0,0,0,0,0,0,0],"split_type":[0,0,0,0,0,0,0,0,0,0,0,0,0,0,0,0,0,0,0,0,0,0,0,0,0,0,0,0,0,0,0],"sum_hessian":[2.4795984E3,1.5774131E3,9.0218524E2,1.1842963E3,3.9311688E2,2.9296402E2,6.0922125E2,1.5961108E2,1.0246852E3,3.576346E2,3.5482265E1,1.897497E2,1.0321432E2,3.245305E2,2.8469077E2,1.5190189E2,7.709196E0,1.01971954E3,4.9656277E0,2.647354E2,9.289921E1,2.2353447E1,1.3128817E1,1.7314426E2,1.6605438E1,7.93115E1,2.3902819E1,3.136131E2,1.0917408E1,1.4962161E2,1.3506915E2],"tree_param":{"num_deleted":"0","num_feature":"32","num_nodes":"31","size_leaf_vector":"1"}},{"base_weights":[-7.954241E-3,-7.430238E-2,2.7073377E-1,-1.2481002E-1,1.6167761E-1,3.9709115E-1,1.3408063E-1,-6.028916E-2,-2.9441884E-1,8.885782E-2,5.509849E-1,2.2131096E-1,6.225942E-1,5.558888E-1,7.18076E-2,-3.7280528E-3,-2.3302113E-4,-5.607663E-3,-1.2561586E-3,8.475716E-3,6.207716E-4,-6.258497E-3,9.016516E-3,2.4207865E-3,1.728303E-2,9.360799E-3,-3.6816583E-3,1.3344495E-2,-1.8946353E-3,-5.5715432E-3,1.8710104E-3],"categories":[],"categories_nodes":[],"categories_segments":[],"categories_sizes":[],"default_left":[0,0,0,0,0,0,0,0,0,0,0,0,0,0,0,0,0,0,0,0,0,0,0,0,0,0,0,0,0,0,0],"id":12,"left_children":[1,3,5,7,9,11,13,15,17,19,21,23,25,27,29,-1,-1,-1,-1,-1,-1,-1,-1,-1,-1,-1,-1,-1,-1,-1,-1],"loss_changes":[4.619405E1,2.40696E1,8.241997E0,1.8176647E1,1.0048151E1,9.736134E0,6.0622334E0,1.0783476E1,9.736626E0,6.893811E0,5.277546E0,6.8143463E0,4.254181E0,8.181979E0,5.8726683E0,0E0,0E0,0E0,0E0,0E0,0E0,0E0,0E0,0E0,0E0,0E0,0E0,0E0,0E0,0E0,0E0],"parents":[2147483647,0,0,1,1,2,2,3,3,4,4,5,5,6,6,7,7,8,8,9,9,10,10,11,11,12,12,13,13,14,14],"right_children":[2,4,6,8,10,12,14,16,18,20,22,24,26,28,30,-1,-1,-1,-1,-1,-1,-1,-1,-1,-1,-1,-1,-1,-1,-1,-1],"split_conditions":[1.7785307E0,1.6898516E0,1.4523971E-1,2.382106E-1,6.315789E-1,2.311346E0,1.5288944E0,1.3419257E-1,1.2687669E0,4.5E-1,1.0950633E0,2.3105538E0,1.7336076E0,4.8823235E1,1.5610759E-1,-3.7280528E-3,-2.3302113E-4,-5.607663E-3,-1.2561586E-3,8.475716E-3,6.207716E-4,-6.258497E-3,9.016516E-3,2.4207865E-3,1.728303E-2,9.360799E-3,-3.6816583E-3,1.3344495E-2,-1.8946353E-3,-5.5715432E-3,1.8710104E-3],"split_indices":[0,5,30,30,18,0,4,31,5,19,4,3,2,10,30,0,0,0,0,0,0,0,0,0,0,0,0,0,0,0,0],"split_type":[0,0,0,0,0,0,0,0,0,0,0,0,0,0,0,0,0,0,0,0,0,0,0,0,0,0,0,0,0,0,0],"sum_hessian":[2.4961797E3,2.0167734E3,4.794063E2,1.6616052E3,3.5516818E2,2.480963E2,2.3131E2,1.2046863E3,4.56919E2,3.0023715E2,5.4931004E1,1.4053236E2,1.07563934E2,2.8736416E1,2.0257358E2,2.1126474E2,9.934215E2,3.02577E2,1.54342E2,2.3075209E1,2.7716196E2,4.2105236E0,5.072048E1,1.350863E2,5.4460607E0,1.0286649E2,4.697445E0,1.8087955E1,1.0648462E1,2.2784838E1,1.7978874E2],"tree_param":{"num_deleted":"0","num_feature":"32","num_nodes":"31","size_leaf_vector":"1"}},{"base_weights":[-5.662548E-3,-6.550944E-2,2.4308068E-1,-1.0732085E-2,-2.5306892E-1,2.797138E-1,-4.4845107E-1,-4.3644268E-2,2.0779148E-1,-3.8558605E-1,-3.318158E-2,4.7714567E-1,1.7820992E-1,-2.042753E-2,-2.1675715E-1,2.0419108E-4,-1.8277159E-3,5.517187E-3,-3.206008E-4,-5.83627E-3,7.8076683E-3,-2.177574E-3,8.143253E-3,3.8039596E-3,1.2090533E-2,6.327994E-3,1.2655127E-3,-6.8967203E-3,8.7111825E-3],"categories":[],"categories_nodes":[],"categories_segments":[],"categories_sizes":[],"default_left":[0,0,0,0,0,0,0,0,0,0,0,0,0,0,0,0,0,0,0,0,0,0,0,0,0,0,0,0,0],"id":13,"left_children":[1,3,5,7,9,11,13,15,17,19,21,23,25,-1,27,-1,-1,-1,-1,-1,-1,-1,-1,-1,-1,-1,-1,-1,-1],"loss_changes":[3.727669E1,2.0733894E1,1.2427975E1,1.1251556E1,1.3279793E1,9.169842E0,5.452079E0,6.8175526E0,8.707184E0,8.013805E0,1.2925656E1,1.2109425E1,7.306752E0,0E0,5.1754255E0,0E0,0E0,0E0,0E0,0E0,0E0,0E0,0E0,0E0,0E0,0E0,0E0,0E0,0E0],"parents":[2147483647,0,0,1,1,2,2,3,3,4,4,5,5,6,6,7,7,8,8,9,9,10,10,11,11,12,12,14,14],"right_children":[2,4,6,8,10,12,14,16,18,20,22,24,26,-1,28,-1,-1,-1,-1,-1,-1,-1,-1,-1,-1,-1,-1,-1,-1],"split_conditions":[1.7785307E0,2.4479611E-1,8.8235295E-1,1.8606905E0,1.2853649E0,1.0734778E-1,1.9649084E0,4.7977337E-1,7.3333335E-1,5.8824886E1,5.263158E-1,2.462354E0,5E-1,-2.042753E-2,1.4344385E0,2.0419108E-4,-1.8277159E-3,5.517187E-3,-3.206008E-4,-5.83627E-3,7.8076683E-3,-2.177574E-3,8.143253E-3,3.8039596E-3,1.2090533E-2,6.327994E-3,1.2655127E-3,-6.8967203E-3,8.7111825E-3],"split_indices":[0,30,16,5,5,30,0,29,13,10,18,0,12,0,3,0,0,0,0,0,0,0,0,0,0,0,0,0,0],"split_type":[0,0,0,0,0,0,0,0,0,0,0,0,0,0,0,0,0,0,0,0,0,0,0,0,0,0,0,0,0],"sum_hessian":[2.5019888E3,2.0173556E3,4.8463324E2,1.5621747E3,4.5518097E2,4.6081744E2,2.3815786E1,1.3583862E3,2.0378844E2,2.8354587E2,1.716351E2,1.5521437E2,3.0560306E2,3.4813464E0,2.0334438E1,8.117251E2,5.4666113E2,1.12892815E2,9.0895615E1,2.7557938E2,7.9664865E0,1.4381168E2,2.782343E1,1.01787025E2,5.3427353E1,7.401024E1,2.3159283E2,1.5635437E1,4.6990023E0],"tree_param":{"num_deleted":"0","num_feature":"32","num_nodes":"29","size_leaf_vector":"1"}},{"base_weights":[-3.2798732E-3,-7.461112E-2,2.4122843E-1,-1.9823913E-2,-2.5041416E-1,-1.5931456E-1,2.8193396E-1,-5.2249923E-2,1.9104028E-1,-2.9129058E-1,3.0372384E-1,-4.7886783E-1,3.6233705E-1,1.7951407E-1,4.239992E-1,-2.8374998E-3,-2.0813147E-4,-2.6646082E-3,3.7855795E-3,-2.8872554E-4,-4.9727317E-3,-1.1751618E-3,1.455482E-2,-3.980471E-3,-1.8599791E-2,8.603565E-3,-1.0502815E-2,-2.328355E-3,3.4275788E-3,7.7069583E-3,2.5319348E-3],"categories":[],"categories_nodes":[],"categories_segments":[],"categories_sizes":[],"default_left":[0,0,0,0,0,0,0,0,0,0,0,0,0,0,0,0,0,0,0,0,0,0,0,0,0,0,0,0,0,0,0],"id":14,"left_children":[1,3,5,7,9,11,13,15,17,19,21,23,25,27,29,-1,-1,-1,-1,-1,-1,-1,-1,-1,-1,-1,-1,-1,-1,-1,-1],"loss_changes":[4.3464207E1,1.857664E1,9.221413E0,1.0074197E1,1.0469131E1,8.935046E0,7.362957E0,7.139515E0,5.872511E0,7.1700172E0,9.129352E0,5.082096E0,6.12385E0,6.6394186E0,6.3409767E0,0E0,0E0,0E0,0E0,0E0,0E0,0E0,0E0,0E0,0E0,0E0,0E0,0E0,0E0,0E0,0E0],"parents":[2147483647,0,0,1,1,2,2,3,3,4,4,5,5,6,6,7,7,8,8,9,9,10,10,11,11,12,12,13,13,14,14],"right_children":[2,4,6,8,10,12,14,16,18,20,22,24,26,28,30,-1,-1,-1,-1,-1,-1,-1,-1,-1,-1,-1,-1,-1,-1,-1,-1],"split_conditions":[1.6823515E0,2.4479611E-1,1.4285715E-1,2E0,5.1297917E0,1.3283385E0,1.940183E0,1.6350307E-1,4.5E-1,8.3333336E-2,1.2371062E0,1.032783E0,7.8571427E-1,8.892923E0,1.4696719E-1,-2.8374998E-3,-2.0813147E-4,-2.6646082E-3,3.7855795E-3,-2.8872554E-4,-4.9727317E-3,-1.1751618E-3,1.455482E-2,-3.980471E-3,-1.8599791E-2,8.603565E-3,-1.0502815E-2,-2.328355E-3,3.4275788E-3,7.7069583E-3,2.5319348E-3],"split_indices":[0,30,14,1,9,1,4,31,17,19,6,1,19,10,30,0,0,0,0,0,0,0,0,0,0,0,0,0,0,0,0],"split_type":[0,0,0,0,0,0,0,0,0,0,0,0,0,0,0,0,0,0,0,0,0,0,0,0,0,0,0,0,0,0,0],"sum_hessian":[2.4900273E3,1.9282014E3,5.61826E2,1.4709178E3,4.5728357E2,5.156012E1,5.1026584E2,1.275524E3,1.9539374E2,4.2631076E2,3.09728E1,3.2024544E1,1.9535576E1,2.978202E2,2.1244565E2,2.5489267E2,1.0206314E3,3.298287E1,1.6241087E2,7.9706276E1,3.466045E2,2.0820711E1,1.0152088E1,2.7063791E1,4.9607544E0,1.6319237E1,3.2163386E0,4.6373676E1,2.5144653E2,1.4021082E2,7.2234825E1],"tree_param":{"num_deleted":"0","num_feature":"32","num_nodes":"31","size_leaf_vector":"1"}},{"base_weights":[2.7564354E-3,-4.44296E-2,2.934018E-1,-7.151109E-2,3.2077533E-1,1.6327438E-1,4.970476E-1,-2.9342625E-2,-2.2149956E-1,-2.9854748E-2,5.091014E-1,-4.622822E-2,3.2888454E-1,-8.448921E-3,5.200309E-1,-1.7932117E-3,4.0949933E-4,-3.8333326E-3,9.495279E-4,-5.3125108E-3,3.9712093E-3,3.7497135E-3,1.1057753E-2,-2.2098473E-3,7.039992E-3,5.8396994E-3,-5.6252335E-3,7.876326E-3,-1.3126421E-3],"categories":[],"categories_nodes":[],"categories_segments":[],"categories_sizes":[],"default_left":[0,0,0,0,0,0,0,0,0,0,0,0,0,0,0,0,0,0,0,0,0,0,0,0,0,0,0,0,0],"id":15,"left_children":[1,3,5,7,9,11,13,15,17,19,21,23,25,-1,27,-1,-1,-1,-1,-1,-1,-1,-1,-1,-1,-1,-1,-1,-1],"loss_changes":[3.4058224E1,2.1154324E1,9.110661E0,1.2579168E1,9.766985E0,7.4095964E0,3.710476E0,8.911692E0,6.434553E0,5.805864E0,6.2428627E0,5.8275967E0,7.6346645E0,0E0,3.2700996E0,0E0,0E0,0E0,0E0,0E0,0E0,0E0,0E0,0E0,0E0,0E0,0E0,0E0,0E0],"parents":[2147483647,0,0,1,1,2,2,3,3,4,4,5,5,6,6,7,7,8,8,9,9,10,10,11,11,12,12,14,14],"right_children":[2,4,6,8,10,12,14,16,18,20,22,24,26,-1,28,-1,-1,-1,-1,-1,-1,-1,-1,-1,-1,-1,-1,-1,-1],"split_conditions":[1.9485692E0,5.204031E0,3.6842105E-1,2.4479611E-1,1.2371062E0,4.0958313E1,7.692308E-2,2.6021227E-1,1.3328831E0,1.0659846E0,1.9368308E0,2.6902924E0,2.312954E0,-8.448921E-3,5.6870506E1,-1.7932117E-3,4.0949933E-4,-3.8333326E-3,9.495279E-4,-5.3125108E-3,3.9712093E-3,3.7497135E-3,1.1057753E-2,-2.2098473E-3,7.039992E-3,5.8396994E-3,-5.6252335E-3,7.876326E-3,-1.3126421E-3],"split_indices":[0,9,14,30,2,11,18,31,4,7,5,0,1,0,11,0,0,0,0,0,0,0,0,0,0,0,0,0,0],"split_type":[0,0,0,0,0,0,0,0,0,0,0,0,0,0,0,0,0,0,0,0,0,0,0,0,0,0,0,0,0],"sum_hessian":[2.4814402E3,2.135578E3,3.4586218E2,1.988897E3,1.4668095E2,2.1212094E2,1.3374123E2,1.5533707E3,4.3552634E2,5.1548393E1,9.513256E1,9.396845E1,1.181525E2,2.2283344E0,1.315129E2,5.795758E2,9.7379486E2,3.703864E2,6.5139946E1,2.4284245E1,2.7264149E1,5.171678E1,4.3415783E1,7.872098E1,1.524747E1,1.0605861E2,1.2093889E1,1.2361935E2,7.893543E0],"tree_param":{"num_deleted":"0","num_feature":"32","num_nodes":"29","size_leaf_vector":"1"}},{"base_weights":[-6.1925774E-4,-8.874878E-2,1.7193066E-1,-1.3236351E-1,1.21956006E-1,-4.9814004E-2,2.4249054E-1,-3.853421E-2,-2.4360201E-1,5.2485343E-2,6.6408217E-1,8.701788E-2,-3.0375528E-1,1.0566914E-1,3.332625E-1,-2.5427573E-5,-3.8523467E-3,-3.8751184E-3,4.70965E-3,1.9912417E-3,-6.6210106E-3,1.3116008E-2,2.7439173E-3,-1.7473911E-3,8.011008E-3,-9.7453995E-3,-1.63416E-3,6.5941764E-3,8.080093E-5,4.9093585E-3,-7.0720376E-3],"categories":[],"categories_nodes":[],"categories_segments":[],"categories_sizes":[],"default_left":[0,0,0,0,0,0,0,0,0,0,0,0,0,0,0,0,0,0,0,0,0,0,0,0,0,0,0,0,0,0,0],"id":16,"left_children":[1,3,5,7,9,11,13,15,17,19,21,23,25,27,29,-1,-1,-1,-1,-1,-1,-1,-1,-1,-1,-1,-1,-1,-1,-1,-1],"loss_changes":[3.7679493E1,1.5088569E1,1.3118835E1,1.4178484E1,1.0578038E1,7.0815644E0,7.859268E0,6.3788395E0,1.150061E1,1.1741503E1,3.8293018E0,1.3584845E1,5.121074E0,9.242931E0,5.1371574E0,0E0,0E0,0E0,0E0,0E0,0E0,0E0,0E0,0E0,0E0,0E0,0E0,0E0,0E0,0E0,0E0],"parents":[2147483647,0,0,1,1,2,2,3,3,4,4,5,5,6,6,7,7,8,8,9,9,10,10,11,11,12,12,13,13,14,14],"right_children":[2,4,6,8,10,12,14,16,18,20,22,24,26,28,30,-1,-1,-1,-1,-1,-1,-1,-1,-1,-1,-1,-1,-1,-1,-1,-1],"split_conditions":[1.3853568E0,1.6842407E0,4.6666667E-1,9.2110896E-1,5.478369E1,5E-1,4.375E-1,1.2396643E0,4.9818077E0,4.6666667E-1,5.7894737E-1,1.360753E0,1.7064162E-1,1.0340413E-1,2.8433647E0,-2.5427573E-5,-3.8523467E-3,-3.8751184E-3,4.70965E-3,1.9912417E-3,-6.6210106E-3,1.3116008E-2,2.7439173E-3,-1.7473911E-3,8.011008E-3,-9.7453995E-3,-1.63416E-3,6.5941764E-3,8.080093E-5,4.9093585E-3,-7.0720376E-3],"split_indices":[4,5,12,2,11,13,19,5,9,12,16,5,30,30,4,0,0,0,0,0,0,0,0,0,0,0,0,0,0,0,0],"split_type":[0,0,0,0,0,0,0,0,0,0,0,0,0,0,0,0,0,0,0,0,0,0,0,0,0,0,0,0,0,0,0],"sum_hessian":[2.4758115E3,1.63912E3,8.366916E2,1.3583258E3,2.8079416E2,2.0204135E2,6.346502E2,7.3755066E2,6.2077515E2,2.4987126E2,3.0922894E1,1.3172235E2,7.031899E1,2.5398317E2,3.8066705E2,6.387992E2,9.875151E1,5.8897754E2,3.1797632E1,2.1415382E2,3.571744E1,1.9056568E1,1.1866325E1,9.212021E1,3.960215E1,2.201957E1,4.8299427E1,5.404537E1,1.999378E2,3.7428314E2,6.3839087E0],"tree_param":{"num_deleted":"0","num_feature":"32","num_nodes":"31","size_leaf_vector":"1"}},{"base_weights":[4.4435416E-3,-8.0288365E-2,1.8103345E-1,-1.05470166E-1,3.1112194E-1,7.1234636E-2,3.2455826E-1,3.4646566E-3,-2.3419334E-1,3.919597E-2,5.831258E-1,-2.2842221E-2,5.2250546E-1,5.207085E-1,2.0927846E-1,-2.968141E-4,4.7817854E-3,-4.5410586E-3,-1.7168277E-3,-1.2382084E-2,2.7437895E-3,1.6331227E-2,4.6285945E-3,1.05002444E-4,-1.15281455E-2,1.1140441E-2,3.2781614E-3,8.113869E-3,-2.1082105E-3,-2.64581E-3,4.324397E-3],"categories":[],"categories_nodes":[],"categories_segments":[],"categories_sizes":[],"default_left":[0,0,0,0,0,0,0,0,0,0,0,0,0,0,0,0,0,0,0,0,0,0,0,0,0,0,0,0,0,0,0],"id":17,"left_children":[1,3,5,7,9,11,13,15,17,19,21,23,25,27,29,-1,-1,-1,-1,-1,-1,-1,-1,-1,-1,-1,-1,-1,-1,-1,-1],"loss_changes":[3.7064453E1,1.6532032E1,1.2634047E1,2.2065369E1,7.4800797E0,1.9385265E1,7.7565002E0,7.05263E0,7.1197014E0,7.585647E0,7.0506477E0,9.140556E0,5.952162E0,4.878189E0,8.650299E0,0E0,0E0,0E0,0E0,0E0,0E0,0E0,0E0,0E0,0E0,0E0,0E0,0E0,0E0,0E0,0E0],"parents":[2147483647,0,0,1,1,2,2,3,3,4,4,5,5,6,6,7,7,8,8,9,9,10,10,11,11,12,12,13,13,14,14],"right_children":[2,4,6,8,10,12,14,16,18,20,22,24,26,28,30,-1,-1,-1,-1,-1,-1,-1,-1,-1,-1,-1,-1,-1,-1,-1,-1],"split_conditions":[1.4056538E0,5.172454E0,1.3737187E0,2.5E-1,1.3777307E0,2.3266406E0,5E-1,1.6502154E0,1.4627461E0,1.8621932E-1,4.749804E-1,4.658677E0,5.3846157E-1,7.647059E-1,4.1666666E-1,-2.968141E-4,4.7817854E-3,-4.5410586E-3,-1.7168277E-3,-1.2382084E-2,2.7437895E-3,1.6331227E-2,4.6285945E-3,1.05002444E-4,-1.15281455E-2,1.1140441E-2,3.2781614E-3,8.113869E-3,-2.1082105E-3,-2.64581E-3,4.324397E-3],"split_indices":[4,9,5,16,6,0,13,3,6,30,31,9,16,16,12,0,0,0,0,0,0,0,0,0,0,0,0,0,0,0,0],"split_type":[0,0,0,0,0,0,0,0,0,0,0,0,0,0,0,0,0,0,0,0,0,0,0,0,0,0,0,0,0,0,0],"sum_hessian":[2.4751355E3,1.6729574E3,8.0217816E2,1.5725183E3,1.004391E2,4.5533548E2,3.4684268E2,8.5225323E2,7.20265E2,5.0798878E1,4.9640224E1,3.7757208E2,7.776343E1,1.2708642E2,2.1975626E2,7.9513464E2,5.711861E1,4.0171344E2,3.1855154E2,6.688411E0,4.4110466E1,1.4089423E1,3.55508E1,3.64684E2,1.2888083E1,3.941312E1,3.8350304E1,1.174528E2,9.63362E0,4.329393E1,1.7646233E2],"tree_param":{"num_deleted":"0","num_feature":"32","num_nodes":"31","size_leaf_vector":"1"}},{"base_weights":[1.8188007E-2,-1.884626E-2,3.8567653E-1,-8.557341E-2,1.2734228E-1,-1.2775242E-1,4.5617074E-1,-1.4969754E-3,-2.1644802E-1,4.650929E-2,3.951173E-1,-3.159505E-1,1.1700187E-2,3.127539E-1,6.5916973E-1,-1.7490452E-4,7.6946947E-3,-6.299703E-4,-4.6736645E-3,1.6039344E-4,6.361938E-3,6.420079E-5,7.1083885E-3,-7.797783E-3,6.1969035E-3,5.249602E-3,-6.209435E-3,2.9765448E-4,1.1771084E-2],"categories":[],"categories_nodes":[],"categories_segments":[],"categories_sizes":[],"default_left":[0,0,0,0,0,0,0,0,0,0,0,0,0,0,0,0,0,0,0,0,0,0,0,0,0,0,0,0,0],"id":18,"left_children":[1,3,5,7,9,11,13,15,17,19,21,23,-1,25,27,-1,-1,-1,-1,-1,-1,-1,-1,-1,-1,-1,-1,-1,-1],"loss_changes":[3.413051E1,2.2238937E1,8.367985E0,1.7221794E1,1.5447811E1,5.4064846E0,5.6774063E0,5.723111E0,1.2137833E1,7.826097E0,7.106346E0,4.664077E0,0E0,5.629483E0,9.338535E0,0E0,0E0,0E0,0E0,0E0,0E0,0E0,0E0,0E0,0E0,0E0,0E0,0E0,0E0],"parents":[2147483647,0,0,1,1,2,2,3,3,4,4,5,5,6,6,7,7,8,8,9,9,10,10,11,11,13,13,14,14],"right_children":[2,4,6,8,10,12,14,16,18,20,22,24,-1,26,28,-1,-1,-1,-1,-1,-1,-1,-1,-1,-1,-1,-1,-1,-1],"split_conditions":[1.964129E0,1.4213129E0,1.3333334E-1,2.6666668E-1,6.1538464E-1,1.8384693E0,4.195133E1,3.3333334E-1,2.086881E-1,2.7178285E0,3.97417E1,5.833333E-1,1.1700187E-2,3.9243793E1,1.0435065E0,-1.7490452E-4,7.6946947E-3,-6.299703E-4,-4.6736645E-3,1.6039344E-4,6.361938E-3,6.420079E-5,7.1083885E-3,-7.797783E-3,6.1969035E-3,5.249602E-3,-6.209435E-3,2.9765448E-4,1.1771084E-2],"split_indices":[4,5,14,13,18,3,11,15,30,1,11,13,0,11,3,0,0,0,0,0,0,0,0,0,0,0,0,0,0],"split_type":[0,0,0,0,0,0,0,0,0,0,0,0,0,0,0,0,0,0,0,0,0,0,0,0,0,0,0,0,0],"sum_hessian":[2.5062795E3,2.2776902E3,2.2858931E2,1.5641534E3,7.135367E2,2.7498425E1,2.0109088E2,9.529628E2,6.111907E2,5.489879E2,1.6454878E2,2.3548145E1,3.950279E0,1.1932767E2,8.1763214E1,9.352925E2,1.7670383E1,2.4652187E2,3.646688E2,5.0618616E2,4.2801727E1,3.6375393E1,1.2817339E2,1.8112923E1,5.435223E0,1.1096684E2,8.360824E0,1.8014584E1,6.374863E1],"tree_param":{"num_deleted":"0","num_feature":"32","num_nodes":"29","size_leaf_vector":"1"}},{"base_weights":[-4.763338E-3,-6.274566E-2,2.276411E-1,-1.0161985E-1,1.674553E-1,1.7552662E-1,6.4087963E-1,-4.8562355E-2,-2.390433E-1,-1.951314E-1,2.4467313E-1,4.634752E-2,3.362415E-1,7.53078E-1,-3.2501525E-1,-7.8199455E-4,1.3245049E-2,-5.9327786E-4,-4.620805E-3,-4.164795E-3,7.270199E-3,2.548659E-3,1.0792719E-2,-5.754891E-4,5.3422246E-3,-7.3437565E-3,5.244862E-3,1.2723094E-2,2.708681E-3,1.4507098E-3,-1.0142879E-2],"categories":[],"categories_nodes":[],"categories_segments":[],"categories_sizes":[],"default_left":[0,0,0,0,0,0,0,0,0,0,0,0,0,0,0,0,0,0,0,0,0,0,0,0,0,0,0,0,0,0,0],"id":19,"left_children":[1,3,5,7,9,11,13,15,17,19,21,23,25,27,29,-1,-1,-1,-1,-1,-1,-1,-1,-1,-1,-1,-1,-1,-1,-1,-1],"loss_changes":[3.350162E1,1.7822254E1,1.0578247E1,1.2404318E1,8.106479E0,9.164988E0,6.2286625E0,8.5711565E0,8.318665E0,3.8175254E0,7.754758E0,7.1757755E0,6.3462257E0,4.0371094E0,1.1659012E0,0E0,0E0,0E0,0E0,0E0,0E0,0E0,0E0,0E0,0E0,0E0,0E0,0E0,0E0,0E0,0E0],"parents":[2147483647,0,0,1,1,2,2,3,3,4,4,5,5,6,6,7,7,8,8,9,9,10,10,11,11,12,12,13,13,14,14],"right_children":[2,4,6,8,10,12,14,16,18,20,22,24,26,28,30,-1,-1,-1,-1,-1,-1,-1,-1,-1,-1,-1,-1,-1,-1,-1,-1],"split_conditions":[1.7599385E0,1.7843133E0,2.6902924E0,2.382106E-1,4.5E-1,1.3685517E0,8.125E-1,6.0627785E1,2.2676E0,1.0056769E0,4.6153846E-1,2.147299E0,3.5E-1,1.0779344E-1,6.8015015E-1,-7.8199455E-4,1.3245049E-2,-5.9327786E-4,-4.620805E-3,-4.164795E-3,7.270199E-3,2.548659E-3,1.0792719E-2,-5.754891E-4,5.3422246E-3,-7.3437565E-3,5.244862E-3,1.2723094E-2,2.708681E-3,1.4507098E-3,-1.0142879E-2],"split_indices":[0,5,0,30,17,5,16,10,8,3,15,4,17,31,29,0,0,0,0,0,0,0,0,0,0,0,0,0,0,0,0],"split_type":[0,0,0,0,0,0,0,0,0,0,0,0,0,0,0,0,0,0,0,0,0,0,0,0,0,0,0,0,0,0,0],"sum_hessian":[2.4840813E3,1.9886621E3,4.9541907E2,1.7018313E3,2.8683084E2,4.412027E2,5.421637E1,1.2287712E3,4.7306006E2,5.0091667E1,2.3673917E2,2.453135E2,1.9588919E2,4.8771408E1,5.444958E0,1.2210786E3,7.6927266E0,1.480374E2,3.2502264E2,4.438974E1,5.701928E0,2.1224052E2,2.449864E1,1.9511159E2,5.0201916E1,7.432435E0,1.8845676E2,3.7944317E1,1.0827094E1,2.9704545E0,2.4745038E0],"tree_param":{"num_deleted":"0","num_feature":"32","num_nodes":"31","size_leaf_vector":"1"}},{"base_weights":[-8.963516E-3,-5.279949E-2,2.3390384E-1,-7.7011E-2,2.7394742E-1,7.975769E-2,3.5499942E-1,-2.7948536E-2,-2.4505216E-1,-8.473992E-2,4.2451406E-1,4.829961E-2,1.928731E-2,2.4264178E-1,6.223516E-1,-1.078877E-4,-3.681561E-3,-6.505974E-4,-4.8369807E-3,1.3148001E-3,-1.0812289E-2,3.345731E-3,1.0972793E-2,-5.288883E-4,7.081327E-3,4.105679E-3,-7.4705807E-3,1.0908413E-2,-1.8416985E-3],"categories":[],"categories_nodes":[],"categories_segments":[],"categories_sizes":[],"default_left":[0,0,0,0,0,0,0,0,0,0,0,0,0,0,0,0,0,0,0,0,0,0,0,0,0,0,0,0,0],"id":20,"left_children":[1,3,5,7,9,11,13,15,17,19,21,23,-1,25,27,-1,-1,-1,-1,-1,-1,-1,-1,-1,-1,-1,-1,-1,-1],"loss_changes":[2.6465626E1,1.66789E1,7.0666294E0,1.6161963E1,7.892864E0,6.7756915E0,6.234583E0,7.196605E0,8.672176E0,5.410973E0,6.6228733E0,6.4851103E0,0E0,5.8980074E0,7.263052E0,0E0,0E0,0E0,0E0,0E0,0E0,0E0,0E0,0E0,0E0,0E0,0E0,0E0,0E0],"parents":[2147483647,0,0,1,1,2,2,3,3,4,4,5,5,6,6,7,7,8,8,9,9,10,10,11,11,13,13,14,14],"right_children":[2,4,6,8,10,12,14,16,18,20,22,24,-1,26,28,-1,-1,-1,-1,-1,-1,-1,-1,-1,-1,-1,-1,-1,-1],"split_conditions":[1.9052615E0,5.204031E0,3.0769232E-1,2.4479611E-1,4.375E-1,2.4280252E-1,5.6020155E0,3.5714287E-1,2.2676E0,4.817972E1,2.0059755E0,1.7370865E0,1.928731E-2,2.0958319E0,1.5716486E-1,-1.078877E-4,-3.681561E-3,-6.505974E-4,-4.8369807E-3,1.3148001E-3,-1.0812289E-2,3.345731E-3,1.0972793E-2,-5.288883E-4,7.081327E-3,4.105679E-3,-7.4705807E-3,1.0908413E-2,-1.8416985E-3],"split_indices":[0,9,14,30,18,30,8,14,8,10,5,3,0,5,31,0,0,0,0,0,0,0,0,0,0,0,0,0,0],"split_type":[0,0,0,0,0,0,0,0,0,0,0,0,0,0,0,0,0,0,0,0,0,0,0,0,0,0,0,0,0],"sum_hessian":[2.4837327E3,2.104641E3,3.790914E2,1.9601603E3,1.4448093E2,1.6751509E2,2.1157631E2,1.5180935E3,4.4206674E2,4.2846664E1,1.0163427E2,1.6454196E2,2.9731312E0,1.5031314E2,6.126316E1,1.3977776E3,1.2031596E2,1.4706026E2,2.950065E2,3.467231E1,8.174353E0,6.769568E1,3.3938587E1,1.3918076E2,2.5361204E1,1.4193066E2,8.382477E0,5.0911964E1,1.0351196E1],"tree_param":{"num_deleted":"0","num_feature":"32","num_nodes":"29","size_leaf_vector":"1"}},{"base_weights":[1.487657E-2,6.356983E-2,-1.881067E-1,3.7494257E-2,4.5313805E-1,-2.2682776E-1,5.6307226E-1,-7.714065E-3,1.7796966E-1,-5.3097767E-1,5.0821096E-1,-2.523985E-1,3.8411835E-1,-1.1352817E-1,8.887819E-1,6.2671443E-3,-2.539246E-4,-1.0396601E-2,2.7401506E-3,2.6392527E-3,-1.631615E-2,3.117712E-3,9.790806E-3,-3.852243E-3,3.980489E-3,-4.953627E-3,1.0278506E-2,-7.931029E-3,1.0164166E-2,1.5986826E-2,2.643732E-3],"categories":[],"categories_nodes":[],"categories_segments":[],"categories_sizes":[],"default_left":[0,0,0,0,0,0,0,0,0,0,0,0,0,0,0,0,0,0,0,0,0,0,0,0,0,0,0,0,0,0,0],"id":21,"left_children":[1,3,5,7,9,11,13,15,17,19,21,23,25,27,29,-1,-1,-1,-1,-1,-1,-1,-1,-1,-1,-1,-1,-1,-1,-1,-1],"loss_changes":[2.4681768E1,2.0439583E1,1.4181091E1,1.1994905E1,7.1121407E0,7.286152E0,5.383673E0,6.6969104E0,7.192834E0,3.4585676E0,6.2980595E0,5.1220818E0,5.0689926E0,3.669834E0,2.6090965E0,0E0,0E0,0E0,0E0,0E0,0E0,0E0,0E0,0E0,0E0,0E0,0E0,0E0,0E0,0E0,0E0],"parents":[2147483647,0,0,1,1,2,2,3,3,4,4,5,5,6,6,7,7,8,8,9,9,10,10,11,11,12,12,13,13,14,14],"right_children":[2,4,6,8,10,12,14,16,18,20,22,24,26,28,30,-1,-1,-1,-1,-1,-1,-1,-1,-1,-1,-1,-1,-1,-1,-1,-1],"split_conditions":[2.4479611E-1,2.3266406E0,5.444848E0,1.686223E0,4.7727305E-1,4.9634314E0,3.3788374E-1,6.0719516E-2,1.6666667E-1,1.8687749E-1,1.6593578E-1,7.5E-1,2.6025626E-1,6.197231E0,2.2623692E0,6.2671443E-3,-2.539246E-4,-1.0396601E-2,2.7401506E-3,2.6392527E-3,-1.631615E-2,3.117712E-3,9.790806E-3,-3.852243E-3,3.980489E-3,-4.953627E-3,1.0278506E-2,-7.931029E-3,1.0164166E-2,1.5986826E-2,2.643732E-3],"split_indices":[30,0,9,1,29,8,31,30,13,30,8,19,30,9,1,0,0,0,0,0,0,0,0,0,0,0,0,0,0,0,0],"split_type":[0,0,0,0,0,0,0,0,0,0,0,0,0,0,0,0,0,0,0,0,0,0,0,0,0,0,0,0,0,0,0],"sum_hessian":[2.4949546E3,2.0127958E3,4.8215884E2,1.8875498E3,1.2524605E2,4.5918713E2,2.2971706E1,1.428704E3,4.588458E2,6.179585E0,1.1906646E2,4.4130356E2,1.7883589E1,7.676555E0,1.5295151E1,3.0907084E1,1.3977969E3,7.447218E0,4.5139856E2,3.2101688E0,2.9694161E0,4.7933765E1,7.11327E1,4.2487564E2,1.6427925E1,5.7151113E0,1.2168477E1,5.2015204E0,2.4750342E0,1.0849685E1,4.4454656E0],"tree_param":{"num_deleted":"0","num_feature":"32","num_nodes":"31","size_leaf_vector":"1"}},{"base_weights":[-1.1318468E-2,-6.840449E-2,2.1142478E-1,-9.591127E-2,3.051545E-1,-2.2494288E-1,2.561839E-1,-6.13166E-3,-1.8734029E-1,-1.1406358E-2,4.8467407E-1,-5.03094E-1,2.587415E-1,2.0420265E-1,6.28899E-1,-6.575606E-4,3.94242E-3,-3.8677484E-3,-5.5014354E-4,4.6330113E-3,-6.587361E-3,2.0437462E-3,9.747926E-3,-3.795115E-3,-1.3517105E-2,6.7856796E-3,-1.2892374E-2,3.639333E-3,-8.839645E-4,9.709287E-3,-6.96378E-3],"categories":[],"categories_nodes":[],"categories_segments":[],"categories_sizes":[],"default_left":[0,0,0,0,0,0,0,0,0,0,0,0,0,0,0,0,0,0,0,0,0,0,0,0,0,0,0,0,0,0,0],"id":22,"left_children":[1,3,5,7,9,11,13,15,17,19,21,23,25,27,29,-1,-1,-1,-1,-1,-1,-1,-1,-1,-1,-1,-1,-1,-1,-1,-1],"loss_changes":[3.1510006E1,2.0296368E1,9.931679E0,1.5084978E1,7.7066307E0,6.5292225E0,8.764009E0,1.0798981E1,1.1796711E1,7.9328833E0,6.0048866E0,3.0011477E0,5.1723013E0,5.8862724E0,4.156725E0,0E0,0E0,0E0,0E0,0E0,0E0,0E0,0E0,0E0,0E0,0E0,0E0,0E0,0E0,0E0,0E0],"parents":[2147483647,0,0,1,1,2,2,3,3,4,4,5,5,6,6,7,7,8,8,9,9,10,10,11,11,12,12,13,13,14,14],"right_children":[2,4,6,8,10,12,14,16,18,20,22,24,26,28,30,-1,-1,-1,-1,-1,-1,-1,-1,-1,-1,-1,-1,-1,-1,-1,-1],"split_conditions":[1.7562462E0,5.172454E0,1.3333334E-1,7.692308E-2,1.2714478E0,3.5987847E0,2.650982E0,1.4384462E0,1.3328831E0,3.6562922E0,1.8206167E0,2.5169523E0,7.647059E-1,2.0489845E0,2.6323571E0,-6.575606E-4,3.94242E-3,-3.8677484E-3,-5.5014354E-4,4.6330113E-3,-6.587361E-3,2.0437462E-3,9.747926E-3,-3.795115E-3,-1.3517105E-2,6.7856796E-3,-1.2892374E-2,3.639333E-3,-8.839645E-4,9.709287E-3,-6.96378E-3],"split_indices":[0,9,14,14,2,9,0,3,4,8,5,9,19,1,1,0,0,0,0,0,0,0,0,0,0,0,0,0,0,0,0],"split_type":[0,0,0,0,0,0,0,0,0,0,0,0,0,0,0,0,0,0,0,0,0,0,0,0,0,0,0,0,0,0,0],"sum_hessian":[2.475936E3,1.9713892E3,5.0454694E2,1.8368752E3,1.3451392E2,4.6563374E1,4.5798355E2,9.273359E2,9.0953937E2,4.9016228E1,8.549768E1,2.9537302E1,1.7026072E1,4.0328653E2,5.4697044E1,8.1290485E2,1.1443105E2,5.714973E2,3.3804202E2,2.8235476E1,2.0780754E1,3.3122135E1,5.2375546E1,2.0607538E1,8.929766E0,1.48011E1,2.2249718E0,3.3507758E2,6.820892E1,5.224853E1,2.4485126E0],"tree_param":{"num_deleted":"0","num_feature":"32","num_nodes":"31","size_leaf_vector":"1"}},{"base_weights":[-6.678647E-3,-6.0029414E-2,2.077267E-1,-7.422044E-3,-2.338439E-1,1.5931384E-1,5.8094096E-1,4.794341E-2,-1.3396075E-1,-2.9580182E-1,2.411673E-1,-1.9095588E-3,2.9490882E-1,7.987945E-1,3.0709013E-1,3.9367224E-4,4.94009E-3,-3.3044086E-3,5.919656E-4,-4.934975E-4,-5.5405064E-3,-5.7492186E-3,8.891908E-3,-1.8709559E-3,3.0917039E-3,-1.4641652E-2,4.4884994E-3,7.4588386E-3,1.8107062E-2,9.394409E-3,-7.4534575E-3],"categories":[],"categories_nodes":[],"categories_segments":[],"categories_sizes":[],"default_left":[0,0,0,0,0,0,0,0,0,0,0,0,0,0,0,0,0,0,0,0,0,0,0,0,0,0,0,0,0,0,0],"id":23,"left_children":[1,3,5,7,9,11,13,15,17,19,21,23,25,27,29,-1,-1,-1,-1,-1,-1,-1,-1,-1,-1,-1,-1,-1,-1,-1,-1],"loss_changes":[2.8528597E1,1.8258724E1,8.8864975E0,1.07537775E1,1.3725895E1,9.647092E0,3.1364136E0,6.4537854E0,8.300831E0,1.0469982E1,1.3982941E1,5.910496E0,8.014818E0,3.3757076E0,8.416144E0,0E0,0E0,0E0,0E0,0E0,0E0,0E0,0E0,0E0,0E0,0E0,0E0,0E0,0E0,0E0,0E0],"parents":[2147483647,0,0,1,1,2,2,3,3,4,4,5,5,6,6,7,7,8,8,9,9,10,10,11,11,12,12,13,13,14,14],"right_children":[2,4,6,8,10,12,14,16,18,20,22,24,26,28,30,-1,-1,-1,-1,-1,-1,-1,-1,-1,-1,-1,-1,-1,-1,-1,-1],"split_conditions":[1.7599385E0,2.4479611E-1,2.6902924E0,5.319645E-1,1.7076606E0,4.109037E1,9.2955387E-1,2.4716616E0,1.3275307E0,2.6666668E-1,3.3730125E1,3.846154E-1,3E-1,2.4008691E0,1.09822184E-1,3.9367224E-4,4.94009E-3,-3.3044086E-3,5.919656E-4,-4.934975E-4,-5.5405064E-3,-5.7492186E-3,8.891908E-3,-1.8709559E-3,3.0917039E-3,-1.4641652E-2,4.4884994E-3,7.4588386E-3,1.8107062E-2,9.394409E-3,-7.4534575E-3],"split_indices":[0,30,0,29,5,11,3,1,6,13,11,14,17,10,30,0,0,0,0,0,0,0,0,0,0,0,0,0,0,0,0],"split_type":[0,0,0,0,0,0,0,0,0,0,0,0,0,0,0,0,0,0,0,0,0,0,0,0,0,0,0,0,0,0,0],"sum_hessian":[2.4919539E3,1.9960052E3,4.959486E2,1.5330492E3,4.62956E2,4.402649E2,5.5683712E1,1.0668732E3,4.6617606E2,4.098718E2,5.3084213E1,2.0157576E2,2.3868912E2,2.9944998E1,2.5738712E1,1.0019353E3,6.493785E1,2.9618842E2,1.6998764E2,1.1222354E2,2.9764825E2,1.9915627E1,3.3168587E1,1.2692341E2,7.465236E1,3.468006E0,2.3522112E2,2.0649876E1,9.295123E0,1.8130957E1,7.6077557E0],"tree_param":{"num_deleted":"0","num_feature":"32","num_nodes":"31","size_leaf_vector":"1"}},{"base_weights":[-2.8855228E-3,-8.5274935E-2,1.6273084E-1,-3.303193E-2,-2.522167E-1,3.2578278E-1,5.7855647E-2,8.904068E-3,-2.07957E-1,-3.16527E-1,1.2522286E-1,-1.7066592E-2,4.1168615E-1,-2.607029E-1,1.1492169E-1,-1.901533E-5,5.7549765E-3,6.132294E-3,-4.0119314E-3,-4.8587644E-3,2.890323E-3,4.156949E-3,-5.303241E-3,-5.3676697E-3,5.1071397E-3,-2.29653E-3,6.5865736E-3,-6.4673186E-3,2.1188916E-3,1.8272693E-3,-1.9746272E-2],"categories":[],"categories_nodes":[],"categories_segments":[],"categories_sizes":[],"default_left":[0,0,0,0,0,0,0,0,0,0,0,0,0,0,0,0,0,0,0,0,0,0,0,0,0,0,0,0,0,0,0],"id":24,"left_children":[1,3,5,7,9,11,13,15,17,19,21,23,25,27,29,-1,-1,-1,-1,-1,-1,-1,-1,-1,-1,-1,-1,-1,-1,-1,-1],"loss_changes":[3.381628E1,1.4425437E1,1.4059853E1,9.256853E0,9.610844E0,9.492142E0,9.160425E0,4.1790004E0,1.2233449E1,5.1207657E0,5.0755205E0,9.202749E0,8.41259E0,6.3329782E0,9.837421E0,0E0,0E0,0E0,0E0,0E0,0E0,0E0,0E0,0E0,0E0,0E0,0E0,0E0,0E0,0E0,0E0],"parents":[2147483647,0,0,1,1,2,2,3,3,4,4,5,5,6,6,7,7,8,8,9,9,10,10,11,11,12,12,13,13,14,14],"right_children":[2,4,6,8,10,12,14,16,18,20,22,24,26,28,30,-1,-1,-1,-1,-1,-1,-1,-1,-1,-1,-1,-1,-1,-1,-1,-1],"split_conditions":[1.3996E0,2.4764168E-1,1.4885081E-1,2.1052632E-1,1.6473339E0,2.1428572E-1,1.2831026E-1,5.578459E1,2.7053663E-1,1.3263918E0,6.666667E-1,5.833333E-1,4.4444445E-1,4.742493E0,2.7737155E0,-1.901533E-5,5.7549765E-3,6.132294E-3,-4.0119314E-3,-4.8587644E-3,2.890323E-3,4.156949E-3,-5.303241E-3,-5.3676697E-3,5.1071397E-3,-2.29653E-3,6.5865736E-3,-6.4673186E-3,2.1188916E-3,1.8272693E-3,-1.9746272E-2],"split_indices":[4,30,30,14,5,14,31,11,29,4,19,19,18,8,2,0,0,0,0,0,0,0,0,0,0,0,0,0,0,0,0],"split_type":[0,0,0,0,0,0,0,0,0,0,0,0,0,0,0,0,0,0,0,0,0,0,0,0,0,0,0,0,0,0,0],"sum_hessian":[2.4762676E3,1.6539565E3,8.2231104E2,1.2606459E3,3.933106E2,3.210542E2,5.0125687E2,1.0176312E3,2.4301468E2,3.3619E2,5.7120586E1,6.4485825E1,2.5656836E2,7.561035E1,4.256465E2,9.9316504E2,2.4466202E1,2.5496826E1,2.1751785E2,3.1898874E2,1.7201267E1,4.2969894E1,1.4150691E1,3.2917763E1,3.1568066E1,2.2717216E1,2.3385115E2,5.0890957E1,2.4719395E1,4.224121E2,3.2344065E0],"tree_param":{"num_deleted":"0","num_feature":"32","num_nodes":"31","size_leaf_vector":"1"}},{"base_weights":[2.3834486E-3,-5.361459E-2,2.2468035E-1,-6.1408933E-3,-2.086896E-1,8.16024E-2,3.6504394E-1,4.5956764E-2,-9.69177E-2,-2.908859E-1,-4.2094238E-2,3.9678663E-1,-1.3447057E-1,2.1805628E-1,5.225851E-1,7.5401005E-4,-1.10009825E-2,-1.273667E-2,-1.0644278E-3,-2.9850032E-3,-1.0867513E-2,-4.070725E-3,2.7249176E-3,7.778272E-3,2.3295349E-3,-3.4516826E-3,9.70799E-3,-4.2101933E-4,6.3855927E-3,8.229549E-3,-4.6002744E-3],"categories":[],"categories_nodes":[],"categories_segments":[],"categories_sizes":[],"default_left":[0,0,0,0,0,0,0,0,0,0,0,0,0,0,0,0,0,0,0,0,0,0,0,0,0,0,0,0,0,0,0],"id":25,"left_children":[1,3,5,7,9,11,13,15,17,19,21,23,25,27,29,-1,-1,-1,-1,-1,-1,-1,-1,-1,-1,-1,-1,-1,-1,-1,-1],"loss_changes":[3.0921375E1,1.46064625E1,1.0008173E1,7.1937776E0,6.355686E0,1.6997828E1,5.721924E0,6.1346846E0,9.472401E0,1.16385975E1,9.073758E0,3.5655794E0,1.3715408E1,7.732289E0,6.5739517E0,0E0,0E0,0E0,0E0,0E0,0E0,0E0,0E0,0E0,0E0,0E0,0E0,0E0,0E0,0E0,0E0],"parents":[2147483647,0,0,1,1,2,2,3,3,4,4,5,5,6,6,7,7,8,8,9,9,10,10,11,11,12,12,13,13,14,14],"right_children":[2,4,6,8,10,12,14,16,18,20,22,24,26,28,30,-1,-1,-1,-1,-1,-1,-1,-1,-1,-1,-1,-1,-1,-1,-1,-1],"split_conditions":[1.7599385E0,2.4372488E-1,1.158803E0,4.7977337E-1,1.3926157E0,5.4545456E-1,9.021306E-2,6.8858285E0,4.9011594E-1,4.2044153E0,3.2242923E0,7.7287936E-1,2.719423E0,1.9344077E0,7.777778E-1,7.5401005E-4,-1.10009825E-2,-1.273667E-2,-1.0644278E-3,-2.9850032E-3,-1.0867513E-2,-4.070725E-3,2.7249176E-3,7.778272E-3,2.3295349E-3,-3.4516826E-3,9.70799E-3,-4.2101933E-4,6.3855927E-3,8.229549E-3,-4.6002744E-3],"split_indices":[0,30,3,29,1,16,31,9,29,9,8,29,0,4,19,0,0,0,0,0,0,0,0,0,0,0,0,0,0,0,0],"split_type":[0,0,0,0,0,0,0,0,0,0,0,0,0,0,0,0,0,0,0,0,0,0,0,0,0,0,0,0,0,0,0],"sum_hessian":[2.4820378E3,1.9832125E3,4.9882535E2,1.5191798E3,4.6403265E2,2.4780728E2,2.5101805E2,9.655407E2,5.536391E2,3.1022504E2,1.5380763E2,1.0044804E2,1.4735925E2,1.3109192E2,1.1992613E2,9.576619E2,7.8787484E0,1.3145951E1,5.4049316E2,2.6781705E2,4.240799E1,7.4971924E1,7.883571E1,5.9175076E1,4.127296E1,1.3051991E2,1.6839342E1,6.430168E1,6.6790245E1,1.1204171E2,7.8844233E0],"tree_param":{"num_deleted":"0","num_feature":"32","num_nodes":"31","size_leaf_vector":"1"}},{"base_weights":[-1.0171567E-2,-5.9108198E-2,2.0064577E-1,-1.4324446E-2,-2.1343262E-1,2.2814748E-1,-7.4843514E-1,4.683899E-2,-1.0944935E-1,-2.559747E-1,3.7136102E-1,2.0332997E-1,7.623172E-1,7.285429E-2,-2.0641854E-2,-5.2789994E-5,3.189766E-3,-2.5633029E-3,1.1429423E-3,-1.0140769E-3,-4.8859874E-3,-3.7757167E-5,1.5073104E-2,3.429219E-3,-1.8230127E-4,1.4972565E-2,3.0641058E-3,-1.2120745E-2,9.395469E-3],"categories":[],"categories_nodes":[],"categories_segments":[],"categories_sizes":[],"default_left":[0,0,0,0,0,0,0,0,0,0,0,0,0,0,0,0,0,0,0,0,0,0,0,0,0,0,0,0,0],"id":26,"left_children":[1,3,5,7,9,11,13,15,17,19,21,23,25,27,-1,-1,-1,-1,-1,-1,-1,-1,-1,-1,-1,-1,-1,-1,-1],"loss_changes":[2.5612427E1,1.3921293E1,1.2379055E1,9.09692E0,1.1367128E1,5.8810863E0,8.014037E0,8.658533E0,8.492838E0,7.0681877E0,8.150063E0,3.809576E0,3.0280552E0,4.5780687E0,0E0,0E0,0E0,0E0,0E0,0E0,0E0,0E0,0E0,0E0,0E0,0E0,0E0,0E0,0E0],"parents":[2147483647,0,0,1,1,2,2,3,3,4,4,5,5,6,6,7,7,8,8,9,9,10,10,11,11,12,12,13,13],"right_children":[2,4,6,8,10,12,14,16,18,20,22,24,26,28,-1,-1,-1,-1,-1,-1,-1,-1,-1,-1,-1,-1,-1,-1,-1],"split_conditions":[1.680468E0,2.4479611E-1,2.0315845E0,4.627618E-1,5.172454E0,2.0577888E0,4.223843E-1,3.717823E0,1.4668077E0,2.2676E0,1.2655923E0,3.75E-1,7.506275E-1,1.9289111E0,-2.0641854E-2,-5.2789994E-5,3.189766E-3,-2.5633029E-3,1.1429423E-3,-1.0140769E-3,-4.8859874E-3,-3.7757167E-5,1.5073104E-2,3.429219E-3,-1.8230127E-4,1.4972565E-2,3.0641058E-3,-1.2120745E-2,9.395469E-3],"split_indices":[4,30,2,29,9,3,29,9,2,8,2,15,29,0,0,0,0,0,0,0,0,0,0,0,0,0,0,0,0],"split_type":[0,0,0,0,0,0,0,0,0,0,0,0,0,0,0,0,0,0,0,0,0,0,0,0,0,0,0,0,0],"sum_hessian":[2.480471E3,2.0137439E3,4.6672693E2,1.5616562E3,4.5208768E2,4.5432156E2,1.2405352E1,9.508111E2,6.1084515E2,4.21954E2,3.0133675E1,4.3547028E2,1.8851297E1,6.206535E0,6.1988173E0,7.427921E2,2.0801898E2,4.422908E2,1.6855437E2,1.404487E2,2.815053E2,2.0284689E1,9.848987E0,3.6693555E2,6.853472E1,1.1520091E1,7.331206E0,2.2401087E0,3.966426E0],"tree_param":{"num_deleted":"0","num_feature":"32","num_nodes":"29","size_leaf_vector":"1"}},{"base_weights":[7.9651334E-4,-7.4468546E-2,1.584508E-1,-1.2032616E-1,1.4687571E-1,3.786357E-1,9.581313E-2,-1.1137172E-2,-2.2288024E-1,-4.7405198E-1,2.002933E-1,4.5020777E-1,-4.2591932E-1,-4.9531188E-2,2.557065E-1,-2.6132306E-4,1.218468E-2,-3.989245E-3,-1.984527E-4,1.0320058E-2,-9.1896765E-3,1.995846E-3,8.290388E-3,-7.90664E-3,6.6247955E-3,-1.6508603E-2,-3.8453203E-4,-2.5426087E-4,-9.295977E-3,6.026002E-3,1.8025831E-3],"categories":[],"categories_nodes":[],"categories_segments":[],"categories_sizes":[],"default_left":[0,0,0,0,0,0,0,0,0,0,0,0,0,0,0,0,0,0,0,0,0,0,0,0,0,0,0,0,0,0,0],"id":27,"left_children":[1,3,5,7,9,11,13,15,17,19,21,23,25,27,29,-1,-1,-1,-1,-1,-1,-1,-1,-1,-1,-1,-1,-1,-1,-1,-1],"loss_changes":[2.963285E1,1.7175251E1,1.1093445E1,1.5683338E1,9.732067E0,1.0463825E1,1.4644121E1,4.443356E0,9.128822E0,5.5137496E0,6.015188E0,3.6721191E0,4.4602356E0,6.344355E0,6.547121E0,0E0,0E0,0E0,0E0,0E0,0E0,0E0,0E0,0E0,0E0,0E0,0E0,0E0,0E0,0E0,0E0],"parents":[2147483647,0,0,1,1,2,2,3,3,4,4,5,5,6,6,7,7,8,8,9,9,10,10,11,11,12,12,13,13,14,14],"right_children":[2,4,6,8,10,12,14,16,18,20,22,24,26,28,30,-1,-1,-1,-1,-1,-1,-1,-1,-1,-1,-1,-1,-1,-1,-1,-1],"split_conditions":[1.402872E0,1.6842407E0,1.0571881E-1,6.301831E-1,5.288945E-1,7.3333335E-1,1.3538308E0,7.777778E-1,6.315789E-1,1.8181819E-1,5.478369E1,1.0526316E-1,1.859523E0,2.0190308E0,1.6381855E0,-2.6132306E-4,1.218468E-2,-3.989245E-3,-1.984527E-4,1.0320058E-2,-9.1896765E-3,1.995846E-3,8.290388E-3,-7.90664E-3,6.6247955E-3,-1.6508603E-2,-3.8453203E-4,-2.5426087E-4,-9.295977E-3,6.026002E-3,1.8025831E-3],"split_indices":[4,5,30,1,3,16,5,14,19,19,11,14,0,2,4,0,0,0,0,0,0,0,0,0,0,0,0,0,0,0,0],"split_type":[0,0,0,0,0,0,0,0,0,0,0,0,0,0,0,0,0,0,0,0,0,0,0,0,0,0,0,0,0,0,0],"sum_hessian":[2.4953257E3,1.6893486E3,8.0597705E2,1.399798E3,2.8955063E2,1.7738516E2,6.285919E2,6.7850476E2,7.212932E2,2.2312698E1,2.6723795E2,1.6329877E2,1.4086401E1,3.296383E2,2.989536E2,6.7377435E2,4.7304306E0,5.588312E2,1.62462E2,2.4795504E0,1.9833149E1,2.3347768E2,3.3760273E1,2.7172735E0,1.6058148E2,4.225088E0,9.861313E0,3.144721E2,1.5166205E1,1.261489E2,1.728047E2],"tree_param":{"num_deleted":"0","num_feature":"32","num_nodes":"31","size_leaf_vector":"1"}},{"base_weights":[5.6959125E-3,-6.318267E-2,1.4349616E-1,3.0903764E-2,-1.8534724E-1,2.7592167E-1,6.707964E-2,-1.2834842E-2,3.5774115E-1,-3.1700066E-1,-7.630603E-2,-2.8763345E-1,3.22882E-1,1.9408053E-2,3.8060042E-1,9.618959E-5,-5.574429E-3,1.4948672E-2,3.9871675E-3,8.004833E-4,-5.80113E-3,-5.90885E-3,7.225292E-4,-6.288629E-3,4.1189045E-3,6.921736E-4,5.809415E-3,1.0943341E-3,-4.9683903E-3,-4.348089E-3,7.913481E-3],"categories":[],"categories_nodes":[],"categories_segments":[],"categories_sizes":[],"default_left":[0,0,0,0,0,0,0,0,0,0,0,0,0,0,0,0,0,0,0,0,0,0,0,0,0,0,0,0,0,0,0],"id":28,"left_children":[1,3,5,7,9,11,13,15,17,19,21,23,25,27,29,-1,-1,-1,-1,-1,-1,-1,-1,-1,-1,-1,-1,-1,-1,-1,-1],"loss_changes":[2.3494661E1,1.8976126E1,8.329359E0,1.3345549E1,1.02863655E1,8.072651E0,7.830371E0,6.2144074E0,5.476984E0,1.1590729E1,1.7305275E1,2.3220239E0,6.8388653E0,9.941342E0,8.83698E0,0E0,0E0,0E0,0E0,0E0,0E0,0E0,0E0,0E0,0E0,0E0,0E0,0E0,0E0,0E0,0E0],"parents":[2147483647,0,0,1,1,2,2,3,3,4,4,5,5,6,6,7,7,8,8,9,9,10,10,11,11,12,12,13,13,14,14],"right_children":[2,4,6,8,10,12,14,16,18,20,22,24,26,28,30,-1,-1,-1,-1,-1,-1,-1,-1,-1,-1,-1,-1,-1,-1,-1,-1],"split_conditions":[1.3853568E0,6.666667E-2,1.4523971E-1,1.4529698E0,1.3174E0,4.375E-1,5.45126E1,1.9340154E0,1.4914693E0,3E-1,3.255854E0,1.3150649E-1,5E-1,6.871453E-1,1.661327E-1,9.618959E-5,-5.574429E-3,1.4948672E-2,3.9871675E-3,8.004833E-4,-5.80113E-3,-5.90885E-3,7.225292E-4,-6.288629E-3,4.1189045E-3,6.921736E-4,5.809415E-3,1.0943341E-3,-4.9683903E-3,-4.348089E-3,7.913481E-3],"split_indices":[4,14,30,3,2,18,10,2,3,19,9,30,12,29,30,0,0,0,0,0,0,0,0,0,0,0,0,0,0,0,0],"split_type":[0,0,0,0,0,0,0,0,0,0,0,0,0,0,0,0,0,0,0,0,0,0,0,0,0,0,0,0,0,0,0],"sum_hessian":[2.4733857E3,1.6494568E3,8.23929E2,9.322336E2,7.172232E2,3.0052515E2,5.234039E2,8.230506E2,1.0918299E2,3.2405765E2,3.9316556E2,2.2721922E1,2.7780322E2,4.5524472E2,6.815915E1,7.838048E2,3.9245792E1,9.168295E0,1.00014694E2,6.583849E1,2.5821915E2,1.05890755E2,2.872748E2,1.8011131E1,4.7107906E0,6.906128E1,2.0874194E2,3.942671E2,6.0977646E1,1.406662E1,5.4092525E1],"tree_param":{"num_deleted":"0","num_feature":"32","num_nodes":"31","size_leaf_vector":"1"}},{"base_weights":[-3.4703175E-5,-3.1098468E-2,3.033033E-1,-6.6964455E-2,1.7000598E-1,3.6465693E-1,-4.2956984E-1,1.1668144E-2,-1.2834251E-1,1.4019312E-1,8.9450634E-1,-6.4688206E-2,4.141965E-1,3.7520942E-1,-1.0092527E0,3.028889E-4,-1.0623703E-2,-2.6815024E-3,1.0523429E-3,-1.6998899E-3,2.9964142E-3,1.6402021E-2,-4.4443305E-3,-1.8801857E-2,3.8267886E-3,4.7666705E-3,1.0215882E-2,4.4665276E-4,1.2913858E-2,-3.5811767E-3,-1.9204203E-2],"categories":[],"categories_nodes":[],"categories_segments":[],"categories_sizes":[],"default_left":[0,0,0,0,0,0,0,0,0,0,0,0,0,0,0,0,0,0,0,0,0,0,0,0,0,0,0,0,0,0,0],"id":29,"left_children":[1,3,5,7,9,11,13,15,17,19,21,23,25,27,29,-1,-1,-1,-1,-1,-1,-1,-1,-1,-1,-1,-1,-1,-1,-1,-1],"loss_changes":[2.3399403E1,1.6258877E1,1.0529024E1,9.23121E0,7.244684E0,4.5657387E0,8.906152E0,6.354403E0,1.3580368E1,6.2667813E0,4.7284145E0,1.0179028E1,4.260254E0,1.5323808E0,2.574543E0,0E0,0E0,0E0,0E0,0E0,0E0,0E0,0E0,0E0,0E0,0E0,0E0,0E0,0E0,0E0,0E0],"parents":[2147483647,0,0,1,1,2,2,3,3,4,4,5,5,6,6,7,7,8,8,9,9,10,10,11,11,12,12,13,13,14,14],"right_children":[2,4,6,8,10,12,14,16,18,20,22,24,26,28,30,-1,-1,-1,-1,-1,-1,-1,-1,-1,-1,-1,-1,-1,-1,-1,-1],"split_conditions":[1.964129E0,1.7766408E0,2.106118E-1,1E-1,5.6926785E1,4.1666666E-1,9.992E-1,4.836023E0,1.6823515E0,4.7368422E-1,5.5483294E-1,1.9485692E0,1.6730078E-1,3.1752202E-1,2.408E-1,3.028889E-4,-1.0623703E-2,-2.6815024E-3,1.0523429E-3,-1.6998899E-3,2.9964142E-3,1.6402021E-2,-4.4443305E-3,-1.8801857E-2,3.8267886E-3,4.7666705E-3,1.0215882E-2,4.4665276E-4,1.2913858E-2,-3.5811767E-3,-1.9204203E-2],"split_indices":[4,5,30,14,10,12,2,8,0,17,31,0,30,30,9,0,0,0,0,0,0,0,0,0,0,0,0,0,0,0,0],"split_type":[0,0,0,0,0,0,0,0,0,0,0,0,0,0,0,0,0,0,0,0,0,0,0,0,0,0,0,0,0,0,0],"sum_hessian":[2.4812686E3,2.2515889E3,2.296797E2,1.911372E3,3.4021677E2,2.1240068E2,1.7279024E1,8.3826483E2,1.0731072E3,3.2791666E2,1.2300119E1,2.1940756E1,1.9045992E2,7.3825254E0,9.896499E0,8.2858606E2,9.678755E0,8.2162897E2,2.5147821E2,7.130721E1,2.5660944E2,1.0080909E1,2.2192101E0,3.971679E0,1.7969076E1,1.5499144E2,3.5468483E1,5.168038E0,2.2144873E0,3.7163477E0,6.180151E0],"tree_param":{"num_deleted":"0","num_feature":"32","num_nodes":"31","size_leaf_vector":"1"}},{"base_weights":[-6.379915E-4,-5.9751637E-2,2.0938061E-1,-8.46611E-2,2.8908426E-1,1.05339E-1,3.8134784E-1,1.1942544E-2,-1.7072614E-1,1.3835886E-1,7.941261E-1,3.279339E-1,-1.8373919E-3,5.320869E-2,4.970576E-1,-2.0713934E-4,5.919331E-3,-4.8165647E-3,-1.6780171E-3,-2.1220273E-3,4.6474817E-3,4.617181E-3,1.3857801E-2,5.7150437E-3,-1.2310805E-2,-3.7194212E-4,1.6847268E-2,4.222054E-3,-5.973169E-3,7.5225956E-3,-1.2243434E-2],"categories":[],"categories_nodes":[],"categories_segments":[],"categories_sizes":[],"default_left":[0,0,0,0,0,0,0,0,0,0,0,0,0,0,0,0,0,0,0,0,0,0,0,0,0,0,0,0,0,0,0],"id":30,"left_children":[1,3,5,7,9,11,13,15,17,19,21,23,25,27,29,-1,-1,-1,-1,-1,-1,-1,-1,-1,-1,-1,-1,-1,-1,-1,-1],"loss_changes":[3.10093E1,1.6960917E1,9.775547E0,1.5133711E1,9.7960615E0,8.1882305E0,7.811075E0,9.358124E0,8.460705E0,5.6763105E0,2.3137722E0,1.0836164E1,6.890147E0,6.6018457E0,8.268242E0,0E0,0E0,0E0,0E0,0E0,0E0,0E0,0E0,0E0,0E0,0E0,0E0,0E0,0E0,0E0,0E0],"parents":[2147483647,0,0,1,1,2,2,3,3,4,4,5,5,6,6,7,7,8,8,9,9,10,10,11,11,12,12,13,13,14,14],"right_children":[2,4,6,8,10,12,14,16,18,20,22,24,26,28,30,-1,-1,-1,-1,-1,-1,-1,-1,-1,-1,-1,-1,-1,-1,-1,-1],"split_conditions":[1.6878462E0,5.204031E0,4.0773306E0,3.6981693E-1,6.315789E-1,1.0734778E-1,8.113059E-2,1.6502154E0,4E-1,2.0288716E-1,2.0577888E0,6.666667E-1,2.4789124E0,1.1635616E0,2.6555946E0,-2.0713934E-4,5.919331E-3,-4.8165647E-3,-1.6780171E-3,-2.1220273E-3,4.6474817E-3,4.617181E-3,1.3857801E-2,5.7150437E-3,-1.2310805E-2,-3.7194212E-4,1.6847268E-2,4.222054E-3,-5.973169E-3,7.5225956E-3,-1.2243434E-2],"split_indices":[0,9,9,2,18,30,31,7,18,30,1,13,5,2,5,0,0,0,0,0,0,0,0,0,0,0,0,0,0,0,0],"split_type":[0,0,0,0,0,0,0,0,0,0,0,0,0,0,0,0,0,0,0,0,0,0,0,0,0,0,0,0,0,0,0],"sum_hessian":[2.495728E3,1.9481115E3,5.4761676E2,1.8189801E3,1.2913132E2,3.4219714E2,2.0541957E2,8.574251E2,9.61555E2,1.0043216E2,2.869916E1,1.1054539E2,2.3165176E2,5.3932686E1,1.514869E2,8.0581616E2,5.1608917E1,2.2076117E2,7.407938E2,4.014521E1,6.028695E1,9.116542E0,1.9582617E1,1.0442383E2,6.12156E0,2.279542E2,3.697577E0,3.5804783E1,1.8127903E1,1.4804166E2,3.4452267E0],"tree_param":{"num_deleted":"0","num_feature":"32","num_nodes":"31","size_leaf_vector":"1"}},{"base_weights":[1.3811027E-2,2.753099E-1,-3.343952E-2,1.6851902E-1,5.661666E-1,-9.373521E-2,8.257882E-2,-1.6317041E-1,2.4575453E-1,3.0857164E-1,7.247837E-1,-1.2723022E-2,-2.1725638E-1,4.80187E-2,4.5142233E-1,9.197651E-4,-7.906422E-3,4.216033E-3,-3.8742728E-3,9.96275E-4,1.2854176E-2,1.1296715E-2,-4.0103067E-3,-3.1649656E-4,8.944995E-3,-5.423928E-3,-1.3145618E-3,8.018958E-4,-1.801746E-2,7.4991737E-3,-6.2164715E-3],"categories":[],"categories_nodes":[],"categories_segments":[],"categories_sizes":[],"default_left":[0,0,0,0,0,0,0,0,0,0,0,0,0,0,0,0,0,0,0,0,0,0,0,0,0,0,0,0,0,0,0],"id":31,"left_children":[1,3,5,7,9,11,13,15,17,19,21,23,25,27,29,-1,-1,-1,-1,-1,-1,-1,-1,-1,-1,-1,-1,-1,-1,-1,-1],"loss_changes":[3.0706703E1,1.17176895E1,1.4733812E1,7.2031364E0,3.9322853E0,1.386327E1,9.161891E0,4.9018345E0,6.451256E0,5.7597685E0,5.1198807E0,5.318315E0,1.1391111E1,7.923E0,4.714099E0,0E0,0E0,0E0,0E0,0E0,0E0,0E0,0E0,0E0,0E0,0E0,0E0,0E0,0E0,0E0,0E0],"parents":[2147483647,0,0,1,1,2,2,3,3,4,4,5,5,6,6,7,7,8,8,9,9,10,10,11,11,12,12,13,13,14,14],"right_children":[2,4,6,8,10,12,14,16,18,20,22,24,26,28,30,-1,-1,-1,-1,-1,-1,-1,-1,-1,-1,-1,-1,-1,-1,-1,-1],"split_conditions":[1.3852437E-1,2.311346E0,1.360753E0,6.666667E-2,6.869499E-2,3E-1,5.45126E1,2.6666984E-1,7.2727275E-1,5.7894737E-1,1.7222847E0,1.12322E0,1.2440718E0,9.0909094E-1,5.5483294E-1,9.197651E-4,-7.906422E-3,4.216033E-3,-3.8742728E-3,9.96275E-4,1.2854176E-2,1.1296715E-2,-4.0103067E-3,-3.1649656E-4,8.944995E-3,-5.423928E-3,-1.3145618E-3,8.018958E-4,-1.801746E-2,7.4991737E-3,-6.2164715E-3],"split_indices":[30,0,5,13,30,19,10,8,16,14,2,5,2,18,31,0,0,0,0,0,0,0,0,0,0,0,0,0,0,0,0],"split_type":[0,0,0,0,0,0,0,0,0,0,0,0,0,0,0,0,0,0,0,0,0,0,0,0,0,0,0,0,0,0,0],"sum_hessian":[2.4834272E3,3.7932132E2,2.104106E3,2.7860733E2,1.00714005E2,1.3846724E3,7.194336E2,5.2411682E1,2.2619565E2,3.950427E1,6.1209736E1,8.368933E2,5.477791E2,6.5883215E2,6.0601467E1,3.3844223E1,1.856746E1,2.0540994E2,2.07857E1,2.915681E1,1.0347459E1,5.701777E1,4.191967E0,8.254258E2,1.14675045E1,2.3146794E2,3.1631116E2,6.553694E2,3.462727E0,5.5908825E1,4.6926455E0],"tree_param":{"num_deleted":"0","num_feature":"32","num_nodes":"31","size_leaf_vector":"1"}},{"base_weights":[-9.37533E-3,-8.224282E-2,1.19737744E-1,3.5772144E-3,-1.8775123E-1,7.869553E-2,4.3763024E-1,-2.9587792E-2,1.6028868E-1,-2.0455794E-1,1.6997738E-2,-4.1547664E-2,2.192289E-1,6.33617E-1,1.3234441E-1,-5.9229194E-4,1.0296451E-2,-4.9065016E-3,3.4723314E-3,-4.574761E-3,-1.6661321E-3,-1.1202765E-3,1.0617899E-2,-1.02988565E-2,3.526531E-3,6.26316E-3,1.8592862E-2,-3.9008225E-3,6.4779976E-3],"categories":[],"categories_nodes":[],"categories_segments":[],"categories_sizes":[],"default_left":[0,0,0,0,0,0,0,0,0,0,0,0,0,0,0,0,0,0,0,0,0,0,0,0,0,0,0,0,0],"id":32,"left_children":[1,3,5,7,9,11,13,15,17,19,-1,21,23,25,27,-1,-1,-1,-1,-1,-1,-1,-1,-1,-1,-1,-1,-1,-1],"loss_changes":[2.3317472E1,1.4345422E1,1.16317E1,4.5503626E0,1.6913406E1,1.3411703E1,6.020397E0,6.904405E0,6.811838E0,7.261038E0,0E0,1.3030696E1,1.1086704E1,7.434025E0,5.6539135E0,0E0,0E0,0E0,0E0,0E0,0E0,0E0,0E0,0E0,0E0,0E0,0E0,0E0,0E0],"parents":[2147483647,0,0,1,1,2,2,3,3,4,4,5,5,6,6,7,7,8,8,9,9,11,11,12,12,13,13,14,14],"right_children":[2,4,6,8,10,12,14,16,18,20,-1,22,24,26,28,-1,-1,-1,-1,-1,-1,-1,-1,-1,-1,-1,-1,-1,-1],"split_conditions":[1.3328831E0,2.3076923E-1,2.3991847E0,5.714286E-1,6.4959326E0,1.329174E0,1.09822184E-1,4.765366E-1,1.6577628E-1,1.3174E0,1.6997738E-2,2.2311616E0,3.5E-1,6.310774E-2,2.8926108E0,-5.9229194E-4,1.0296451E-2,-4.9065016E-3,3.4723314E-3,-4.574761E-3,-1.6661321E-3,-1.1202765E-3,1.0617899E-2,-1.02988565E-2,3.526531E-3,6.26316E-3,1.8592862E-2,-3.9008225E-3,6.4779976E-3],"split_indices":[4,16,0,19,9,5,30,0,31,2,0,4,17,31,9,0,0,0,0,0,0,0,0,0,0,0,0,0,0],"split_type":[0,0,0,0,0,0,0,0,0,0,0,0,0,0,0,0,0,0,0,0,0,0,0,0,0,0,0,0,0],"sum_hessian":[2.476388E3,1.5832262E3,8.931617E2,8.736057E2,7.0962054E2,7.921384E2,1.0102324E2,7.216858E2,1.519199E2,7.02019E2,7.601543E0,4.2726566E2,3.6487277E2,6.087034E1,4.01529E1,7.1095917E2,1.0726595E1,2.1614376E1,1.3030553E2,2.9157922E2,4.104398E2,4.086317E2,1.8633947E1,1.0926852E1,3.5394592E2,4.90579E1,1.181244E1,1.79244E1,2.22285E1],"tree_param":{"num_deleted":"0","num_feature":"32","num_nodes":"29","size_leaf_vector":"1"}},{"base_weights":[-5.588717E-3,-7.5409174E-2,1.1588874E-1,-3.5750568E-2,-2.632953E-1,6.950184E-2,3.358045E-1,-6.033266E-2,2.0482938E-1,1.09499194E-1,-3.4712836E-1,-4.286648E-2,2.0050564E-1,1.0579204E-1,6.374112E-1,-4.6011398E-4,-2.8680859E-3,5.015286E-4,1.0542398E-2,1.7499495E-2,-5.631284E-4,-7.4848128E-3,-2.766153E-3,-1.2863954E-4,-1.0385374E-2,-4.8387744E-3,3.2892309E-3,3.5113865E-3,-4.857329E-3,9.841056E-3,-8.862466E-3],"categories":[],"categories_nodes":[],"categories_segments":[],"categories_sizes":[],"default_left":[0,0,0,0,0,0,0,0,0,0,0,0,0,0,0,0,0,0,0,0,0,0,0,0,0,0,0,0,0,0,0],"id":33,"left_children":[1,3,5,7,9,11,13,15,17,19,21,23,25,27,29,-1,-1,-1,-1,-1,-1,-1,-1,-1,-1,-1,-1,-1,-1,-1,-1],"loss_changes":[2.1024218E1,1.1719173E1,9.2060795E0,7.7055426E0,8.606817E0,1.1025602E1,1.0847345E1,4.676187E0,1.1098832E1,8.712044E0,6.127371E0,9.45587E0,6.3279095E0,5.947505E0,5.756359E0,0E0,0E0,0E0,0E0,0E0,0E0,0E0,0E0,0E0,0E0,0E0,0E0,0E0,0E0,0E0,0E0],"parents":[2147483647,0,0,1,1,2,2,3,3,4,4,5,5,6,6,7,7,8,8,9,9,10,10,11,11,12,12,13,13,14,14],"right_children":[2,4,6,8,10,12,14,16,18,20,22,24,26,28,30,-1,-1,-1,-1,-1,-1,-1,-1,-1,-1,-1,-1,-1,-1,-1,-1],"split_conditions":[1.3328831E0,4.6666667E-1,2.081945E0,2E0,8.1216156E-1,1.3263918E0,3.427484E1,4.2082882E-1,1.4085077E0,9.090909E-2,4.5E-1,2.0315845E0,7.9636157E-1,1E-1,8.312438E-1,-4.6011398E-4,-2.8680859E-3,5.015286E-4,1.0542398E-2,1.7499495E-2,-5.631284E-4,-7.4848128E-3,-2.766153E-3,-1.2863954E-4,-1.0385374E-2,-4.8387744E-3,3.2892309E-3,3.5113865E-3,-4.857329E-3,9.841056E-3,-8.862466E-3],"split_indices":[4,12,4,5,3,5,11,31,3,18,18,2,3,15,29,0,0,0,0,0,0,0,0,0,0,0,0,0,0,0,0],"split_type":[0,0,0,0,0,0,0,0,0,0,0,0,0,0,0,0,0,0,0,0,0,0,0,0,0,0,0,0,0,0,0],"sum_hessian":[2.4767695E3,1.573032E3,9.037377E2,1.2998522E3,2.731798E2,7.474036E2,1.5633401E2,1.180028E3,1.1982423E2,5.009736E1,2.2308244E2,4.0267908E2,3.4472458E2,8.946026E1,6.6873764E1,9.904162E2,1.8961172E2,9.221949E1,2.7604738E1,4.983886E0,4.5113472E1,9.906213E1,1.2402031E2,3.850096E2,1.7669443E1,1.9279661E1,3.2544492E2,6.817942E1,2.1280836E1,6.419057E1,2.6831994E0],"tree_param":{"num_deleted":"0","num_feature":"32","num_nodes":"31","size_leaf_vector":"1"}},{"base_weights":[5.5529233E-3,-4.9058944E-2,1.9733898E-1,2.7879956E-3,-1.9347432E-1,-2.2761783E-1,2.417766E-1,-2.1957588E-1,3.702876E-2,-2.4831186E-1,1.8910718E-1,-5.0338143E-1,2.844498E-1,1.9724993E-1,5.9818345E-1,-6.8716127E-3,-6.413842E-5,3.25465E-4,5.318595E-3,-2.7509878E-4,-4.591363E-3,8.092565E-3,-1.6210449E-3,-9.065515E-3,9.323476E-3,1.5714863E-2,8.516963E-4,4.394508E-3,1.4139558E-3,1.1120108E-2,-6.898083E-3],"categories":[],"categories_nodes":[],"categories_segments":[],"categories_sizes":[],"default_left":[0,0,0,0,0,0,0,0,0,0,0,0,0,0,0,0,0,0,0,0,0,0,0,0,0,0,0,0,0,0,0],"id":34,"left_children":[1,3,5,7,9,11,13,15,17,19,21,23,25,27,29,-1,-1,-1,-1,-1,-1,-1,-1,-1,-1,-1,-1,-1,-1,-1,-1],"loss_changes":[2.5927334E1,1.4427959E1,1.0415869E1,1.0810976E1,1.0726496E1,7.5505185E0,7.772354E0,1.09430275E1,5.8224072E0,7.9368076E0,7.626085E0,6.0801706E0,3.472931E0,4.904112E0,1.1817574E1,0E0,0E0,0E0,0E0,0E0,0E0,0E0,0E0,0E0,0E0,0E0,0E0,0E0,0E0,0E0,0E0],"parents":[2147483647,0,0,1,1,2,2,3,3,4,4,5,5,6,6,7,7,8,8,9,9,10,10,11,11,12,12,13,13,14,14],"right_children":[2,4,6,8,10,12,14,16,18,20,22,24,26,28,30,-1,-1,-1,-1,-1,-1,-1,-1,-1,-1,-1,-1,-1,-1,-1,-1],"split_conditions":[1.6823515E0,2.382106E-1,1.3333334E-1,1.3419257E-1,6.315789E-1,1.4085077E0,5.536122E1,4.4444445E-1,1.942211E0,2.777778E-1,3.4815636E-1,2.0059755E0,4.5454547E-1,1.3852437E-1,2.240997E0,-6.8716127E-3,-6.413842E-5,3.25465E-4,5.318595E-3,-2.7509878E-4,-4.591363E-3,8.092565E-3,-1.6210449E-3,-9.065515E-3,9.323476E-3,1.5714863E-2,8.516963E-4,4.394508E-3,1.4139558E-3,1.1120108E-2,-6.898083E-3],"split_indices":[0,30,14,31,19,3,10,18,3,19,29,5,17,30,1,0,0,0,0,0,0,0,0,0,0,0,0,0,0,0,0],"split_type":[0,0,0,0,0,0,0,0,0,0,0,0,0,0,0,0,0,0,0,0,0,0,0,0,0,0,0,0,0,0,0],"sum_hessian":[2.4735234E3,1.9258688E3,5.476548E2,1.4178304E3,5.080383E2,5.1456287E1,4.9619852E2,1.8846994E2,1.2293605E3,4.4465445E2,6.3383854E1,3.345613E1,1.8000154E1,4.424729E2,5.3725628E1,8.321853E1,1.0525141E2,1.1822062E3,4.715429E1,1.13283264E2,3.313712E2,2.7552784E1,3.5831074E1,3.025166E1,3.204472E0,2.9716675E0,1.5028488E1,2.0120448E2,2.4126842E2,4.590452E1,7.8211107E0],"tree_param":{"num_deleted":"0","num_feature":"32","num_nodes":"31","size_leaf_vector":"1"}},{"base_weights":[2.2446108E-4,-5.9127945E-2,2.1120957E-1,-9.8018326E-2,1.2532102E-1,3.4694225E-2,3.0655125E-1,-5.2771892E-2,-2.543919E-1,-1.8360141E-1,1.8758073E-1,-3.4307424E-2,6.8182266E-1,1.94639E-1,5.135464E-1,1.3492374E-4,-1.9290493E-3,-1.3998749E-4,-4.462929E-3,5.941164E-3,-5.7466486E-3,1.5821864E-3,7.669038E-3,5.5124663E-4,-7.599792E-3,5.150453E-3,1.3030284E-2,3.0353505E-3,-1.4130586E-2,8.885015E-3,-1.205033E-3],"categories":[],"categories_nodes":[],"categories_segments":[],"categories_sizes":[],"default_left":[0,0,0,0,0,0,0,0,0,0,0,0,0,0,0,0,0,0,0,0,0,0,0,0,0,0,0,0,0,0,0],"id":35,"left_children":[1,3,5,7,9,11,13,15,17,19,21,23,25,27,29,-1,-1,-1,-1,-1,-1,-1,-1,-1,-1,-1,-1,-1,-1,-1,-1],"loss_changes":[3.1424213E1,1.4061069E1,9.261316E0,1.143458E1,6.6021266E0,8.701507E0,8.183865E0,6.6040077E0,5.558649E0,8.037178E0,7.584771E0,6.5814843E0,1.1081619E0,6.1073227E0,8.864391E0,0E0,0E0,0E0,0E0,0E0,0E0,0E0,0E0,0E0,0E0,0E0,0E0,0E0,0E0,0E0,0E0],"parents":[2147483647,0,0,1,1,2,2,3,3,4,4,5,5,6,6,7,7,8,8,9,9,10,10,11,11,12,12,13,13,14,14],"right_children":[2,4,6,8,10,12,14,16,18,20,22,24,26,28,30,-1,-1,-1,-1,-1,-1,-1,-1,-1,-1,-1,-1,-1,-1,-1,-1],"split_conditions":[1.6878462E0,1.6842407E0,3.888889E-1,2.5081977E-1,4.5E-1,2.8433647E0,1.964129E0,8.3333336E-2,1.1111111E-1,4.375E-1,2.4716616E0,5E-1,5.3083654E-2,1E0,1.8945779E-1,1.3492374E-4,-1.9290493E-3,-1.3998749E-4,-4.462929E-3,5.941164E-3,-5.7466486E-3,1.5821864E-3,7.669038E-3,5.5124663E-4,-7.599792E-3,5.150453E-3,1.3030284E-2,3.0353505E-3,-1.4130586E-2,8.885015E-3,-1.205033E-3],"split_indices":[0,5,19,30,17,4,4,14,19,19,1,13,30,19,30,0,0,0,0,0,0,0,0,0,0,0,0,0,0,0,0],"split_type":[0,0,0,0,0,0,0,0,0,0,0,0,0,0,0,0,0,0,0,0,0,0,0,0,0,0,0,0,0,0,0],"sum_hessian":[2.5074277E3,1.9574855E3,5.499422E2,1.617013E3,3.4047256E2,1.9334592E2,3.565963E2,1.2551693E3,3.6184363E2,5.678178E1,2.836908E2,1.755721E2,1.7773819E1,2.3271753E2,1.2387878E2,7.219516E2,5.3321765E2,7.410874E1,2.8773486E2,1.5126796E1,4.1654984E1,2.3547244E2,4.8218346E1,1.5410329E2,2.1468811E1,8.835503E0,8.938317E0,2.2951128E2,3.206246E0,1.03487625E2,2.039115E1],"tree_param":{"num_deleted":"0","num_feature":"32","num_nodes":"31","size_leaf_vector":"1"}},{"base_weights":[-5.108818E-3,-5.6618072E-2,1.6945302E-1,1.6754197E-1,-8.20598E-2,1.09655924E-1,5.688496E-1,-1.2999165E-1,3.275195E-1,1.7056953E-3,-1.6091262E-1,1.8899466E-1,-2.4332091E-1,9.6908706E-1,3.895983E-1,3.0738548E-3,-4.5937444E-3,5.97886E-3,-2.8903163E-3,-5.496279E-4,4.5616E-3,-3.0368923E-3,1.8104963E-3,1.5820444E-3,6.3501457E-3,-4.8117335E-3,6.995623E-3,1.5940899E-2,-4.958704E-3,9.145802E-3,-2.9702915E-3],"categories":[],"categories_nodes":[],"categories_segments":[],"categories_sizes":[],"default_left":[0,0,0,0,0,0,0,0,0,0,0,0,0,0,0,0,0,0,0,0,0,0,0,0,0,0,0,0,0,0,0],"id":36,"left_children":[1,3,5,7,9,11,13,15,17,19,21,23,25,27,29,-1,-1,-1,-1,-1,-1,-1,-1,-1,-1,-1,-1,-1,-1,-1,-1],"loss_changes":[2.2442513E1,1.1004545E1,1.351973E1,9.408371E0,1.143658E1,1.3933004E1,4.918398E0,4.8281226E0,6.73598E0,1.1057821E1,1.4195967E1,8.090853E0,6.842571E0,5.1882896E0,8.3675375E0,0E0,0E0,0E0,0E0,0E0,0E0,0E0,0E0,0E0,0E0,0E0,0E0,0E0,0E0,0E0,0E0],"parents":[2147483647,0,0,1,1,2,2,3,3,4,4,5,5,6,6,7,7,8,8,9,9,10,10,11,11,12,12,13,13,14,14],"right_children":[2,4,6,8,10,12,14,16,18,20,22,24,26,28,30,-1,-1,-1,-1,-1,-1,-1,-1,-1,-1,-1,-1,-1,-1,-1,-1],"split_conditions":[6.111111E-1,1.3657562E-1,5.15441E0,7.1428575E-2,6.6669965E-1,1.9741027E0,1.5040803E-1,7.7287936E-1,7.5E-1,1.3369871E0,5.176005E1,1.6429154E0,1.7995923E0,7.8966206E-1,2.312954E0,3.0738548E-3,-4.5937444E-3,5.97886E-3,-2.8903163E-3,-5.496279E-4,4.5616E-3,-3.0368923E-3,1.8104963E-3,1.5820444E-3,6.3501457E-3,-4.8117335E-3,6.995623E-3,1.5940899E-2,-4.958704E-3,9.145802E-3,-2.9702915E-3],"split_indices":[18,30,9,15,2,2,30,29,12,7,11,2,1,29,1,0,0,0,0,0,0,0,0,0,0,0,0,0,0,0,0],"split_type":[0,0,0,0,0,0,0,0,0,0,0,0,0,0,0,0,0,0,0,0,0,0,0,0,0,0,0,0,0,0,0],"sum_hessian":[2.493889E3,1.9261896E3,5.676994E2,1.9576578E2,1.7304238E3,4.9488104E2,7.281834E1,6.85188E1,1.2724699E2,8.3954834E2,8.908754E2,4.0443958E2,9.044147E1,2.1161661E1,5.1656677E1,2.4660986E1,4.385781E1,1.077735E2,1.9473484E1,7.4610583E2,9.344246E1,7.491774E2,1.4169803E2,3.1411438E2,9.032518E1,8.029107E1,1.0150397E1,1.8958216E1,2.203444E0,3.5984592E1,1.5672083E1],"tree_param":{"num_deleted":"0","num_feature":"32","num_nodes":"31","size_leaf_vector":"1"}},{"base_weights":[7.751212E-3,-5.7444554E-2,1.3024963E-1,-7.769447E-2,3.6521882E-1,1.1475521E-1,5.497177E-1,-9.524072E-2,3.3371863E-1,6.1863345E-1,5.065563E-2,1.6202604E-2,1.08839825E-1,8.22605E-1,1.2122162E-1,-1.0219181E-3,-6.5637543E-3,-4.914432E-3,7.302525E-3,1.0130104E-2,-1.2392683E-3,-4.825239E-3,5.597584E-3,5.780109E-4,2.7134367E-3,-9.3143404E-4,1.3765621E-2,-9.9968E-3,7.396201E-3],"categories":[],"categories_nodes":[],"categories_segments":[],"categories_sizes":[],"default_left":[0,0,0,0,0,0,0,0,0,0,0,0,0,0,0,0,0,0,0,0,0,0,0,0,0,0,0,0,0],"id":37,"left_children":[1,3,5,7,9,11,13,15,17,19,21,-1,23,25,27,-1,-1,-1,-1,-1,-1,-1,-1,-1,-1,-1,-1,-1,-1],"loss_changes":[1.9894543E1,1.3944031E1,5.5605536E0,1.1237895E1,5.9082117E0,4.9984264E0,3.4735327E0,1.2477918E1,8.237327E0,3.0060778E0,4.825176E0,0E0,4.726221E0,2.6204662E0,4.7644386E0,0E0,0E0,0E0,0E0,0E0,0E0,0E0,0E0,0E0,0E0,0E0,0E0,0E0,0E0],"parents":[2147483647,0,0,1,1,2,2,3,3,4,4,5,5,6,6,7,7,8,8,9,9,10,10,12,12,13,13,14,14],"right_children":[2,4,6,8,10,12,14,16,18,20,22,-1,24,26,28,-1,-1,-1,-1,-1,-1,-1,-1,-1,-1,-1,-1,-1,-1],"split_conditions":[1.3737187E0,2.3266406E0,5.8548176E1,5.206269E1,5.555556E-1,1.5902298E-2,1.4711056E0,4.9210464E1,1E0,3.8088923E0,1.8703076E-1,1.6202604E-2,1.2688076E0,1.0526316E-1,1.6316152E0,-1.0219181E-3,-6.5637543E-3,-4.914432E-3,7.302525E-3,1.0130104E-2,-1.2392683E-3,-4.825239E-3,5.597584E-3,5.780109E-4,2.7134367E-3,-9.3143404E-4,1.3765621E-2,-9.9968E-3,7.396201E-3],"split_indices":[5,0,10,11,16,31,2,11,2,9,8,0,2,15,2,0,0,0,0,0,0,0,0,0,0,0,0,0,0],"split_type":[0,0,0,0,0,0,0,0,0,0,0,0,0,0,0,0,0,0,0,0,0,0,0,0,0,0,0,0,0],"sum_hessian":[2.4891223E3,1.6248698E3,8.642525E2,1.5513599E3,7.350989E1,8.346939E2,2.9558584E1,1.4886398E3,6.272011E1,4.0176632E1,3.333326E1,3.6380415E0,8.310559E2,1.749632E1,1.20622635E1,1.4042051E3,8.44347E1,1.3188219E1,4.9531895E1,3.5130863E1,5.045767E0,1.5627291E1,1.7705969E1,4.606727E2,3.703832E2,2.6903121E0,1.4806007E1,3.6985419E0,8.363722E0],"tree_param":{"num_deleted":"0","num_feature":"32","num_nodes":"29","size_leaf_vector":"1"}},{"base_weights":[-3.5530115E-3,-5.313499E-2,1.9423108E-1,-5.2340375E-3,-1.861069E-1,2.2658993E-1,-4.1434038E-1,-3.2003213E-2,1.579207E-1,-2.40911E-1,1.5599363E-1,1.9094564E-1,5.0016344E-1,-6.5148836E-1,4.8051202E-1,-3.488524E-4,-1.1769663E-2,3.7986308E-3,-2.185866E-3,3.9622077E-4,-4.7087334E-3,-1.2803576E-3,7.873284E-3,3.7954145E-4,3.9019622E-3,9.151389E-3,1.3620744E-3,-2.2097774E-2,-5.721715E-3,1.7219529E-2,-4.098855E-3],"categories":[],"categories_nodes":[],"categories_segments":[],"categories_sizes":[],"default_left":[0,0,0,0,0,0,0,0,0,0,0,0,0,0,0,0,0,0,0,0,0,0,0,0,0,0,0,0,0,0,0],"id":38,"left_children":[1,3,5,7,9,11,13,15,17,19,21,23,25,27,29,-1,-1,-1,-1,-1,-1,-1,-1,-1,-1,-1,-1,-1,-1,-1,-1],"loss_changes":[2.440893E1,1.2674861E1,9.918724E0,6.399442E0,9.918247E0,4.530199E0,5.7333946E0,7.283922E0,7.285814E0,1.1465498E1,7.3613243E0,5.9542E0,3.209628E0,4.0004425E0,3.7544045E0,0E0,0E0,0E0,0E0,0E0,0E0,0E0,0E0,0E0,0E0,0E0,0E0,0E0,0E0,0E0,0E0],"parents":[2147483647,0,0,1,1,2,2,3,3,4,4,5,5,6,6,7,7,8,8,9,9,10,10,11,11,12,12,13,13,14,14],"right_children":[2,4,6,8,10,12,14,16,18,20,22,24,26,28,30,-1,-1,-1,-1,-1,-1,-1,-1,-1,-1,-1,-1,-1,-1,-1,-1],"split_conditions":[1.7562462E0,2.382106E-1,8.8235295E-1,6.111111E-1,1.6842407E0,2.6902924E0,1.6336E0,1.7652242E0,2.0690382E0,2.2222222E-1,1.0817276E0,4.1666666E-1,1.12034634E-1,1.9485692E0,3.2206693E0,-3.488524E-4,-1.1769663E-2,3.7986308E-3,-2.185866E-3,3.9622077E-4,-4.7087334E-3,-1.2803576E-3,7.873284E-3,3.7954145E-4,3.9019622E-3,9.151389E-3,1.3620744E-3,-2.2097774E-2,-5.721715E-3,1.7219529E-2,-4.098855E-3],"split_indices":[0,30,16,18,5,0,7,4,2,13,7,17,30,0,8,0,0,0,0,0,0,0,0,0,0,0,0,0,0,0,0],"split_type":[0,0,0,0,0,0,0,0,0,0,0,0,0,0,0,0,0,0,0,0,0,0,0,0,0,0,0,0,0,0,0],"sum_hessian":[2.4869973E3,1.989089E3,4.979082E2,1.4630784E3,5.260106E2,4.7336612E2,2.4542074E1,1.2575526E3,2.0552573E2,4.5363467E2,7.237595E1,4.2030228E2,5.3063843E1,1.9615627E1,4.9264474E0,1.2473904E3,1.0162195E1,1.5150255E2,5.4023174E1,1.17308174E2,3.363265E2,4.537351E1,2.7002447E1,1.453743E2,2.7492798E2,3.8230362E1,1.4833481E1,2.990626E0,1.6625E1,2.2117908E0,2.7146566E0],"tree_param":{"num_deleted":"0","num_feature":"32","num_nodes":"31","size_leaf_vector":"1"}},{"base_weights":[7.0827105E-3,-2.0708911E-2,3.3571848E-1,2.0864332E-2,-1.855412E-1,-8.911426E-2,4.4917706E-1,5.4918923E-3,3.413009E-1,-2.2054003E-1,4.1848004E-1,2.3552799E-1,-5.8780193E-1,6.9711757E-1,3.3605048E-1,4.120119E-4,-1.9960257E-3,7.6653287E-3,-5.2890806E-3,5.889548E-4,-4.3720375E-3,1.5419304E-2,1.0558665E-3,-2.0118773E-3,1.1721922E-2,2.7909465E-3,-1.430755E-2,-8.385099E-5,1.182202E-2,-2.0651023E-3,6.6702627E-3],"categories":[],"categories_nodes":[],"categories_segments":[],"categories_sizes":[],"default_left":[0,0,0,0,0,0,0,0,0,0,0,0,0,0,0,0,0,0,0,0,0,0,0,0,0,0,0,0,0,0,0],"id":39,"left_children":[1,3,5,7,9,11,13,15,17,19,21,23,25,27,29,-1,-1,-1,-1,-1,-1,-1,-1,-1,-1,-1,-1,-1,-1,-1,-1],"loss_changes":[2.2490911E1,1.5564393E1,9.294966E0,8.935069E0,9.763091E0,6.825506E0,4.02079E0,6.0729456E0,1.2312253E1,1.0251118E1,5.824668E0,5.9364843E0,5.7876096E0,4.685417E0,7.1325064E0,0E0,0E0,0E0,0E0,0E0,0E0,0E0,0E0,0E0,0E0,0E0,0E0,0E0,0E0,0E0,0E0],"parents":[2147483647,0,0,1,1,2,2,3,3,4,4,5,5,6,6,7,7,8,8,9,9,10,10,11,11,12,12,13,13,14,14],"right_children":[2,4,6,8,10,12,14,16,18,20,22,24,26,28,30,-1,-1,-1,-1,-1,-1,-1,-1,-1,-1,-1,-1,-1,-1,-1,-1],"split_conditions":[5.204031E0,2.4372488E-1,4.375E-1,5.6020155E0,5.421206E1,7.3333335E-1,5.882353E-1,7.3333913E-1,1.6489962E-1,2.2222222E-1,3.3460623E-1,3.9706698E-1,2.181369E0,8.3077693E-1,2E0,4.120119E-4,-1.9960257E-3,7.6653287E-3,-5.2890806E-3,5.889548E-4,-4.3720375E-3,1.5419304E-2,1.0558665E-3,-2.0118773E-3,1.1721922E-2,2.7909465E-3,-1.430755E-2,-8.385099E-5,1.182202E-2,-2.0651023E-3,6.6702627E-3],"split_indices":[9,30,18,8,10,13,19,29,30,13,29,31,1,3,1,0,0,0,0,0,0,0,0,0,0,0,0,0,0,0,0],"split_type":[0,0,0,0,0,0,0,0,0,0,0,0,0,0,0,0,0,0,0,0,0,0,0,0,0,0,0,0,0,0,0],"sum_hessian":[2.4607502E3,2.269743E3,1.9100752E2,1.8132793E3,4.5646356E2,4.0304913E1,1.507026E2,1.7312428E3,8.203651E1,4.3206335E2,2.440019E1,2.4732153E1,1.5572759E1,4.5599503E1,1.0510311E2,1.4912897E3,2.3995308E2,6.410112E1,1.7935385E1,1.1057837E2,3.21485E2,7.474775E0,1.6925415E1,1.5605248E1,9.1269045E0,5.685893E0,9.886866E0,7.8624506E0,3.7737053E1,2.3334867E1,8.176824E1],"tree_param":{"num_deleted":"0","num_feature":"32","num_nodes":"31","size_leaf_vector":"1"}},{"base_weights":[-7.7041565E-3,-6.2588386E-2,1.8138948E-1,-1.0789411E-1,1.5289019E-1,5.7412636E-2,2.8923002E-1,-6.9281094E-2,-2.3508406E-1,-2.0653544E-1,2.2731034E-1,3.3894023E-1,-1.0940178E-1,7.727048E-1,2.5245827E-1,-8.5247157E-4,-1.0074973E-2,-3.8109978E-3,7.3818103E-3,5.8724657E-3,-6.7904103E-3,2.4725886E-3,9.642587E-3,6.1780214E-3,-7.766309E-3,-8.210106E-3,-6.0983136E-4,1.471028E-2,-7.6407893E-3,3.7850055E-3,-1.0918523E-2],"categories":[],"categories_nodes":[],"categories_segments":[],"categories_sizes":[],"default_left":[0,0,0,0,0,0,0,0,0,0,0,0,0,0,0,0,0,0,0,0,0,0,0,0,0,0,0,0,0,0,0],"id":40,"left_children":[1,3,5,7,9,11,13,15,17,19,21,23,25,27,29,-1,-1,-1,-1,-1,-1,-1,-1,-1,-1,-1,-1,-1,-1,-1,-1],"loss_changes":[2.5812756E1,1.8834345E1,7.464016E0,7.808666E0,9.015458E0,1.2319459E1,5.1203537E0,6.8489637E0,1.0190723E1,1.0191065E1,6.456465E0,8.93335E0,5.1409874E0,7.969136E0,4.940033E0,0E0,0E0,0E0,0E0,0E0,0E0,0E0,0E0,0E0,0E0,0E0,0E0,0E0,0E0,0E0,0E0],"parents":[2147483647,0,0,1,1,2,2,3,3,4,4,5,5,6,6,7,7,8,8,9,9,10,10,11,11,12,12,13,13,14,14],"right_children":[2,4,6,8,10,12,14,16,18,20,22,24,26,28,30,-1,-1,-1,-1,-1,-1,-1,-1,-1,-1,-1,-1,-1,-1,-1,-1],"split_conditions":[1.6878462E0,1.686223E0,1.2334454E0,2.4884295E-1,4.5E-1,1.0571881E-1,1.297177E0,8.125E-1,7.222222E-1,4.527759E-2,4.6153846E-1,1.2764888E0,5E-1,1.5183202E0,8.174026E-1,-8.5247157E-4,-1.0074973E-2,-3.8109978E-3,7.3818103E-3,5.8724657E-3,-6.7904103E-3,2.4725886E-3,9.642587E-3,6.1780214E-3,-7.766309E-3,-8.210106E-3,-6.0983136E-4,1.471028E-2,-7.6407893E-3,3.7850055E-3,-1.0918523E-2],"split_indices":[0,5,1,30,17,30,1,18,16,29,15,5,18,2,29,0,0,0,0,0,0,0,0,0,0,0,0,0,0,0,0],"split_type":[0,0,0,0,0,0,0,0,0,0,0,0,0,0,0,0,0,0,0,0,0,0,0,0,0,0,0,0,0,0,0],"sum_hessian":[2.4851013E3,1.9265819E3,5.5851935E2,1.5922919E3,3.342901E2,2.6053387E2,2.9798547E2,1.222656E3,3.6963583E2,5.703825E1,2.7725183E2,9.65528E1,1.6398106E2,1.9647451E1,2.78338E2,1.2074806E3,1.5175479E1,3.536602E2,1.5975624E1,1.7335993E1,3.970226E1,2.5039752E2,2.6854307E1,8.726174E1,9.291059E0,1.910572E1,1.4487535E2,1.6446583E1,3.2008684E0,2.7467606E2,3.6619604E0],"tree_param":{"num_deleted":"0","num_feature":"32","num_nodes":"31","size_leaf_vector":"1"}},{"base_weights":[-6.5157954E-3,-2.342836E-2,3.918423E-1,-5.0527792E-2,2.1571715E-1,5.2194184E-1,4.4325292E-2,-3.881368E-2,-4.2453852E-1,9.6824534E-2,4.6689862E-1,3.304798E-1,8.371512E-1,-2.9091385E-1,3.8400736E-1,-7.99634E-5,-2.551132E-3,-8.339595E-3,-7.761484E-6,-8.710189E-3,2.1371252E-3,4.4972934E-3,1.4789938E-2,8.1913825E-3,-6.6286186E-3,1.3599163E-2,-6.3336375E-3,-1.0976585E-2,8.3974935E-3,1.1410455E-2,-4.816377E-3],"categories":[],"categories_nodes":[],"categories_segments":[],"categories_sizes":[],"default_left":[0,0,0,0,0,0,0,0,0,0,0,0,0,0,0,0,0,0,0,0,0,0,0,0,0,0,0,0,0,0,0],"id":41,"left_children":[1,3,5,7,9,11,13,15,17,19,21,23,25,27,29,-1,-1,-1,-1,-1,-1,-1,-1,-1,-1,-1,-1,-1,-1,-1,-1],"loss_changes":[1.671857E1,1.5435521E1,4.5461674E0,9.353336E0,7.1950436E0,4.15563E0,3.3710434E0,9.79121E0,4.6188784E0,6.6236506E0,6.3440685E0,9.817852E0,4.937895E0,6.964346E0,4.8167505E0,0E0,0E0,0E0,0E0,0E0,0E0,0E0,0E0,0E0,0E0,0E0,0E0,0E0,0E0,0E0,0E0],"parents":[2147483647,0,0,1,1,2,2,3,3,4,4,5,5,6,6,7,7,8,8,9,9,10,10,11,11,12,12,13,13,14,14],"right_children":[2,4,6,8,10,12,14,16,18,20,22,24,26,28,30,-1,-1,-1,-1,-1,-1,-1,-1,-1,-1,-1,-1,-1,-1,-1,-1],"split_conditions":[2.3991847E0,5E0,1.3150649E-1,4.7983923E0,6.315789E-1,5.529131E0,4.5454547E-1,2.4764168E-1,2.3359838E-1,1.12732865E-1,2.1358968E-1,1.3469615E0,8.4210527E-1,2.7437232E0,2.719423E0,-7.99634E-5,-2.551132E-3,-8.339595E-3,-7.761484E-6,-8.710189E-3,2.1371252E-3,4.4972934E-3,1.4789938E-2,8.1913825E-3,-6.6286186E-3,1.3599163E-2,-6.3336375E-3,-1.0976585E-2,8.3974935E-3,1.1410455E-2,-4.816377E-3],"split_indices":[0,9,30,9,18,8,17,30,30,31,30,3,18,0,0,0,0,0,0,0,0,0,0,0,0,0,0,0,0,0,0],"split_type":[0,0,0,0,0,0,0,0,0,0,0,0,0,0,0,0,0,0,0,0,0,0,0,0,0,0,0,0,0,0,0],"sum_hessian":[2.4791472E3,2.3790828E3,1.000644E2,2.1376392E3,2.4144374E2,7.244233E1,2.762207E1,2.0737913E3,6.384789E1,1.6481618E2,7.6627556E1,4.6342045E1,2.6100285E1,1.3974209E1,1.36478615E1,1.6833097E3,3.9048154E2,4.544348E1,1.8404408E1,1.1034663E1,1.5378152E2,6.242261E1,1.4204948E1,3.5480503E1,1.086154E1,2.3947838E1,2.152445E0,9.088412E0,4.885797E0,8.523247E0,5.1246147E0],"tree_param":{"num_deleted":"0","num_feature":"32","num_nodes":"31","size_leaf_vector":"1"}},{"base_weights":[-2.0139484E-2,2.0006636E-2,-1.8940909E-1,-2.5040135E-3,2.6887667E-1,-2.3617953E-1,2.4508618E-1,-1.8535556E-2,2.2740339E-1,-1.1042553E0,3.1329995E-1,-2.6591322E-1,3.0298033E-1,-4.8554492E-1,3.4335366E-1,-3.6598687E-4,5.151644E-3,4.3843207E-3,-6.492136E-3,-4.6368362E-3,-2.158395E-2,1.8256098E-3,8.341135E-3,-1.4377744E-3,-4.9351337E-3,-2.207742E-3,1.038894E-2,2.4902395E-3,-1.4221255E-2,1.6062988E-3,9.904074E-3],"categories":[],"categories_nodes":[],"categories_segments":[],"categories_sizes":[],"default_left":[0,0,0,0,0,0,0,0,0,0,0,0,0,0,0,0,0,0,0,0,0,0,0,0,0,0,0,0,0,0,0],"id":42,"left_children":[1,3,5,7,9,11,13,15,17,19,21,23,25,27,29,-1,-1,-1,-1,-1,-1,-1,-1,-1,-1,-1,-1,-1,-1,-1,-1],"loss_changes":[1.6858723E1,1.12371645E1,9.722456E0,6.7872787E0,1.049503E1,6.97196E0,3.5202847E0,4.953304E0,7.0968785E0,1.3026581E0,8.228584E0,5.6247997E0,4.7053576E0,2.2483864E0,3.3688383E0,0E0,0E0,0E0,0E0,0E0,0E0,0E0,0E0,0E0,0E0,0E0,0E0,0E0,0E0,0E0,0E0],"parents":[2147483647,0,0,1,1,2,2,3,3,4,4,5,5,6,6,7,7,8,8,9,9,10,10,11,11,12,12,13,13,14,14],"right_children":[2,4,6,8,10,12,14,16,18,20,22,24,26,28,30,-1,-1,-1,-1,-1,-1,-1,-1,-1,-1,-1,-1,-1,-1,-1,-1],"split_conditions":[2.4479611E-1,5.2489767E0,4.944546E0,5.266046E0,2.8093383E-1,7.222222E-1,1.0526316E-1,2.409113E-1,5.311053E1,6.666667E-1,1.4914693E0,2.2676E0,3.0160445E-1,1.0372461E0,1.226524E0,-3.6598687E-4,5.151644E-3,4.3843207E-3,-6.492136E-3,-4.6368362E-3,-2.158395E-2,1.8256098E-3,8.341135E-3,-1.4377744E-3,-4.9351337E-3,-2.207742E-3,1.038894E-2,2.4902395E-3,-1.4221255E-2,1.6062988E-3,9.904074E-3],"split_indices":[30,8,9,9,29,16,14,30,10,18,3,8,31,3,2,0,0,0,0,0,0,0,0,0,0,0,0,0,0,0,0],"split_type":[0,0,0,0,0,0,0,0,0,0,0,0,0,0,0,0,0,0,0,0,0,0,0,0,0,0,0,0,0,0,0],"sum_hessian":[2.4793015E3,2.0047189E3,4.7458264E2,1.839338E3,1.653808E2,4.2887375E2,4.57089E1,1.7203002E3,1.1903789E2,4.435048E0,1.6094576E2,4.0693863E2,2.1935114E1,4.951656E0,4.0757244E1,1.6884425E3,3.1857645E1,1.0656995E2,1.246794E1,2.2114334E0,2.2236147E0,9.800328E1,6.294248E1,1.3951843E2,2.674202E2,1.0976168E1,1.0958945E1,2.4820063E0,2.4696498E0,2.5715734E1,1.504151E1],"tree_param":{"num_deleted":"0","num_feature":"32","num_nodes":"31","size_leaf_vector":"1"}},{"base_weights":[-3.2173279E-3,-6.975083E-2,1.3620698E-1,-2.4748983E-2,-1.8551101E-1,1.5436777E-1,-4.4006616E-1,-4.6246648E-2,1.7501609E-1,3.6157373E-2,-2.5186214E-1,-1.9972406E-1,1.8682702E-1,-7.6412517E-1,6.6632867E-1,-5.469769E-4,-7.557297E-3,1.8930779E-3,1.4546886E-2,-6.0563197E-4,9.62371E-3,-6.175308E-3,-7.556664E-4,-5.6522293E-3,5.016016E-3,4.4503296E-3,1.6534395E-3,-9.084753E-4,-1.6391719E-2,1.2321238E-3,1.4428515E-2],"categories":[],"categories_nodes":[],"categories_segments":[],"categories_sizes":[],"default_left":[0,0,0,0,0,0,0,0,0,0,0,0,0,0,0,0,0,0,0,0,0,0,0,0,0,0,0,0,0,0,0],"id":43,"left_children":[1,3,5,7,9,11,13,15,17,19,21,23,25,27,29,-1,-1,-1,-1,-1,-1,-1,-1,-1,-1,-1,-1,-1,-1,-1,-1],"loss_changes":[2.3057484E1,8.760863E0,8.471478E0,5.216262E0,6.9344597E0,8.992842E0,9.397852E0,3.9488485E0,3.9664104E0,5.6371703E0,1.3403479E1,7.542915E0,6.371189E0,5.42832E0,1.1876674E0,0E0,0E0,0E0,0E0,0E0,0E0,0E0,0E0,0E0,0E0,0E0,0E0,0E0,0E0,0E0,0E0],"parents":[2147483647,0,0,1,1,2,2,3,3,4,4,5,5,6,6,7,7,8,8,9,9,10,10,11,11,12,12,13,13,14,14],"right_children":[2,4,6,8,10,12,14,16,18,20,22,24,26,28,30,-1,-1,-1,-1,-1,-1,-1,-1,-1,-1,-1,-1,-1,-1,-1,-1],"split_conditions":[1.4056538E0,2.382106E-1,2.0315845E0,2E0,2.777778E-1,4.375E-1,4.5315614E0,8.125E-1,5.0101284E1,1.0825641E0,1.2821642E0,2.9411766E-1,1.3657562E-1,1.5982741E0,1.574309E-1,-5.469769E-4,-7.557297E-3,1.8930779E-3,1.4546886E-2,-6.0563197E-4,9.62371E-3,-6.175308E-3,-7.556664E-4,-5.6522293E-3,5.016016E-3,4.4503296E-3,1.6534395E-3,-9.084753E-4,-1.6391719E-2,1.2321238E-3,1.4428515E-2],"split_indices":[4,30,6,5,19,18,9,18,10,5,5,15,30,4,30,0,0,0,0,0,0,0,0,0,0,0,0,0,0,0,0],"split_type":[0,0,0,0,0,0,0,0,0,0,0,0,0,0,0,0,0,0,0,0,0,0,0,0,0,0,0,0,0,0,0],"sum_hessian":[2.4835862E3,1.681616E3,8.019701E2,1.211758E3,4.6985797E2,7.781785E2,2.379155E1,1.0947186E3,1.1703935E2,1.0834612E2,3.6151184E2,6.491205E1,7.132665E2,1.864102E1,5.150531E0,1.0795554E3,1.5163267E1,1.12870445E2,4.168909E0,9.737331E1,1.0972822E1,1.8541983E2,1.7609201E2,4.7827953E1,1.7084093E1,2.4766182E2,4.6560468E2,7.2096815E0,1.1431337E1,2.4472568E0,2.703274E0],"tree_param":{"num_deleted":"0","num_feature":"32","num_nodes":"31","size_leaf_vector":"1"}},{"base_weights":[3.2841223E-3,-4.4889536E-2,1.8946566E-1,-4.1313344E-3,-1.8026173E-1,2.1640202E-1,-3.494293E-1,-1.6759E-1,3.1998158E-2,-2.1346149E-1,5.8094704E-1,2.4800599E-1,-2.5152543E-1,-2.3006683E-2,-4.371636E-2,-3.3659555E-3,3.765592E-3,-2.7205267E-6,2.5441675E-3,-3.7019923E-3,2.1613308E-3,1.1439918E-2,-6.2472625E-3,2.9338654E-3,7.6560327E-3,-5.836595E-3,1.0805853E-2,8.460809E-3,-5.8881417E-3],"categories":[],"categories_nodes":[],"categories_segments":[],"categories_sizes":[],"default_left":[0,0,0,0,0,0,0,0,0,0,0,0,0,0,0,0,0,0,0,0,0,0,0,0,0,0,0,0,0],"id":44,"left_children":[1,3,5,7,9,11,13,15,17,19,21,23,25,-1,27,-1,-1,-1,-1,-1,-1,-1,-1,-1,-1,-1,-1,-1,-1],"loss_changes":[2.2388548E1,1.0941296E1,7.52388E0,9.012987E0,1.1721152E1,7.2983627E0,9.676348E0,8.667227E0,5.9863462E0,8.053907E0,4.9820123E0,5.2576656E0,5.549822E0,0E0,5.341813E0,0E0,0E0,0E0,0E0,0E0,0E0,0E0,0E0,0E0,0E0,0E0,0E0,0E0,0E0],"parents":[2147483647,0,0,1,1,2,2,3,3,4,4,5,5,6,6,7,7,8,8,9,9,10,10,11,11,12,12,14,14],"right_children":[2,4,6,8,10,12,14,16,18,20,22,24,26,-1,28,-1,-1,-1,-1,-1,-1,-1,-1,-1,-1,-1,-1,-1,-1],"split_conditions":[1.7599385E0,2.4479611E-1,1E0,1.5947789E-1,7.222222E-1,4.7368422E-1,1.9649084E0,4.7351923E0,1.3639692E0,1.7076606E0,5.0491207E1,5.3210476E1,2.9038203E-1,-2.3006683E-2,1.3150649E-1,-3.3659555E-3,3.765592E-3,-2.7205267E-6,2.5441675E-3,-3.7019923E-3,2.1613308E-3,1.1439918E-2,-6.2472625E-3,2.9338654E-3,7.6560327E-3,-5.836595E-3,1.0805853E-2,8.460809E-3,-5.8881417E-3],"split_indices":[0,30,16,31,16,15,0,8,0,5,11,11,30,0,30,0,0,0,0,0,0,0,0,0,0,0,0,0,0],"split_type":[0,0,0,0,0,0,0,0,0,0,0,0,0,0,0,0,0,0,0,0,0,0,0,0,0,0,0,0,0],"sum_hessian":[2.4942537E3,1.9821421E3,5.121117E2,1.5242482E3,4.5789392E2,4.8830258E2,2.3809093E1,2.7526108E2,1.248987E3,4.394472E2,1.8446703E1,4.578493E2,3.045329E1,3.7397826E0,2.0069311E1,2.3677036E2,3.849071E1,1.0276234E3,2.2136374E2,3.874068E2,5.2040405E1,1.521174E1,3.2349644E0,4.0538275E2,5.2466553E1,2.6762215E1,3.6910753E0,7.152777E0,1.2916533E1],"tree_param":{"num_deleted":"0","num_feature":"32","num_nodes":"29","size_leaf_vector":"1"}},{"base_weights":[2.3225897E-3,-3.9826866E-2,1.5080296E-1,-6.470843E-2,2.3321469E-1,1.7236891E-1,-5.3283674E-1,3.0186053E-2,-1.6473396E-1,1.5567864E-1,6.880066E-1,5.6919664E-2,3.3155906E-1,2.8174147E-1,-8.664992E-1,5.416823E-4,-1.5936838E-2,-4.590784E-3,-1.4314419E-3,8.714283E-4,6.7508197E-3,1.9991656E-3,1.2448173E-2,-6.8586867E-4,5.2727186E-3,-1.2853846E-2,4.959901E-3,-5.822863E-3,1.3301808E-2,-1.8970506E-2,8.672117E-4],"categories":[],"categories_nodes":[],"categories_segments":[],"categories_sizes":[],"default_left":[0,0,0,0,0,0,0,0,0,0,0,0,0,0,0,0,0,0,0,0,0,0,0,0,0,0,0,0,0,0,0],"id":45,"left_children":[1,3,5,7,9,11,13,15,17,19,21,23,25,27,29,-1,-1,-1,-1,-1,-1,-1,-1,-1,-1,-1,-1,-1,-1,-1,-1],