{"learner":{"attributes":{"best_iteration":"8","best_score":"0.6015738644702754","scikit_learn":"{\"_estimator_type\": \"classifier\"}"},"feature_names":[],"feature_types":[],"gradient_booster":{"model":{"cats":{"enc":[],"feature_segments":[],"sorted_idx":[]},"gbtree_model_param":{"num_parallel_tree":"1","num_trees":"59"},"iteration_indptr":[0,1,2,3,4,5,6,7,8,9,10,11,12,13,14,15,16,17,18,19,20,21,22,23,24,25,26,27,28,29,30,31,32,33,34,35,36,37,38,39,40,41,42,43,44,45,46,47,48,49,50,51,52,53,54,55,56,57,58,59],"tree_info":[0,0,0,0,0,0,0,0,0,0,0,0,0,0,0,0,0,0,0,0,0,0,0,0,0,0,0,0,0,0,0,0,0,0,0,0,0,0,0,0,0,0,0,0,0,0,0,0,0,0,0,0,0,0,0,0,0,0,0],"trees":[{"base_weights":[-2.3835562E-2,-2.091745E-1,1.8297407E-1,-2.647874E-1,4.878542E-2,1.1615797E-1,5.5065393E-1,-7.196734E-2,-2.993572E-1,-3.5578823E-1,1.423442E-1,6.1942395E-2,3.653491E-1,5.911321E-1,-1.0034743E-1,-1.878086E-1,3.3145362E-1,-3.1074488E-1,5.4190624E-1,9.7672604E-2,-4.9417663E-1,-1.3190073E-1,3.0104208E-1,1.1667558E-1,-1.2380324E-1,2.6536101E-2,4.710047E-1,8.703827E-1,4.3265355E-1,-1.0332258E-2,-9.068384E-2,1.0367322E-1,4.961065E-4,-6.153781E-2,-3.3383563E-2,-2.4201816E-2,1.6784573E-1,-8.437798E-2,5.718001E-2,-7.673179E-2,-3.9537447E-3,9.631985E-2,1.7471923E-2,5.2239526E-2,9.445091E-3,-3.1869054E-2,4.985543E-2,2.714029E-2,-1.0612325E-1,8.188444E-2,1.8754976E-2,1.3675535E-1,-7.1703643E-3,3.1678107E-2,1.225459E-1],"categories":[],"categories_nodes":[],"categories_segments":[],"categories_sizes":[],"default_left":[0,1,1,0,0,1,1,0,1,0,0,1,0,1,0,1,0,0,0,0,0,0,0,0,0,0,0,0,1,0,0,0,0,0,0,0,0,0,0,0,0,0,0,0,0,0,0,0,0,0,0,0,0,0,0],"id":0,"left_children":[1,3,5,7,9,11,13,15,17,19,21,23,25,27,-1,29,31,33,35,-1,37,39,41,43,45,47,49,51,53,-1,-1,-1,-1,-1,-1,-1,-1,-1,-1,-1,-1,-1,-1,-1,-1,-1,-1,-1,-1,-1,-1,-1,-1,-1,-1],"loss_changes":[8.447236E1,1.6685486E1,2.5526005E1,6.3524017E0,7.8843956E0,1.1903062E1,9.1367035E0,6.917484E0,7.9333496E0,6.467881E0,7.3863955E0,7.3973002E0,5.6266804E0,6.5182E0,0E0,6.3556676E0,5.236762E0,6.5636597E0,6.620571E0,0E0,5.9582825E0,2.954267E0,7.9024153E0,6.9722276E0,1.0930435E1,6.3695564E0,6.611E0,1.0569225E1,9.639309E0,0E0,0E0,0E0,0E0,0E0,0E0,0E0,0E0,0E0,0E0,0E0,0E0,0E0,0E0,0E0,0E0,0E0,0E0,0E0,0E0,0E0,0E0,0E0,0E0,0E0,0E0],"parents":[2147483647,0,0,1,1,2,2,3,3,4,4,5,5,6,6,7,7,8,8,9,9,10,10,11,11,12,12,13,13,15,15,16,16,17,17,18,18,20,20,21,21,22,22,23,23,24,24,25,25,26,26,27,27,28,28],"right_children":[2,4,6,8,10,12,14,16,18,20,22,24,26,28,-1,30,32,34,36,-1,38,40,42,44,46,48,50,52,54,-1,-1,-1,-1,-1,-1,-1,-1,-1,-1,-1,-1,-1,-1,-1,-1,-1,-1,-1,-1,-1,-1,-1,-1,-1,-1],"split_conditions":[5.3271025E-1,1E1,7.105263E-1,4.1322315E-1,1.381E0,3.158E0,2.27E0,3.902439E-1,1.935E0,1.037E0,7E0,-2.65E-1,7E0,1E0,-1.0034743E-1,7.2E1,7E0,4.5E-1,8E0,9.7672604E-2,2.092E0,3.026E0,1.09E0,4E0,1.7922223E0,3.892E0,1.38E0,1.5E1,1.215E0,-1.0332258E-2,-9.068384E-2,1.0367322E-1,4.961065E-4,-6.153781E-2,-3.3383563E-2,-2.4201816E-2,1.6784573E-1,-8.437798E-2,5.718001E-2,-7.673179E-2,-3.9537447E-3,9.631985E-2,1.7471923E-2,5.2239526E-2,9.445091E-3,-3.1869054E-2,4.985543E-2,2.714029E-2,-1.0612325E-1,8.188444E-2,1.8754976E-2,1.3675535E-1,-7.1703643E-3,3.1678107E-2,1.225459E-1],"split_indices":[15,8,15,15,1,6,0,15,1,3,17,4,8,8,0,17,8,15,8,0,3,6,2,17,1,6,3,17,0,0,0,0,0,0,0,0,0,0,0,0,0,0,0,0,0,0,0,0,0,0,0,0,0,0,0],"split_type":[0,0,0,0,0,0,0,0,0,0,0,0,0,0,0,0,0,0,0,0,0,0,0,0,0,0,0,0,0,0,0,0,0,0,0,0,0,0,0,0,0,0,0,0,0,0,0,0,0,0,0,0,0,0,0],"sum_hessian":[2.201827E3,1.161184E3,1.0406428E3,9.5522345E2,2.0596057E2,8.81728E2,1.5891484E2,1.4569E2,8.0953345E2,3.8156906E1,1.6780367E2,7.25198E2,1.5653003E2,1.5479562E2,4.119211E0,1.13603516E2,3.208649E1,7.993438E2,1.0189629E1,3.6856103E0,3.4471294E1,6.157137E1,1.0623229E2,5.6042957E2,1.6476846E2,3.7506504E1,1.1902353E2,5.441695E1,1.0037868E2,9.5392265E1,1.821125E1,1.2357635E1,1.9728855E1,1.7257327E2,6.267705E2,5.6368155E0,4.5528126E0,2.9484882E1,4.986414E0,9.972828E0,5.159854E1,2.7100075E1,7.913222E1,6.9592995E1,4.9083655E2,1.3268196E2,3.208649E1,3.1436087E1,6.070417E0,7.696421E1,4.2059315E1,4.4444122E1,9.972828E0,7.566341E1,2.471527E1],"tree_param":{"num_deleted":"0","num_feature":"30","num_nodes":"55","size_leaf_vector":"1"}},{"base_weights":[2.6590927E-3,-1.4058556E-1,2.6886263E-1,-1.9132856E-1,6.926501E-2,1.440769E-1,3.792668E-1,-2.7164602E-1,-5.4605294E-2,-3.7575316E-2,3.9740685E-1,-5.704555E-1,1.861123E-1,6.863341E-1,3.075191E-1,-2.0963061E-1,-3.9213103E-1,-2.497763E-2,-7.2305757E-1,-7.446142E-2,9.6898913E-1,-1.16558254E-1,5.9929025E-1,-6.947094E-1,1.2151413E-2,-8.62246E-2,2.4809077E-1,2.8961182E-1,9.47602E-1,8.01716E-1,2.505739E-1,1.2290656E-1,-2.9151276E-2,-4.111045E-2,-9.300117E-2,-1.4713286E-2,2.0773815E-2,-1.0920643E-2,-1.5533485E-1,-3.0437183E-2,1.47830425E-2,2.368351E-2,2.0321213E-1,4.6757028E-2,-5.40989E-2,9.0047434E-2,-4.4051558E-2,-2.894842E-2,-1.2985142E-1,-1.0508126E-1,-2.3886352E-3,7.545546E-2,2.3542019E-2,6.1739154E-2,-6.5590404E-2,1.4991178E-1,2.5417017E-2,1.6072167E-2,1.7350546E-1,-9.9065825E-2,3.525309E-2],"categories":[],"categories_nodes":[],"categories_segments":[],"categories_sizes":[],"default_left":[0,1,1,0,0,0,0,0,0,0,0,1,1,0,0,0,0,0,0,1,0,0,0,1,0,0,0,1,0,0,0,0,0,0,0,0,0,0,0,0,0,0,0,0,0,0,0,0,0,0,0,0,0,0,0,0,0,0,0,0,0],"id":1,"left_children":[1,3,5,7,9,11,13,15,17,19,21,23,25,27,29,31,33,35,37,39,41,43,45,47,-1,49,51,53,55,57,59,-1,-1,-1,-1,-1,-1,-1,-1,-1,-1,-1,-1,-1,-1,-1,-1,-1,-1,-1,-1,-1,-1,-1,-1,-1,-1,-1,-1,-1,-1],"loss_changes":[8.393396E1,1.5252039E1,1.0554329E1,1.2643101E1,9.810196E0,1.1012028E1,8.776855E0,5.3414803E0,8.454597E0,7.931605E0,7.1994267E0,1.756105E0,5.8223286E0,7.6502876E0,9.15649E0,1.126939E1,5.5029335E0,7.030507E0,5.645526E0,6.4732885E0,3.4188714E0,3.1773126E0,5.3255043E0,2.4071112E0,0E0,3.2007017E0,5.9848213E0,5.2610826E0,7.6453285E0,1.2698818E1,8.400913E0,0E0,0E0,0E0,0E0,0E0,0E0,0E0,0E0,0E0,0E0,0E0,0E0,0E0,0E0,0E0,0E0,0E0,0E0,0E0,0E0,0E0,0E0,0E0,0E0,0E0,0E0,0E0,0E0,0E0,0E0],"parents":[2147483647,0,0,1,1,2,2,3,3,4,4,5,5,6,6,7,7,8,8,9,9,10,10,11,11,12,12,13,13,14,14,15,15,16,16,17,17,18,18,19,19,20,20,21,21,22,22,23,23,25,25,26,26,27,27,28,28,29,29,30,30],"right_children":[2,4,6,8,10,12,14,16,18,20,22,24,26,28,30,32,34,36,38,40,42,44,46,48,-1,50,52,54,56,58,60,-1,-1,-1,-1,-1,-1,-1,-1,-1,-1,-1,-1,-1,-1,-1,-1,-1,-1,-1,-1,-1,-1,-1,-1,-1,-1,-1,-1,-1,-1],"split_conditions":[2.9313726E0,1E1,3.1052632E0,2.6619217E0,9E0,-5E0,4E0,2.5384614E0,2.9156628E0,1.7E1,4E0,3.402E0,2E0,4E0,1.208E0,1.61E0,1.1E1,7E0,7E0,9.75E-1,1.3E1,6E0,1.75E2,1.033E0,1.2151413E-2,1.2E1,-5.26E-1,1.754E0,4.05E0,6.6E-2,1.292E0,1.2290656E-1,-2.9151276E-2,-4.111045E-2,-9.300117E-2,-1.4713286E-2,2.0773815E-2,-1.0920643E-2,-1.5533485E-1,-3.0437183E-2,1.47830425E-2,2.368351E-2,2.0321213E-1,4.6757028E-2,-5.40989E-2,9.0047434E-2,-4.4051558E-2,-2.894842E-2,-1.2985142E-1,-1.0508126E-1,-2.3886352E-3,7.545546E-2,2.3542019E-2,6.1739154E-2,-6.5590404E-2,1.4991178E-1,2.5417017E-2,1.6072167E-2,1.7350546E-1,-9.9065825E-2,3.525309E-2],"split_indices":[14,8,14,14,10,10,17,14,14,8,9,6,7,10,2,6,7,10,17,2,7,17,17,1,0,9,4,2,14,5,2,0,0,0,0,0,0,0,0,0,0,0,0,0,0,0,0,0,0,0,0,0,0,0,0,0,0,0,0,0,0],"split_type":[0,0,0,0,0,0,0,0,0,0,0,0,0,0,0,0,0,0,0,0,0,0,0,0,0,0,0,0,0,0,0,0,0,0,0,0,0,0,0,0,0,0,0,0,0,0,0,0,0,0,0,0,0,0,0,0,0,0,0,0,0],"sum_hessian":[2.1991377E3,1.4300804E3,7.690572E2,1.151685E3,2.7839542E2,3.6209714E2,4.0696002E2,7.248742E2,4.2681085E2,2.1068393E2,6.771149E1,1.9419905E1,3.4267722E2,7.5455986E1,3.3150406E2,4.803638E2,2.4451039E2,4.0968964E2,1.7121218E1,2.0412952E2,6.554414E0,1.921517E1,4.849632E1,1.6329996E1,3.089909E0,6.345615E1,2.7922107E2,3.0798498E1,4.465749E1,3.29004E1,2.9860364E2,7.05291E0,4.7331088E2,2.0478923E2,3.9721153E1,2.7677234E2,1.329173E2,8.025034E0,9.096184E0,1.0935598E2,9.477354E1,3.49585E0,3.0585637E0,7.4077306E0,1.180744E1,4.3727818E1,4.7685027E0,7.4100957E0,8.9199E0,4.3622994E0,5.909385E1,4.183011E1,2.3739096E2,2.5096148E1,5.70235E0,3.3684578E1,1.0972916E1,1.5501703E1,1.7398695E1,6.793912E0,2.9180972E2],"tree_param":{"num_deleted":"0","num_feature":"30","num_nodes":"61","size_leaf_vector":"1"}},{"base_weights":[1.709276E-3,-1.4657786E-1,1.7853379E-1,-2.8717962E-1,-5.5274352E-2,6.4681694E-2,2.930493E-1,-3.2987872E-1,9.052475E-2,-9.353558E-2,3.010342E-1,4.364428E-2,9.6392953E-1,-2.4026953E-1,3.2796225E-1,-3.077987E-1,-1.0200107E0,8.047766E-1,-1.31967E-1,-2.5471115E-1,-1.2592392E-2,6.6202754E-1,-3.1391004E-1,-7.586985E-2,1.6175213E-1,1.9927095E-1,2.3796657E-2,-7.4061084E-1,3.0508402E-1,3.6685953E-1,-1.1743092E-1,-4.333323E-2,-7.0601557E-3,-1.5188694E-1,-4.359771E-2,1.8305956E-1,-3.0027244E-2,-3.238093E-2,1.0257276E-1,-4.849882E-4,-5.86275E-2,-3.4587667E-3,1.681515E-1,4.2151306E-2,1.8868011E-1,-8.278716E-2,1.3591024E-1,3.59717E-2,-1.7695887E-2,6.970609E-3,5.6597464E-2,1.3048768E-2,-1.19515486E-1,9.063502E-2,-4.6936255E-2,-7.624247E-2,4.8673693E-2,4.1742872E-2,-4.7498733E-2],"categories":[],"categories_nodes":[],"categories_segments":[],"categories_sizes":[],"default_left":[0,1,0,1,1,1,0,1,0,0,0,1,1,1,0,1,0,0,0,0,1,0,1,0,0,0,0,0,0,0,0,0,0,0,0,0,0,0,0,0,0,0,0,0,0,0,0,0,0,0,0,0,0,0,0,0,0,0,0],"id":2,"left_children":[1,3,5,7,9,11,13,15,17,19,21,23,25,27,29,31,33,35,37,39,41,43,45,47,49,-1,-1,51,53,55,57,-1,-1,-1,-1,-1,-1,-1,-1,-1,-1,-1,-1,-1,-1,-1,-1,-1,-1,-1,-1,-1,-1,-1,-1,-1,-1,-1,-1],"loss_changes":[5.7838467E1,1.5385561E1,1.309837E1,7.643841E0,9.9613085E0,9.526446E0,9.412945E0,6.152672E0,7.8509574E0,8.5906315E0,1.5944987E1,7.0034E0,5.0965805E0,8.787835E0,8.201675E0,3.3993912E0,1.0898123E0,8.073486E0,4.5775857E0,1.1385752E1,8.597229E0,1.1725307E1,1.3220941E1,5.637394E0,7.5293665E0,0E0,0E0,2.8893375E0,4.5798903E0,6.824669E0,4.522305E0,0E0,0E0,0E0,0E0,0E0,0E0,0E0,0E0,0E0,0E0,0E0,0E0,0E0,0E0,0E0,0E0,0E0,0E0,0E0,0E0,0E0,0E0,0E0,0E0,0E0,0E0,0E0,0E0],"parents":[2147483647,0,0,1,1,2,2,3,3,4,4,5,5,6,6,7,7,8,8,9,9,10,10,11,11,12,12,13,13,14,14,15,15,16,16,17,17,18,18,19,19,20,20,21,21,22,22,23,23,24,24,27,27,28,28,29,29,30,30],"right_children":[2,4,6,8,10,12,14,16,18,20,22,24,26,28,30,32,34,36,38,40,42,44,46,48,50,-1,-1,52,54,56,58,-1,-1,-1,-1,-1,-1,-1,-1,-1,-1,-1,-1,-1,-1,-1,-1,-1,-1,-1,-1,-1,-1,-1,-1,-1,-1,-1,-1],"split_conditions":[2.8333333E0,7E0,5E0,3.066E0,1.644E0,1.514E0,-5.16E-1,7E-1,3.2465E0,1.9625E-1,5.1086956E-1,-2.47E-1,5.735294E-1,5.75E-1,1.96E2,2.538E0,1.05E0,1.62E-1,1.765E0,-1.6E-1,1.6E1,4.8550725E-1,8E0,4E0,1E1,1.9927095E-1,2.3796657E-2,-2.52E-1,1.981E0,-6.84E-1,6E0,-4.333323E-2,-7.0601557E-3,-1.5188694E-1,-4.359771E-2,1.8305956E-1,-3.0027244E-2,-3.238093E-2,1.0257276E-1,-4.849882E-4,-5.86275E-2,-3.4587667E-3,1.681515E-1,4.2151306E-2,1.8868011E-1,-8.278716E-2,1.3591024E-1,3.59717E-2,-1.7695887E-2,6.970609E-3,5.6597464E-2,1.3048768E-2,-1.19515486E-1,9.063502E-2,-4.6936255E-2,-7.624247E-2,4.8673693E-2,4.1742872E-2,-4.7498733E-2],"split_indices":[14,17,10,6,1,4,4,4,6,5,15,5,15,15,17,6,3,5,3,5,8,15,10,17,9,0,0,5,3,5,9,0,0,0,0,0,0,0,0,0,0,0,0,0,0,0,0,0,0,0,0,0,0,0,0,0,0,0,0],"split_type":[0,0,0,0,0,0,0,0,0,0,0,0,0,0,0,0,0,0,0,0,0,0,0,0,0,0,0,0,0,0,0,0,0,0,0,0,0,0,0,0,0,0,0,0,0,0,0,0,0,0,0,0,0,0,0,0,0,0,0],"sum_hessian":[2.2038257E3,1.1987286E3,1.005097E3,4.7110724E2,7.276214E2,5.0479303E2,5.0030392E2,4.2337207E2,4.7735157E1,6.5773035E2,6.98911E1,4.942782E2,1.0514835E1,3.0377981E1,4.6992593E2,4.1164786E2,1.172421E1,1.0716266E1,3.701889E1,2.1916939E2,4.3856094E2,4.3990562E1,2.5900534E1,2.4585426E2,2.4842395E2,5.349661E0,5.1651745E0,1.565608E1,1.4721901E1,4.3234457E2,3.7581387E1,3.639369E2,4.7710987E1,8.721634E0,3.0025754E0,6.4210825E0,4.295183E0,3.338616E1,3.6327271E0,9.9313576E1,1.19855804E2,4.347847E2,3.7762346E0,3.2361553E1,1.1629008E1,2.125088E1,4.6496534E0,3.6330376E1,2.0952388E2,1.8117796E2,6.724599E1,3.0802953E0,1.2575785E1,9.140538E0,5.5813622E0,6.341436E0,4.260031E2,1.3608686E1,2.3972698E1],"tree_param":{"num_deleted":"0","num_feature":"30","num_nodes":"59","size_leaf_vector":"1"}},{"base_weights":[-6.53401E-3,-1.00470096E-1,2.269955E-1,-1.2145457E-1,4.430728E-1,2.5114402E-1,-2.2468232E-1,-4.2791417E-1,-9.567533E-2,1.0865601E0,2.4697328E-1,2.3684143E-1,1.0378696E0,8.460137E-2,-4.397939E-1,-7.2470814E-1,-2.6811486E-1,-2.3151916E-1,-3.6649976E-2,6.1251395E-3,1.9207926E-1,3.690747E-1,-6.667482E-2,-5.653991E-1,2.4754414E-1,1.9979194E-1,9.8296935E-3,-7.513873E-1,3.3238944E-1,5.575981E-3,-1.0726791E-1,3.8579576E-2,-4.8518978E-2,-1.9251786E-2,-5.3933185E-2,-5.7797963E-3,1.3652301E-1,1.1050867E-1,1.7045675E-2,-1.5974287E-2,-1.1673124E-1,7.124024E-2,2.6345734E-2,-1.320684E-1,8.610186E-3,1.1156528E-1,-2.6691567E-2],"categories":[],"categories_nodes":[],"categories_segments":[],"categories_sizes":[],"default_left":[0,1,1,0,1,1,0,0,1,1,0,0,0,0,1,0,0,0,1,0,0,0,0,0,0,0,0,0,0,0,0,0,0,0,0,0,0,0,0,0,0,0,0,0,0,0,0],"id":3,"left_children":[1,3,5,7,9,11,13,15,17,19,21,23,25,-1,27,29,31,33,35,-1,-1,37,-1,39,41,-1,-1,43,45,-1,-1,-1,-1,-1,-1,-1,-1,-1,-1,-1,-1,-1,-1,-1,-1,-1,-1],"loss_changes":[4.8166786E1,1.791326E1,6.9265633E0,1.187571E1,7.1033545E0,6.4871674E0,6.5113845E0,5.342903E0,1.1157939E1,5.7960234E0,4.530796E0,5.1970367E0,5.193967E0,0E0,6.690597E0,3.7047005E0,5.130501E0,6.441944E0,9.523973E0,0E0,0E0,4.6235285E0,0E0,1.1331155E0,7.2383156E0,0E0,0E0,4.6222095E0,2.6613228E0,0E0,0E0,0E0,0E0,0E0,0E0,0E0,0E0,0E0,0E0,0E0,0E0,0E0,0E0,0E0,0E0,0E0,0E0],"parents":[2147483647,0,0,1,1,2,2,3,3,4,4,5,5,6,6,7,7,8,8,9,9,10,10,11,11,12,12,14,14,15,15,16,16,17,17,18,18,21,21,23,23,24,24,27,27,28,28],"right_children":[2,4,6,8,10,12,14,16,18,20,22,24,26,-1,28,30,32,34,36,-1,-1,38,-1,40,42,-1,-1,44,46,-1,-1,-1,-1,-1,-1,-1,-1,-1,-1,-1,-1,-1,-1,-1,-1,-1,-1],"split_conditions":[5.7857144E-1,2.05375E0,6E0,6E0,3.0353334E0,4.487E0,1.17E0,2.548E0,5E0,8.34E-1,1.405E0,1.82E0,6.666667E-1,8.460137E-2,6.8115944E-1,1.758E0,-2.5625E-1,1.6E1,1.8E0,6.1251395E-3,1.9207926E-1,2.17E0,-6.667482E-2,1.68E0,1.248E0,1.9979194E-1,9.8296935E-3,5E0,8E1,5.575981E-3,-1.0726791E-1,3.8579576E-2,-4.8518978E-2,-1.9251786E-2,-5.3933185E-2,-5.7797963E-3,1.3652301E-1,1.1050867E-1,1.7045675E-2,-1.5974287E-2,-1.1673124E-1,7.124024E-2,2.6345734E-2,-1.320684E-1,8.610186E-3,1.1156528E-1,-2.6691567E-2],"split_indices":[15,1,16,16,6,6,1,6,8,2,3,6,15,0,15,6,5,17,11,0,0,1,0,3,1,0,0,10,17,0,0,0,0,0,0,0,0,0,0,0,0,0,0,0,0,0,0],"split_type":[0,0,0,0,0,0,0,0,0,0,0,0,0,0,0,0,0,0,0,0,0,0,0,0,0,0,0,0,0,0,0,0,0,0,0,0,0,0,0,0,0,0,0,0,0,0,0],"sum_hessian":[2.1936624E3,1.5647993E3,6.28863E2,1.5073806E3,5.741865E1,5.973692E2,3.1493797E1,1.1575106E2,1.3916296E3,1.235049E1,4.506816E1,5.8798083E2,9.388382E0,5.724676E0,2.5769121E1,3.9273533E1,7.647752E1,4.2063568E2,9.7099396E2,3.899312E0,8.451178E0,3.9357307E1,5.710856E0,7.058665E0,5.809222E2,5.6310687E0,3.7573135E0,1.8379507E1,7.3896136E0,5.3306847E0,3.394285E1,1.2376146E1,6.410138E1,2.9817612E2,1.22459564E2,9.64321E2,6.672951E0,1.173098E1,2.7626326E1,3.7420545E0,3.3166106E0,6.510795E1,5.158142E2,1.3415158E1,4.964349E0,3.3786304E0,4.0109835E0],"tree_param":{"num_deleted":"0","num_feature":"30","num_nodes":"47","size_leaf_vector":"1"}},{"base_weights":[-1.2855044E-2,-1.4328283E-1,1.4263523E-1,-2.747197E-1,-8.842509E-2,1.2899934E-1,8.760599E-1,-3.0076957E-1,5.9812766E-1,-1.0525454E-1,4.1263562E-1,2.428022E-2,2.369822E-1,1.3081542E0,-4.4818595E-2,-2.7051783E-1,-8.6684114E-1,-5.0158855E-2,1.6860862E-1,8.880618E-2,-1.4432667E-1,4.6954717E-2,8.2387877E-1,3.370626E-1,-2.135137E-2,3.6893156E-1,9.828799E-2,1.6142322E0,9.44903E-2,-3.833975E-2,4.0012494E-2,-1.304741E-1,-1.7627709E-2,1.6807556E-1,5.532219E-3,-1.4651462E-2,-5.349216E-2,-5.330668E-2,9.7187296E-2,-5.2510824E-2,1.6534007E-1,1.2814151E-1,5.428417E-3,-8.3657475E-3,6.388253E-2,1.3923189E-1,4.2760376E-2,-2.8201627E-2,3.0126225E-2,9.835791E-2,2.5123426E-1],"categories":[],"categories_nodes":[],"categories_segments":[],"categories_sizes":[],"default_left":[0,0,1,1,1,0,1,1,1,0,0,0,1,1,0,1,0,0,0,0,1,1,0,0,1,0,0,0,0,0,0,0,0,0,0,0,0,0,0,0,0,0,0,0,0,0,0,0,0,0,0],"id":4,"left_children":[1,3,5,7,9,11,13,15,17,19,21,23,25,27,-1,29,31,-1,-1,33,35,37,39,41,43,45,47,49,-1,-1,-1,-1,-1,-1,-1,-1,-1,-1,-1,-1,-1,-1,-1,-1,-1,-1,-1,-1,-1,-1,-1],"loss_changes":[4.4537144E1,8.586592E0,9.906221E0,8.165138E0,7.1609616E0,1.112933E1,1.0074995E1,5.61664E0,8.109623E0,6.2107954E0,4.1166716E0,7.1582603E0,8.833881E0,1.15662E0,0E0,5.977228E0,1.8098383E0,0E0,0E0,7.6284456E0,5.433098E0,5.561244E0,8.153726E0,1.2554827E1,1.0220375E1,5.534939E0,1.0587174E1,8.93383E-1,0E0,0E0,0E0,0E0,0E0,0E0,0E0,0E0,0E0,0E0,0E0,0E0,0E0,0E0,0E0,0E0,0E0,0E0,0E0,0E0,0E0,0E0,0E0],"parents":[2147483647,0,0,1,1,2,2,3,3,4,4,5,5,6,6,7,7,8,8,9,9,10,10,11,11,12,12,13,13,15,15,16,16,19,19,20,20,21,21,22,22,23,23,24,24,25,25,26,26,27,27],"right_children":[2,4,6,8,10,12,14,16,18,20,22,24,26,28,-1,30,32,-1,-1,34,36,38,40,42,44,46,48,50,-1,-1,-1,-1,-1,-1,-1,-1,-1,-1,-1,-1,-1,-1,-1,-1,-1,-1,-1,-1,-1,-1,-1],"split_conditions":[2.8333333E0,1E0,1.708E0,5.5E-1,1.97E0,3.0769231E0,5.9090906E-1,2.16E0,2.176E0,4.1322315E-1,4.2E-2,4E0,-2E0,4.2215E0,-4.4818595E-2,1.8866667E0,-8.8666666E-1,-5.0158855E-2,1.6860862E-1,-5.96E-1,1.54E0,1.721E0,2.736E0,5.483871E-1,1.965E0,1.15E0,7E0,4.0075E0,9.44903E-2,-3.833975E-2,4.0012494E-2,-1.304741E-1,-1.7627709E-2,1.6807556E-1,5.532219E-3,-1.4651462E-2,-5.349216E-2,-5.330668E-2,9.7187296E-2,-5.2510824E-2,1.6534007E-1,1.2814151E-1,5.428417E-3,-8.3657475E-3,6.388253E-2,1.3923189E-1,4.2760376E-2,-2.8201627E-2,3.0126225E-2,9.835791E-2,2.5123426E-1],"split_indices":[14,10,4,5,3,14,15,2,6,15,5,17,10,6,0,3,4,0,0,4,3,6,6,15,2,2,8,6,0,0,0,0,0,0,0,0,0,0,0,0,0,0,0,0,0,0,0,0,0,0,0],"split_type":[0,0,0,0,0,0,0,0,0,0,0,0,0,0,0,0,0,0,0,0,0,0,0,0,0,0,0,0,0,0,0,0,0,0,0,0,0,0,0,0,0,0,0,0,0,0,0,0,0,0,0],"sum_hessian":[2.1940764E3,1.1932432E3,1.0008333E3,3.5019135E2,8.4305176E2,9.837198E2,1.7113512E1,3.4067926E2,9.51206E0,8.164201E2,2.6631685E1,5.000289E2,4.8369092E2,1.2612092E1,4.5014205E0,3.2479938E2,1.5879889E1,4.216342E0,5.2957177E0,1.366154E2,6.798047E2,1.4686501E1,1.1945185E1,6.2848225E1,4.3718066E2,2.470219E2,2.36669E2,6.978918E0,5.6331744E0,3.0898514E2,1.5814256E1,1.2702173E1,3.1777153E0,3.8469977E0,1.327684E2,6.1617096E2,6.3633713E1,9.153334E0,5.5331674E0,3.355843E0,8.589342E0,1.8441574E1,4.440665E1,4.0380078E2,3.3379906E1,9.28522E0,2.3773668E2,7.132342E1,1.653456E2,3.0379968E0,3.9409213E0],"tree_param":{"num_deleted":"0","num_feature":"30","num_nodes":"51","size_leaf_vector":"1"}},{"base_weights":[2.9239569E-2,-6.646173E-2,2.0032617E-1,-1.16145E-1,6.154982E-2,1.901779E-1,1.8890071E-1,-1.3948606E-1,1.8802251E-1,-1.541852E-1,1.8730508E-1,5.1960174E-2,2.4530236E-1,-1.737837E-2,-2.1074265E-1,5.22598E-1,-1.194748E-1,-2.9725388E-1,1.2028083E-1,2.1602927E-1,-1.5067296E-1,1.2740579E-1,2.1490248E-2,9.2324346E-1,2.2905914E-1,2.0909715E-3,-7.5223714E-2,-4.4798307E-2,-1.6717372E-2,1.3322274E-1,-2.411574E-2,4.0048845E-2,-4.503318E-2,-1.8651785E-2,-9.698146E-2,-7.2116223E-3,1.5291764E-1,1.3609745E-1,2.3886524E-2,3.7515324E-2,-9.576158E-3,3.704922E-2,1.604445E-1,-2.2982387E-3,3.3546496E-2],"categories":[],"categories_nodes":[],"categories_segments":[],"categories_sizes":[],"default_left":[0,1,1,1,0,0,0,1,0,1,0,0,0,1,0,1,0,1,1,0,0,0,0,0,0,0,0,0,0,0,0,0,0,0,0,0,0,0,0,0,0,0,0,0,0],"id":5,"left_children":[1,3,5,7,9,11,-1,13,15,17,19,21,23,25,27,29,31,33,35,37,-1,-1,39,41,43,-1,-1,-1,-1,-1,-1,-1,-1,-1,-1,-1,-1,-1,-1,-1,-1,-1,-1,-1,-1],"loss_changes":[3.6090637E1,8.99882E0,1.0024801E1,7.259527E0,1.0770773E1,5.9729443E0,0E0,8.234396E0,7.576527E0,5.782813E0,1.0129318E1,6.4957204E0,5.970104E0,6.8022723E0,6.6598415E0,1.3336826E1,4.070568E0,6.648718E0,9.804999E0,5.7424536E0,0E0,0E0,5.823474E0,2.3678703E0,4.7093277E0,0E0,0E0,0E0,0E0,0E0,0E0,0E0,0E0,0E0,0E0,0E0,0E0,0E0,0E0,0E0,0E0,0E0,0E0,0E0,0E0],"parents":[2147483647,0,0,1,1,2,2,3,3,4,4,5,5,7,7,8,8,9,9,10,10,11,11,12,12,13,13,14,14,15,15,16,16,17,17,18,18,19,19,22,22,23,23,24,24],"right_children":[2,4,6,8,10,12,-1,14,16,18,20,22,24,26,28,30,32,34,36,38,-1,-1,40,42,44,-1,-1,-1,-1,-1,-1,-1,-1,-1,-1,-1,-1,-1,-1,-1,-1,-1,-1,-1,-1],"split_conditions":[2.9313726E0,9E0,4.9675E0,7E0,7E0,7E0,1.8890071E-1,-4E0,1.7E1,1.239E0,2.9156628E0,9.6E-1,-1.178E0,1E1,6E0,1.17E0,2.5033112E0,2.548E0,2.0325E0,3.1578946E-1,-1.5067296E-1,1.2740579E-1,-5.04E-1,2E0,1.408E0,2.0909715E-3,-7.5223714E-2,-4.4798307E-2,-1.6717372E-2,1.3322274E-1,-2.411574E-2,4.0048845E-2,-4.503318E-2,-1.8651785E-2,-9.698146E-2,-7.2116223E-3,1.5291764E-1,1.3609745E-1,2.3886524E-2,3.7515324E-2,-9.576158E-3,3.704922E-2,1.604445E-1,-2.2982387E-3,3.3546496E-2],"split_indices":[14,8,6,16,17,8,0,10,17,3,14,3,4,7,9,1,14,6,0,15,0,0,4,10,0,0,0,0,0,0,0,0,0,0,0,0,0,0,0,0,0,0,0,0,0],"split_type":[0,0,0,0,0,0,0,0,0,0,0,0,0,0,0,0,0,0,0,0,0,0,0,0,0,0,0,0,0,0,0,0,0,0,0,0,0,0,0,0,0,0,0,0,0],"sum_hessian":[2.2024363E3,1.4127776E3,7.896586E2,1.0178333E3,3.9494424E2,7.846082E2,5.050428E0,9.4579663E2,7.2036674E1,1.4535666E2,2.4958759E2,2.2425624E2,5.60352E2,3.489935E2,5.968031E2,3.4164326E1,3.7872353E1,9.5495476E1,4.9861176E1,2.4529353E2,4.294048E0,5.9815755E0,2.1827466E2,1.1805112E1,5.485469E2,3.3049298E2,1.8500496E1,2.1325108E2,3.8355203E2,1.9401373E1,1.4762951E1,1.3160004E1,2.4712349E1,7.312623E1,2.2369247E1,4.366541E1,6.1957636E0,6.6789055E0,2.3861464E2,5.6523197E1,1.6175146E2,4.761947E0,7.043165E0,6.74995E1,4.8104736E2],"tree_param":{"num_deleted":"0","num_feature":"30","num_nodes":"45","size_leaf_vector":"1"}},{"base_weights":[8.797611E-3,-5.840803E-2,2.1348074E-1,-1.9507171E-1,2.4344295E-4,2.570568E-1,-1.7156957E-1,-2.0913552E-1,6.0192055E-1,-4.4656593E-2,2.107689E-1,2.3690102E-1,8.64642E-1,7.037131E-2,-7.5371426E-1,-1.7022014E-1,-4.5661822E-1,1.5108071E-1,-4.749214E-3,-1.5897319E-1,1.6896917E-3,1.748953E-1,1.6790651E-1,1.5469706E-1,4.0780807E-1,1.2418646E0,-4.0575966E-2,-7.4697167E-1,3.1775045E-1,-1.6040269E-1,-4.505135E-1,-2.288739E-2,1.107548E-1,-1.2254647E-1,-3.6566544E-2,-1.2928798E-2,-5.5101655E-2,3.5410847E-3,-3.7520867E-2,-1.0955226E-5,5.658535E-2,1.2264537E-2,6.435605E-2,9.139869E-2,3.1629022E-2,6.0719077E-2,2.056848E-1,-1.6913507E-2,-1.3985494E-1,5.815698E-2,-7.343813E-2,-7.345202E-2,-1.6642809E-2],"categories":[],"categories_nodes":[],"categories_segments":[],"categories_sizes":[],"default_left":[0,0,0,0,1,0,0,0,0,1,0,1,0,0,0,1,0,0,0,1,1,1,0,1,0,0,0,1,1,0,1,0,0,0,0,0,0,0,0,0,0,0,0,0,0,0,0,0,0,0,0,0,0],"id":6,"left_children":[1,3,5,7,9,11,13,15,17,19,21,23,25,27,29,31,33,-1,-1,35,37,39,-1,41,43,45,-1,47,49,-1,51,-1,-1,-1,-1,-1,-1,-1,-1,-1,-1,-1,-1,-1,-1,-1,-1,-1,-1,-1,-1,-1,-1],"loss_changes":[2.9869848E1,1.3103791E1,9.0498085E0,5.628439E0,1.0831495E1,5.7047615E0,7.8228188E0,4.5753937E0,3.3279953E0,5.0041122E0,7.7834625E0,6.5181828E0,7.145484E0,8.3017025E0,1.9356079E0,4.3843336E0,5.2996407E0,0E0,0E0,4.239418E0,5.2277694E0,9.269629E0,0E0,6.4590797E0,7.3143845E0,2.5733337E0,0E0,1.9235215E0,4.1717024E0,0E0,4.008689E-1,0E0,0E0,0E0,0E0,0E0,0E0,0E0,0E0,0E0,0E0,0E0,0E0,0E0,0E0,0E0,0E0,0E0,0E0,0E0,0E0,0E0,0E0],"parents":[2147483647,0,0,1,1,2,2,3,3,4,4,5,5,6,6,7,7,8,8,9,9,10,10,11,11,12,12,13,13,14,14,15,15,16,16,19,19,20,20,21,21,23,23,24,24,25,25,27,27,28,28,30,30],"right_children":[2,4,6,8,10,12,14,16,18,20,22,24,26,28,30,32,34,-1,-1,36,38,40,-1,42,44,46,-1,48,50,-1,52,-1,-1,-1,-1,-1,-1,-1,-1,-1,-1,-1,-1,-1,-1,-1,-1,-1,-1,-1,-1,-1,-1],"split_conditions":[3.041096E0,3.082E0,1.58E2,6.09375E-1,-9E-3,1.42E2,1.3E1,2.914E0,7E0,4E0,2.425E0,7.105263E-1,1.2E1,-5E-3,7.5438595E-1,2.4E0,1.2666667E0,1.5108071E-1,-4.749214E-3,3E0,3.4425E0,1.806E0,1.6790651E-1,1.2E1,5E0,7E0,-4.0575966E-2,2.722E0,3.3093526E0,-1.6040269E-1,3.3958333E0,-2.288739E-2,1.107548E-1,-1.2254647E-1,-3.6566544E-2,-1.2928798E-2,-5.5101655E-2,3.5410847E-3,-3.7520867E-2,-1.0955226E-5,5.658535E-2,1.2264537E-2,6.435605E-2,9.139869E-2,3.1629022E-2,6.0719077E-2,2.056848E-1,-1.6913507E-2,-1.3985494E-1,5.815698E-2,-7.343813E-2,-7.345202E-2,-1.6642809E-2],"split_indices":[14,6,17,15,5,17,7,6,7,8,3,15,7,5,15,11,0,0,0,8,6,0,0,8,17,8,0,6,14,0,14,0,0,0,0,0,0,0,0,0,0,0,0,0,0,0,0,0,0,0,0,0,0],"split_type":[0,0,0,0,0,0,0,0,0,0,0,0,0,0,0,0,0,0,0,0,0,0,0,0,0,0,0,0,0,0,0,0,0,0,0,0,0,0,0,0,0,0,0,0,0,0,0,0,0,0,0,0,0],"sum_hessian":[2.1695208E3,1.6337952E3,5.3572546E2,4.8991626E2,1.1438789E3,4.8155988E2,5.416561E1,4.8214587E2,7.7703986E0,9.4345123E2,2.0042766E2,4.6744302E2,1.4116856E1,3.8884304E1,1.5281303E1,4.1809103E2,6.405484E1,3.6074362E0,4.1629624E0,2.7145557E2,6.7199567E2,1.9526942E2,5.1582394E0,3.1691592E2,1.5052708E2,1.0667737E1,3.4491186E0,8.565214E0,3.0319092E1,4.5357146E0,1.0745589E1,4.150533E2,3.0377219E0,1.4858715E1,4.919612E1,2.2563408E2,4.5821495E1,6.183949E2,5.3600754E1,1.1907366E2,7.619576E1,2.728966E2,4.4019337E1,4.9808247E1,1.0071884E2,4.2581954E0,6.409541E0,3.6254432E0,4.9397717E0,2.6656395E1,3.662697E0,7.115547E0,3.630042E0],"tree_param":{"num_deleted":"0","num_feature":"30","num_nodes":"53","size_leaf_vector":"1"}},{"base_weights":[1.8774088E-2,-7.466439E-2,1.4470991E-1,-3.847474E-1,-4.567281E-2,1.0743829E-1,3.7706047E-1,-1.4264798E-1,-5.7076436E-1,-5.1551186E-2,1.4141583E-1,9.621325E-2,7.928112E-1,5.5280123E-2,6.2198865E-1,8.218771E-1,-3.4391275E-1,-7.3429394E-1,-9.838191E-2,-1.0542855E-1,4.4545114E-2,1.1953908E-1,-4.421522E-1,-2.1159379E-2,1.192414E0,-7.236471E-2,9.1863894E-1,1.2233425E0,4.8347297E-1,1.1317923E-2,1.5919405E-1,-5.5891577E-2,7.381718E-2,-1.2977219E-1,-4.112894E-2,-6.249566E-2,7.259394E-2,-1.624546E-2,4.372751E-2,9.511225E-3,-7.170814E-2,3.9775982E-2,1.0857818E-2,-7.369947E-2,7.955508E-2,2.1672846E-1,7.580963E-2,1.558251E-2,-7.872919E-2,1.6279373E-1,4.8240986E-2,2.3163569E-1,6.831819E-2,-3.937812E-2,7.44257E-2],"categories":[],"categories_nodes":[],"categories_segments":[],"categories_sizes":[],"default_left":[1,0,1,1,1,1,0,0,0,1,0,1,0,0,0,0,0,0,0,1,1,0,0,0,0,0,0,0,0,0,0,0,0,0,0,0,0,0,0,0,0,0,0,0,0,0,0,0,0,0,0,0,0,0,0],"id":7,"left_children":[1,3,5,7,9,11,13,15,17,19,-1,21,23,25,27,29,31,33,35,37,39,41,43,-1,45,47,49,51,53,-1,-1,-1,-1,-1,-1,-1,-1,-1,-1,-1,-1,-1,-1,-1,-1,-1,-1,-1,-1,-1,-1,-1,-1,-1,-1],"loss_changes":[2.5996607E1,1.1384935E1,8.108042E0,4.7964897E0,7.9561586E0,6.1727057E0,1.0185514E1,9.677533E0,4.6336365E0,5.990599E0,0E0,1.0102989E1,5.162011E0,6.363639E0,5.5334816E0,2.6116738E0,3.8487315E0,4.967718E0,4.7015324E0,7.4580564E0,7.6893926E0,5.043359E0,5.260505E0,0E0,1.8099031E0,5.475703E0,9.623623E-1,4.3992233E0,5.1280966E0,0E0,0E0,0E0,0E0,0E0,0E0,0E0,0E0,0E0,0E0,0E0,0E0,0E0,0E0,0E0,0E0,0E0,0E0,0E0,0E0,0E0,0E0,0E0,0E0,0E0,0E0],"parents":[2147483647,0,0,1,1,2,2,3,3,4,4,5,5,6,6,7,7,8,8,9,9,11,11,12,12,13,13,14,14,15,15,16,16,17,17,18,18,19,19,20,20,21,21,22,22,24,24,25,25,26,26,27,27,28,28],"right_children":[2,4,6,8,10,12,14,16,18,20,-1,22,24,26,28,30,32,34,36,38,40,42,44,-1,46,48,50,52,54,-1,-1,-1,-1,-1,-1,-1,-1,-1,-1,-1,-1,-1,-1,-1,-1,-1,-1,-1,-1,-1,-1,-1,-1,-1,-1],"split_conditions":[2.85E0,6E0,3.378E0,-1.9666667E-1,4E-1,2.425E0,2.25E-2,4.3362832E-1,4E-1,8E0,1.4141583E-1,1.981E0,5E0,7.5E-1,5.4464287E-1,2.2631578E0,1.5E2,4.9103943E-1,1.134E0,5.6363636E-1,3.93E0,4E0,7.027027E-1,-2.1159379E-2,2.8475E0,6.0714287E-1,-3.75E-2,1.177E0,2.909091E0,1.1317923E-2,1.5919405E-1,-5.5891577E-2,7.381718E-2,-1.2977219E-1,-4.112894E-2,-6.249566E-2,7.259394E-2,-1.624546E-2,4.372751E-2,9.511225E-3,-7.170814E-2,3.9775982E-2,1.0857818E-2,-7.369947E-2,7.955508E-2,2.1672846E-1,7.580963E-2,1.558251E-2,-7.872919E-2,1.6279373E-1,4.8240986E-2,2.3163569E-1,6.831819E-2,-3.937812E-2,7.44257E-2],"split_indices":[14,16,6,5,13,3,5,15,4,8,0,3,17,15,15,14,17,15,3,15,6,17,15,0,6,15,4,3,14,0,0,0,0,0,0,0,0,0,0,0,0,0,0,0,0,0,0,0,0,0,0,0,0,0,0],"split_type":[0,0,0,0,0,0,0,0,0,0,0,0,0,0,0,0,0,0,0,0,0,0,0,0,0,0,0,0,0,0,0,0,0,0,0,0,0,0,0,0,0,0,0,0,0,0,0,0,0,0,0,0,0,0,0],"sum_hessian":[2.2073154E3,1.2673833E3,9.3993195E2,1.0731471E2,1.1600686E3,8.112593E2,1.2867265E2,4.7396046E1,5.991867E1,1.1551566E3,4.9119916E0,7.993086E2,1.1950695E1,5.6141323E1,7.2531334E1,7.6502147E0,3.974583E1,4.4098267E1,1.5820403E1,7.401096E2,4.1504703E2,7.6686066E2,3.2447918E1,3.6863532E0,8.264341E0,4.9708294E1,6.4330297E0,1.2112807E1,6.041853E1,3.2727513E0,4.377463E0,3.650105E1,3.2447822E0,2.513596E1,1.8962305E1,1.0134613E1,5.68579E0,7.0582477E2,3.4284866E1,3.962367E2,1.8810339E1,1.1410991E2,6.527508E2,2.9158241E1,3.2896767E0,3.4507275E0,4.8136144E0,3.72152E1,1.2493094E1,3.0316432E0,3.4013863E0,5.5917034E0,6.5211034E0,6.627306E0,5.379122E1],"tree_param":{"num_deleted":"0","num_feature":"30","num_nodes":"55","size_leaf_vector":"1"}},{"base_weights":[-1.2004795E-2,-1.19381435E-1,4.5329455E-2,-1.932766E-1,8.0019124E-2,1.15286745E-2,2.0304066E-1,-3.811885E-1,-1.300907E-1,2.3209138E-1,-2.7153248E-1,-7.401519E-2,1.3259898E-1,7.099306E-1,1.4609557E-1,6.201126E-3,-4.7863737E-1,-1.7973606E-1,1.3772325E-1,1.036894E0,1.5883133E-1,-4.576931E-1,4.1127238E-1,-1.7270929E-1,1.018542E-1,6.6719896E-1,1.1037094E-1,8.9723545E-1,-6.1856024E-2,-1.2913214E-1,1.7402487E-1,-5.2474573E-2,5.9960827E-2,3.3391032E-3,-7.127189E-2,-2.6582249E-2,4.329181E-2,6.596002E-2,1.5127046E-3,2.0147826E-1,-2.7133832E-2,-4.29016E-2,3.8587406E-2,-7.7352896E-3,-9.8743536E-2,-5.929374E-2,9.629977E-2,-6.994691E-2,-1.7927725E-2,2.3175335E-2,-4.5111567E-2,-2.3764458E-2,1.6955121E-1,-4.734223E-3,2.379697E-2,3.8138647E-2,1.935577E-1,5.3816065E-3,4.695816E-2],"categories":[],"categories_nodes":[],"categories_segments":[],"categories_sizes":[],"default_left":[0,1,1,0,0,0,0,0,0,0,1,1,0,1,0,0,0,1,0,0,0,0,0,0,0,1,0,1,0,0,0,0,0,0,0,0,0,0,0,0,0,0,0,0,0,0,0,0,0,0,0,0,0,0,0,0,0,0,0],"id":8,"left_children":[1,3,5,7,9,11,13,15,17,19,21,23,25,27,29,31,33,35,37,39,41,43,45,47,49,51,53,55,-1,-1,57,-1,-1,-1,-1,-1,-1,-1,-1,-1,-1,-1,-1,-1,-1,-1,-1,-1,-1,-1,-1,-1,-1,-1,-1,-1,-1,-1,-1],"loss_changes":[1.3462949E1,1.1231335E1,7.5981073E0,6.5480347E0,1.1103872E1,1.2181061E1,7.158121E0,5.261963E0,5.573806E0,8.366781E0,8.173499E0,1.1981472E1,5.712474E0,6.0709543E0,7.5523915E0,5.8396244E0,4.6017475E0,5.4279947E0,3.1481552E0,8.468305E0,9.693568E0,6.252619E0,4.5947556E0,5.219102E0,9.1716795E0,1.1185022E1,5.311719E0,7.7848816E0,0E0,0E0,5.713803E0,0E0,0E0,0E0,0E0,0E0,0E0,0E0,0E0,0E0,0E0,0E0,0E0,0E0,0E0,0E0,0E0,0E0,0E0,0E0,0E0,0E0,0E0,0E0,0E0,0E0,0E0,0E0,0E0],"parents":[2147483647,0,0,1,1,2,2,3,3,4,4,5,5,6,6,7,7,8,8,9,9,10,10,11,11,12,12,13,13,14,14,15,15,16,16,17,17,18,18,19,19,20,20,21,21,22,22,23,23,24,24,25,25,26,26,27,27,30,30],"right_children":[2,4,6,8,10,12,14,16,18,20,22,24,26,28,30,32,34,36,38,40,42,44,46,48,50,52,54,56,-1,-1,58,-1,-1,-1,-1,-1,-1,-1,-1,-1,-1,-1,-1,-1,-1,-1,-1,-1,-1,-1,-1,-1,-1,-1,-1,-1,-1,-1,-1],"split_conditions":[2.631579E0,4E0,2E-1,3.082E0,2.555184E0,7E0,-9.2E-1,8.28E-1,4.9814126E-1,-5.68E-1,1.7142857E0,2.514E0,-3.6E-1,3.2439024E0,5E0,8.357143E-1,2.409091E0,2.19E-1,6E0,4.697802E-1,2.1666667E-1,6E0,7E0,9E0,8.9E-1,1.17E0,5.5151516E-1,5.555556E-1,-6.1856024E-2,-1.2913214E-1,1.5957143E0,-5.2474573E-2,5.9960827E-2,3.3391032E-3,-7.127189E-2,-2.6582249E-2,4.329181E-2,6.596002E-2,1.5127046E-3,2.0147826E-1,-2.7133832E-2,-4.29016E-2,3.8587406E-2,-7.7352896E-3,-9.8743536E-2,-5.929374E-2,9.629977E-2,-6.994691E-2,-1.7927725E-2,2.3175335E-2,-4.5111567E-2,-2.3764458E-2,1.6955121E-1,-4.734223E-3,2.379697E-2,3.8138647E-2,1.935577E-1,5.3816065E-3,4.695816E-2],"split_indices":[14,10,5,6,14,10,4,0,15,4,1,6,5,14,8,1,14,5,7,15,4,10,16,16,4,2,15,15,0,0,1,0,0,0,0,0,0,0,0,0,0,0,0,0,0,0,0,0,0,0,0,0,0,0,0,0,0,0,0],"split_type":[0,0,0,0,0,0,0,0,0,0,0,0,0,0,0,0,0,0,0,0,0,0,0,0,0,0,0,0,0,0,0,0,0,0,0,0,0,0,0,0,0,0,0,0,0,0,0,0,0,0,0,0,0,0,0,0,0,0,0],"sum_hessian":[2.184957E3,7.601855E2,1.4247716E3,5.5466486E2,2.0552065E2,1.1741912E3,2.5058041E2,1.3830864E2,4.1635623E2,1.4369965E2,6.1820995E1,6.88272E2,4.8591925E2,2.4149502E1,2.2643092E2,2.7987185E1,1.1032146E2,3.5152246E2,6.4833755E1,1.0891945E1,1.328077E2,4.8835987E1,1.2985006E1,4.4087848E2,2.473935E2,1.823913E1,4.676801E2,2.109603E1,3.0534723E0,4.488188E0,2.2194273E2,1.4788526E1,1.3198658E1,1.5446026E1,9.487543E1,3.3338806E2,1.8134413E1,1.5328554E1,4.95052E1,7.391713E0,3.5002315E0,2.9657057E1,1.0315064E2,2.2272839E1,2.656315E1,3.57192E0,9.413086E0,3.3001816E1,4.0787665E2,2.1088606E2,3.650744E1,8.30398E0,9.93515E0,1.6009874E2,3.075814E2,1.1536095E1,9.559935E0,1.3321826E2,8.8724464E1],"tree_param":{"num_deleted":"0","num_feature":"30","num_nodes":"59","size_leaf_vector":"1"}},{"base_weights":[-8.941333E-3,-2.4973713E-2,2.794224E-1,-5.047401E-1,-1.8121973E-2,4.68793E-2,6.958973E-1,-9.614838E-1,-4.5690414E-2,-3.7239358E-2,1.1801235E-1,6.219943E-1,-1.1397405E-1,9.0429467E-1,2.0496477E-1,-6.512954E-2,-1.4686409E-1,1.014867E-1,-3.76664E-1,-9.733425E-3,-1.6207506E-1,1.7250921E-1,-4.225925E-1,-3.0670933E-2,1.1072426E0,3.2531548E-1,-3.2924706E-1,2.3096535E-1,1.142977E0,5.1968515E-1,-4.6496186E-2,-1.1179239E-1,-6.5496736E-3,3.0669155E-2,-4.760711E-3,-9.194975E-2,-1.700342E-2,3.710425E-2,1.4001378E-3,-2.5096962E-2,-1.4286625E-1,8.0573715E-2,2.1336408E-1,-2.49696E-2,1.0238114E-1,-7.860453E-2,5.0887473E-2,1.1407625E-1,-5.5403996E-2,1.5988167E-1,5.8354497E-2,1.2384736E-1,-3.7261218E-4],"categories":[],"categories_nodes":[],"categories_segments":[],"categories_sizes":[],"default_left":[1,0,1,0,0,0,0,0,1,0,1,0,0,0,0,0,0,0,0,0,0,0,0,0,0,0,0,0,0,0,0,0,0,0,0,0,0,0,0,0,0,0,0,0,0,0,0,0,0,0,0,0,0],"id":9,"left_children":[1,3,5,7,9,11,13,15,17,19,21,23,25,27,29,-1,-1,-1,31,33,35,37,39,-1,41,43,45,47,49,51,-1,-1,-1,-1,-1,-1,-1,-1,-1,-1,-1,-1,-1,-1,-1,-1,-1,-1,-1,-1,-1,-1,-1],"loss_changes":[1.0063916E1,6.7680917E0,1.1071626E1,6.034751E0,5.297144E0,6.9764247E0,4.0102463E0,6.6527367E-1,4.6300874E0,6.124278E0,7.457801E0,7.164695E0,5.7033377E0,4.3155613E0,2.616112E0,0E0,0E0,0E0,1.8843118E0,1.0169307E1,5.034626E0,4.3925967E0,3.4468756E0,0E0,1.8334103E0,5.151143E0,8.7116585E0,4.255662E0,1.0421791E0,2.166437E0,0E0,0E0,0E0,0E0,0E0,0E0,0E0,0E0,0E0,0E0,0E0,0E0,0E0,0E0,0E0,0E0,0E0,0E0,0E0,0E0,0E0,0E0,0E0],"parents":[2147483647,0,0,1,1,2,2,3,3,4,4,5,5,6,6,7,7,8,8,9,9,10,10,11,11,12,12,13,13,14,14,18,18,19,19,20,20,21,21,22,22,24,24,25,25,26,26,27,27,28,28,29,29],"right_children":[2,4,6,8,10,12,14,16,18,20,22,24,26,28,30,-1,-1,-1,32,34,36,38,40,-1,42,44,46,48,50,52,-1,-1,-1,-1,-1,-1,-1,-1,-1,-1,-1,-1,-1,-1,-1,-1,-1,-1,-1,-1,-1,-1,-1],"split_conditions":[5.21E-1,2E0,3.026E0,-1.25E-2,6.8115944E-1,2.2853334E0,1.3E1,-6E-2,5E0,1.2E1,1.4E1,-8.16E-1,6.14E-1,9E0,1.33E2,-6.512954E-2,-1.4686409E-1,1.014867E-1,4.5482865E-1,4.2592594E-1,2.5E-1,1E0,7E0,-3.0670933E-2,2.176E0,5.75E-1,7.16E-1,3.4425E0,1.66E2,6.6888887E-1,-4.6496186E-2,-1.1179239E-1,-6.5496736E-3,3.0669155E-2,-4.760711E-3,-9.194975E-2,-1.700342E-2,3.710425E-2,1.4001378E-3,-2.5096962E-2,-1.4286625E-1,8.0573715E-2,2.1336408E-1,-2.49696E-2,1.0238114E-1,-7.860453E-2,5.0887473E-2,1.1407625E-1,-5.5403996E-2,1.5988167E-1,5.8354497E-2,1.2384736E-1,-3.7261218E-4],"split_indices":[5,16,6,5,15,6,7,4,7,9,8,4,5,7,17,0,0,0,15,15,15,15,9,0,6,5,4,6,17,5,0,0,0,0,0,0,0,0,0,0,0,0,0,0,0,0,0,0,0,0,0,0,0],"split_type":[0,0,0,0,0,0,0,0,0,0,0,0,0,0,0,0,0,0,0,0,0,0,0,0,0,0,0,0,0,0,0,0,0,0,0,0,0,0,0,0,0,0,0,0,0,0,0,0,0,0,0,0,0],"sum_hessian":[2.1743403E3,2.060684E3,1.1365604E2,2.7991934E1,2.0326923E3,7.364701E1,4.000902E1,1.3482577E1,1.4509357E1,1.7830276E3,2.4966466E2,1.5469726E1,5.8177288E1,2.7495417E1,1.2513605E1,5.1468E0,8.335777E0,3.6915278E0,1.081783E1,1.4619777E3,3.210499E2,2.2741998E2,2.2244678E1,5.748412E0,9.721313E0,1.8965273E1,3.9212017E1,7.710776E0,1.9784641E1,8.12183E0,4.391774E0,3.5829563E0,7.2348733E0,1.445854E2,1.3173923E3,1.4306354E1,3.0674353E2,1.3040228E2,9.701771E1,1.7800463E1,4.4442153E0,6.460892E0,3.260421E0,9.3665695E0,9.598703E0,2.820221E1,1.1009807E1,3.6846554E0,4.02612E0,1.6245796E1,3.5388455E0,3.8851097E0,4.236721E0],"tree_param":{"num_deleted":"0","num_feature":"30","num_nodes":"53","size_leaf_vector":"1"}},{"base_weights":[4.625198E-3,-9.627975E-2,6.3900344E-2,1.2675954E-1,-1.5240361E-1,-4.7725087E-1,7.4032076E-2,-6.5882936E-2,3.6978447E-1,-1.1022913E-1,-4.0088928E-1,-7.4651545E-1,-3.0037481E-2,-2.1372484E-1,9.121817E-2,1.1202449E-1,-1.17758065E-1,1.0034642E0,1.1958961E-1,-2.3162423E-1,-7.860729E-3,1.9393487E-2,-6.0347027E-1,-1.0605185E0,-1.6073019E-3,-3.2716313E-1,6.473273E-2,-3.7107077E-1,5.0882655E-1,5.95613E-1,8.0582015E-2,-7.531519E-3,-8.509829E-2,8.446137E-2,2.0209241E-1,-1.19211935E-1,4.5278322E-2,-4.0592268E-2,6.198596E-3,-1.1284851E-2,5.2272115E-2,8.500544E-2,-2.6550686E-2,-8.893858E-2,1.363502E-2,-5.7854936E-2,-1.6349952E-1,-1.1072529E-1,3.6454316E-2,8.3895445E-2,-6.2292777E-2,1.2137944E-1,-2.0968221E-2,4.3131586E-2,1.7954536E-1,-5.1425747E-3,1.3727824E-2],"categories":[],"categories_nodes":[],"categories_segments":[],"categories_sizes":[],"default_left":[0,0,0,0,0,0,0,0,1,0,0,0,1,0,0,0,1,0,1,0,1,0,1,0,0,0,0,0,1,0,0,0,0,0,0,0,0,0,0,0,0,0,0,0,0,0,0,0,0,0,0,0,0,0,0,0,0],"id":10,"left_children":[1,3,5,7,9,11,13,15,17,19,21,23,25,27,29,-1,31,33,35,37,39,41,43,45,-1,47,-1,49,51,53,55,-1,-1,-1,-1,-1,-1,-1,-1,-1,-1,-1,-1,-1,-1,-1,-1,-1,-1,-1,-1,-1,-1,-1,-1,-1,-1],"loss_changes":[1.3037787E1,1.0117001E1,7.5638666E0,7.6424274E0,6.7146654E0,3.0326118E0,6.689618E0,4.602016E0,1.1311379E1,6.8671227E0,7.9469967E0,3.6261063E0,1.8599408E0,8.864805E0,6.783761E0,0E0,2.7921004E0,2.9732742E0,1.3526213E1,6.215048E0,1.0223715E1,4.76903E0,4.3519974E0,9.1943073E-1,0E0,2.725191E0,0E0,8.052693E0,4.377459E0,4.9928093E0,4.1324587E0,0E0,0E0,0E0,0E0,0E0,0E0,0E0,0E0,0E0,0E0,0E0,0E0,0E0,0E0,0E0,0E0,0E0,0E0,0E0,0E0,0E0,0E0,0E0,0E0,0E0,0E0],"parents":[2147483647,0,0,1,1,2,2,3,3,4,4,5,5,6,6,7,7,8,8,9,9,10,10,11,11,12,12,13,13,14,14,16,16,17,17,18,18,19,19,20,20,21,21,22,22,23,23,25,25,27,27,28,28,29,29,30,30],"right_children":[2,4,6,8,10,12,14,16,18,20,22,24,26,28,30,-1,32,34,36,38,40,42,44,46,-1,48,-1,50,52,54,56,-1,-1,-1,-1,-1,-1,-1,-1,-1,-1,-1,-1,-1,-1,-1,-1,-1,-1,-1,-1,-1,-1,-1,-1,-1,-1],"split_conditions":[2.6666667E0,4.1322315E-1,-6.84E-1,8E0,1.64E2,1.568E0,8.86E-1,-1.7375E-1,1.5E1,7E0,1.36E0,2.166E0,5.735294E-1,6.40625E-1,9.625E-1,1.1202449E-1,7E-1,2.390244E0,2E0,4.9814126E-1,1.9625E-1,2.459596E0,2.31E2,5.405405E-1,-1.6073019E-3,1.402E0,6.473273E-2,2.6923077E0,3.5714285E0,1.8833333E0,1.36E0,-7.531519E-3,-8.509829E-2,8.446137E-2,2.0209241E-1,-1.19211935E-1,4.5278322E-2,-4.0592268E-2,6.198596E-3,-1.1284851E-2,5.2272115E-2,8.500544E-2,-2.6550686E-2,-8.893858E-2,1.363502E-2,-5.7854936E-2,-1.6349952E-1,-1.1072529E-1,3.6454316E-2,8.3895445E-2,-6.2292777E-2,1.2137944E-1,-2.0968221E-2,4.3131586E-2,1.7954536E-1,-5.1425747E-3,1.3727824E-2],"split_indices":[14,15,5,17,17,2,0,5,17,17,3,0,15,15,0,0,1,14,7,15,5,14,17,15,0,1,0,14,14,2,1,0,0,0,0,0,0,0,0,0,0,0,0,0,0,0,0,0,0,0,0,0,0,0,0,0,0],"split_type":[0,0,0,0,0,0,0,0,0,0,0,0,0,0,0,0,0,0,0,0,0,0,0,0,0,0,0,0,0,0,0,0,0,0,0,0,0,0,0,0,0,0,0,0,0,0,0,0,0,0,0,0,0,0,0,0,0],"sum_hessian":[2.1777825E3,8.056641E2,1.3721183E3,1.617203E2,6.4394385E2,2.4370102E1,1.3477482E3,9.061777E1,7.110253E1,5.517424E2,9.220145E1,1.4793663E1,9.576438E0,7.531239E1,1.2724358E3,3.8784664E0,8.67393E1,1.9274477E1,5.1828056E1,2.518361E2,2.9990628E2,3.0281822E1,6.1919624E1,1.00489645E1,4.7446985E0,6.4261413E0,3.1502967E0,6.2244255E1,1.3068135E1,2.5141884E1,1.2472938E3,7.9410515E1,7.3287907E0,1.35478E1,5.726678E0,8.930947E0,4.289711E1,1.9184691E2,5.9989204E1,2.5203577E2,4.7870518E1,7.374984E0,2.2906837E1,5.4588253E1,7.3313727E0,3.5373838E0,6.511581E0,3.1870196E0,3.239122E0,5.953205E0,5.629105E1,7.6168075E0,5.4513283E0,2.0203257E1,4.938626E0,2.2971053E2,1.0175833E3],"tree_param":{"num_deleted":"0","num_feature":"30","num_nodes":"57","size_leaf_vector":"1"}},{"base_weights":[5.6972685E-3,-2.5921252E-2,9.74193E-2,-2.7056366E-1,-7.0429435E-3,2.8147244E-1,3.6085166E-2,-5.9929484E-1,-1.6899051E-1,-4.1163344E-2,1.1458898E-1,7.6413695E-3,6.376321E-1,5.1703525E-1,8.177084E-3,-4.149159E-2,-9.0717196E-1,-2.1683532E-1,1.1488661E-1,-1.321035E-1,2.2762924E-2,1.881093E-1,-1.251247E-1,-5.8720347E-2,1.4817333E-1,8.5481167E-1,-6.514153E-2,5.294589E-2,1.3447121E0,1.24318585E-1,-1.2019327E-1,7.849684E-2,-6.95256E-2,-7.053286E-2,-1.4609206E-1,-5.4650243E-2,4.2300303E-3,-1.3340392E-2,-9.655868E-2,7.7746245E-3,-2.3280533E-2,2.7934838E-2,-6.995504E-2,5.766605E-2,-4.353124E-2,1.3233788E-2,-3.8675997E-2,2.316093E-1,8.257064E-2,5.468321E-2,-7.6813236E-2,-6.059959E-2,1.0043729E-1,2.1494353E-1,7.9811834E-2,-1.0472022E-1,2.0266403E-2,1.2149652E-2,-3.5941333E-2],"categories":[],"categories_nodes":[],"categories_segments":[],"categories_sizes":[],"default_left":[0,0,0,0,1,0,0,0,1,1,0,1,1,0,1,0,0,0,0,1,0,0,0,0,0,0,0,0,0,0,0,0,0,0,0,0,0,0,0,0,0,0,0,0,0,0,0,0,0,0,0,0,0,0,0,0,0,0,0],"id":11,"left_children":[1,3,5,7,9,11,13,15,17,19,21,23,25,27,29,31,33,35,-1,37,39,41,43,45,-1,47,49,51,53,55,57,-1,-1,-1,-1,-1,-1,-1,-1,-1,-1,-1,-1,-1,-1,-1,-1,-1,-1,-1,-1,-1,-1,-1,-1,-1,-1,-1,-1],"loss_changes":[6.3145604E0,7.47684E0,6.2906885E0,3.7713175E0,6.247942E0,1.3586804E1,5.6303697E0,4.5964956E0,4.8120284E0,6.8368874E0,5.8362017E0,6.196031E0,9.2992935E0,8.766221E0,5.9455485E0,3.8774989E0,8.386297E-1,4.641067E0,0E0,8.208849E0,5.4652667E0,5.993969E0,9.950069E0,3.08262E0,0E0,8.025784E0,4.3195496E0,6.529155E0,9.7485924E-1,7.0711923E0,6.6606693E0,0E0,0E0,0E0,0E0,0E0,0E0,0E0,0E0,0E0,0E0,0E0,0E0,0E0,0E0,0E0,0E0,0E0,0E0,0E0,0E0,0E0,0E0,0E0,0E0,0E0,0E0,0E0,0E0],"parents":[2147483647,0,0,1,1,2,2,3,3,4,4,5,5,6,6,7,7,8,8,9,9,10,10,11,11,12,12,13,13,14,14,15,15,16,16,17,17,19,19,20,20,21,21,22,22,23,23,25,25,26,26,27,27,28,28,29,29,30,30],"right_children":[2,4,6,8,10,12,14,16,18,20,22,24,26,28,30,32,34,36,-1,38,40,42,44,46,-1,48,50,52,54,56,58,-1,-1,-1,-1,-1,-1,-1,-1,-1,-1,-1,-1,-1,-1,-1,-1,-1,-1,-1,-1,-1,-1,-1,-1,-1,-1,-1,-1],"split_conditions":[3.0305343E0,6E0,5.9907836E-1,1.1E0,1.381E0,5.759494E-1,5E0,2.5454545E0,9E0,7E0,5.539568E-1,6.25E-1,1.62E-1,1.6766666E0,-2E0,8.7E-1,4E0,4.9103943E-1,1.1488661E-1,1.434E0,1.5E1,2.11E2,1.434E0,9E0,1.4817333E-1,1.152E0,7E0,7.7E1,6E1,6.05E-1,1.962E0,7.849684E-2,-6.95256E-2,-7.053286E-2,-1.4609206E-1,-5.4650243E-2,4.2300303E-3,-1.3340392E-2,-9.655868E-2,7.7746245E-3,-2.3280533E-2,2.7934838E-2,-6.995504E-2,5.766605E-2,-4.353124E-2,1.3233788E-2,-3.8675997E-2,2.316093E-1,8.257064E-2,5.468321E-2,-7.6813236E-2,-6.059959E-2,1.0043729E-1,2.1494353E-1,7.9811834E-2,-1.0472022E-1,2.0266403E-2,1.2149652E-2,-3.5941333E-2],"split_indices":[14,16,15,3,1,15,16,14,10,17,15,5,5,0,10,3,10,15,0,0,9,17,0,17,0,0,9,17,17,15,0,0,0,0,0,0,0,0,0,0,0,0,0,0,0,0,0,0,0,0,0,0,0,0,0,0,0,0,0],"split_type":[0,0,0,0,0,0,0,0,0,0,0,0,0,0,0,0,0,0,0,0,0,0,0,0,0,0,0,0,0,0,0,0,0,0,0,0,0,0,0,0,0,0,0,0,0,0,0,0,0,0,0,0,0,0,0,0,0,0,0],"sum_hessian":[2.1754775E3,1.6183243E3,5.571532E2,1.1497973E2,1.5033446E3,1.383624E2,4.187908E2,2.5984243E1,8.899548E1,1.1745261E3,3.2881854E2,7.879942E1,5.9562977E1,2.2007156E1,3.9678363E2,9.644811E0,1.6339434E1,8.595715E1,3.0383325E0,4.843845E2,6.9014166E2,2.5180505E2,7.701347E1,7.542307E1,3.3763454E0,4.5336273E1,1.4226703E1,1.4782426E1,7.224731E0,2.0833063E2,1.8845302E2,4.089942E0,5.554868E0,7.975536E0,8.363897E0,4.6057102E1,3.990005E1,4.6533426E2,1.905022E1,5.823109E2,1.0783071E2,2.4217749E2,9.627563E0,2.0717615E1,5.629586E1,4.568733E1,2.9735746E1,6.5833783E0,3.8752895E1,7.5191875E0,6.7075157E0,8.806942E0,5.975484E0,3.9635568E0,3.261174E0,6.6173015E0,2.0171333E2,8.11015E1,1.0735152E2],"tree_param":{"num_deleted":"0","num_feature":"30","num_nodes":"59","size_leaf_vector":"1"}},{"base_weights":[-1.0489903E-2,-4.771108E-2,1.206731E-1,-2.7090728E-1,-3.139122E-2,-7.283765E-1,1.4102107E-1,2.7612394E-2,-4.6790338E-1,-5.8601607E-2,1.14387885E-1,-1.3855109E-1,2.8521868E-3,1.697757E-1,-2.2523232E-1,7.074136E-1,-1.5893228E-1,-5.2857625E-1,8.2860574E-2,2.5664547E-1,-7.566687E-2,6.625658E-2,4.7162664E-1,6.0520726E-1,1.4928932E-1,-3.7435886E-1,8.0853395E-2,2.8969174E-2,1.758444E-1,-5.4544628E-2,3.9268218E-2,-1.0499767E-1,-4.7265664E-2,9.687384E-2,9.651314E-3,-2.166559E-2,-1.5191382E-3,1.99568E-2,-2.966752E-2,7.3697545E-2,-4.499144E-2,1.6423768E-1,4.975297E-2,-5.778682E-2,2.125368E-2,-6.76041E-2,7.3682554E-2],"categories":[],"categories_nodes":[],"categories_segments":[],"categories_sizes":[],"default_left":[0,0,0,1,1,0,1,0,0,0,0,0,0,0,1,0,0,0,0,0,0,0,0,0,0,1,0,0,0,0,0,0,0,0,0,0,0,0,0,0,0,0,0,0,0,0,0],"id":12,"left_children":[1,3,5,7,9,11,13,15,17,19,21,-1,-1,23,25,27,29,31,-1,33,35,37,39,41,43,45,-1,-1,-1,-1,-1,-1,-1,-1,-1,-1,-1,-1,-1,-1,-1,-1,-1,-1,-1,-1,-1],"loss_changes":[1.063961E1,6.174307E0,8.425863E0,6.8065615E0,6.285483E0,3.122232E0,5.001993E0,6.0563874E0,5.0742397E0,7.1990156E0,4.2555885E0,0E0,0E0,3.8130903E0,4.6974387E0,3.0118337E0,4.875985E0,2.7982807E0,0E0,6.217868E0,7.6380243E0,6.030589E0,2.8213348E0,2.3343139E0,4.574974E0,4.8366647E0,0E0,0E0,0E0,0E0,0E0,0E0,0E0,0E0,0E0,0E0,0E0,0E0,0E0,0E0,0E0,0E0,0E0,0E0,0E0,0E0,0E0],"parents":[2147483647,0,0,1,1,2,2,3,3,4,4,5,5,6,6,7,7,8,8,9,9,10,10,13,13,14,14,15,15,16,16,17,17,19,19,20,20,21,21,22,22,23,23,24,24,25,25],"right_children":[2,4,6,8,10,12,14,16,18,20,22,-1,-1,24,26,28,30,32,-1,34,36,38,40,42,44,46,-1,-1,-1,-1,-1,-1,-1,-1,-1,-1,-1,-1,-1,-1,-1,-1,-1,-1,-1,-1,-1],"split_conditions":[3.0952382E0,6E0,2.0453334E0,-2.11E-1,2.984E0,8E0,1.2E1,1.2E0,5.9E-1,7.5333333E-1,5.21E-1,-1.3855109E-1,2.8521868E-3,9.24E-1,1.7275E0,2.6363637E0,9.2E1,2.4145E0,8.2860574E-2,2.5277777E0,7E0,2.37E-1,4.38E0,3.125E0,1.0625E0,2.4E0,8.0853395E-2,2.8969174E-2,1.758444E-1,-5.4544628E-2,3.9268218E-2,-1.0499767E-1,-4.7265664E-2,9.687384E-2,9.651314E-3,-2.166559E-2,-1.5191382E-3,1.99568E-2,-2.966752E-2,7.3697545E-2,-4.499144E-2,1.6423768E-1,4.975297E-2,-5.778682E-2,2.125368E-2,-6.76041E-2,7.3682554E-2],"split_indices":[14,16,6,5,6,7,9,0,5,0,5,0,0,2,0,14,17,6,0,14,17,5,6,14,2,2,0,0,0,0,0,0,0,0,0,0,0,0,0,0,0,0,0,0,0,0,0],"split_type":[0,0,0,0,0,0,0,0,0,0,0,0,0,0,0,0,0,0,0,0,0,0,0,0,0,0,0,0,0,0,0,0,0,0,0,0,0,0,0,0,0,0,0,0,0,0,0],"sum_hessian":[2.177157E3,1.6963939E3,4.8076306E2,1.1452397E2,1.5818699E3,1.0437712E1,4.7032535E2,4.5871716E1,6.865226E1,1.3335536E3,2.4831635E2,6.745872E0,3.6918397E0,4.365854E2,3.3739956E1,9.276035E0,3.659568E1,6.562269E1,3.0295677E0,6.776112E1,1.2657925E3,2.1987741E2,2.843894E1,1.8335155E1,4.1825024E2,2.9239553E1,4.5004034E0,6.2037706E0,3.0722651E0,2.325798E1,1.3337699E1,2.1234474E1,4.4388218E1,1.701935E1,5.0741776E1,5.0867145E2,7.57121E2,1.6916415E2,5.0713253E1,2.5419962E1,3.018977E0,3.1656098E0,1.5169545E1,1.1266822E1,4.0698343E2,2.5484682E1,3.754871E0],"tree_param":{"num_deleted":"0","num_feature":"30","num_nodes":"47","size_leaf_vector":"1"}},{"base_weights":[5.744062E-3,-9.259764E-3,2.816254E-1,-2.2271754E-2,2.5409535E-1,2.0168467E-1,8.9325786E-1,-1.2405615E-2,-3.3631793E-1,-8.721915E-2,2.9533222E-1,4.5265052E-1,-2.893094E-3,2.9166567E-1,1.8795435E-1,-1.7484501E-1,5.747895E-3,2.011581E-2,-5.899707E-1,1.520935E-1,2.3354526E-1,-3.1745568E-1,5.994927E-1,-1.13833666E-1,6.093479E-1,7.6514065E-2,-1.1220548E-2,-4.9283538E-2,-8.933965E-3,-2.0221467E-3,2.4982814E-2,-6.837031E-2,1.1570813E-1,-1.4877267E-1,-5.0279062E-2,1.5933648E-2,8.5580595E-2,1.10683115E-2,-7.481122E-2,9.211833E-2,-2.6144452E-2,-6.7652695E-2,1.0458933E-2,1.239166E-1,-4.260708E-4],"categories":[],"categories_nodes":[],"categories_segments":[],"categories_sizes":[],"default_left":[1,1,0,1,0,0,0,0,0,0,0,0,1,0,0,0,1,0,0,0,0,0,1,0,0,0,0,0,0,0,0,0,0,0,0,0,0,0,0,0,0,0,0,0,0],"id":13,"left_children":[1,3,5,7,9,11,13,15,17,-1,19,21,23,25,-1,27,29,31,33,-1,35,37,39,41,43,-1,-1,-1,-1,-1,-1,-1,-1,-1,-1,-1,-1,-1,-1,-1,-1,-1,-1,-1,-1],"loss_changes":[9.062317E0,7.1223583E0,5.3412704E0,6.130495E0,3.9946256E0,5.195273E0,4.054229E0,5.664744E0,5.460814E0,0E0,4.9741306E0,5.328577E0,3.9223554E0,9.3956673E-1,0E0,4.2668653E0,7.1352158E0,1.3394859E1,3.5151157E0,0E0,4.1782994E0,9.191642E-1,4.012082E0,4.0479665E0,1.9831066E0,0E0,0E0,0E0,0E0,0E0,0E0,0E0,0E0,0E0,0E0,0E0,0E0,0E0,0E0,0E0,0E0,0E0,0E0,0E0,0E0],"parents":[2147483647,0,0,1,1,2,2,3,3,4,4,5,5,6,6,7,7,8,8,10,10,11,11,12,12,13,13,15,15,16,16,17,17,18,18,20,20,21,21,22,22,23,23,24,24],"right_children":[2,4,6,8,10,12,14,16,18,-1,20,22,24,26,-1,28,30,32,34,-1,36,38,40,42,44,-1,-1,-1,-1,-1,-1,-1,-1,-1,-1,-1,-1,-1,-1,-1,-1,-1,-1,-1,-1],"split_conditions":[1.9544444E0,9E0,1.1E1,8E0,7.35E-1,2.18E0,1.07E0,1E1,5.5E-1,-8.721915E-2,9.475E-1,1E1,4.74E0,2.282E0,1.8795435E-1,2.555E0,3.06E0,8.6E-2,1.022E0,1.520935E-1,1.3E1,3.454E0,4.0075E0,2.418E0,1.5E1,7.6514065E-2,-1.1220548E-2,-4.9283538E-2,-8.933965E-3,-2.0221467E-3,2.4982814E-2,-6.837031E-2,1.1570813E-1,-1.4877267E-1,-5.0279062E-2,1.5933648E-2,8.5580595E-2,1.10683115E-2,-7.481122E-2,9.211833E-2,-2.6144452E-2,-6.7652695E-2,1.0458933E-2,1.239166E-1,-4.260708E-4],"split_indices":[1,10,10,10,1,0,3,16,4,0,0,16,6,0,0,6,6,4,4,0,8,6,6,0,8,0,0,0,0,0,0,0,0,0,0,0,0,0,0,0,0,0,0,0,0],"split_type":[0,0,0,0,0,0,0,0,0,0,0,0,0,0,0,0,0,0,0,0,0,0,0,0,0,0,0,0,0,0,0,0,0,0,0,0,0,0,0,0,0,0,0,0,0],"sum_hessian":[2.1877185E3,2.0757927E3,1.119257E2,1.978932E3,9.6860695E1,1.00163956E2,1.1761742E1,1.919663E3,5.926902E1,3.4149468E0,9.344575E1,4.4437557E1,5.57264E1,6.533274E0,5.2284675E0,1.9210017E2,1.7275629E3,2.502479E1,3.424423E1,4.8231077E0,8.8622635E1,6.930266E0,3.7507294E1,4.7866806E1,7.859591E0,3.27725E0,3.2560244E0,6.247033E1,1.2962985E2,1.5522478E3,1.75315E2,1.5625467E1,9.3993225E0,7.3543315E0,2.6889898E1,7.212344E1,1.6499193E1,3.050105E0,3.8801608E0,3.256608E1,4.9412136E0,1.4736542E1,3.3130264E1,4.5570335E0,3.3025577E0],"tree_param":{"num_deleted":"0","num_feature":"30","num_nodes":"45","size_leaf_vector":"1"}},{"base_weights":[1.8191947E-2,8.234465E-3,3.793226E-1,-2.4057401E-2,1.10613346E-1,1.760081E-1,2.5218406E-1,-1.4096376E-1,6.237294E-3,3.392802E-2,2.956278E-1,-8.6876E-2,5.757813E-1,-3.7263535E-2,-4.1313788E-1,-4.713119E-2,8.845114E-2,-3.0751038E-1,7.831691E-2,1.3169878E0,2.313314E-1,8.06775E-2,-8.73932E-2,-4.5200624E-2,7.5448054E-1,5.3339982E-3,-3.7487675E-2,3.3387188E-2,-6.536356E-2,-3.836634E-3,-7.220436E-2,1.8280083E-1,9.493124E-3,3.7217863E-2,-5.016474E-2,-3.8773704E-2,1.5675671E-2,2.4023946E-1,3.5903208E-2,4.6751767E-2,-1.6711982E-2,3.3165097E-2,-5.999007E-2,1.7179163E-1,7.5473644E-2],"categories":[],"categories_nodes":[],"categories_segments":[],"categories_sizes":[],"default_left":[1,1,0,1,0,0,0,1,1,1,0,0,0,0,0,1,0,0,0,1,0,0,0,0,0,0,0,0,0,0,0,0,0,0,0,0,0,0,0,0,0,0,0,0,0],"id":14,"left_children":[1,3,5,7,9,-1,11,13,15,17,19,21,23,25,27,29,31,33,35,37,39,41,-1,-1,43,-1,-1,-1,-1,-1,-1,-1,-1,-1,-1,-1,-1,-1,-1,-1,-1,-1,-1,-1,-1],"loss_changes":[7.8114595E0,6.99774E0,7.0934563E0,5.7005873E0,7.1907535E0,0E0,5.8610783E0,9.334045E0,5.6163306E0,5.4793496E0,9.453264E0,2.7433507E0,4.798852E0,4.9245214E0,6.3435583E0,6.8397865E0,9.287704E0,2.2834094E0,5.5311413E0,4.5448656E0,7.0124383E0,2.2895138E0,0E0,0E0,1.4242678E0,0E0,0E0,0E0,0E0,0E0,0E0,0E0,0E0,0E0,0E0,0E0,0E0,0E0,0E0,0E0,0E0,0E0,0E0,0E0,0E0],"parents":[2147483647,0,0,1,1,2,2,3,3,4,4,6,6,7,7,8,8,9,9,10,10,11,11,12,12,13,13,14,14,15,15,16,16,17,17,18,18,19,19,20,20,21,21,24,24],"right_children":[2,4,6,8,10,-1,12,14,16,18,20,22,24,26,28,30,32,34,36,38,40,42,-1,-1,44,-1,-1,-1,-1,-1,-1,-1,-1,-1,-1,-1,-1,-1,-1,-1,-1,-1,-1,-1,-1],"split_conditions":[4.05E0,1E1,-6.6E-2,4.5E-1,9.2E1,1.760081E-1,1.3E1,-2.35E-1,-2.87E-1,2.4814816E0,4.2777777E-1,9E0,7.5438595E-1,7.7E1,7.5333333E-1,-3.38E-1,4.5454547E-1,3E0,1.395E0,-4.7E-2,1.94E2,1.1E1,-8.73932E-2,-4.5200624E-2,8.181818E-1,5.3339982E-3,-3.7487675E-2,3.3387188E-2,-6.536356E-2,-3.836634E-3,-7.220436E-2,1.8280083E-1,9.493124E-3,3.7217863E-2,-5.016474E-2,-3.8773704E-2,1.5675671E-2,2.4023946E-1,3.5903208E-2,4.6751767E-2,-1.6711982E-2,3.3165097E-2,-5.999007E-2,1.7179163E-1,7.5473644E-2],"split_indices":[14,8,5,15,17,0,7,5,5,14,15,9,15,17,0,5,15,9,0,5,17,7,0,0,15,0,0,0,0,0,0,0,0,0,0,0,0,0,0,0,0,0,0,0,0],"split_type":[0,0,0,0,0,0,0,0,0,0,0,0,0,0,0,0,0,0,0,0,0,0,0,0,0,0,0,0,0,0,0,0,0,0,0,0,0,0,0,0,0,0,0,0,0],"sum_hessian":[2.1721611E3,2.1148704E3,5.7290676E1,1.6083402E3,5.0653012E2,5.327543E0,5.196313E1,3.3025247E2,1.2780878E3,3.589393E2,1.4759082E2,2.5732527E1,2.6230606E1,2.3996214E2,9.029032E1,7.752603E2,5.0282748E2,4.0613503E1,3.183258E2,7.586994E0,1.4000383E2,2.0792604E1,4.939924E0,4.064526E0,2.2166079E1,1.8414757E2,5.5814587E1,1.1500929E1,7.878939E1,7.518013E2,2.3459011E1,4.05922E0,4.9876828E2,4.833967E0,3.5779533E1,3.2790462E1,2.8553534E2,4.3561616E0,3.2308323E0,1.0177865E2,3.8225178E1,1.6078974E1,4.71363E0,3.1486962E0,1.9017382E1],"tree_param":{"num_deleted":"0","num_feature":"30","num_nodes":"45","size_leaf_vector":"1"}},{"base_weights":[-1.1938779E-2,-4.7320623E-2,6.234564E-2,-8.205373E-2,9.021972E-2,4.8775995E-1,3.1334586E-2,1.4231241E-1,-1.0327014E-1,6.035926E-2,8.128794E-1,-1.860805E-1,6.4667207E-1,6.577747E-2,-1.9137377E-1,-2.5510418E-1,3.2752833E-1,-6.5726423E-1,-8.938359E-2,-1.2368183E-1,1.6297092E-1,1.7604014E-1,3.1860743E-2,4.5702867E-2,-1.1231635E-1,-2.4897622E-2,7.595734E-1,-2.5786203E-1,9.351572E-2,-3.3995244E-1,3.6604613E-1,-1.5164061E-2,-1.4541517E-1,2.7770223E-2,1.667767E-1,-9.8329306E-2,1.6920257E-2,-1.2548463E-2,5.904511E-2,1.6800418E-2,-3.7442848E-2,1.2274335E-1,1.607026E-2,6.7105696E-2,1.4241683E-1,2.0157443E-2,-6.3930415E-2,4.4221196E-2,8.868732E-3,2.3536716E-2,-6.71249E-2,-1.6495498E-2,1.0865781E-1],"categories":[],"categories_nodes":[],"categories_segments":[],"categories_sizes":[],"default_left":[0,1,0,0,0,1,1,0,0,0,0,0,0,0,1,0,0,0,1,0,0,0,0,0,0,0,0,0,0,0,0,0,0,0,0,0,0,0,0,0,0,0,0,0,0,0,0,0,0,0,0,0,0],"id":15,"left_children":[1,3,5,7,9,11,13,15,17,19,21,23,25,27,29,31,33,35,37,39,41,-1,-1,-1,-1,-1,43,45,47,49,51,-1,-1,-1,-1,-1,-1,-1,-1,-1,-1,-1,-1,-1,-1,-1,-1,-1,-1,-1,-1,-1,-1],"loss_changes":[5.7120657E0,7.0390453E0,9.235829E0,5.6112113E0,6.3650255E0,5.214814E0,5.034317E0,7.5908155E0,8.208902E0,5.4310923E0,3.4150033E0,4.06219E0,3.8312283E0,5.120652E0,7.4078035E0,3.8442082E0,7.2343163E0,2.4908257E0,5.4235916E0,4.539878E0,5.2966533E0,0E0,0E0,0E0,0E0,0E0,2.278635E0,4.6719246E0,3.1425695E0,6.9904957E0,4.7051396E0,0E0,0E0,0E0,0E0,0E0,0E0,0E0,0E0,0E0,0E0,0E0,0E0,0E0,0E0,0E0,0E0,0E0,0E0,0E0,0E0,0E0,0E0],"parents":[2147483647,0,0,1,1,2,2,3,3,4,4,5,5,6,6,7,7,8,8,9,9,10,10,11,11,12,12,13,13,14,14,15,15,16,16,17,17,18,18,19,19,20,20,26,26,27,27,28,28,29,29,30,30],"right_children":[2,4,6,8,10,12,14,16,18,20,22,24,26,28,30,32,34,36,38,40,42,-1,-1,-1,-1,-1,44,46,48,50,52,-1,-1,-1,-1,-1,-1,-1,-1,-1,-1,-1,-1,-1,-1,-1,-1,-1,-1,-1,-1,-1,-1],"split_conditions":[9E0,3.082E0,-6.2E-2,8.28E-1,8.47E-1,4.469914E-1,1.32E2,1.758E0,8.7666667E-1,1.213E0,1.684E0,-2.24E-1,-7.3833334E-1,5E0,1E1,1.206E0,8.025E-1,1.81E2,2.011E0,9.688889E-1,4.2307693E-1,1.7604014E-1,3.1860743E-2,4.5702867E-2,-1.1231635E-1,-2.4897622E-2,1.519E0,3E0,7E0,8E0,1.496E0,-1.5164061E-2,-1.4541517E-1,2.7770223E-2,1.667767E-1,-9.8329306E-2,1.6920257E-2,-1.2548463E-2,5.904511E-2,1.6800418E-2,-3.7442848E-2,1.2274335E-1,1.607026E-2,6.7105696E-2,1.4241683E-1,2.0157443E-2,-6.3930415E-2,4.4221196E-2,8.868732E-3,2.3536716E-2,-6.71249E-2,-1.6495498E-2,1.0865781E-1],"split_indices":[10,6,5,0,5,15,17,6,0,3,0,5,5,7,8,1,0,17,1,3,15,0,0,0,0,0,1,8,7,7,3,0,0,0,0,0,0,0,0,0,0,0,0,0,0,0,0,0,0,0,0,0,0],"split_type":[0,0,0,0,0,0,0,0,0,0,0,0,0,0,0,0,0,0,0,0,0,0,0,0,0,0,0,0,0,0,0,0,0,0,0,0,0,0,0,0,0,0,0,0,0,0,0,0,0,0,0,0,0],"sum_hessian":[2.171154E3,1.4709161E3,7.002379E2,1.1746779E3,2.962383E2,4.6575775E1,6.536622E2,1.009899E2,1.073688E3,2.8552393E2,1.071439E1,8.855316E0,3.772046E1,5.6672076E2,8.694137E1,3.1984224E1,6.900567E1,2.5122269E1,1.0485657E3,1.0213408E2,1.8338985E2,4.5922933E0,6.1220965E0,5.239327E0,3.6159897E0,4.3713307E0,3.334913E1,4.40828E1,5.22638E2,6.895243E1,1.798894E1,2.8722498E1,3.2617261E0,6.3207195E1,5.798478E0,2.19336E1,3.1886704E0,1.0321268E3,1.643889E1,4.096567E1,6.1168407E1,6.907796E0,1.7648206E2,2.1774899E1,1.157423E1,1.644852E1,2.7634281E1,4.3596703E1,4.7904126E2,1.8164185E1,5.0788242E1,9.28906E0,8.69988E0],"tree_param":{"num_deleted":"0","num_feature":"30","num_nodes":"53","size_leaf_vector":"1"}},{"base_weights":[1.3688764E-2,-1.3300444E-2,1.2962154E-1,1.5576636E-2,-1.2302699E-1,-6.000927E-1,1.4434458E-1,-2.3228815E-3,1.9806994E-1,-2.1522722E-1,4.313619E-2,-2.4221182E-2,-1.1605163E-1,2.632033E-1,6.0767505E-2,1.2255693E-1,-3.7633784E-2,6.4660794E-1,-6.4857816E-4,-3.94954E-1,-1.233692E-1,8.406485E-1,-1.3167353E-2,5.7047717E-2,4.8935822E-1,1.3473067E-1,3.5624195E-2,1.1862976E-1,1.2834915E-2,-3.3618357E-2,-2.0133953E-3,1.07509255E-1,-5.5560574E-2,4.059682E-2,-3.749289E-2,-5.789406E-2,3.721643E-2,-7.657814E-2,-8.4865745E-3,1.8952595E-1,-1.37682175E-2,4.369124E-3,-1.1829362E-1,1.08635746E-1,-9.467937E-3,2.5680043E-2,9.574754E-2,3.177643E-2,-1.1318314E-2],"categories":[],"categories_nodes":[],"categories_segments":[],"categories_sizes":[],"default_left":[1,0,0,1,1,0,0,1,0,0,0,0,0,0,0,0,0,1,1,1,0,1,1,0,1,0,1,0,0,0,0,0,0,0,0,0,0,0,0,0,0,0,0,0,0,0,0,0,0],"id":16,"left_children":[1,3,5,7,9,11,13,15,17,19,21,-1,-1,23,25,27,29,31,33,35,37,39,41,43,45,-1,47,-1,-1,-1,-1,-1,-1,-1,-1,-1,-1,-1,-1,-1,-1,-1,-1,-1,-1,-1,-1,-1,-1],"loss_changes":[6.7041025E0,5.5103908E0,4.4334626E0,4.499002E0,5.5599704E0,8.7447786E-1,3.9317427E0,5.5392785E0,1.0965736E1,3.800953E0,5.8541665E0,0E0,0E0,7.6075544E0,5.8517666E0,4.764956E0,4.835325E0,8.491406E0,8.204788E0,3.3751402E0,4.1836643E0,5.4565167E0,5.3687453E0,9.15832E0,5.7495556E0,0E0,6.156828E0,0E0,0E0,0E0,0E0,0E0,0E0,0E0,0E0,0E0,0E0,0E0,0E0,0E0,0E0,0E0,0E0,0E0,0E0,0E0,0E0,0E0,0E0],"parents":[2147483647,0,0,1,1,2,2,3,3,4,4,5,5,6,6,7,7,8,8,9,9,10,10,13,13,14,14,15,15,16,16,17,17,18,18,19,19,20,20,21,21,22,22,23,23,24,24,26,26],"right_children":[2,4,6,8,10,12,14,16,18,20,22,-1,-1,24,26,28,30,32,34,36,38,40,42,44,46,-1,48,-1,-1,-1,-1,-1,-1,-1,-1,-1,-1,-1,-1,-1,-1,-1,-1,-1,-1,-1,-1,-1,-1],"split_conditions":[3.1176472E0,1.1E1,1.974E0,6E0,2.7747252E0,1.68E0,3.31875E0,-4E0,2.5172415E0,1.7E1,1.363E0,-2.4221182E-2,-1.1605163E-1,5E0,2.2853334E0,8.26E-1,6E0,1.5457143E0,1.17E0,1.7275E0,2.7272728E-1,3.074E0,1.56E0,1.176E0,5E0,1.3473067E-1,4E0,1.1862976E-1,1.2834915E-2,-3.3618357E-2,-2.0133953E-3,1.07509255E-1,-5.5560574E-2,4.059682E-2,-3.749289E-2,-5.789406E-2,3.721643E-2,-7.657814E-2,-8.4865745E-3,1.8952595E-1,-1.37682175E-2,4.369124E-3,-1.1829362E-1,1.08635746E-1,-9.467937E-3,2.5680043E-2,9.574754E-2,3.177643E-2,-1.1318314E-2],"split_indices":[14,9,6,16,14,3,14,10,14,9,3,0,0,10,6,3,16,3,2,0,15,6,0,2,9,0,7,0,0,0,0,0,0,0,0,0,0,0,0,0,0,0,0,0,0,0,0,0,0],"split_type":[0,0,0,0,0,0,0,0,0,0,0,0,0,0,0,0,0,0,0,0,0,0,0,0,0,0,0,0,0,0,0,0,0,0,0,0,0,0,0,0,0,0,0,0,0,0,0,0,0],"sum_hessian":[2.1410645E3,1.7374667E3,4.0359784E2,1.3761572E3,3.6130957E2,7.195794E0,3.9640204E2,1.2541349E3,1.2202223E2,2.321818E2,1.2912776E2,3.8079596E0,3.3878348E0,1.6277013E2,2.3363191E2,2.7590482E2,9.782301E2,3.677087E1,8.525136E1,7.7414734E1,1.5476707E2,7.5964932E0,1.2153127E2,8.580516E1,7.696497E1,4.7293854E0,2.2890253E2,6.0923634E0,2.6981247E2,8.488925E1,8.933409E2,3.126274E1,5.5081334E0,4.0800503E1,4.4450855E1,7.149869E1,5.9160404E0,1.5363895E1,1.3940317E2,4.1720953E0,3.4243975E0,1.1645793E2,5.0733404E0,1.13730545E1,7.4432106E1,3.7635906E1,3.9329063E1,8.3820656E1,1.4508188E2],"tree_param":{"num_deleted":"0","num_feature":"30","num_nodes":"49","size_leaf_vector":"1"}},{"base_weights":[4.497757E-3,-1.4659573E-3,5.8158106E-1,7.112674E-2,-3.9668255E-2,7.572134E-1,-4.5547247E-2,-1.1002103E-2,1.8241619E-1,3.9400227E-2,-1.0549512E-1,1.0279852E-2,9.233044E-1,-3.2068834E-2,9.2902833E-1,-5.840235E-2,2.5125068E-1,-1.0370202E-1,1.1166585E-1,-1.6389728E-1,-3.6835303E-3,4.4889665E-1,1.9287638E-1,-1.3931575E-2,3.204117E-2,1.9796067E-1,1.5781505E-2,7.6538553E-3,-8.7039955E-2,5.072898E-2,8.373416E-3,3.334726E-2,-2.2049163E-2,-3.0820433E-3,3.554282E-2,2.4494514E-2,-2.3798639E-2,1.2821501E-2,-3.3882678E-2,1.0183017E-1,-2.2816954E-2],"categories":[],"categories_nodes":[],"categories_segments":[],"categories_sizes":[],"default_left":[1,1,0,1,0,0,0,1,0,0,0,0,0,0,0,1,1,0,0,0,1,0,0,0,0,0,0,0,0,0,0,0,0,0,0,0,0,0,0,0,0],"id":17,"left_children":[1,3,5,7,9,11,-1,13,15,17,19,-1,21,23,25,27,29,31,33,35,37,39,-1,-1,-1,-1,-1,-1,-1,-1,-1,-1,-1,-1,-1,-1,-1,-1,-1,-1,-1],"loss_changes":[7.417093E0,5.9204655E0,3.9089756E0,6.7301736E0,7.2843866E0,2.0479813E0,0E0,8.436165E0,5.196947E0,6.5906243E0,4.539528E0,0E0,3.5586958E0,9.1784525E0,4.520709E0,5.2578583E0,6.6295013E0,5.495685E0,9.652741E0,4.0445375E0,7.6925254E0,2.3066735E0,0E0,0E0,0E0,0E0,0E0,0E0,0E0,0E0,0E0,0E0,0E0,0E0,0E0,0E0,0E0,0E0,0E0,0E0,0E0],"parents":[2147483647,0,0,1,1,2,2,3,3,4,4,5,5,7,7,8,8,9,9,10,10,12,12,13,13,14,14,15,15,16,16,17,17,18,18,19,19,20,20,21,21],"right_children":[2,4,6,8,10,12,-1,14,16,18,20,-1,22,24,26,28,30,32,34,36,38,40,-1,-1,-1,-1,-1,-1,-1,-1,-1,-1,-1,-1,-1,-1,-1,-1,-1,-1,-1],"split_conditions":[1.2E1,-4E0,1.6E1,5E0,5.06E-1,2.541502E0,-4.5547247E-2,1.488E0,4.5833334E-1,5E-1,5E0,1.0279852E-2,1.674E0,3.5357144E0,1.515E0,1.01E0,2.9722223E0,7.5333333E-1,1.36E0,1.6666666E0,2.722E0,5.619048E-1,1.9287638E-1,-1.3931575E-2,3.204117E-2,1.9796067E-1,1.5781505E-2,7.6538553E-3,-8.7039955E-2,5.072898E-2,8.373416E-3,3.334726E-2,-2.2049163E-2,-3.0820433E-3,3.554282E-2,2.4494514E-2,-2.3798639E-2,1.2821501E-2,-3.3882678E-2,1.0183017E-1,-2.2816954E-2],"split_indices":[10,10,8,7,4,14,0,0,15,15,10,0,2,14,1,2,14,0,1,0,6,15,0,0,0,0,0,0,0,0,0,0,0,0,0,0,0,0,0,0,0],"split_type":[0,0,0,0,0,0,0,0,0,0,0,0,0,0,0,0,0,0,0,0,0,0,0,0,0,0,0,0,0,0,0,0,0,0,0,0,0,0,0,0,0],"sum_hessian":[2.1539065E3,2.1328625E3,2.1044044E1,7.351174E2,1.3977451E3,1.7893526E1,3.150518E0,4.23492E2,3.116254E2,6.3518677E2,7.625584E2,3.8206086E0,1.4072918E1,4.15154E2,8.338002E0,6.930663E1,2.4231876E2,2.1298781E2,4.2219897E2,4.8419812E2,2.783603E2,8.793445E0,5.2794733E0,3.2666913E2,8.848487E1,4.1623287E0,4.175674E0,5.902689E1,1.0279741E1,1.343148E2,1.0800396E2,3.361042E1,1.7937738E2,2.337058E2,1.8849318E2,2.9116838E1,4.5508127E2,1.9959126E2,7.8769035E1,5.462552E0,3.3308926E0],"tree_param":{"num_deleted":"0","num_feature":"30","num_nodes":"41","size_leaf_vector":"1"}},{"base_weights":[-2.0158451E-2,-2.5762876E-2,5.4981166E-1,-6.6979386E-2,1.0266364E-2,2.4663314E-1,1.5592614E-1,5.8284323E-3,-1.3375157E-1,3.3982538E-2,-1.3553691E-1,-4.9187094E-2,4.355197E-1,-1.5263195E-1,8.515159E-2,-1.0766087E-1,-7.6643205E-1,6.232769E-3,3.1611365E-1,-6.1819743E-2,-8.75237E-1,1.4953748E-3,7.5917596E-1,4.343697E-2,-3.671719E-2,8.054294E-2,7.834812E-3,-5.8482654E-2,-8.918511E-3,-5.7536732E-2,-1.2944716E-1,2.6614417E-3,-7.7790454E-2,4.478812E-3,8.536104E-2,4.1076396E-2,-1.9022508E-2,-1.5578942E-1,1.2468721E-2,1.4261657E-1,2.6438257E-2],"categories":[],"categories_nodes":[],"categories_segments":[],"categories_sizes":[],"default_left":[1,0,1,0,1,1,0,1,0,1,0,0,0,1,0,0,0,1,1,0,0,0,0,0,0,0,0,0,0,0,0,0,0,0,0,0,0,0,0,0,0],"id":18,"left_children":[1,3,5,7,9,11,-1,13,15,17,19,-1,21,23,25,27,29,31,33,35,37,-1,39,-1,-1,-1,-1,-1,-1,-1,-1,-1,-1,-1,-1,-1,-1,-1,-1,-1,-1],"loss_changes":[6.956958E0,3.198262E0,4.0435004E0,4.8839946E0,3.9804606E0,2.0694313E0,0E0,6.06488E0,8.567005E0,7.7467074E0,8.728206E0,0E0,1.7345297E0,1.0914582E1,4.1123533E0,6.636621E0,1.1640491E0,8.197955E0,8.809972E0,5.026766E0,5.0574675E0,0E0,1.20193E0,0E0,0E0,0E0,0E0,0E0,0E0,0E0,0E0,0E0,0E0,0E0,0E0,0E0,0E0,0E0,0E0,0E0,0E0],"parents":[2147483647,0,0,1,1,2,2,3,3,4,4,5,5,7,7,8,8,9,9,10,10,12,12,13,13,14,14,15,15,16,16,17,17,18,18,19,19,20,20,22,22],"right_children":[2,4,6,8,10,12,-1,14,16,18,20,-1,22,24,26,28,30,32,34,36,38,-1,40,-1,-1,-1,-1,-1,-1,-1,-1,-1,-1,-1,-1,-1,-1,-1,-1,-1,-1],"split_conditions":[1.2E1,4E0,1.85E0,1.772E0,2.7695E0,2.5666666E0,1.5592614E-1,2.631579E0,1.4E1,1.396E0,1.914E0,-4.9187094E-2,1.8E0,1.86E0,8.1E-1,2.384E0,2E0,1.334E0,1.282E0,5E0,1.96375E0,1.4953748E-3,7E0,4.343697E-2,-3.671719E-2,8.054294E-2,7.834812E-3,-5.8482654E-2,-8.918511E-3,-5.7536732E-2,-1.2944716E-1,2.6614417E-3,-7.7790454E-2,4.478812E-3,8.536104E-2,4.1076396E-2,-1.9022508E-2,-1.5578942E-1,1.2468721E-2,1.4261657E-1,2.6438257E-2],"split_indices":[10,10,1,2,6,14,0,14,8,1,2,0,2,6,3,6,10,1,2,10,3,0,17,0,0,0,0,0,0,0,0,0,0,0,0,0,0,0,0,0,0],"split_type":[0,0,0,0,0,0,0,0,0,0,0,0,0,0,0,0,0,0,0,0,0,0,0,0,0,0,0,0,0,0,0,0,0,0,0,0,0,0,0,0,0],"sum_hessian":[2.172457E3,2.1522493E3,2.0207924E1,1.0034591E3,1.14879E3,1.48925495E1,5.315374E0,4.8047067E2,5.229884E2,9.8873126E2,1.6005882E2,3.1809113E0,1.17116375E1,1.5997383E2,3.2049686E2,5.0339923E2,1.9589193E1,9.0112115E2,8.7610115E1,1.4653864E2,1.35202E1,5.5202556E0,6.1913824E0,3.4202183E1,1.25771645E2,1.2147244E1,3.083496E2,4.7439102E1,4.559601E2,9.946826E0,9.642367E0,8.8113574E2,1.99854E1,4.951581E1,3.809431E1,2.6709013E1,1.1982961E2,9.758674E0,3.7615263E0,3.1140516E0,3.0773306E0],"tree_param":{"num_deleted":"0","num_feature":"30","num_nodes":"41","size_leaf_vector":"1"}},{"base_weights":[1.4893575E-2,-4.6286276E-1,1.8576784E-2,-1.12432025E-1,-9.6201666E-2,-4.8796755E-1,2.2025967E-2,-7.794658E-2,3.8651276E-2,2.6566168E-2,-7.5549984E-1,4.3607318E-1,1.7969163E-2,-1.4671952E-1,-4.0433306E-2,-6.677142E-2,7.019182E-1,2.2976967E-2,-3.5703743E-1,1.2773786E-1,-3.6066692E-2,1.9013091E-3,2.622913E-2,1.5586738E-2,-7.7181585E-2],"categories":[],"categories_nodes":[],"categories_segments":[],"categories_sizes":[],"default_left":[0,0,0,0,0,0,0,0,0,0,0,0,0,0,0,0,1,1,1,0,0,0,0,0,0],"id":19,"left_children":[1,3,5,7,-1,9,11,-1,-1,-1,13,15,17,-1,-1,-1,19,21,23,-1,-1,-1,-1,-1,-1],"loss_changes":[3.798102E0,1.6126165E0,3.7462006E0,1.9978411E0,0E0,2.8613517E0,3.5607152E0,0E0,0E0,0E0,1.4957504E0,5.623497E0,3.961186E0,0E0,0E0,0E0,5.2104874E0,3.0545917E0,3.402757E0,0E0,0E0,0E0,0E0,0E0,0E0],"parents":[2147483647,0,0,1,1,2,2,3,3,5,5,6,6,10,10,11,11,12,12,16,16,17,17,18,18],"right_children":[2,4,6,8,-1,10,12,-1,-1,-1,14,16,18,-1,-1,-1,20,22,24,-1,-1,-1,-1,-1,-1],"split_conditions":[1.5E0,1E1,-9.7E-1,5E0,-9.6201666E-2,-1.395E0,1.923077E-1,-7.794658E-2,3.8651276E-2,2.6566168E-2,5.026178E-1,5E0,2.49E2,-1.4671952E-1,-4.0433306E-2,-6.677142E-2,9.2E1,2.011E0,2.4736843E0,1.2773786E-1,-3.6066692E-2,1.9013091E-3,2.622913E-2,1.5586738E-2,-7.7181585E-2],"split_indices":[14,7,5,7,0,5,15,0,0,0,15,17,17,0,0,0,17,1,14,0,0,0,0,0,0],"split_type":[0,0,0,0,0,0,0,0,0,0,0,0,0,0,0,0,0,0,0,0,0,0,0,0,0],"sum_hessian":[2.1525227E3,1.5513913E1,2.1370088E3,7.699564E0,7.8143497E0,1.350295E1,2.1235056E3,3.2824972E0,4.4170666E0,3.8069725E0,9.695977E0,1.9570805E1,2.1039348E3,4.2225704E0,5.473407E0,4.029837E0,1.5540967E1,2.0771357E3,2.6799154E1,1.1879091E1,3.6618752E0,1.9909391E3,8.619675E1,9.34965E0,1.7449503E1],"tree_param":{"num_deleted":"0","num_feature":"30","num_nodes":"25","size_leaf_vector":"1"}},{"base_weights":[-3.996965E-3,-6.7208367E-3,6.1542577E-1,-7.585959E-1,-4.1715084E-3,-1.3277284E-2,1.3860585E-1,-1.3679677E-1,-3.102341E-2,-2.5500515E-1,2.0970544E-3,-1.7099196E-1,-1.13705516E-1,-5.0414073E-1,5.3713582E-3,-3.1939067E-2,4.0164296E-2,-2.9405272E-2,-1.2610632E-1,-3.0077035E-2,1.5265733E-3],"categories":[],"categories_nodes":[],"categories_segments":[],"categories_sizes":[],"default_left":[1,0,1,0,0,0,0,0,0,1,0,1,0,0,0,0,0,0,0,0,0],"id":20,"left_children":[1,3,5,7,9,-1,-1,-1,-1,11,13,15,-1,17,19,-1,-1,-1,-1,-1,-1],"loss_changes":[3.6424048E0,4.113893E0,3.3393073E0,9.201555E-1,3.3680003E0,0E0,0E0,0E0,0E0,2.6499891E0,3.467754E0,1.9262434E0,0E0,1.5588143E0,3.3334444E0,0E0,0E0,0E0,0E0,0E0,0E0],"parents":[2147483647,0,0,1,1,2,2,3,3,4,4,9,9,10,10,11,11,13,13,14,14],"right_children":[2,4,6,8,10,-1,-1,-1,-1,12,14,16,-1,18,20,-1,-1,-1,-1,-1,-1],"split_conditions":[5E-1,3E0,1.2328571E0,1.4333333E0,2E0,-1.3277284E-2,1.3860585E-1,-1.3679677E-1,-3.102341E-2,1.234E0,6.6E-1,2.7625E0,-1.13705516E-1,1E1,1.7683333E0,-3.1939067E-2,4.0164296E-2,-2.9405272E-2,-1.2610632E-1,-3.0077035E-2,1.5265733E-3],"split_indices":[13,11,3,1,9,0,0,0,0,3,3,6,0,17,6,0,0,0,0,0,0],"split_type":[0,0,0,0,0,0,0,0,0,0,0,0,0,0,0,0,0,0,0,0,0],"sum_hessian":[2.1553586E3,2.146907E3,8.451735E0,6.252613E0,2.1406543E3,3.665998E0,4.7857366E0,3.1965532E0,3.0560598E0,5.1225113E1,2.0894292E3,4.6391556E1,4.833557E0,1.2444377E1,2.0769849E3,4.0253323E1,6.138235E0,8.920131E0,3.5242462E0,5.449391E1,2.022491E3],"tree_param":{"num_deleted":"0","num_feature":"30","num_nodes":"21","size_leaf_vector":"1"}},{"base_weights":[1.3906018E-2,-6.7678314E-1,1.6930705E-2,-1.3072397E-1,-1.5991114E-2,1.3539434E-2,7.030961E-1,1.5163852E-1,1.7138995E-3,1.211468E0,-3.7939567E-2,2.0686622E-1,-4.2348653E-1,-1.3618654E-1,2.9149363E-2,2.0905982E-1,5.80757E-2,4.9105836E-3,5.417656E-2,-1.0289913E-1,2.0783767E-2,-1.9126253E-2,8.8532336E-2,8.077204E-2,2.75369E-3],"categories":[],"categories_nodes":[],"categories_segments":[],"categories_sizes":[],"default_left":[0,0,1,0,0,0,1,0,0,0,0,0,0,0,0,0,0,0,0,0,0,0,0,0,0],"id":21,"left_children":[1,3,5,-1,-1,7,9,11,13,15,-1,17,19,21,23,-1,-1,-1,-1,-1,-1,-1,-1,-1,-1],"loss_changes":[4.525737E0,1.6969571E0,4.999073E0,0E0,0E0,3.4992049E0,5.739899E0,5.4557924E0,7.4754786E0,1.5992422E0,0E0,5.690701E0,3.5552928E0,3.9679756E0,7.4767814E0,0E0,0E0,0E0,0E0,0E0,0E0,0E0,0E0,0E0,0E0],"parents":[2147483647,0,0,1,1,2,2,5,5,6,6,7,7,8,8,9,9,11,11,12,12,13,13,14,14],"right_children":[2,4,6,-1,-1,8,10,12,14,16,-1,18,20,22,24,-1,-1,-1,-1,-1,-1,-1,-1,-1,-1],"split_conditions":[3.8666666E-1,1E1,2.5E0,-1.3072397E-1,-1.5991114E-2,-7.54E-1,2E0,1.4333333E0,1.31E0,1.5433333E0,-3.7939567E-2,2.532E0,-9.3E-2,1.3E1,2.2853334E0,2.0905982E-1,5.80757E-2,4.9105836E-3,5.417656E-2,-1.0289913E-1,2.0783767E-2,-1.9126253E-2,8.8532336E-2,8.077204E-2,2.75369E-3],"split_indices":[1,17,11,0,0,4,10,1,0,0,0,6,5,8,6,0,0,0,0,0,0,0,0,0,0],"split_type":[0,0,0,0,0,0,0,0,0,0,0,0,0,0,0,0,0,0,0,0,0,0,0,0,0],"sum_hessian":[2.1598533E3,8.446021E0,2.1514072E3,4.632437E0,3.8135836E0,2.1418413E3,9.566E0,1.6800847E2,1.9738329E3,6.2055855E0,3.3604147E0,1.5387279E2,1.4135672E1,3.2687555E2,1.6469573E3,3.1987925E0,3.0067933E0,8.768124E1,6.619156E1,8.3042145E0,5.831457E0,3.2221176E2,4.6637836E0,1.912684E1,1.6278304E3],"tree_param":{"num_deleted":"0","num_feature":"30","num_nodes":"25","size_leaf_vector":"1"}},{"base_weights":[-1.3112591E-2,-4.4263372E-1,-9.888591E-3,-6.862735E-1,4.101711E-2,-1.7119931E-2,1.8558899E-1,1.1657942E-2,-9.4613844E-1,-2.1075003E-2,3.8394964E-1,1.6249996E-1,9.710104E-2,-6.369508E-2,-1.4954625E-1,3.5929434E-2,-5.194996E-2,-2.7612063E-1,7.456174E-1,1.7575628E-1,-1.4556329E-1,9.761226E-3,-3.148301E-2,-2.0435218E-2,-1.115496E-3,-6.5740064E-2,4.1781818E-3,3.0028535E-2,1.2744796E-1,6.782012E-2,1.5108936E-3],"categories":[],"categories_nodes":[],"categories_segments":[],"categories_sizes":[],"default_left":[0,1,1,1,0,1,0,0,0,1,1,0,1,0,0,0,0,1,0,0,0,0,0,0,0,0,0,0,0,0,0],"id":22,"left_children":[1,3,5,7,-1,9,11,-1,13,15,17,-1,19,-1,-1,21,23,25,27,29,-1,-1,-1,-1,-1,-1,-1,-1,-1,-1,-1],"loss_changes":[2.97159E0,3.2013967E0,3.0198264E0,2.6026607E0,0E0,3.273975E0,7.239004E0,0E0,3.7379456E-1,3.5917604E0,5.017841E0,0E0,7.1902704E0,0E0,0E0,8.31236E0,6.21004E0,6.017225E-1,1.4989624E0,3.9868064E0,0E0,0E0,0E0,0E0,0E0,0E0,0E0,0E0,0E0,0E0,0E0],"parents":[2147483647,0,0,1,1,2,2,3,3,5,5,6,6,8,8,9,9,10,10,12,12,15,15,16,16,17,17,18,18,19,19],"right_children":[2,4,6,8,-1,10,12,-1,14,16,18,-1,20,-1,-1,22,24,26,28,30,-1,-1,-1,-1,-1,-1,-1,-1,-1,-1,-1],"split_conditions":[-8.7E-1,3.2439024E0,2.05375E0,8.2E-1,4.101711E-2,1.2E1,7E0,1.1657942E-2,3.5058334E0,-4E0,8.7E-1,1.6249996E-1,7.027027E-1,-6.369508E-2,-1.4954625E-1,1.55E2,6E0,2.9387755E0,1.488E0,8.88E-1,-1.4556329E-1,9.761226E-3,-3.148301E-2,-2.0435218E-2,-1.115496E-3,-6.5740064E-2,4.1781818E-3,3.0028535E-2,1.2744796E-1,6.782012E-2,1.5108936E-3],"split_indices":[5,14,1,0,0,10,7,0,6,10,1,0,15,0,0,17,17,14,0,2,0,0,0,0,0,0,0,0,0,0,0],"split_type":[0,0,0,0,0,0,0,0,0,0,0,0,0,0,0,0,0,0,0,0,0,0,0,0,0,0,0,0,0,0,0],"sum_hessian":[2.1480603E3,1.4987889E1,2.1330725E3,1.144584E1,3.542049E0,2.0578582E3,7.521432E1,3.0281959E0,8.4176445E0,2.0387013E3,1.9156824E1,4.6317124E0,7.05826E1,3.943325E0,4.4743195E0,7.162061E2,1.3224951E3,6.864727E0,1.2292097E1,6.718402E1,3.3985846E0,6.2671075E2,8.949536E1,3.7525873E2,9.4723645E2,3.4809287E0,3.3837984E0,4.7555366E0,7.53656E0,2.0414469E1,4.6769554E1],"tree_param":{"num_deleted":"0","num_feature":"30","num_nodes":"31","size_leaf_vector":"1"}},{"base_weights":[-2.0741226E-2,1.7606002E-1,-2.972838E-2,5.865958E-1,7.036656E-2,-8.1737053E-1,-2.5666935E-2,9.934358E-1,-3.2869454E-2,5.493649E-3,1.5416063E-1,-1.3076985E-1,-5.1183134E-2,-9.857763E-2,6.5874723E-3,1.4774987E-2,1.2547776E0,-1.1353215E-1,7.0478365E-2,-1.5770777E-1,4.6425194E-2,1.5604231E-1,-1.6687639E-2,2.1340558E-1,4.567312E-2,-6.1286688E-2,2.2887211E-2,-1.864344E-2,-1.1002936E-1,1.1969402E-2,-9.218697E-2,-8.120925E-2,2.3663394E-2,-3.9221074E-2,-4.3402845E-4],"categories":[],"categories_nodes":[],"categories_segments":[],"categories_sizes":[],"default_left":[0,0,0,1,1,0,0,0,0,0,0,0,0,1,0,0,0,0,0,1,0,0,0,0,0,0,0,0,0,0,0,0,0,0,0],"id":23,"left_children":[1,3,5,7,9,11,13,15,-1,17,-1,-1,-1,19,21,-1,23,-1,25,27,29,31,33,-1,-1,-1,-1,-1,-1,-1,-1,-1,-1,-1,-1],"loss_changes":[3.847826E0,4.081933E0,6.628222E0,6.8980217E0,5.6733313E0,5.1549625E-1,4.866105E0,2.8914146E0,0E0,4.356768E0,0E0,0E0,0E0,5.448447E0,4.9954505E0,0E0,3.224059E0,0E0,4.289515E0,3.431613E0,6.8525085E0,4.725709E0,4.810483E0,0E0,0E0,0E0,0E0,0E0,0E0,0E0,0E0,0E0,0E0,0E0,0E0],"parents":[2147483647,0,0,1,1,2,2,3,3,4,4,5,5,6,6,7,7,9,9,13,13,14,14,16,16,18,18,19,19,20,20,21,21,22,22],"right_children":[2,4,6,8,10,12,14,16,-1,18,-1,-1,-1,20,22,-1,24,-1,26,28,30,32,34,-1,-1,-1,-1,-1,-1,-1,-1,-1,-1,-1,-1],"split_conditions":[2.1935484E0,4E0,3.1578946E-1,1E0,4.9E-1,2.347826E0,2.631579E0,3E0,-3.2869454E-2,1.446E0,1.5416063E-1,-1.3076985E-1,-5.1183134E-2,4E0,4E0,1.4774987E-2,8E0,-1.1353215E-1,1.5E0,2.5225E0,1.97E2,-5.825E-1,8.3E-1,2.1340558E-1,4.567312E-2,-6.1286688E-2,2.2887211E-2,-1.864344E-2,-1.1002936E-1,1.1969402E-2,-9.218697E-2,-8.120925E-2,2.3663394E-2,-3.9221074E-2,-4.3402845E-4],"split_indices":[14,9,15,10,4,14,14,8,0,2,0,0,0,10,17,0,8,0,14,2,17,5,2,0,0,0,0,0,0,0,0,0,0,0,0],"split_type":[0,0,0,0,0,0,0,0,0,0,0,0,0,0,0,0,0,0,0,0,0,0,0,0,0,0,0,0,0,0,0,0,0,0,0],"sum_hessian":[2.1715728E3,9.402465E1,2.077548E3,1.8319166E1,7.570548E1,9.630543E0,2.0679175E3,1.2246836E1,6.072331E0,7.258502E1,3.1204598E0,5.4092216E0,4.221321E0,6.336049E2,1.4343126E3,3.1424415E0,9.104394E0,4.0392003E0,6.854582E1,4.5000964E2,1.8359526E2,1.9250291E2,1.2418097E3,5.59233E0,3.5120637E0,1.0773952E1,5.777187E1,4.442094E2,5.8002405E0,1.7373415E2,9.861117E0,6.260327E0,1.8624258E2,5.3103607E1,1.188706E3],"tree_param":{"num_deleted":"0","num_feature":"30","num_nodes":"35","size_leaf_vector":"1"}},{"base_weights":[8.945779E-4,1.9946782E-1,-1.0666886E-2,7.732772E-2,7.0409787E-1,-2.5516084E-1,3.0285376E-3,5.4834443E-1,-6.913889E-2,3.621705E-1,1.9199884E-1,-3.622921E-1,2.1767873E-1,1.07257366E-1,8.256747E-6,9.602078E-1,8.9840986E-2,-2.3441757E-1,2.8551495E-1,6.927188E-1,-9.2310295E-2,-2.4821995E-1,-7.264498E-1,-6.9764145E-2,4.8860753E-1,-7.6415026E-1,3.7724283E-3,2.0441043E-1,3.627059E-2,-9.609236E-2,8.830742E-2,-5.4619167E-2,4.471616E-2,1.4195123E-1,-6.9528236E-3,-5.710642E-3,1.6086382E-1,-6.158045E-2,2.6011488E-3,-4.7946192E-2,-1.1949709E-1,1.4139958E-1,1.0979341E-2,-4.1091915E-2,-1.17437765E-1,5.282629E-2,-1.6867938E-4],"categories":[],"categories_nodes":[],"categories_segments":[],"categories_sizes":[],"default_left":[0,1,0,1,0,1,0,0,0,0,0,0,0,0,0,0,0,0,0,0,0,0,0,0,0,0,0,0,0,0,0,0,0,0,0,0,0,0,0,0,0,0,0,0,0,0,0],"id":24,"left_children":[1,3,5,7,9,11,13,15,17,19,-1,21,23,-1,25,27,29,31,33,35,-1,37,39,-1,41,43,45,-1,-1,-1,-1,-1,-1,-1,-1,-1,-1,-1,-1,-1,-1,-1,-1,-1,-1,-1,-1],"loss_changes":[4.945759E0,7.25097E0,6.817589E0,6.698858E0,5.7782726E0,5.549681E0,4.894017E0,4.25972E0,4.4360976E0,6.774132E0,0E0,3.492898E0,4.538175E0,0E0,5.533971E0,4.7890673E0,6.650347E0,6.020647E0,6.880894E0,5.9143186E0,0E0,4.372711E0,1.17694E0,0E0,3.8453546E0,3.6327076E-1,4.0169053E0,0E0,0E0,0E0,0E0,0E0,0E0,0E0,0E0,0E0,0E0,0E0,0E0,0E0,0E0,0E0,0E0,0E0,0E0,0E0,0E0],"parents":[2147483647,0,0,1,1,2,2,3,3,4,4,5,5,6,6,7,7,8,8,9,9,11,11,12,12,14,14,15,15,16,16,17,17,18,18,19,19,21,21,22,22,24,24,25,25,26,26],"right_children":[2,4,6,8,10,12,14,16,18,20,-1,22,24,-1,26,28,30,32,34,36,-1,38,40,-1,42,44,46,-1,-1,-1,-1,-1,-1,-1,-1,-1,-1,-1,-1,-1,-1,-1,-1,-1,-1,-1,-1],"split_conditions":[8.28E-1,2.2455E0,1.01E0,4.5454547E-1,7.72E-1,5.797101E-1,5.25E-1,1.4322222E0,5.547703E-1,-5.74E-1,1.9199884E-1,9.66E-1,2.0453334E0,1.07257366E-1,8.357143E-1,1.904E0,1.628E0,1.965E0,1.386E0,-1.124E0,-9.2310295E-2,1.011E0,2.215E0,-6.9764145E-2,5.9574467E-1,4.8630136E-1,1.038E0,2.0441043E-1,3.627059E-2,-9.609236E-2,8.830742E-2,-5.4619167E-2,4.471616E-2,1.4195123E-1,-6.9528236E-3,-5.710642E-3,1.6086382E-1,-6.158045E-2,2.6011488E-3,-4.7946192E-2,-1.1949709E-1,1.4139958E-1,1.0979341E-2,-4.1091915E-2,-1.17437765E-1,5.282629E-2,-1.6867938E-4],"split_indices":[0,6,0,15,0,15,1,3,15,4,0,0,6,0,1,6,3,2,3,4,0,1,6,0,15,15,0,0,0,0,0,0,0,0,0,0,0,0,0,0,0,0,0,0,0,0,0],"split_type":[0,0,0,0,0,0,0,0,0,0,0,0,0,0,0,0,0,0,0,0,0,0,0,0,0,0,0,0,0,0,0,0,0,0,0,0,0,0,0,0,0,0,0,0,0,0,0],"sum_hessian":[2.1523394E3,1.17525986E2,2.0348135E3,9.555193E1,2.197405E1,1.06999626E2,1.9278138E3,2.201402E1,7.353791E1,1.6441591E1,5.532459E0,8.742544E1,1.957419E1,5.909553E0,1.9219043E3,1.102041E1,1.099361E1,5.039258E1,2.3145336E1,1.28884E1,3.553192E0,6.7852356E1,1.957308E1,4.846395E0,1.4727795E1,8.430525E0,1.9134738E3,4.924002E0,6.0964074E0,4.4791636E0,6.5144467E0,3.8013172E1,1.2379405E1,6.063795E0,1.7081541E1,6.0305343E0,6.857866E0,3.570609E1,3.2146267E1,8.457095E0,1.1115985E1,5.087596E0,9.640198E0,3.0367422E0,5.393782E0,2.2433727E1,1.89104E3],"tree_param":{"num_deleted":"0","num_feature":"30","num_nodes":"47","size_leaf_vector":"1"}},{"base_weights":[2.5648784E-4,-1.3973304E-2,1.5802307E-1,3.5388075E-2,-6.0171336E-2,1.9352436E-1,-6.5954405E-1,1.8569056E-2,4.9154457E-1,-2.2259618E-1,-2.4201613E-2,2.2533327E-1,-4.673109E-1,-2.8165182E-2,-1.2620702E-1,-4.13266E-3,2.650593E-1,8.4912133E-1,-6.643621E-2,-2.696795E-1,2.194706E-1,-1.1906656E-1,3.7143197E-2,1.3903227E-1,1.9461933E-1,-2.7138202E-3,-1.0890632E-1,4.3291976E-3,-4.17264E-2,1.2566523E-1,1.4408717E-2,1.3488995E-1,2.26564E-2,-1.0898641E-1,3.2959018E-2,-2.840576E-2,-8.741162E-2,-5.626098E-2,7.278773E-2,-2.1222644E-2,7.037259E-2,1.6766343E-1,3.1815444E-3,-1.08870804E-1,3.0441493E-2],"categories":[],"categories_nodes":[],"categories_segments":[],"categories_sizes":[],"default_left":[1,0,1,1,1,1,0,1,1,1,0,0,1,0,0,1,0,0,0,1,1,0,0,0,0,0,0,0,0,0,0,0,0,0,0,0,0,0,0,0,0,0,0,0,0],"id":25,"left_children":[1,3,5,7,9,11,13,15,17,19,21,23,25,-1,-1,27,29,31,33,35,37,39,41,-1,43,-1,-1,-1,-1,-1,-1,-1,-1,-1,-1,-1,-1,-1,-1,-1,-1,-1,-1,-1,-1],"loss_changes":[4.838802E0,4.5106535E0,5.3033557E0,7.3288136E0,5.963378E0,3.713952E0,8.946469E-1,5.168617E0,6.8345213E0,3.9119368E0,4.878398E0,4.169669E0,1.4050957E0,0E0,0E0,1.0474796E1,8.434113E0,2.7558317E0,3.8737333E0,3.0947084E0,4.540038E0,1.0659775E1,7.8835535E0,0E0,7.715718E0,0E0,0E0,0E0,0E0,0E0,0E0,0E0,0E0,0E0,0E0,0E0,0E0,0E0,0E0,0E0,0E0,0E0,0E0,0E0,0E0],"parents":[2147483647,0,0,1,1,2,2,3,3,4,4,5,5,6,6,7,7,8,8,9,9,10,10,11,11,12,12,15,15,16,16,17,17,18,18,19,19,20,20,21,21,22,22,24,24],"right_children":[2,4,6,8,10,12,14,16,18,20,22,24,26,-1,-1,28,30,32,34,36,38,40,42,-1,44,-1,-1,-1,-1,-1,-1,-1,-1,-1,-1,-1,-1,-1,-1,-1,-1,-1,-1,-1,-1],"split_conditions":[7.105263E-1,5.181818E-1,1.7E1,2.0066667E0,4E0,3E0,4E0,1.6766666E0,2.19E0,3.3958333E0,2.909091E0,8.8E-1,1.356E0,-2.8165182E-2,-1.2620702E-1,1.426E0,2.4814816E0,2.355E0,4.4827586E-1,6.363636E-1,6E0,1.2E1,5.225225E-1,1.3903227E-1,1.191E0,-2.7138202E-3,-1.0890632E-1,4.3291976E-3,-4.17264E-2,1.2566523E-1,1.4408717E-2,1.3488995E-1,2.26564E-2,-1.0898641E-1,3.2959018E-2,-2.840576E-2,-8.741162E-2,-5.626098E-2,7.278773E-2,-2.1222644E-2,7.037259E-2,1.6766343E-1,3.1815444E-3,-1.08870804E-1,3.0441493E-2],"split_indices":[15,15,8,3,8,16,9,1,2,14,14,1,2,0,0,0,14,3,15,15,17,9,15,0,1,0,0,0,0,0,0,0,0,0,0,0,0,0,0,0,0,0,0,0,0],"split_type":[0,0,0,0,0,0,0,0,0,0,0,0,0,0,0,0,0,0,0,0,0,0,0,0,0,0,0,0,0,0,0,0,0,0,0,0,0,0,0,0,0,0,0,0,0],"sum_hessian":[2.1533984E3,1.9760771E3,1.7732127E2,9.554442E2,1.02063293E3,1.706734E2,6.647873E0,9.224723E2,3.2971916E1,1.8410413E2,8.365288E2,1.6346417E2,7.2092304E0,3.5872216E0,3.060651E0,8.455779E2,7.689437E1,1.9776535E1,1.3195382E1,1.6673555E2,1.7368582E1,3.2814197E2,5.083868E2,4.406697E0,1.5905746E2,3.8488927E0,3.360338E0,7.5724225E2,8.833564E1,1.2390487E1,6.450388E1,1.46006E1,5.1759343E0,3.3735054E0,9.8218775E0,1.5144131E2,1.5294234E1,5.950462E0,1.141812E1,3.0707767E2,2.1064283E1,3.7610598E0,5.0462576E2,5.747934E0,1.5330954E2],"tree_param":{"num_deleted":"0","num_feature":"30","num_nodes":"45","size_leaf_vector":"1"}},{"base_weights":[1.5776193E-2,1.8756187E-2,-1.1899476E-1,2.6316676E-1,1.1624877E-2,6.837697E-1,8.014194E-2,4.730719E-3,2.7846473E-1,1.1131035E0,-2.9134238E-2,-3.6210856E-1,3.6007825E-1,1.2672873E-2,-1.8776006E-1,4.171246E-1,-1.05396375E-1,5.9576932E-2,1.681629E-1,7.057789E-2,-8.731126E-2,-1.0944755E-2,7.7847384E-2,3.2346864E-4,2.4666645E-2,6.97089E-2,-4.1186012E-2,1.7353104E-2,8.296768E-2,-4.152613E-2,6.1869264E-2],"categories":[],"categories_nodes":[],"categories_segments":[],"categories_sizes":[],"default_left":[1,0,0,0,1,0,0,0,0,0,0,1,0,0,0,0,0,0,0,0,0,0,0,0,0,0,0,0,0,0,0],"id":26,"left_children":[1,3,-1,5,7,9,11,13,15,17,-1,19,21,23,25,27,29,-1,-1,-1,-1,-1,-1,-1,-1,-1,-1,-1,-1,-1,-1],"loss_changes":[6.0805774E0,3.7152817E0,0E0,4.5975175E0,3.8139133E0,7.3840094E0,5.483985E0,3.0946498E0,2.8231802E0,1.069457E0,0E0,5.512061E0,3.0843594E0,3.5674298E0,8.20292E0,2.4555154E0,2.0754387E0,0E0,0E0,0E0,0E0,0E0,0E0,0E0,0E0,0E0,0E0,0E0,0E0,0E0,0E0],"parents":[2147483647,0,0,1,1,3,3,4,4,5,5,6,6,7,7,8,8,9,9,11,11,12,12,13,13,14,14,15,15,16,16],"right_children":[2,4,-1,6,8,10,12,14,16,18,-1,20,22,24,26,28,30,-1,-1,-1,-1,-1,-1,-1,-1,-1,-1,-1,-1,-1,-1],"split_conditions":[2.275E0,6.82E-1,-1.1899476E-1,1.288E0,1.295E0,-4.65E-1,5.1E-1,2.11E2,8E0,2.4855642E0,-2.9134238E-2,2.5467627E0,1.656E0,1.82E2,2.459596E0,2.9009008E0,1.55E2,5.9576932E-2,1.681629E-1,7.057789E-2,-8.731126E-2,-1.0944755E-2,7.7847384E-2,3.2346864E-4,2.4666645E-2,6.97089E-2,-4.1186012E-2,1.7353104E-2,8.296768E-2,-4.152613E-2,6.1869264E-2],"split_indices":[4,0,0,3,4,4,0,17,10,14,0,14,3,17,14,14,17,0,0,0,0,0,0,0,0,0,0,0,0,0,0],"split_type":[0,0,0,0,0,0,0,0,0,0,0,0,0,0,0,0,0,0,0,0,0,0,0,0,0,0,0,0,0,0,0],"sum_hessian":[2.13804E3,2.1323398E3,5.7003274E0,5.943478E1,2.072905E3,1.7191547E1,4.2243233E1,2.0216897E3,5.1215282E1,1.1542852E1,5.6486936E0,1.6260672E1,2.5982561E1,1.9424774E3,7.9212296E1,3.7560772E1,1.3654509E1,3.616659E0,7.9261937E0,4.0620503E0,1.2198621E1,9.613288E0,1.6369274E1,1.8406051E3,1.01872314E2,1.1884985E1,6.732731E1,1.783833E1,1.9722445E1,1.0267614E1,3.3868942E0],"tree_param":{"num_deleted":"0","num_feature":"30","num_nodes":"31","size_leaf_vector":"1"}},{"base_weights":[1.9256609E-2,1.7304315E-5,1.188937E-1,2.659232E-2,-1.12420425E-1,-2.9944327E-1,1.6488817E-1,6.806982E-3,2.1504407E-1,4.424242E-1,-1.377868E-1,4.2326218E-1,-5.256835E-1,5.223068E-1,1.2849933E-1,-6.944551E-2,5.3590156E-2,1.2972532E-1,7.3798877E-1,-3.5266474E-2,8.448136E-1,-5.4990155E-1,-8.811546E-2,1.8295199E-1,-7.139817E-2,-1.0277698E0,-3.6738593E-2,1.8562108E-1,9.659331E-1,-3.6273602E-2,2.3202136E-1,-3.980207E-3,-3.289008E-2,9.451211E-3,-5.938282E-2,3.3191986E-2,-3.3721723E-2,4.035052E-2,1.236755E-1,1.6299699E-1,-1.8197822E-3,3.996269E-2,-8.188437E-2,7.956805E-3,-2.9375302E-2,-5.717589E-2,-1.4846903E-1,7.4546255E-2,-3.6705457E-2,-2.5567012E-2,7.843984E-2,1.5423226E-1,4.417553E-2,6.5731597E-3,-4.774952E-2,6.050381E-2,9.887761E-3],"categories":[],"categories_nodes":[],"categories_segments":[],"categories_sizes":[],"default_left":[1,1,1,1,0,0,0,0,1,0,1,0,1,1,0,1,1,0,0,0,1,0,0,0,0,0,0,0,0,0,0,0,0,0,0,0,0,0,0,0,0,0,0,0,0,0,0,0,0,0,0,0,0,0,0,0,0],"id":27,"left_children":[1,3,5,7,9,11,13,15,17,19,21,23,25,27,29,31,33,35,37,-1,39,41,43,-1,-1,45,47,49,51,53,55,-1,-1,-1,-1,-1,-1,-1,-1,-1,-1,-1,-1,-1,-1,-1,-1,-1,-1,-1,-1,-1,-1,-1,-1,-1,-1],"loss_changes":[4.134955E0,5.4081903E0,6.7665415E0,5.45696E0,4.9308076E0,5.934657E0,4.031972E0,4.733577E0,6.1087704E0,4.68346E0,6.740368E0,9.682676E0,6.603453E0,4.121754E0,4.9102964E0,3.6327803E0,8.893841E0,6.324251E0,1.5928898E0,0E0,3.8061757E0,3.077011E0,6.4075623E0,0E0,0E0,5.477781E-1,2.4807262E0,3.0578432E0,1.4371719E0,3.3516364E0,6.6012936E0,0E0,0E0,0E0,0E0,0E0,0E0,0E0,0E0,0E0,0E0,0E0,0E0,0E0,0E0,0E0,0E0,0E0,0E0,0E0,0E0,0E0,0E0,0E0,0E0,0E0,0E0],"parents":[2147483647,0,0,1,1,2,2,3,3,4,4,5,5,6,6,7,7,8,8,9,9,10,10,11,11,12,12,13,13,14,14,15,15,16,16,17,17,18,18,20,20,21,21,22,22,25,25,26,26,27,27,28,28,29,29,30,30],"right_children":[2,4,6,8,10,12,14,16,18,20,22,24,26,28,30,32,34,36,38,-1,40,42,44,-1,-1,46,48,50,52,54,56,-1,-1,-1,-1,-1,-1,-1,-1,-1,-1,-1,-1,-1,-1,-1,-1,-1,-1,-1,-1,-1,-1,-1,-1,-1,-1],"split_conditions":[2E-1,-1.09E-1,4.5E-1,-2.44E-1,4.1428572E-1,2.46E-1,2.555184E0,4E0,3.1052632E0,1.1E-2,4.469914E-1,4.2777777E-1,2E0,8E-3,2.8076923E0,3.142857E0,1.1E1,5.5263156E-1,-2.88E-1,-3.5266474E-2,7E0,-1.21E0,8E0,1.8295199E-1,-7.139817E-2,5E0,-3.95E-1,2.5172415E0,1.1E1,7.275E-1,5.5714285E-1,-3.980207E-3,-3.289008E-2,9.451211E-3,-5.938282E-2,3.3191986E-2,-3.3721723E-2,4.035052E-2,1.236755E-1,1.6299699E-1,-1.8197822E-3,3.996269E-2,-8.188437E-2,7.956805E-3,-2.9375302E-2,-5.717589E-2,-1.4846903E-1,7.4546255E-2,-3.6705457E-2,-2.5567012E-2,7.843984E-2,1.5423226E-1,4.417553E-2,6.5731597E-3,-4.774952E-2,6.050381E-2,9.887761E-3],"split_indices":[5,5,15,5,15,5,14,10,14,5,15,15,10,4,14,14,9,15,4,0,16,4,17,0,0,17,4,14,8,4,15,0,0,0,0,0,0,0,0,0,0,0,0,0,0,0,0,0,0,0,0,0,0,0,0,0,0],"split_type":[0,0,0,0,0,0,0,0,0,0,0,0,0,0,0,0,0,0,0,0,0,0,0,0,0,0,0,0,0,0,0,0,0,0,0,0,0,0,0,0,0,0,0,0,0,0,0,0,0,0,0,0,0,0,0,0,0],"sum_hessian":[2.156052E3,1.8079485E3,3.481035E2,1.4629412E3,3.4500732E2,3.393565E1,3.1416782E2,1.3248796E3,1.3806152E2,1.43646555E1,3.3064267E2,7.883051E0,2.6052597E1,2.7796034E1,2.863718E2,5.0358905E2,8.2129065E2,1.1976917E2,1.8292347E1,5.2630754E0,9.10158E0,3.4481853E1,2.9616083E2,3.6547623E0,4.2282887E0,1.2309864E1,1.3742733E1,1.6609123E1,1.1186911E1,1.1074765E2,1.7562415E2,4.2000122E2,8.3587814E1,7.9069025E2,3.0600403E1,9.015186E1,2.961731E1,7.3822227E0,1.0910124E1,5.7095284E0,3.3920512E0,3.1457627E0,3.133609E1,1.4438495E2,1.5177586E2,3.210032E0,9.099833E0,3.574685E0,1.0168048E1,9.036655E0,7.5724673E0,7.3138437E0,3.8730671E0,8.861237E1,2.2135275E1,6.729866E1,1.08325485E2],"tree_param":{"num_deleted":"0","num_feature":"30","num_nodes":"57","size_leaf_vector":"1"}},{"base_weights":[1.504506E-4,-7.728926E-2,3.2332398E-2,-6.85356E-2,-1.2768015E-1,4.51281E-2,-1.6696385E-1,-1.7376916E-2,-2.1844347E-1,1.7782018E-2,1.8595845E-1,-5.40031E-1,-2.9796835E-2,2.1500845E-1,-6.989566E-2,6.6478455E-1,-2.6236495E-1,-6.0486663E-2,6.5908566E-2,3.1762266E-1,-2.1013368E-3,-9.475512E-2,-8.7228656E-1,2.3623405E-1,-2.4555644E-1,-4.4066153E-2,3.7673853E-2,-1.9763296E-3,-3.5249088E-2,1.3045302E-1,1.4159324E-2,7.845289E-2,-3.7726507E-2,1.7472666E-2,-1.488927E-2,1.1605287E-2,-2.5859037E-2,1.062512E-1,3.374241E-2,5.305958E-2,-2.3218988E-2,5.7806224E-2,-8.6106E-2,-2.5142208E-2,-1.4494236E-1,1.1031916E-1,1.0585306E-3,-1.297824E-1,-1.3772105E-2],"categories":[],"categories_nodes":[],"categories_segments":[],"categories_sizes":[],"default_left":[1,1,1,1,0,0,0,0,0,0,1,0,0,1,1,0,0,0,1,0,0,0,0,0,0,0,0,0,0,0,0,0,0,0,0,0,0,0,0,0,0,0,0,0,0,0,0,0,0],"id":28,"left_children":[1,3,5,7,-1,9,11,13,15,17,19,21,23,25,27,29,31,33,35,37,39,41,43,45,47,-1,-1,-1,-1,-1,-1,-1,-1,-1,-1,-1,-1,-1,-1,-1,-1,-1,-1,-1,-1,-1,-1,-1,-1],"loss_changes":[5.357247E0,5.048711E0,3.8800688E0,4.7989116E0,0E0,5.4951124E0,4.6830244E0,5.72665E0,6.3522496E0,4.5116544E0,5.74636E0,3.5609612E0,3.9726481E0,4.043295E0,4.3034554E0,1.4483783E0,4.764571E0,5.1199265E0,5.0719547E0,3.47921E0,7.3782926E0,4.030377E0,2.2941008E0,4.458167E0,3.9468672E0,0E0,0E0,0E0,0E0,0E0,0E0,0E0,0E0,0E0,0E0,0E0,0E0,0E0,0E0,0E0,0E0,0E0,0E0,0E0,0E0,0E0,0E0,0E0,0E0],"parents":[2147483647,0,0,1,1,2,2,3,3,5,5,6,6,7,7,8,8,9,9,10,10,11,11,12,12,13,13,14,14,15,15,16,16,17,17,18,18,19,19,20,20,21,21,22,22,23,23,24,24],"right_children":[2,4,6,8,-1,10,12,14,16,18,20,22,24,26,28,30,32,34,36,38,40,42,44,46,48,-1,-1,-1,-1,-1,-1,-1,-1,-1,-1,-1,-1,-1,-1,-1,-1,-1,-1,-1,-1,-1,-1,-1,-1],"split_conditions":[5E0,4.09E-1,3.5E0,1.7E1,-1.2768015E-1,3.0952382E0,7E0,-7.2E-2,3E0,7E0,1.234E0,7E0,1E1,6.98E-1,6E0,8E0,5.1E-1,-1.78E-1,2.0325E0,4.2E-1,6E0,1.6E1,-9.2E-2,1.496E0,9E-2,-4.4066153E-2,3.7673853E-2,-1.9763296E-3,-3.5249088E-2,1.3045302E-1,1.4159324E-2,7.845289E-2,-3.7726507E-2,1.7472666E-2,-1.488927E-2,1.1605287E-2,-2.5859037E-2,1.062512E-1,3.374241E-2,5.305958E-2,-2.3218988E-2,5.7806224E-2,-8.6106E-2,-2.5142208E-2,-1.4494236E-1,1.1031916E-1,1.0585306E-3,-1.297824E-1,-1.3772105E-2],"split_indices":[8,5,14,17,0,14,7,5,16,17,3,8,7,0,9,7,0,4,0,4,7,17,4,3,5,0,0,0,0,0,0,0,0,0,0,0,0,0,0,0,0,0,0,0,0,0,0,0,0],"split_type":[0,0,0,0,0,0,0,0,0,0,0,0,0,0,0,0,0,0,0,0,0,0,0,0,0,0,0,0,0,0,0,0,0,0,0,0,0,0,0,0,0,0,0,0,0,0,0,0,0],"sum_hessian":[2.1476367E3,6.300764E2,1.5175603E3,6.2524225E2,4.834177E0,1.4267314E3,9.082892E1,4.6698972E2,1.5825252E2,1.195683E3,2.3104845E2,2.3628107E1,6.720081E1,8.551377E1,3.8147595E2,6.827187E0,1.5142532E2,4.5517334E2,7.4050964E2,1.3549611E2,9.555234E1,1.0645975E1,1.2982132E1,3.0051954E1,3.7148857E1,1.0385415E1,7.512836E1,3.0304172E2,7.843424E1,3.6172652E0,3.2099218E0,5.031773E0,1.4639355E2,1.0087369E2,3.5429965E2,6.774529E2,6.3056744E1,1.107895E1,1.2441715E2,2.8356293E1,6.7196045E1,5.5909023E0,5.055073E0,4.1751704E0,8.806961E0,7.230376E0,2.2821579E1,4.6248693E0,3.252399E1],"tree_param":{"num_deleted":"0","num_feature":"30","num_nodes":"49","size_leaf_vector":"1"}},{"base_weights":[-2.0535858E-2,-9.363111E-2,1.8604057E-2,-1.4543773E-1,4.593269E-2,-4.2221826E-2,6.363727E-2,1.93517E-1,-1.7895588E-1,1.5759714E-1,-2.0812385E-1,-1.7790942E-1,2.4464149E-2,6.0049945E-1,4.8283286E-2,-3.054773E-1,7.368114E-1,-4.5638728E-1,-1.486732E-1,-3.3376247E-1,2.5155783E-1,6.2049246E-1,-3.3961022E-1,-9.842508E-2,-4.339694E-1,1.3971083E-1,-1.20063774E-1,3.805792E-2,9.19322E-1,2.8430998E-1,1.1864119E-2,5.4146886E-2,-7.4005425E-2,4.5903377E-2,1.900306E-1,-7.9863295E-2,1.716907E-2,-2.0228265E-2,9.941214E-2,-6.561816E-3,-8.970319E-2,1.13939464E-1,2.5606005E-2,-1.5529843E-2,1.5766338E-1,-6.0503893E-2,5.7549298E-2,-1.7440781E-2,5.7232454E-2,-1.1345509E-1,-1.6524546E-2,2.201165E-2,-4.9584728E-2,-7.706799E-2,-6.876145E-3,-6.997361E-2,6.307479E-2,1.8432583E-1,5.5371486E-2,3.0237215E-2,1.5578675E-1,3.7479012E-3,-5.739294E-2],"categories":[],"categories_nodes":[],"categories_segments":[],"categories_sizes":[],"default_left":[0,1,0,0,0,0,0,0,0,0,0,0,0,1,0,0,0,1,1,1,0,0,1,0,0,0,0,0,0,1,0,0,0,0,0,0,0,0,0,0,0,0,0,0,0,0,0,0,0,0,0,0,0,0,0,0,0,0,0,0,0,0,0],"id":29,"left_children":[1,3,5,7,9,11,13,15,17,19,21,23,25,27,29,31,33,35,37,39,41,43,45,47,49,51,53,55,57,59,61,-1,-1,-1,-1,-1,-1,-1,-1,-1,-1,-1,-1,-1,-1,-1,-1,-1,-1,-1,-1,-1,-1,-1,-1,-1,-1,-1,-1,-1,-1,-1,-1],"loss_changes":[6.17864E0,5.4517817E0,3.856588E0,6.277114E0,5.8380313E0,5.4255424E0,6.638115E0,1.375987E1,4.1373196E0,6.6732044E0,7.0649543E0,3.9778757E0,6.7223473E0,3.9819984E0,6.765224E0,5.646591E0,6.346904E0,5.028409E0,4.4770727E0,2.4096036E0,3.7178922E0,4.2731338E0,6.1327515E0,3.2857308E0,6.3584366E0,4.0268397E0,5.7114396E0,2.73531E0,3.0235424E0,4.321438E0,5.579916E0,0E0,0E0,0E0,0E0,0E0,0E0,0E0,0E0,0E0,0E0,0E0,0E0,0E0,0E0,0E0,0E0,0E0,0E0,0E0,0E0,0E0,0E0,0E0,0E0,0E0,0E0,0E0,0E0,0E0,0E0,0E0,0E0],"parents":[2147483647,0,0,1,1,2,2,3,3,4,4,5,5,6,6,7,7,8,8,9,9,10,10,11,11,12,12,13,13,14,14,15,15,16,16,17,17,18,18,19,19,20,20,21,21,22,22,23,23,24,24,25,25,26,26,27,27,28,28,29,29,30,30],"right_children":[2,4,6,8,10,12,14,16,18,20,22,24,26,28,30,32,34,36,38,40,42,44,46,48,50,52,54,56,58,60,62,-1,-1,-1,-1,-1,-1,-1,-1,-1,-1,-1,-1,-1,-1,-1,-1,-1,-1,-1,-1,-1,-1,-1,-1,-1,-1,-1,-1,-1,-1,-1,-1],"split_conditions":[2.648E0,4E0,3.8E-1,-4E0,2.555184E0,1.2611111E0,9.47E-1,1.91E-1,-2E0,5E0,4E0,1.1E1,1.734E0,3E0,2.75E0,2.4651685E0,1E1,1.486E0,1.5E1,-4.125E-1,7.45E-1,5.825E-1,1.53E0,1.2E1,-2.7777778E-2,2.86E-1,4E0,5.58E-1,5E0,6.18E-1,2.21E2,5.4146886E-2,-7.4005425E-2,4.5903377E-2,1.900306E-1,-7.9863295E-2,1.716907E-2,-2.0228265E-2,9.941214E-2,-6.561816E-3,-8.970319E-2,1.13939464E-1,2.5606005E-2,-1.5529843E-2,1.5766338E-1,-6.0503893E-2,5.7549298E-2,-1.7440781E-2,5.7232454E-2,-1.1345509E-1,-1.6524546E-2,2.201165E-2,-4.9584728E-2,-7.706799E-2,-6.876145E-3,-6.997361E-2,6.307479E-2,1.8432583E-1,5.5371486E-2,3.0237215E-2,1.5578675E-1,3.7479012E-3,-5.739294E-2],"split_indices":[14,10,5,10,14,3,3,5,10,17,17,8,2,10,14,14,17,3,16,4,2,4,2,10,5,5,17,5,17,4,17,0,0,0,0,0,0,0,0,0,0,0,0,0,0,0,0,0,0,0,0,0,0,0,0,0,0,0,0,0,0,0,0],"split_type":[0,0,0,0,0,0,0,0,0,0,0,0,0,0,0,0,0,0,0,0,0,0,0,0,0,0,0,0,0,0,0,0,0,0,0,0,0,0,0,0,0,0,0,0,0,0,0,0,0,0,0,0,0,0,0,0,0,0,0,0,0,0,0],"sum_hessian":[2.1580435E3,7.520918E2,1.4059517E3,5.484595E2,2.0363234E2,5.981285E2,8.0782324E2,4.8925304E1,4.9953415E2,1.4172166E2,6.1910675E1,1.965452E2,4.0158325E2,2.1401335E1,7.8642194E2,2.573055E1,2.3194756E1,4.7775284E1,4.5175885E2,2.2340698E1,1.1938096E2,7.9693604E0,5.3941315E1,1.5104367E2,4.550153E1,2.2344298E2,1.7814027E2,8.147511E0,1.3253823E1,1.0421498E2,6.822069E2,6.9080377E0,1.8822512E1,1.6484062E1,6.7106934E0,3.6991844E1,1.07834425E1,4.4761374E2,4.145136E0,1.3341927E1,8.998773E0,7.4262466E0,1.1195471E2,3.9875054E0,3.9818552E0,4.6377182E1,7.564131E0,1.41793E2,9.250674E0,1.738712E1,2.811441E1,2.1084871E2,1.2594258E1,2.0334194E1,1.5780609E2,3.4778018E0,4.669709E0,5.37722E0,7.8766036E0,1.00485374E2,3.7296102E0,6.581306E2,2.4076298E1],"tree_param":{"num_deleted":"0","num_feature":"30","num_nodes":"63","size_leaf_vector":"1"}},{"base_weights":[1.7190462E-2,9.752583E-3,2.91943E-1,-1.086077E-1,2.5705844E-2,1.4575954E-1,2.0214081E-1,-6.427184E-2,-6.361259E-1,4.048218E-1,1.6283857E-2,-3.4493795E-1,3.381476E-1,6.381623E-2,-2.5159857E-1,-8.4955144E-1,1.5217721E-2,1.0008553E0,2.2395243E-1,3.2530755E-2,-1.0885833E-1,1.5663719E-2,-8.679807E-2,5.3703827E-1,-6.4813614E-2,3.3689372E-2,-2.7421266E-2,-4.9041033E-2,2.4388373E-2,-1.3718884E-1,-3.1789124E-2,5.92338E-2,2.0258221E-1,-3.921249E-2,8.304267E-2,-7.496947E-5,1.3541293E-2,-1.0707014E-1,-9.130683E-3,1.4533593E-1,4.848116E-2,4.283662E-2,-6.6554114E-2],"categories":[],"categories_nodes":[],"categories_segments":[],"categories_sizes":[],"default_left":[1,0,0,1,0,0,0,0,0,0,0,0,1,1,1,0,0,1,0,0,0,0,0,0,0,0,0,0,0,0,0,0,0,0,0,0,0,0,0,0,0,0,0],"id":30,"left_children":[1,3,5,7,9,-1,11,13,15,17,19,21,23,25,27,29,-1,31,33,35,37,-1,-1,39,41,-1,-1,-1,-1,-1,-1,-1,-1,-1,-1,-1,-1,-1,-1,-1,-1,-1,-1],"loss_changes":[4.3958807E0,3.9619741E0,4.1158986E0,5.7882757E0,6.5964003E0,0E0,4.0242996E0,5.559379E0,3.2002826E0,4.60383E0,3.6728973E0,1.8133552E0,3.4462771E0,7.8068075E0,5.6549354E0,1.8033361E0,0E0,2.4686108E0,8.336407E0,3.9123511E0,5.5814667E0,0E0,0E0,2.265357E0,2.92931E0,0E0,0E0,0E0,0E0,0E0,0E0,0E0,0E0,0E0,0E0,0E0,0E0,0E0,0E0,0E0,0E0,0E0,0E0],"parents":[2147483647,0,0,1,1,2,2,3,3,4,4,6,6,7,7,8,8,9,9,10,10,11,11,12,12,13,13,14,14,15,15,17,17,18,18,19,19,20,20,23,23,24,24],"right_children":[2,4,6,8,10,-1,12,14,16,18,20,22,24,26,28,30,-1,32,34,36,38,-1,-1,40,42,-1,-1,-1,-1,-1,-1,-1,-1,-1,-1,-1,-1,-1,-1,-1,-1,-1,-1],"split_conditions":[4.05E0,-2.325E-1,-8E-2,9E0,-1.9666667E-1,1.4575954E-1,7.5438595E-1,-3.9E-1,1.6766666E0,2.5384614E0,3.31875E0,1E1,6E0,5.416667E-1,2.992248E0,1.4E1,1.5217721E-2,6E0,2.8529413E0,2.9056604E0,-4E-2,1.5663719E-2,-8.679807E-2,8.181818E-1,8E0,3.3689372E-2,-2.7421266E-2,-4.9041033E-2,2.4388373E-2,-1.3718884E-1,-3.1789124E-2,5.92338E-2,2.0258221E-1,-3.921249E-2,8.304267E-2,-7.496947E-5,1.3541293E-2,-1.0707014E-1,-9.130683E-3,1.4533593E-1,4.848116E-2,4.283662E-2,-6.6554114E-2],"split_indices":[14,5,5,16,5,0,15,5,1,14,14,9,9,15,14,16,0,16,14,14,5,0,0,15,7,0,0,0,0,0,0,0,0,0,0,0,0,0,0,0,0,0,0],"split_type":[0,0,0,0,0,0,0,0,0,0,0,0,0,0,0,0,0,0,0,0,0,0,0,0,0,0,0,0,0,0,0,0,0,0,0,0,0,0,0,0,0,0,0],"sum_hessian":[2.1514656E3,2.0957664E3,5.56994E1,2.4823746E2,1.8475288E3,4.181632E0,5.151777E1,2.3002646E2,1.8210997E1,4.3784637E1,1.8037441E3,9.951661E0,4.156611E1,1.3700568E2,9.302079E1,1.4103898E1,4.107098E0,9.137968E0,3.4646667E1,1.5971324E3,2.0661166E2,4.434328E0,5.5173326E0,2.7607212E1,1.3958896E1,7.970751E1,5.729816E1,7.1542046E1,2.1478748E1,9.630255E0,4.473643E0,5.735735E0,3.4022331E0,1.558552E1,1.9061148E1,1.1036091E3,4.9352335E2,8.90723E0,1.9770444E2,4.3587675E0,2.3248444E1,7.581996E0,6.3769E0],"tree_param":{"num_deleted":"0","num_feature":"30","num_nodes":"43","size_leaf_vector":"1"}},{"base_weights":[-3.6943305E-2,-4.2290837E-2,4.6238464E-1,-4.6059184E-2,5.0388825E-1,7.778771E-1,4.7882766E-2,-5.097487E-2,3.17546E-1,9.000959E-2,1.3707677E-1,2.9500785E-1,1.6131666E-1,-3.1729344E-1,7.617036E-2,-3.4472805E-2,-1.7671633E-1,4.4116038E-1,-3.152808E-2,4.7175992E-2,-4.403624E-2,7.5805485E-2,-9.690973E-3,3.9859305E-4,-7.1205825E-2,3.27006E-2,-5.359169E-3,9.68291E-2,-2.5695289E-2,2.7402716E-2,1.1069791E-1],"categories":[],"categories_nodes":[],"categories_segments":[],"categories_sizes":[],"default_left":[1,1,0,1,0,0,0,1,1,0,0,0,0,0,0,0,0,0,0,0,0,0,0,0,0,0,0,0,0,0,0],"id":31,"left_children":[1,3,5,7,9,11,13,15,17,19,-1,21,-1,23,-1,25,27,29,-1,-1,-1,-1,-1,-1,-1,-1,-1,-1,-1,-1,-1],"loss_changes":[5.7245493E0,4.3759613E0,2.9342637E0,3.771922E0,3.3633757E0,2.664362E0,2.3798823E0,4.2976494E0,2.0779035E0,1.2990721E0,0E0,9.13153E-1,0E0,5.6107825E-1,0E0,4.104847E0,5.8502564E0,2.0859537E0,0E0,0E0,0E0,0E0,0E0,0E0,0E0,0E0,0E0,0E0,0E0,0E0,0E0],"parents":[2147483647,0,0,1,1,2,2,3,3,4,4,5,5,6,6,7,7,8,8,9,9,11,11,13,13,15,15,16,16,17,17],"right_children":[2,4,6,8,10,12,14,16,18,20,-1,22,-1,24,-1,26,28,30,-1,-1,-1,-1,-1,-1,-1,-1,-1,-1,-1,-1,-1],"split_conditions":[1.2E1,4.74E0,1.1E1,2.425E0,5.826772E-1,8E0,5.735294E-1,1.7275E0,-1.366E0,2.725E-1,1.3707677E-1,7E0,1.6131666E-1,2.32E0,7.617036E-2,1.86E0,4.0625E-1,2.3E-1,-3.152808E-2,4.7175992E-2,-4.403624E-2,7.5805485E-2,-9.690973E-3,3.9859305E-4,-7.1205825E-2,3.27006E-2,-5.359169E-3,9.68291E-2,-2.5695289E-2,2.7402716E-2,1.1069791E-1],"split_indices":[10,6,8,3,15,8,15,2,4,5,0,8,0,0,0,6,15,5,0,0,0,0,0,0,0,0,0,0,0,0,0],"split_type":[0,0,0,0,0,0,0,0,0,0,0,0,0,0,0,0,0,0,0,0,0,0,0,0,0,0,0,0,0,0,0],"sum_hessian":[2.135564E3,2.1138413E3,2.1722797E1,2.100266E3,1.3575061E1,1.1836757E1,9.886041E0,2.073099E3,2.7167017E1,8.557649E0,5.0174117E0,6.7698636E0,5.0668926E0,6.200033E0,3.6860073E0,1.8337196E3,2.3937961E2,2.2473204E1,4.6938133E0,5.2969522E0,3.2606966E0,3.4046888E0,3.3651745E0,3.0956435E0,3.1043897E0,4.6081E1,1.7876385E3,5.51612E0,2.3386348E2,1.570891E1,6.764293E0],"tree_param":{"num_deleted":"0","num_feature":"30","num_nodes":"31","size_leaf_vector":"1"}},{"base_weights":[9.979099E-3,-9.448844E-2,4.431847E-2,2.6494514E-2,-1.7160891E-1,1.2764418E-2,1.6230348E-1,-3.2179628E-2,5.80526E-1,3.0021977E-1,-2.0119113E-1,4.0450323E-2,-1.01746105E-1,-1.2963481E-1,2.346397E-1,-5.5316806E-2,1.1696445E-1,7.6843685E-1,-2.296886E-2,-1.39169125E-2,1.8110394E-1,1.8151346E-1,-2.2669439E-1,-3.4181714E-2,1.3578247E-1,-3.3078775E-1,6.835657E-2,-6.4448327E-1,-7.328178E-3,3.9217353E-1,8.340551E-2,-2.9112114E-2,7.761948E-3,3.5986222E-2,1.4829063E-1,1.008176E-1,-4.535457E-2,-1.6940385E-2,5.082203E-2,-7.700848E-2,-2.4856303E-2,-8.354389E-3,2.755977E-2,-2.4533259E-2,2.4026934E-2,-5.4526743E-2,1.5771111E-2,2.0261569E-2,-3.8078107E-2,-1.21437654E-1,-2.1281345E-2,5.1386856E-2,-2.483168E-2,1.3239688E-1,3.9177243E-2,1.460669E-2,-1.05054855E-1],"categories":[],"categories_nodes":[],"categories_segments":[],"categories_sizes":[],"default_left":[0,0,1,0,0,1,0,0,0,0,1,1,0,1,0,1,0,0,0,0,0,0,0,1,0,1,1,0,0,0,0,0,0,0,0,0,0,0,0,0,0,0,0,0,0,0,0,0,0,0,0,0,0,0,0,0,0],"id":32,"left_children":[1,3,5,7,9,11,13,15,17,19,21,23,25,27,29,31,-1,33,-1,35,-1,37,39,41,43,45,47,49,51,53,55,-1,-1,-1,-1,-1,-1,-1,-1,-1,-1,-1,-1,-1,-1,-1,-1,-1,-1,-1,-1,-1,-1,-1,-1,-1,-1],"loss_changes":[7.6826468E0,4.948078E0,5.997719E0,6.751895E0,4.5786514E0,4.0387206E0,7.2098894E0,4.195472E0,2.9829803E0,6.901147E0,3.0200596E0,7.3012533E0,9.6873665E0,4.2869453E0,6.4670706E0,3.742759E0,0E0,2.7833748E0,0E0,4.766233E0,0E0,1.3992913E0,3.2788248E0,4.5639114E0,7.8963747E0,4.7642107E0,4.833683E0,1.7746334E0,4.4120746E0,6.9629173E0,4.106741E0,0E0,0E0,0E0,0E0,0E0,0E0,0E0,0E0,0E0,0E0,0E0,0E0,0E0,0E0,0E0,0E0,0E0,0E0,0E0,0E0,0E0,0E0,0E0,0E0,0E0,0E0],"parents":[2147483647,0,0,1,1,2,2,3,3,4,4,5,5,6,6,7,7,8,8,9,9,10,10,11,11,12,12,13,13,14,14,15,15,17,17,19,19,21,21,22,22,23,23,24,24,25,25,26,26,27,27,28,28,29,29,30,30],"right_children":[2,4,6,8,10,12,14,16,18,20,22,24,26,28,30,32,-1,34,-1,36,-1,38,40,42,44,46,48,50,52,54,56,-1,-1,-1,-1,-1,-1,-1,-1,-1,-1,-1,-1,-1,-1,-1,-1,-1,-1,-1,-1,-1,-1,-1,-1,-1,-1],"split_conditions":[2.994E0,2.2853334E0,1.132E0,2.08E-1,3E0,6.1904764E-1,1.4E1,2.37E2,1.1E1,2.872E0,2.4444444E0,8E0,7.105263E-1,3.02E0,8E0,2.6078432E0,1.1696445E-1,3E0,-2.296886E-2,-5.26E-1,1.8110394E-1,1.2E1,4.469914E-1,3.1052632E0,1.58E0,5E0,1.6E1,2.6619217E0,4E0,3.097E0,2.7E0,-2.9112114E-2,7.761948E-3,3.5986222E-2,1.4829063E-1,1.008176E-1,-4.535457E-2,-1.6940385E-2,5.082203E-2,-7.700848E-2,-2.4856303E-2,-8.354389E-3,2.755977E-2,-2.4533259E-2,2.4026934E-2,-5.4526743E-2,1.5771111E-2,2.0261569E-2,-3.8078107E-2,